{
  "conv1.weight": [
    [
      [
        [
          -0.2053262018520399,
          -0.16123963614467904,
          -0.14214473199834787
        ],
        [
          -0.15708136477210738,
          -0.03776041503717083,
          -0.18829133218738794
        ],
        [
          -0.039537014836436485,
          0.03661612941432982,
          0.006627748314560516
        ]
      ],
      [
        [
          0.004677866189204019,
          -0.010708562374331846,
          -0.07932533455338717
        ],
        [
          0.09840750368884066,
          -0.06623684965578785,
          -0.17841383781606257
        ],
        [
          -0.15189056447008084,
          0.019409741383405104,
          -0.14787642648682003
        ]
      ],
      [
        [
          0.053467107034903545,
          0.10858949306868895,
          0.1784481636157656
        ],
        [
          0.26190090988089093,
          0.1784737956756672,
          0.15522654912350425
        ],
        [
          0.1833029594881725,
          -0.12256641354922233,
          -0.13015514783509816
        ]
      ]
    ],
    [
      [
        [
          0.22444785978199364,
          0.17536925002819906,
          0.012687339553941118
        ],
        [
          0.013627466121442413,
          0.022325444296482498,
          0.13122259901778288
        ],
        [
          0.23689687882196903,
          0.24638400212622882,
          -0.08284637975396351
        ]
      ],
      [
        [
          0.13941448078551555,
          -0.10197709161021623,
          -0.05384901225071091
        ],
        [
          -0.15865479005668742,
          -0.19569898214199874,
          -0.16572010245244936
        ],
        [
          -0.10331894145090913,
          -0.06384124192147342,
          -0.06722957653786778
        ]
      ],
      [
        [
          -0.10487862031830912,
          0.1079881462493649,
          -0.06210922736165255
        ],
        [
          -0.11848902204030383,
          -0.13075121321333233,
          0.04277138190166511
        ],
        [
          -0.12806635577280487,
          -0.05555896211072606,
          0.1433812960610118
        ]
      ]
    ],
    [
      [
        [
          0.12201650177346864,
          -0.07207753249897059,
          0.08790809672946157
        ],
        [
          0.030772635593887612,
          0.17669509746763631,
          -0.22421483387102162
        ],
        [
          0.07058968391140823,
          0.22902275713648673,
          -0.2226002544311607
        ]
      ],
      [
        [
          -0.05079861614645235,
          -0.05689944847937977,
          -0.012952063651290516
        ],
        [
          0.031204343811095495,
          0.030268434890267305,
          -0.05560509384118252
        ],
        [
          -0.03745677186191242,
          -0.0818210333929707,
          -0.05975937762891727
        ]
      ],
      [
        [
          -0.03763101272970055,
          0.044400246090738074,
          -0.02972965031447307
        ],
        [
          0.11797891635356728,
          0.05592085070137748,
          -0.15858964026528327
        ],
        [
          0.12418582094679387,
          0.18766391192707252,
          -0.24648446210202063
        ]
      ]
    ],
    [
      [
        [
          -0.049561027472018356,
          0.20483930506905737,
          0.03498574660338617
        ],
        [
          0.16268520185259372,
          0.14179381661147478,
          0.11043266250179429
        ],
        [
          0.22103037014256327,
          0.11694941784516484,
          -0.08799489078316036
        ]
      ],
      [
        [
          0.22380294931304529,
          0.065332139808146,
          -0.012920526196249851
        ],
        [
          0.05949494837079545,
          0.18327445055507385,
          -0.0037593908045832516
        ],
        [
          -0.11826900280728657,
          0.18339621370455808,
          0.157140444848984
        ]
      ],
      [
        [
          0.22029205993465953,
          0.25665035035217587,
          0.004292653813075307
        ],
        [
          0.03628261308088878,
          0.1478940587173204,
          0.11016285914362871
        ],
        [
          0.10425719573253626,
          0.021457341745272664,
          0.019630855597956055
        ]
      ]
    ],
    [
      [
        [
          0.14672435908992076,
          0.00530043176272194,
          0.13921953434665257
        ],
        [
          0.14927199422767207,
          0.20366398697724566,
          -0.215466450433424
        ],
        [
          -0.14112577465671022,
          -0.1192008589700378,
          0.13784471317840177
        ]
      ],
      [
        [
          -0.13647906017153433,
          -0.1576578833036338,
          -0.08381136768379135
        ],
        [
          0.06273063377704184,
          0.07429156913358345,
          0.08977433782622328
        ],
        [
          -0.15615256086104787,
          -0.09048371044672551,
          -0.0525225318306176
        ]
      ],
      [
        [
          -0.12892311049112218,
          0.026739262494499993,
          -0.07251360525997272
        ],
        [
          0.15609680632459846,
          0.13258896609052745,
          0.08863265403522212
        ],
        [
          0.20717983622989425,
          -0.06974209500680006,
          0.09833308711124412
        ]
      ]
    ],
    [
      [
        [
          -0.12147463649913304,
          0.11238510187234282,
          -0.10652892446924676
        ],
        [
          -0.01442373065324841,
          -0.21350569125579566,
          -0.15292480016458646
        ],
        [
          -0.07995959829252976,
          0.029064783694434652,
          0.0034885148642306435
        ]
      ],
      [
        [
          -0.1175639517649998,
          -0.23308133335296083,
          -0.184610886219365
        ],
        [
          -0.16785794127657772,
          -0.16326560342163163,
          0.01453000330133321
        ],
        [
          -0.11746188119581355,
          0.11500405039631051,
          -0.04798579669695204
        ]
      ],
      [
        [
          -0.08072439532349186,
          0.006936043221048572,
          -0.12530831065830494
        ],
        [
          -0.15186636536076722,
          -0.03496261897705605,
          -0.015908313722358104
        ],
        [
          -0.13834187753684307,
          -0.16866305695101638,
          -0.11974026949365557
        ]
      ]
    ],
    [
      [
        [
          0.11242230833011639,
          0.08345576943091317,
          -0.17973358840163295
        ],
        [
          -0.20249348308308904,
          -0.10191317476479067,
          -0.16406899940029568
        ],
        [
          0.07318301276287043,
          -0.18162365981144504,
          0.2833792129181348
        ]
      ],
      [
        [
          0.1528373901967237,
          -0.06067630702174996,
          -0.005151886168711704
        ],
        [
          -0.0495916985435878,
          -0.0571829052758919,
          0.066709993905261
        ],
        [
          0.034619037900912725,
          0.16566464727268046,
          0.27815090908576817
        ]
      ],
      [
        [
          0.10175621697268136,
          -0.04924302913428485,
          0.014506440053798832
        ],
        [
          -0.10284474953024125,
          -0.20066693946164152,
          -0.1341306739464969
        ],
        [
          -0.13452599788066372,
          0.04724651830472312,
          0.08532998933362705
        ]
      ]
    ],
    [
      [
        [
          -0.20143819327917195,
          -0.12373836484981955,
          -0.1789910935690824
        ],
        [
          -0.025102126827222963,
          -0.03782505519089996,
          -0.12873391834901088
        ],
        [
          0.19739103853487486,
          0.15152817458461976,
          0.29935798479423553
        ]
      ],
      [
        [
          -0.14701422769289374,
          0.005343633169841325,
          0.13918446446076285
        ],
        [
          -0.20663884372475586,
          -0.1748103721464539,
          0.09759336431926408
        ],
        [
          0.12973232547629157,
          -0.052678213162165165,
          0.04844122813585907
        ]
      ],
      [
        [
          -0.004104477427399215,
          0.11905817601627844,
          0.00916674095021367
        ],
        [
          0.05660786842021687,
          0.05939310040761564,
          -0.1540119519676703
        ],
        [
          0.07162161691354457,
          0.028368584575443664,
          -0.004292765651671983
        ]
      ]
    ],
    [
      [
        [
          -0.25786685573402485,
          -0.04111726271491367,
          0.20059704073851387
        ],
        [
          0.09746147748968978,
          0.1596481729791263,
          -0.1359412621895828
        ],
        [
          -0.016876698725878856,
          0.13890360572184712,
          -0.22841785258671984
        ]
      ],
      [
        [
          -0.15233917515113474,
          0.1502622594104424,
          0.1532683229148313
        ],
        [
          -0.18274352242057945,
          -0.07800531641665184,
          0.14255749081065916
        ],
        [
          0.21730411149020787,
          0.007963529630347306,
          -0.1971938081456881
        ]
      ],
      [
        [
          -0.2475599934693394,
          0.1638929779646085,
          0.13472104044784103
        ],
        [
          -0.007601497348013824,
          -0.10462241643274477,
          0.003005169021395104
        ],
        [
          0.10696916555391828,
          0.05630656401167372,
          -0.0644370900299895
        ]
      ]
    ],
    [
      [
        [
          0.18144342433130478,
          0.15771618643649865,
          -0.05012229881899998
        ],
        [
          0.03004371845016059,
          0.08248507880641236,
          0.03334885076300397
        ],
        [
          -0.036323483876996396,
          0.11476594469935268,
          -0.08302519874702889
        ]
      ],
      [
        [
          -0.06546759561655636,
          -0.03499465394239725,
          -0.11159186134844712
        ],
        [
          0.03944207264452655,
          -0.19107576463586587,
          -0.20590277159116044
        ],
        [
          0.16743987623934978,
          0.0654891279893889,
          -0.28134800632642376
        ]
      ],
      [
        [
          0.15413555938686924,
          0.004126864517844646,
          -0.021739931620966574
        ],
        [
          0.025318985461222618,
          0.14477269250632857,
          0.011252921958073769
        ],
        [
          -0.01615606194764927,
          -0.026990223706091814,
          -0.1372985938594354
        ]
      ]
    ],
    [
      [
        [
          -0.1149072676719724,
          -0.19009385845844387,
          0.046440487347257024
        ],
        [
          -0.10818341676419364,
          -0.031697969249526704,
          -0.17490034571441665
        ],
        [
          0.18737131053409398,
          0.26503697112584745,
          -0.07985437546214731
        ]
      ],
      [
        [
          -0.03685244476847577,
          -0.1448675058063754,
          -0.25007458754945133
        ],
        [
          -0.12560700843502376,
          -0.06905605820548708,
          0.0354193086829326
        ],
        [
          0.18041326733304422,
          0.1521079830745984,
          0.09794314938869306
        ]
      ],
      [
        [
          -0.06329447502192646,
          -0.03704612409399793,
          0.09937735774553239
        ],
        [
          0.07623160136081736,
          -0.20561580266949664,
          0.020617041876787427
        ],
        [
          0.15138526902809568,
          0.101565537792803,
          0.15548312558493302
        ]
      ]
    ],
    [
      [
        [
          -0.20699974246521258,
          0.12188570652301058,
          0.1912026262092426
        ],
        [
          0.11142847142391632,
          0.21489310161535002,
          0.15278722983884763
        ],
        [
          -0.028824093167527844,
          0.07061574973806943,
          -0.18342308926369333
        ]
      ],
      [
        [
          0.059366979021971564,
          0.1253970079062645,
          -0.006707914441436674
        ],
        [
          0.011175254562842563,
          0.07420198161227114,
          0.16939371259661418
        ],
        [
          0.03745971244531303,
          -0.1579512830963839,
          -0.18163659407820565
        ]
      ],
      [
        [
          -0.20651801859070554,
          -0.11157078384490961,
          0.01875178047914759
        ],
        [
          0.2108540126757699,
          -0.01940915640771337,
          0.12216401122316242
        ],
        [
          0.2333942476552536,
          0.07222508499713957,
          0.13132508636589071
        ]
      ]
    ],
    [
      [
        [
          -0.04252822587359939,
          -0.13452369798936306,
          0.032091227534004944
        ],
        [
          -0.017422119799085586,
          -0.12149774040795969,
          0.07314963989892456
        ],
        [
          -0.2093324041459913,
          -0.15588389815455705,
          0.0934287618244872
        ]
      ],
      [
        [
          -0.03199095211557135,
          -0.1413449870472498,
          0.007604749546404144
        ],
        [
          -0.08659103157423757,
          0.11324883799436068,
          0.17675935338725537
        ],
        [
          0.06411854566284128,
          0.11506746354011638,
          -0.1230941908766096
        ]
      ],
      [
        [
          -0.03286683446948277,
          -0.10206974021250853,
          -0.12672825874046764
        ],
        [
          0.20711026453772702,
          0.20193417391576376,
          0.16534523836696247
        ],
        [
          0.0885165961198872,
          0.1709042602360281,
          0.026799324688051872
        ]
      ]
    ],
    [
      [
        [
          0.056735955144739246,
          0.21644538660727367,
          0.06167027958646108
        ],
        [
          0.1420216731892825,
          -0.1932605640857582,
          -0.07028114390562518
        ],
        [
          0.04362414096608095,
          -0.22345186079306129,
          -0.04019738562159874
        ]
      ],
      [
        [
          0.205893923347354,
          0.23918268770928458,
          0.23309655886787475
        ],
        [
          -0.1855789241008034,
          -0.159482712106951,
          0.05995685105400882
        ],
        [
          -0.034250163130016636,
          -0.12775585083510074,
          -0.19860453654760307
        ]
      ],
      [
        [
          0.009922848087671245,
          0.10163625615529612,
          0.1818513036534881
        ],
        [
          0.0036843678166097607,
          -0.18427058002803318,
          -0.08390480336165615
        ],
        [
          0.08466474368001273,
          -0.16811049589065694,
          0.04987883942900005
        ]
      ]
    ],
    [
      [
        [
          -0.18783802254422916,
          -0.07627505600332826,
          -0.2090879177627858
        ],
        [
          -0.19759682039415663,
          -0.20535601469770876,
          0.01563265522975196
        ],
        [
          -0.09127773053203053,
          0.1342423963605917,
          -0.10063032886541771
        ]
      ],
      [
        [
          0.18059905748014732,
          0.08762305080841216,
          0.008720666044047214
        ],
        [
          -0.14079142976836653,
          0.06505310436058183,
          0.20765836162273119
        ],
        [
          -0.0026278054464154202,
          -0.0582897641896001,
          -0.13964495319658474
        ]
      ],
      [
        [
          -0.02545084272948694,
          0.1571067305559132,
          0.17607723586467228
        ],
        [
          0.1743038317398501,
          0.24263170351242982,
          0.07282882813530961
        ],
        [
          -0.12320544325608482,
          0.14811787028519102,
          -0.06788009386198465
        ]
      ]
    ],
    [
      [
        [
          0.07304088261198244,
          -0.07485508932847285,
          0.07595593770957634
        ],
        [
          0.18344951109247595,
          0.05536339492730821,
          -0.1996861953884797
        ],
        [
          0.22530423367183983,
          0.04214354116254769,
          -0.22860934517173453
        ]
      ],
      [
        [
          -0.032227615698174755,
          -0.10875523871992915,
          -0.1671695596596502
        ],
        [
          -0.03710546376118781,
          0.0012230715494365562,
          -0.2649993330729034
        ],
        [
          0.17925681576925584,
          0.10159879817125773,
          -0.02291110964287674
        ]
      ],
      [
        [
          0.09995201218406106,
          -0.19624367345369664,
          -0.25527649444062883
        ],
        [
          0.21289384372025424,
          0.12304133485402602,
          -0.04948370486450392
        ],
        [
          0.11940691066860463,
          0.053396030280942745,
          0.051570632218222376
        ]
      ]
    ]
  ],
  "conv1.bias": [
    -0.06690718653175962,
    0.12748559901787285,
    0.15091858175197514,
    -0.06456670250690179,
    0.24538088428702656,
    0.19207276115363792,
    0.21065894152672057,
    -0.01023787679665311,
    0.07807942007017211,
    -0.06713762395849672,
    -0.13201284861209556,
    -0.021317248832636713,
    -0.18399765672332175,
    -0.1007799826637179,
    0.029014284757765973,
    -0.004392524829843435
  ],
  "res1_conv1.weight": [
    [
      [
        [
          -0.07459252118970798,
          -0.06120213389266891,
          -0.015605090568748665
        ],
        [
          0.047085499470600846,
          -0.0645212985178615,
          0.005657548087034239
        ],
        [
          -0.036757823656543134,
          0.037398552625950925,
          -0.03465389361505274
        ]
      ],
      [
        [
          0.12317777525643925,
          0.06542673428944211,
          -0.0386662460891365
        ],
        [
          0.05310628358748961,
          -0.03151891043270067,
          0.025440399836052462
        ],
        [
          -0.0343460209497619,
          0.0019457604240786415,
          -0.05964814664265818
        ]
      ],
      [
        [
          0.08979458060094135,
          -0.05390894686029323,
          0.09283532781407364
        ],
        [
          -0.13358788487733786,
          -0.08015710314899618,
          0.0273967442435892
        ],
        [
          0.010520263746380456,
          -0.11464425582227968,
          0.02906343777915267
        ]
      ],
      [
        [
          -0.008783195903246131,
          -0.06075107374312952,
          0.038294732322228985
        ],
        [
          0.05862897923413791,
          -0.04980699991009436,
          0.022114065368583208
        ],
        [
          -0.06254958399979599,
          0.05876365151660376,
          0.01180586460444447
        ]
      ],
      [
        [
          0.042413539480540774,
          0.08497097279399493,
          -0.03137827147269094
        ],
        [
          -0.012433637980891596,
          0.0006161539086453106,
          0.10317263163528437
        ],
        [
          0.00820206497136804,
          0.08552922174850286,
          0.020228449687718482
        ]
      ],
      [
        [
          0.03551556732714105,
          0.018948414069446067,
          0.0379558690146527
        ],
        [
          0.04376226632113664,
          -0.028440131737327044,
          0.048901509037241234
        ],
        [
          0.0376013979922467,
          -0.05662954492067297,
          0.018837513877433463
        ]
      ],
      [
        [
          0.08040059428747405,
          0.11498376982607447,
          0.0029999543737905506
        ],
        [
          -0.05164723543741406,
          0.09564656395091442,
          -0.04521519530053865
        ],
        [
          -0.02119485069648267,
          -0.060718814338372264,
          -0.0999392160652961
        ]
      ],
      [
        [
          0.03125678925027618,
          0.05877217636244864,
          0.057610030292643916
        ],
        [
          -0.05022006101265062,
          0.028108886290030378,
          0.12704047912357164
        ],
        [
          0.059757340410394294,
          0.053985145866504144,
          -0.02327769718734362
        ]
      ],
      [
        [
          0.05505642359646271,
          -0.049273231017746125,
          0.0938623347814158
        ],
        [
          -0.03309757804737809,
          0.03875514350200593,
          -0.021864113272012084
        ],
        [
          0.009582341959072146,
          0.04236481055270521,
          -0.1042936708696365
        ]
      ],
      [
        [
          0.04335508785425717,
          -0.024300524662052677,
          -0.10544196257715728
        ],
        [
          -0.1190032974438894,
          -0.027508650334049613,
          -0.11364825022003645
        ],
        [
          -0.0857658315687379,
          -0.07027916099806551,
          -0.009992520681434476
        ]
      ],
      [
        [
          0.06333297826295005,
          0.11602045627033375,
          0.08477315788365333
        ],
        [
          -0.023622422404635333,
          0.099462348056077,
          0.10112004639155045
        ],
        [
          0.07373069541933781,
          -0.03744265282592313,
          0.0746875733881564
        ]
      ],
      [
        [
          -0.024531447969911774,
          -0.08163444978804708,
          -0.07322363309778893
        ],
        [
          0.04270539448317101,
          0.09697892104007272,
          -0.06253312431104284
        ],
        [
          0.08398293366111233,
          0.037247613250979035,
          -0.0815526415032154
        ]
      ],
      [
        [
          -0.09901639317970419,
          -0.11151546162018446,
          -0.062331083321043264
        ],
        [
          0.04608258012679597,
          0.0854809785068226,
          -0.06635475379467044
        ],
        [
          0.03586509451288329,
          0.04093935576013218,
          -0.06503186226562226
        ]
      ],
      [
        [
          0.07348332122781016,
          -0.024356486830975348,
          0.026066850664302293
        ],
        [
          0.10000768213476476,
          0.10849334337304097,
          -0.025023150341200607
        ],
        [
          0.09140033594095721,
          0.06314073701612512,
          0.03269631829986158
        ]
      ],
      [
        [
          0.005857521984183201,
          0.019458450413585734,
          -0.02715346878686664
        ],
        [
          0.027131162545751073,
          0.0003047895844930205,
          0.015925287461995334
        ],
        [
          -0.012109422406846954,
          -0.040512211817828984,
          -0.03493228030782636
        ]
      ],
      [
        [
          -0.06229348976504298,
          0.06247412470268626,
          -0.06806107118515554
        ],
        [
          -0.08538078098750986,
          -0.08215349134448326,
          0.04546654962110116
        ],
        [
          -0.07714519469509189,
          -0.127564433892321,
          0.010255178147065492
        ]
      ]
    ],
    [
      [
        [
          0.0772343085335839,
          0.06590659732188689,
          0.06476086626487415
        ],
        [
          0.03364214933845666,
          0.11491957079731581,
          0.014703800831074434
        ],
        [
          0.024606879106538672,
          -0.044092418207817126,
          0.014435050463839095
        ]
      ],
      [
        [
          0.09768443430017698,
          0.12096816420430809,
          0.04641488192897583
        ],
        [
          -0.011447875173671736,
          0.09818641774572663,
          0.08571500109449715
        ],
        [
          -0.01922935613676507,
          0.046859325744923234,
          0.0281263890114244
        ]
      ],
      [
        [
          -0.02692010819195198,
          -0.01360223470488418,
          0.07152194605316176
        ],
        [
          -0.10693658925830897,
          -0.010316671039166994,
          0.06977348476069259
        ],
        [
          -0.03340066448015384,
          0.04426655675779762,
          -0.10010963142327431
        ]
      ],
      [
        [
          0.044667004061941365,
          0.004042031892260661,
          0.0033889010682364097
        ],
        [
          0.008876897009637095,
          0.03268806800412608,
          0.026983985659272312
        ],
        [
          -0.007392712889606811,
          0.010641549056637587,
          0.017084392929078648
        ]
      ],
      [
        [
          -0.06826163733574275,
          0.0718926282106998,
          -0.06928071339874733
        ],
        [
          -0.0008813295296705611,
          0.11114836326299285,
          0.011610863964836805
        ],
        [
          0.0759222846684996,
          0.08216574251078083,
          0.02745602438736077
        ]
      ],
      [
        [
          0.02162049289631881,
          -0.043540224206937324,
          0.03449665022093124
        ],
        [
          -0.0989072928200657,
          0.037788316805780424,
          -0.05231516236844332
        ],
        [
          0.04135543940635276,
          0.08520164699540954,
          0.032117726764928974
        ]
      ],
      [
        [
          0.04189554701081371,
          -0.08734316657552556,
          -0.05860792901920594
        ],
        [
          -0.04670334279436784,
          -0.07718474519792086,
          -0.060370619382776
        ],
        [
          0.010482765774088625,
          -0.060752480878668955,
          0.012004956248518744
        ]
      ],
      [
        [
          0.13720631552481005,
          0.05152970238463562,
          0.10728020719826448
        ],
        [
          -0.08829636081686316,
          -0.05142422526323774,
          -0.04649309878200578
        ],
        [
          0.012588093262943526,
          -0.07001615598247164,
          0.04647999782821911
        ]
      ],
      [
        [
          0.055506765771284126,
          0.06616036924911663,
          0.036568437738903364
        ],
        [
          0.03779485923095639,
          -0.08204261469740423,
          -0.006300127770411606
        ],
        [
          0.027661692750828987,
          -0.0026044169426074834,
          0.02897204169220217
        ]
      ],
      [
        [
          0.04219769913130919,
          -0.007768396923287107,
          -0.09616845058774184
        ],
        [
          0.016925999690884534,
          0.07530036236189237,
          0.0067907792942695396
        ],
        [
          0.08243625965858287,
          -0.0024310315820880233,
          -0.11600410979226833
        ]
      ],
      [
        [
          0.10797300490495611,
          0.06643655888507322,
          0.0495264518758537
        ],
        [
          0.013526839416719151,
          -0.052213048074254684,
          0.08527134504454117
        ],
        [
          -0.06765549383295151,
          -0.03798768914971621,
          0.030772772108649232
        ]
      ],
      [
        [
          0.07198786532299849,
          0.05071643207037584,
          -0.08846718222737819
        ],
        [
          -0.005781907747578979,
          -0.05605938876402373,
          0.0039755013711912585
        ],
        [
          -0.013494116170760812,
          -0.03961563389332016,
          -0.07941893595927904
        ]
      ],
      [
        [
          0.00018361473116046474,
          -0.03471501581369047,
          -0.06862307215533255
        ],
        [
          0.059230699911414726,
          -0.0012880330888331642,
          -0.032323496860440684
        ],
        [
          -0.11216242163209547,
          -0.11156931903535804,
          0.049463240940893966
        ]
      ],
      [
        [
          -0.009921727367534112,
          0.06419122189253072,
          0.14221879400754756
        ],
        [
          0.03894440293617928,
          0.08709321812996298,
          0.08334757562976688
        ],
        [
          0.08867190022368228,
          0.0761491000597386,
          0.08637717441068285
        ]
      ],
      [
        [
          0.13529489374776119,
          -0.025388846100964785,
          0.11480411669891136
        ],
        [
          -0.00023294282462088965,
          -0.06148809087233494,
          -0.009354734473472194
        ],
        [
          0.005099738823508704,
          -0.09738923067640057,
          -0.0429452225536341
        ]
      ],
      [
        [
          0.0664768890411403,
          -0.0031131836542295324,
          0.04069886267620863
        ],
        [
          0.0020621335526190936,
          0.004927220655511212,
          0.047979503688261316
        ],
        [
          -0.010387745433440725,
          -0.05852219253384608,
          0.003926534034438069
        ]
      ]
    ],
    [
      [
        [
          -0.04289341177156428,
          0.04787599044166585,
          -0.053119824691875955
        ],
        [
          -0.04651075479995548,
          -0.0572508820332013,
          -0.06752272448616692
        ],
        [
          0.055720063915673405,
          0.05040147067083079,
          -0.01609837506137841
        ]
      ],
      [
        [
          0.11787799017622616,
          0.07305119595075396,
          0.06996414854901621
        ],
        [
          0.09118163579509994,
          0.12126862348466239,
          0.07421703454606902
        ],
        [
          0.003016103766417348,
          0.033426865009311274,
          0.14879611904130116
        ]
      ],
      [
        [
          0.01565868600317304,
          0.023979424966166334,
          -0.05965539263555426
        ],
        [
          0.03144630212098148,
          -0.056022044974529166,
          0.05305235420127318
        ],
        [
          -0.028269122646607393,
          -0.0044655321498925,
          0.04363199706803635
        ]
      ],
      [
        [
          0.053664514480633335,
          -0.0025839317263143553,
          0.05123376698488654
        ],
        [
          -0.05512910190973008,
          -0.07739952445568575,
          -0.05121328769921559
        ],
        [
          0.012993155429672035,
          0.03681224623682733,
          0.06992208150640984
        ]
      ],
      [
        [
          -0.06958997204023822,
          0.0023757168114359236,
          0.03496103020811138
        ],
        [
          -0.05305328662603318,
          -0.06669095777712045,
          -0.007627095216390457
        ],
        [
          0.0804584128331981,
          0.005586578880754333,
          -0.007421206014590028
        ]
      ],
      [
        [
          -0.0048918109039519184,
          -0.04920496453028081,
          -0.03690485458418373
        ],
        [
          -0.024018120227323164,
          -0.033898894178497466,
          -0.04592615608194485
        ],
        [
          0.08302686946245665,
          -0.04667036951145906,
          0.05571925468543323
        ]
      ],
      [
        [
          0.09221843504823156,
          0.00582997844229859,
          0.03628317168837148
        ],
        [
          0.004460378333442194,
          0.012204360646809822,
          0.029266284371217897
        ],
        [
          0.0862555426496856,
          0.0322146115575504,
          0.025951412874453576
        ]
      ],
      [
        [
          0.07096563353753467,
          0.02525102243953236,
          0.04423895646805632
        ],
        [
          0.10522256975245363,
          0.050052676956576794,
          0.07408761781036112
        ],
        [
          0.10480871089174193,
          -0.01647054528455601,
          0.06181868886147439
        ]
      ],
      [
        [
          0.009838621158951748,
          -0.00505378637528638,
          -0.028960149859685813
        ],
        [
          0.0037670571057721383,
          -0.11659262203503029,
          0.01414418689191773
        ],
        [
          0.07628563609785013,
          0.06482038813670445,
          -0.02202523399322917
        ]
      ],
      [
        [
          -0.046691240905881115,
          0.11612216083583433,
          -0.038573108681350304
        ],
        [
          -0.05511997988356825,
          0.12723514191385993,
          0.11763042289838724
        ],
        [
          0.06071288447700711,
          0.09328148093253283,
          0.10523682820091879
        ]
      ],
      [
        [
          -0.0006431367076279602,
          -0.08188610206137113,
          -0.011785300657566344
        ],
        [
          0.020889010507264917,
          0.024894556346086977,
          0.04302110215442075
        ],
        [
          -0.0981907819573265,
          -0.1177781837129128,
          -0.1193183692352374
        ]
      ],
      [
        [
          0.03522387864526059,
          0.05472113196790393,
          0.08231889305427316
        ],
        [
          -0.016042161691494434,
          -0.014856596391306886,
          0.044720039989598497
        ],
        [
          -0.008863121056245314,
          -0.005563681867221689,
          0.033688766180452884
        ]
      ],
      [
        [
          -0.0775952980389572,
          0.04672798642646275,
          -0.053715228625898906
        ],
        [
          0.05685321504841633,
          0.02953749925099908,
          -0.07588596563419017
        ],
        [
          -0.004195290289379146,
          -0.011664239124988008,
          -0.037190258262302475
        ]
      ],
      [
        [
          0.01841306023285099,
          0.06475577662007774,
          0.02352477127835236
        ],
        [
          -0.04763556612221466,
          -0.06143413837727361,
          0.05923230398538278
        ],
        [
          0.11477729339261512,
          0.046835274513474065,
          0.11983773560923522
        ]
      ],
      [
        [
          0.015285187399630223,
          -0.028703674718910322,
          0.045253799042796264
        ],
        [
          -0.0367474368718387,
          0.004646107575899189,
          0.043008295934284034
        ],
        [
          0.022857741045718253,
          0.0008201089609001202,
          0.02360446248988215
        ]
      ],
      [
        [
          -0.007904522335503213,
          0.04770084394698337,
          -0.0979588159659105
        ],
        [
          -0.03398395136440263,
          -0.018812740067626756,
          0.06780686085365663
        ],
        [
          -0.045376818281719404,
          0.080402451625795,
          0.10734169992986599
        ]
      ]
    ],
    [
      [
        [
          -0.01896602700876737,
          -0.030090206687974838,
          0.04944312051308948
        ],
        [
          -0.047192768378851516,
          0.02971071669112212,
          -0.041113621943086015
        ],
        [
          0.04190884768176798,
          -0.030478020239574084,
          -0.01950587117593622
        ]
      ],
      [
        [
          -0.06734624974474707,
          -0.011858285208564637,
          0.02338905493695788
        ],
        [
          -0.04606022758777953,
          -0.061290502503691,
          0.08328341346130717
        ],
        [
          -0.04349448175507927,
          0.08262240065694376,
          -0.07117342653915362
        ]
      ],
      [
        [
          0.11420621292195955,
          0.10866298212000654,
          0.09215289007747444
        ],
        [
          0.10152910196775611,
          -0.025758937069236095,
          -0.0073454213861096455
        ],
        [
          0.05307191094217413,
          0.07265014666275912,
          0.08387112764765912
        ]
      ],
      [
        [
          0.008563499901226672,
          -0.04871946695387361,
          0.03616593172641952
        ],
        [
          0.04813513600748371,
          0.015993168908318166,
          -0.043547582047995484
        ],
        [
          0.06758933490029513,
          0.045032259367358524,
          -0.013973258949901127
        ]
      ],
      [
        [
          0.059342345947268234,
          -0.05127171403549735,
          -0.017709612311945358
        ],
        [
          -0.009701198307154418,
          0.05208555454867108,
          0.006196591365373018
        ],
        [
          -0.042506357952709455,
          0.03164546052390837,
          0.08320734685287098
        ]
      ],
      [
        [
          -0.02526658930553943,
          0.016173410192895296,
          0.011902490728047789
        ],
        [
          0.04971058653944741,
          0.03400444130388671,
          -0.005385949547468104
        ],
        [
          -0.024097653875750615,
          0.047444771320855894,
          -0.039130987591441964
        ]
      ],
      [
        [
          -0.037442299521312575,
          -0.029928625078576573,
          -0.08109718994795558
        ],
        [
          -0.02518896376218581,
          0.07002583956189141,
          6.76436127001229e-08
        ],
        [
          -0.05827501938783552,
          -0.0013229523263140646,
          0.02808046845161252
        ]
      ],
      [
        [
          -0.048326770848338044,
          0.014811259591738494,
          -0.020016720682688106
        ],
        [
          -0.017909509454585536,
          -0.07036275443836268,
          -0.05304790291095415
        ],
        [
          -0.021389320054250534,
          -0.0038564556389555486,
          -0.016179362756322004
        ]
      ],
      [
        [
          -0.02789948014423335,
          0.0454128317704334,
          0.12788752190901737
        ],
        [
          -0.03345145184666889,
          0.10348766147820775,
          0.07965251436252266
        ],
        [
          0.030256106780311685,
          0.08853527723997895,
          0.06475821586261829
        ]
      ],
      [
        [
          -0.05089243620442932,
          0.06842253422713146,
          0.035504262503147935
        ],
        [
          0.010970763573258413,
          -0.07055275436878183,
          0.06707020602460084
        ],
        [
          -0.034244599570569564,
          -0.0048600142376830045,
          0.03131587541044272
        ]
      ],
      [
        [
          -0.03062849919081985,
          0.015368675874746763,
          0.04493297287437292
        ],
        [
          -0.06695318201950605,
          -0.038752092489570344,
          0.05129965987939942
        ],
        [
          -0.003376074654684999,
          -0.008278907962982411,
          0.07905483905191232
        ]
      ],
      [
        [
          -0.07006805631630714,
          -0.012423481650714241,
          0.03406978267927382
        ],
        [
          -0.04893334754317024,
          -0.05945254728684565,
          0.011961381404898894
        ],
        [
          0.004108185115300658,
          0.06366141747249089,
          0.04716748270613975
        ]
      ],
      [
        [
          -0.05771065923814132,
          0.03954867096290786,
          -0.11869417015049952
        ],
        [
          -0.04813343194417521,
          -0.09394570644787095,
          -0.08459964696741723
        ],
        [
          0.07431489948686192,
          0.009845981392963936,
          -0.015713030963101057
        ]
      ],
      [
        [
          0.03481020903382092,
          0.02365955621822958,
          -0.026373296693846807
        ],
        [
          -0.031324512897078736,
          -0.022394908607129633,
          0.011586233235780398
        ],
        [
          0.07606278734144839,
          0.012430259297435188,
          0.008519229722059088
        ]
      ],
      [
        [
          0.058953207042915484,
          -0.10611153402540359,
          -0.10154648106167348
        ],
        [
          -0.08460359135011196,
          0.03939300238219517,
          -0.005717634158549044
        ],
        [
          0.0012633925575068817,
          0.04653399510923001,
          0.022134498250098993
        ]
      ],
      [
        [
          -0.03690065048152131,
          -0.03144275216947959,
          0.0274161614789513
        ],
        [
          -0.01988401611247702,
          -0.0191891799997777,
          0.08261272105899846
        ],
        [
          0.04329280706600528,
          0.0005352714676317233,
          -0.04187006974538293
        ]
      ]
    ],
    [
      [
        [
          0.08378791010625429,
          -0.012749204254225766,
          -0.1404372062069544
        ],
        [
          0.10988439905703298,
          0.03620093195343838,
          -0.07804094519325379
        ],
        [
          3.3675765966337726e-05,
          0.0249159622620037,
          0.009873553653140237
        ]
      ],
      [
        [
          0.031011212495631182,
          -0.05715826130860133,
          -0.06856151371621798
        ],
        [
          0.063664223435026,
          -0.08145289580483431,
          0.04879478568307174
        ],
        [
          -0.04671922585925319,
          0.018577737643912146,
          -0.055487640435008215
        ]
      ],
      [
        [
          0.026538516740429393,
          0.007801569437831809,
          -0.09096583816267077
        ],
        [
          0.029620025307046657,
          0.06514617729096403,
          -0.07395785825433465
        ],
        [
          0.0764005968737918,
          -0.04138887070156698,
          0.05433483437569365
        ]
      ],
      [
        [
          0.046985237148195344,
          -0.04802318675955569,
          0.10362704292111137
        ],
        [
          0.028511948551616338,
          -0.04186983970777145,
          0.08780554586066042
        ],
        [
          0.09718057007704252,
          -0.08878497654259997,
          0.045569394028164206
        ]
      ],
      [
        [
          -0.06454692556443735,
          0.024168142443401958,
          -0.03861108597187315
        ],
        [
          -0.05541566678186465,
          -0.05977285626994326,
          -0.057714901018031034
        ],
        [
          -0.01526473344651565,
          -0.06922334230741548,
          -0.06958132320184228
        ]
      ],
      [
        [
          -0.005830025721907372,
          0.06673007671274514,
          -0.12582766982303487
        ],
        [
          -0.011131958414563096,
          -0.0574146697348433,
          0.031276411682591196
        ],
        [
          0.04059547052769936,
          0.03424380163716736,
          0.05642769341503483
        ]
      ],
      [
        [
          -0.01601560600321398,
          -0.06269592416845478,
          0.0510225580991065
        ],
        [
          0.05209190643911793,
          0.012318956268325269,
          0.049708305185102254
        ],
        [
          0.04281334097663907,
          0.025816083673623633,
          0.010859123762273553
        ]
      ],
      [
        [
          -0.10824275670030785,
          -0.049645736560816445,
          -0.07645507013477168
        ],
        [
          -0.02684416411637901,
          -0.0019904323950451423,
          0.042338866279398556
        ],
        [
          0.042484500729692,
          0.06325127890660624,
          0.1081948451864505
        ]
      ],
      [
        [
          -0.07083711809202563,
          0.0027624027083035735,
          0.03560041168947608
        ],
        [
          -0.11949886016428302,
          0.039938320765108955,
          0.11389164043276748
        ],
        [
          -0.0003321700955411081,
          -0.05905473452867392,
          0.02088556292625776
        ]
      ],
      [
        [
          0.14208841717548396,
          -0.04616923780147399,
          -0.07387032683726948
        ],
        [
          0.08282824078522258,
          -0.03840894505681945,
          -0.07525711140794886
        ],
        [
          0.10721169042044414,
          -0.005848371771888995,
          0.01541651476998122
        ]
      ],
      [
        [
          -0.017593975143145583,
          0.0001118090693256609,
          -0.0074919442719207485
        ],
        [
          0.10520322054299291,
          -0.008395517619096115,
          -0.014866537828898189
        ],
        [
          -0.055173460351933774,
          0.06868194769939412,
          0.07381670171467003
        ]
      ],
      [
        [
          0.06703143013905093,
          0.04096044265912147,
          0.010972021279820644
        ],
        [
          0.004365188334163224,
          -0.06518603255874815,
          0.10360656556512929
        ],
        [
          0.07814396311666011,
          -0.07486954867461033,
          -0.06372551910113751
        ]
      ],
      [
        [
          0.012334188474518976,
          -0.06680872098054375,
          -0.07494752393386835
        ],
        [
          0.026988802255906913,
          0.06387645602103431,
          -0.028350645183972727
        ],
        [
          -0.031707667191392404,
          -0.006595703719269684,
          0.0726626891616637
        ]
      ],
      [
        [
          0.05061796082480151,
          0.06749551822907272,
          -0.049939700154503344
        ],
        [
          -0.11130356125189995,
          0.030415647666073114,
          -0.031545385595489514
        ],
        [
          0.018739384434426933,
          0.07830287627070785,
          0.015496511469286649
        ]
      ],
      [
        [
          -0.037412965140246945,
          0.047649918365660675,
          0.008525256252517986
        ],
        [
          0.09572812245569971,
          0.12410101909019862,
          0.11794398167944771
        ],
        [
          0.05580684117261711,
          -0.050164767841710166,
          0.010588999879557335
        ]
      ],
      [
        [
          0.0778861408492692,
          0.062467767623678616,
          0.039589361490198566
        ],
        [
          0.125380880927076,
          0.11501896262625155,
          -0.09405843726281003
        ],
        [
          0.1443833783501524,
          0.02676666567823322,
          0.07170488606847959
        ]
      ]
    ],
    [
      [
        [
          0.04311901064643747,
          0.006013003844558822,
          -0.027215239773711947
        ],
        [
          -0.03169983577700712,
          0.019937733372309915,
          -0.07841402486343871
        ],
        [
          0.052489083658804676,
          0.010605652720069077,
          0.018654895778482686
        ]
      ],
      [
        [
          0.0007697846760378039,
          0.02228659917608798,
          0.08590561880654748
        ],
        [
          0.050847584417904754,
          0.11944748495864252,
          -0.04383326016576992
        ],
        [
          0.004147264874992485,
          0.06253285993663486,
          0.016722235521954874
        ]
      ],
      [
        [
          0.029544015206154052,
          -0.05391011812778412,
          -0.024167115527439234
        ],
        [
          0.07291637177873381,
          0.036348487906973224,
          -0.08782369964008746
        ],
        [
          -0.02426389438933038,
          0.06859591295485394,
          -0.021174492146382156
        ]
      ],
      [
        [
          -0.009703504578228958,
          -0.02384838613373922,
          -0.04377074460150406
        ],
        [
          -0.016301483176343567,
          -0.01381568960832701,
          -0.01793304378043837
        ],
        [
          0.039843730597820565,
          0.028859462491336762,
          -0.013806906912290601
        ]
      ],
      [
        [
          -0.03671764992291073,
          -0.023620295411705794,
          0.049407503426106204
        ],
        [
          0.02442711782920226,
          0.056124192819302074,
          -0.03906207904796237
        ],
        [
          0.027618360467618588,
          0.09008935515880635,
          0.08662382355450653
        ]
      ],
      [
        [
          -0.019193253586423976,
          0.05233798106973804,
          0.0032695114333206607
        ],
        [
          0.03483975387207977,
          -0.009577914509201722,
          0.007869143256931384
        ],
        [
          0.023858631989359443,
          0.035963432843518287,
          -0.043730517905535504
        ]
      ],
      [
        [
          0.05199659152092607,
          -0.052991832675451316,
          0.04590205742952052
        ],
        [
          -0.06388806862913977,
          0.023705397448340743,
          -0.030003459168011292
        ],
        [
          0.019920958623254638,
          0.02453817769039909,
          0.05842802367839014
        ]
      ],
      [
        [
          0.015803598981271864,
          0.015454665685422406,
          -0.024131270410217103
        ],
        [
          -0.04139691344227404,
          -0.07723811120014451,
          0.01682542226148412
        ],
        [
          0.0342438714120811,
          -0.04521742234615073,
          -0.0034531825549279326
        ]
      ],
      [
        [
          -0.04237195913177985,
          0.06631923089007946,
          0.03388334981986561
        ],
        [
          0.04284915429911237,
          -0.050471439320761674,
          -0.003750329639395784
        ],
        [
          0.04688273682415005,
          0.12868391185178502,
          0.06868927633063959
        ]
      ],
      [
        [
          0.004403688762628446,
          0.031297937813988826,
          0.05124962830038771
        ],
        [
          0.025471127570084733,
          0.03251614266947621,
          -0.07253988182429809
        ],
        [
          -0.008939847824295279,
          0.09028597770771132,
          -0.01077582892376167
        ]
      ],
      [
        [
          0.04199600616455494,
          0.09241673692088158,
          -0.038828818943158844
        ],
        [
          -0.09211681014161198,
          0.07309140763131547,
          -0.005971298717981478
        ],
        [
          -0.013567985001377968,
          -0.016941451875827518,
          -0.02934771089646574
        ]
      ],
      [
        [
          0.08706920670411059,
          -0.024902934439153965,
          0.0006057042645227044
        ],
        [
          0.11568019408707862,
          0.014490852421234436,
          0.12325804549510752
        ],
        [
          -0.015365519855919847,
          0.00028571532776697575,
          0.06845647156357448
        ]
      ],
      [
        [
          0.010862887037768682,
          -0.06603615956182274,
          0.010564439277856467
        ],
        [
          -0.06341903649304156,
          -0.1276064388543144,
          0.005950164458114366
        ],
        [
          -0.06482465703848934,
          -0.056769752707641445,
          -0.014407304315431814
        ]
      ],
      [
        [
          -0.0033361478190516753,
          0.08017408978559941,
          -0.06362094359629797
        ],
        [
          0.07331652127283486,
          -0.07274668142546419,
          -0.03284144399940406
        ],
        [
          -0.024543599330637936,
          -0.010916008651981576,
          0.08233236275284903
        ]
      ],
      [
        [
          -0.09000917736958129,
          -0.12402624547173403,
          0.022029376678385063
        ],
        [
          -0.09593067010262839,
          -0.10379216768593945,
          -0.038356740063310364
        ],
        [
          0.01289024648077953,
          -0.03041435110700377,
          0.0355771284118234
        ]
      ],
      [
        [
          0.01664638051456407,
          0.006776653353152864,
          0.009905938064781015
        ],
        [
          -0.06476790213685474,
          -0.05568499623742661,
          0.007949627802035397
        ],
        [
          0.06571601279976019,
          -0.02314372790499239,
          0.03597793616687193
        ]
      ]
    ],
    [
      [
        [
          0.06998743407356685,
          0.0730717290023461,
          0.010172960492318753
        ],
        [
          0.07370140849509567,
          -0.028115357426929385,
          -0.006693465393245247
        ],
        [
          -0.07421676946257502,
          0.04872894428367235,
          0.018589996703561314
        ]
      ],
      [
        [
          0.05975361946485254,
          0.056503918041927045,
          0.09069678176232168
        ],
        [
          0.1020075740804803,
          0.07352839009863486,
          0.006767289249648236
        ],
        [
          -0.04060161907085159,
          0.09097771957135048,
          0.0177720806598086
        ]
      ],
      [
        [
          0.022518820974084485,
          0.05258109865095333,
          0.08088355129740128
        ],
        [
          -0.015661966862437107,
          0.04754531019911301,
          0.048283121916820375
        ],
        [
          -0.008911147064046398,
          -0.05284088657946678,
          0.0929781548132699
        ]
      ],
      [
        [
          0.09321451860146661,
          0.008865119563849175,
          0.012971232960919765
        ],
        [
          0.07896613669172231,
          -0.030926305719043583,
          0.015172485749262268
        ],
        [
          -0.01708217968653489,
          -0.02024447935627864,
          -0.04996061297501078
        ]
      ],
      [
        [
          -0.05075921683077095,
          0.030182733275368353,
          -0.0900994333319006
        ],
        [
          -0.05493132980721075,
          -0.01892941356977215,
          0.05276946842554853
        ],
        [
          0.02906747527303219,
          -0.040527402829457285,
          0.03943152547180004
        ]
      ],
      [
        [
          0.03129192172831499,
          0.0012493922405753207,
          0.003973176125537657
        ],
        [
          -0.032840206656666066,
          0.03147618935707678,
          -0.056590836266533925
        ],
        [
          0.05296585129668233,
          0.0170393549919307,
          0.03672969516838037
        ]
      ],
      [
        [
          -0.03420268786551834,
          0.09217099792607837,
          -0.05247671304572091
        ],
        [
          -0.06500747499738084,
          0.09405467199134558,
          -0.06281583369599199
        ],
        [
          -0.01697428955869722,
          -0.0005925813521129371,
          -0.04890351540854657
        ]
      ],
      [
        [
          0.002991163681476644,
          -0.049046557505909076,
          0.09070102828963214
        ],
        [
          -0.024192774796509383,
          0.021051817001803984,
          -0.047769782198835216
        ],
        [
          -0.07149850068524181,
          0.035378559861087504,
          0.03160966142183826
        ]
      ],
      [
        [
          -0.05622275873652112,
          -0.11289235131773111,
          -0.07093177325743871
        ],
        [
          -0.11185757927600454,
          -0.09606032954239985,
          -0.0013898920485324465
        ],
        [
          -0.1628132363347604,
          -0.1277722867543302,
          -0.08565114107182487
        ]
      ],
      [
        [
          0.07654678708184272,
          0.03949326203235296,
          0.058275045083362766
        ],
        [
          0.07917513264557796,
          -0.009900891662495567,
          0.04636041681362381
        ],
        [
          0.05514298311478419,
          0.08270246457996827,
          0.010161226341417869
        ]
      ],
      [
        [
          0.06174924859401134,
          -0.05904074486247346,
          -0.018407104584945985
        ],
        [
          -0.015727261937541953,
          0.08248438801077672,
          0.035461601134507824
        ],
        [
          -0.07340309308166158,
          -0.0015376700222793657,
          0.06937467762852334
        ]
      ],
      [
        [
          -0.019226268805705066,
          0.04823280911800992,
          -0.04913066617725459
        ],
        [
          -0.019685214040243357,
          -0.014832105922923172,
          0.03564124288575321
        ],
        [
          0.0844794121857485,
          -0.0004864652733257379,
          0.06792117377887648
        ]
      ],
      [
        [
          0.06220536674677728,
          -0.05054286413139571,
          -0.10693762290647336
        ],
        [
          0.05341008246262357,
          -0.09576014156953472,
          -0.09651852631203323
        ],
        [
          0.02778785472244855,
          0.02240165021249126,
          -0.083318853194229
        ]
      ],
      [
        [
          0.036607011444657236,
          0.08206779193976477,
          0.04018240087798425
        ],
        [
          0.06040820047740164,
          -0.05507527806785949,
          0.06714596506150179
        ],
        [
          -0.07271453920939162,
          0.05488704669327821,
          -0.1036010526526327
        ]
      ],
      [
        [
          -0.016862816639901416,
          -0.05407212643761617,
          0.08199531412657511
        ],
        [
          -0.06014239631589223,
          0.012252530118779269,
          -0.06034741756432848
        ],
        [
          0.02219875456052756,
          -0.011446096805638267,
          -0.053695797059585916
        ]
      ],
      [
        [
          -0.012571062252267328,
          0.07313524782064684,
          0.010998394923499856
        ],
        [
          -0.05066373933449861,
          0.040152212460420104,
          0.05486223375742795
        ],
        [
          0.06902105533583636,
          -0.04146552036105057,
          -0.014119615396790835
        ]
      ]
    ],
    [
      [
        [
          0.029308996879354145,
          -0.08594435712024381,
          -0.0008945775284054788
        ],
        [
          0.015926590431996054,
          -0.06993906383742247,
          0.07421932379955745
        ],
        [
          0.00961947676394453,
          -0.05266299170983672,
          0.06273233446748322
        ]
      ],
      [
        [
          -0.00010062458443869418,
          -0.01428833623698365,
          0.0598642729287289
        ],
        [
          0.07033733886629313,
          -0.061888169009311045,
          -0.08031579307320343
        ],
        [
          0.017209192821723396,
          -0.003924286294565554,
          -0.04210950421256121
        ]
      ],
      [
        [
          0.033660045686609394,
          -0.00592837087651396,
          0.07354624608090293
        ],
        [
          -0.03324108671785218,
          0.07957314248636886,
          0.08202145771762462
        ],
        [
          0.08619490358161776,
          0.08542240753906269,
          -0.03377822980813928
        ]
      ],
      [
        [
          -0.010982383159760013,
          -0.054469627388948096,
          0.04757888439029315
        ],
        [
          -0.05090384013578388,
          0.0038992717363147103,
          0.058055858292586235
        ],
        [
          -0.008243722636036914,
          -0.018589020832992215,
          0.011622184728499919
        ]
      ],
      [
        [
          -0.005652810820232618,
          0.011158009294963226,
          -0.03650453810121502
        ],
        [
          -0.010925970597788316,
          -0.0485143163803248,
          0.07533969497079916
        ],
        [
          0.07479091572253185,
          0.08074811594919255,
          -0.01475828626836108
        ]
      ],
      [
        [
          -0.0564638164140507,
          0.030349929613085174,
          0.009260213700194678
        ],
        [
          0.029144566386544966,
          -0.056806441215133674,
          0.013924940116942794
        ],
        [
          -0.035814906370641685,
          0.022555034269380433,
          0.017226781232433225
        ]
      ],
      [
        [
          0.0958453882525938,
          0.09749116634781597,
          -0.024299920926049812
        ],
        [
          0.019492526379732863,
          0.002688688160507662,
          -0.06365905250845776
        ],
        [
          0.06850789147937751,
          -0.021656933710643745,
          -0.04310225306189905
        ]
      ],
      [
        [
          0.038173421346823756,
          -0.005534839783414684,
          -0.06542195066341111
        ],
        [
          0.023421910025244595,
          -0.037384627700772485,
          0.010886893905160861
        ],
        [
          0.09029208284401859,
          0.044783547015913305,
          -0.03184640290561935
        ]
      ],
      [
        [
          0.08571805041038237,
          0.06609524518772285,
          0.04591579966525228
        ],
        [
          0.03450620049021862,
          0.1206786518213814,
          0.1265089105315487
        ],
        [
          0.08481919970642038,
          0.10310311420976427,
          0.08843051372706938
        ]
      ],
      [
        [
          -0.009839449908179435,
          -0.0659635250968345,
          0.04584962977486035
        ],
        [
          0.028451708674903504,
          -0.050640821469824855,
          0.03292860446399048
        ],
        [
          0.05363035819069027,
          -0.03671480045303826,
          0.049220267497206246
        ]
      ],
      [
        [
          -0.039950995407553404,
          -0.037577524432376795,
          0.05748021335335664
        ],
        [
          -0.04810160573125018,
          0.05118569787161936,
          0.042792303089036206
        ],
        [
          0.025547764852496005,
          0.0008240358772506934,
          -0.0484706605155277
        ]
      ],
      [
        [
          0.008771985200602947,
          -0.00149854125464543,
          0.02459125703472498
        ],
        [
          -0.036817702973890636,
          0.03999561222022544,
          0.04016798075095537
        ],
        [
          0.045468244264452756,
          0.08316643626829957,
          -0.011207275968228594
        ]
      ],
      [
        [
          -0.038131487053332074,
          0.02946906941216515,
          0.001274758330555082
        ],
        [
          0.0004780560518967864,
          -0.052133280937086995,
          0.0022708403028779056
        ],
        [
          0.005242503706917644,
          0.014530459151896134,
          -0.03487956989111366
        ]
      ],
      [
        [
          0.10486332229471389,
          0.051835085976925474,
          -0.062090901203437014
        ],
        [
          0.02219646239389465,
          -0.03024020143920877,
          0.04639453847188602
        ],
        [
          0.022808721744681956,
          -0.02744336181913062,
          -0.05122840870389329
        ]
      ],
      [
        [
          0.04126978968304686,
          0.0940157273501307,
          0.051668453373501545
        ],
        [
          -0.03444466119736214,
          0.012809132982272346,
          -0.0015493882456349534
        ],
        [
          -0.014206522401978018,
          -0.019192454730288237,
          -0.033526812565943635
        ]
      ],
      [
        [
          -0.03182330038087996,
          0.04816234421931941,
          0.09059623507799527
        ],
        [
          0.07573436250405811,
          -0.04623326954868187,
          0.02765375603761436
        ],
        [
          -0.009779258865979778,
          -0.05250152664410192,
          -0.03192850460569029
        ]
      ]
    ],
    [
      [
        [
          -0.030713546031938075,
          -0.018999604589558666,
          0.09251858209477573
        ],
        [
          -0.03778361523903223,
          0.020009120545693638,
          0.0336531518505872
        ],
        [
          -0.06605757650945206,
          -0.02774625335039408,
          0.03879616438544928
        ]
      ],
      [
        [
          0.09562187183777437,
          0.10241614967348514,
          -0.003710097506076525
        ],
        [
          -0.004638560966159691,
          0.04136820705927169,
          0.13417337494897033
        ],
        [
          0.06754402548370042,
          -0.0014437538734050433,
          0.052889872960332436
        ]
      ],
      [
        [
          -0.04302957756846473,
          0.15573665756399968,
          0.12317105475236499
        ],
        [
          0.06747255567211491,
          0.11454605921885135,
          0.004362184355957206
        ],
        [
          0.04281659913288412,
          0.08176384164318938,
          0.06471958996485973
        ]
      ],
      [
        [
          -0.07081498036524393,
          0.09588504193856663,
          -0.0335565634412815
        ],
        [
          0.05624900595233712,
          -0.02422917211532037,
          -0.01057606875251402
        ],
        [
          -0.025040916332499035,
          0.042604819381066125,
          -0.08779446886009584
        ]
      ],
      [
        [
          0.03411487870839425,
          0.05937993325450896,
          -0.0008920301627875293
        ],
        [
          0.05180357609967542,
          -0.007897150426709628,
          0.007789727101892751
        ],
        [
          0.025037967496730425,
          -0.00019000460097633065,
          0.02374095857116274
        ]
      ],
      [
        [
          0.08399070619408228,
          -0.0730907177429327,
          0.042071477339723565
        ],
        [
          -0.04107085560014509,
          -0.049536568059295794,
          0.0026552677193774047
        ],
        [
          -0.045522221000652195,
          -0.056417352362540626,
          0.10593147467553422
        ]
      ],
      [
        [
          0.018426157836547514,
          -0.08620156536362746,
          -0.07264666270547827
        ],
        [
          -0.07778586227859398,
          0.033412981653753025,
          0.06383126503779799
        ],
        [
          -0.06178517575175864,
          -0.07398307419426871,
          0.0663545783397396
        ]
      ],
      [
        [
          -0.021950647614531627,
          -0.05752652017873103,
          -0.022552443369983168
        ],
        [
          -0.03214437567187175,
          0.06137069255775442,
          0.06540167207635111
        ],
        [
          -0.04924831628464361,
          -0.006847615247376509,
          -0.0602268384819277
        ]
      ],
      [
        [
          0.10434309369295991,
          0.06436679080522835,
          0.01977342823081106
        ],
        [
          0.036676546493801976,
          -0.009460204004312337,
          -0.08323308500230246
        ],
        [
          0.006356532014068538,
          -0.10029683936028227,
          -0.06189473552498737
        ]
      ],
      [
        [
          -0.09999449921438172,
          0.04274244497607335,
          0.06718632036647285
        ],
        [
          0.047399649567105365,
          0.11852150926503098,
          0.04544970021239216
        ],
        [
          0.03821263428579685,
          0.010707990720207639,
          0.04261673972915547
        ]
      ],
      [
        [
          0.09742374164202248,
          -0.02697339086956069,
          0.0675546381082285
        ],
        [
          0.05253340497819064,
          -0.0014537100705910226,
          -0.026846981504294487
        ],
        [
          -0.06260247452756024,
          -0.04161663836491435,
          -0.048336349697365465
        ]
      ],
      [
        [
          0.06372678354720393,
          -0.04424705190823793,
          0.02698349797658564
        ],
        [
          0.06245281227532502,
          -0.057637154318100854,
          0.022992554914317256
        ],
        [
          -0.0737094059355741,
          -0.0561809038638015,
          -0.029941928477991698
        ]
      ],
      [
        [
          0.05888376204662739,
          -0.024224873295173366,
          0.03296818928648464
        ],
        [
          -0.07293430325967244,
          0.01894445054738607,
          0.0333148045660104
        ],
        [
          -0.021460229452870575,
          -0.03869851152231057,
          0.06017726603076485
        ]
      ],
      [
        [
          -0.11882541074796525,
          -0.044358105500802957,
          -0.08905738732661955
        ],
        [
          -0.02520983899558213,
          0.026384575806851544,
          -0.0551303775037386
        ],
        [
          -0.06237487846188097,
          -0.03384440982542539,
          -0.10210948601017432
        ]
      ],
      [
        [
          -0.0238783572544031,
          0.028602183411408622,
          0.08092277235743264
        ],
        [
          -0.022051548630939888,
          0.038273667230130065,
          0.04440788853412436
        ],
        [
          -0.02269494747057006,
          -0.02382848004631117,
          -0.11587579983701093
        ]
      ],
      [
        [
          0.07579024992904518,
          0.07088132056310233,
          -0.008773942347945412
        ],
        [
          0.02406676644374862,
          -0.023969506757328833,
          0.0896591432723229
        ],
        [
          -0.09326466243926859,
          0.014844638323270296,
          -0.0016093718575738811
        ]
      ]
    ],
    [
      [
        [
          0.09357476386947258,
          0.06698773000542281,
          -0.011697081009933056
        ],
        [
          -0.04454599772494576,
          0.032776336783429685,
          -0.03292511716111478
        ],
        [
          -0.02668271210706117,
          -0.03637822813541038,
          0.11121205901064214
        ]
      ],
      [
        [
          -0.05217598326786574,
          0.02959429031462817,
          -0.08807460185421119
        ],
        [
          0.05050553780431389,
          0.00900760091517309,
          -0.08894881793021965
        ],
        [
          -0.07614222150573355,
          0.014718242896056619,
          0.003320511009719988
        ]
      ],
      [
        [
          0.12682418154631417,
          0.01439826925813262,
          0.0367171274581086
        ],
        [
          0.034097341423981214,
          0.1535424922365477,
          0.09290257560469913
        ],
        [
          0.06005728590073846,
          0.06432118112942954,
          -0.025838664308792756
        ]
      ],
      [
        [
          0.06525493612629933,
          -0.02055425941394073,
          -0.048334725567226074
        ],
        [
          0.004943553903611802,
          0.0649943519244,
          0.02744154161314854
        ],
        [
          0.049655708379513455,
          -0.06796102052468563,
          -0.010142293654339779
        ]
      ],
      [
        [
          -0.03529751493448602,
          -0.008041979319419254,
          0.027856202814697938
        ],
        [
          -0.004547734205537286,
          0.010543058807981707,
          -0.09828768618842634
        ],
        [
          -0.10963848935418365,
          0.050024404171232446,
          -0.08128569725619088
        ]
      ],
      [
        [
          -0.04817366826759906,
          0.04595320271933029,
          0.026750070670602758
        ],
        [
          0.07552288141067273,
          0.021025751664966383,
          0.028753804465798512
        ],
        [
          0.017409239235267892,
          0.02489085283425594,
          0.03860524615887141
        ]
      ],
      [
        [
          0.053983507912836896,
          0.03689997119181594,
          0.04535081012321186
        ],
        [
          0.085920529381813,
          0.008284345025215082,
          -0.009346257079696154
        ],
        [
          -0.0063976634117423785,
          0.08986667391113642,
          0.046843951617865726
        ]
      ],
      [
        [
          0.013478209339486732,
          -0.06461809193949714,
          -0.08393375567316419
        ],
        [
          0.020379363863047992,
          0.1391395209051701,
          0.11608009887871006
        ],
        [
          -0.07716057133412764,
          -0.01861930406785638,
          -0.06675925734678306
        ]
      ],
      [
        [
          0.061892140531613786,
          0.05086413461182702,
          -0.017764985716588896
        ],
        [
          -0.001646853523718828,
          0.06197829996346072,
          0.1828856114981451
        ],
        [
          0.10678543211141124,
          -0.008123443256945632,
          0.07433100968154567
        ]
      ],
      [
        [
          -0.048069000716731085,
          0.04713626540903911,
          0.0508359449355543
        ],
        [
          -0.0024086652112060556,
          0.025525558478343216,
          -0.02091032765882653
        ],
        [
          -0.021749118921220698,
          -0.021904469648452062,
          -0.0716943226517026
        ]
      ],
      [
        [
          -0.0655146217474613,
          -0.01708574439334977,
          0.05951735791387297
        ],
        [
          -0.025273223971140905,
          0.011846282873654508,
          -0.017556785626648103
        ],
        [
          -0.010192300128674498,
          0.010201209417208954,
          0.020494509221572366
        ]
      ],
      [
        [
          0.06130783076702954,
          -0.06783882480002926,
          0.051158996775299025
        ],
        [
          -0.013446845229728374,
          -0.02404671944583528,
          0.005132315990992213
        ],
        [
          0.0332955781022629,
          0.009157424051069483,
          -0.046090601991504866
        ]
      ],
      [
        [
          0.04482864941708841,
          0.03265483982696372,
          0.07649459137781493
        ],
        [
          0.027470508015313293,
          0.0692359234411998,
          -0.04938670652525787
        ],
        [
          -0.002946762930000453,
          -0.019692307757843957,
          0.07239848213670383
        ]
      ],
      [
        [
          0.03969579231087559,
          -0.015685713305603727,
          -0.08191715530917171
        ],
        [
          -0.05369651871818824,
          -0.07642057807541101,
          0.00038581102161226976
        ],
        [
          -0.07997985365257321,
          -0.12342349749543975,
          -0.027391258037202174
        ]
      ],
      [
        [
          -0.0031615532103445127,
          -0.058727949187124116,
          0.05215472713306811
        ],
        [
          0.047843216375514544,
          0.004038615074296497,
          0.07357183143337827
        ],
        [
          0.02633001519157403,
          -0.08317045758850046,
          0.09865409755563945
        ]
      ],
      [
        [
          0.020744936811267628,
          0.029489143957731462,
          -0.036616002551231985
        ],
        [
          0.05444832961993528,
          -0.0007261150073485554,
          0.038473508036645225
        ],
        [
          -0.017388190908827237,
          -0.050906135951669006,
          -0.002673728820345408
        ]
      ]
    ],
    [
      [
        [
          -0.006789769703399809,
          0.09528788278653276,
          0.006994169376764871
        ],
        [
          0.021059292007403977,
          0.07402772787182968,
          0.05599047845995557
        ],
        [
          -0.02491358421170737,
          0.03528471199710741,
          -0.03461449149963752
        ]
      ],
      [
        [
          0.03774974178788305,
          0.07771322848612969,
          0.07670407568934938
        ],
        [
          -0.04553879236076307,
          0.08858484140858124,
          -0.017129742988677317
        ],
        [
          -0.030611359123804326,
          0.05092041782400166,
          0.11942863987494183
        ]
      ],
      [
        [
          -0.039787496464250345,
          0.07490499440907283,
          -0.0044601602441355845
        ],
        [
          -0.0365135729562804,
          0.046298525152663444,
          -0.00254943334077513
        ],
        [
          -0.07716552497723288,
          -0.06889336303402668,
          -0.03862158637523746
        ]
      ],
      [
        [
          -0.03056022210378014,
          0.04809809541954042,
          0.014933742177904823
        ],
        [
          -0.04207185517556159,
          -0.041352677652261735,
          0.0327362874537025
        ],
        [
          0.015572125299784169,
          0.0317646381229084,
          -0.08965884249584986
        ]
      ],
      [
        [
          -0.012142841847256048,
          0.015039464056485688,
          -0.06973195719701811
        ],
        [
          0.02601824544460117,
          -0.05760383350057066,
          0.08331453820934821
        ],
        [
          0.06412045248841106,
          0.06537420362068089,
          0.0663623241852355
        ]
      ],
      [
        [
          -0.07903370870193156,
          -0.0026570801151256825,
          -0.008510487224160635
        ],
        [
          0.017226869381404414,
          -0.038008124353358,
          0.02115595894424937
        ],
        [
          -0.027913596830403724,
          0.04798917481771617,
          -0.04361727281014976
        ]
      ],
      [
        [
          -0.012088877468158123,
          0.04140826379010672,
          0.097200078333362
        ],
        [
          -0.0193769726894319,
          0.0326909512295259,
          0.08343091078605055
        ],
        [
          -0.006110589178968083,
          0.08438282934845524,
          -0.042249135105200834
        ]
      ],
      [
        [
          0.0037697360501789457,
          -0.05593280512241401,
          -0.07271554379837422
        ],
        [
          0.07636144593973539,
          0.03641690197784658,
          -0.016217414146585417
        ],
        [
          0.04786155756408687,
          0.06758277072777588,
          0.0011021888715103327
        ]
      ],
      [
        [
          0.15067943669129935,
          0.11535227123251107,
          0.0979280468472251
        ],
        [
          0.10655517485839046,
          0.042106956099229736,
          0.017877401496340154
        ],
        [
          -0.004100943763600329,
          0.08180520148344085,
          0.0720435200077659
        ]
      ],
      [
        [
          -0.08655111355614002,
          0.010435570862959122,
          0.0067640331708873685
        ],
        [
          0.01138443316483113,
          0.06864188355603554,
          -0.08269872499319673
        ],
        [
          0.015676755671902173,
          0.04706143262247332,
          0.004489408732414154
        ]
      ],
      [
        [
          0.023004931664228487,
          0.026416783827662393,
          -0.03852847294035911
        ],
        [
          -0.03923309830879881,
          0.008228718768561632,
          0.10383438493162178
        ],
        [
          0.08102959253242636,
          -0.024627194595885894,
          -0.07578275447840721
        ]
      ],
      [
        [
          0.02837854033089425,
          0.027405341243524697,
          -0.07211861455421585
        ],
        [
          0.0628119096315501,
          -0.03145273626237903,
          -0.013187064696590683
        ],
        [
          0.06659024665513998,
          -0.048246933471379386,
          -0.008379379730843971
        ]
      ],
      [
        [
          -0.04792298279756933,
          -0.06059945304085226,
          -0.04705388716839282
        ],
        [
          0.06933859129000075,
          0.011128839501318459,
          0.012685945959271628
        ],
        [
          -0.054494248822906315,
          -0.06745077527642133,
          -0.051584526873451386
        ]
      ],
      [
        [
          0.021462806381243423,
          0.015082198573711443,
          0.09721338413097115
        ],
        [
          0.009294193406556754,
          -0.015922908619843298,
          0.0239728326321009
        ],
        [
          0.032773132844511416,
          0.058021007625490555,
          -0.05308095150680167
        ]
      ],
      [
        [
          0.013401704873733744,
          0.05621790419936868,
          0.054590679940018046
        ],
        [
          -0.0023166642530775216,
          -0.07013334142375852,
          0.003914459835362254
        ],
        [
          -0.03455481753255164,
          -0.0925500255967453,
          -0.02590815485205305
        ]
      ],
      [
        [
          0.04689004244457533,
          -0.04913890873148642,
          -0.008380492766982276
        ],
        [
          -0.11074873644011934,
          -0.026709103140128997,
          -0.019574010741000868
        ],
        [
          0.013649460450897825,
          -0.028448331888840037,
          -0.052749229582938234
        ]
      ]
    ],
    [
      [
        [
          -0.00020119187239851804,
          -0.0372356896589724,
          -0.04537133888152595
        ],
        [
          -0.008510120092434646,
          -0.05226500638380049,
          0.04354661003338033
        ],
        [
          0.011950079512535159,
          -0.06733102938502634,
          0.08284675905785199
        ]
      ],
      [
        [
          0.05182482769825213,
          -0.043050115581154076,
          0.01769759615086212
        ],
        [
          0.0445816772863183,
          0.08088270533704953,
          0.0011298724662827445
        ],
        [
          0.07789538734648911,
          0.08489146378487203,
          0.03592720526051573
        ]
      ],
      [
        [
          0.08348212831785622,
          -0.04043244130950678,
          0.07981406312543295
        ],
        [
          0.05306060024729737,
          -0.010220106084164052,
          0.06566220561611322
        ],
        [
          0.036247005090113416,
          -0.011747595001036625,
          -0.012496121923089847
        ]
      ],
      [
        [
          -0.03903361958207281,
          -0.02127888317069283,
          -0.05298512008668701
        ],
        [
          0.04139311708158646,
          -0.022287433330647023,
          -0.08715862422460978
        ],
        [
          -0.08324611319170723,
          -0.05431696924182669,
          -0.009032328425616647
        ]
      ],
      [
        [
          -0.06086084567063436,
          0.005285666385369243,
          0.04237369870602897
        ],
        [
          -0.009491159992290013,
          0.06638801340859099,
          0.1072185775258245
        ],
        [
          -0.004098637543947539,
          -0.024390562474064563,
          0.0963522608198009
        ]
      ],
      [
        [
          0.07255279882789033,
          0.07744720511442649,
          -0.010633536062865717
        ],
        [
          -0.07034129459757187,
          -0.011634620616703992,
          -0.027319649206113305
        ],
        [
          0.04278291677596158,
          -0.019053099237782836,
          0.05851943997338938
        ]
      ],
      [
        [
          -0.07136434820206396,
          0.011042974098552356,
          0.03657724945519365
        ],
        [
          -0.06096690121147397,
          -0.011275427212196305,
          -0.05038729115972988
        ],
        [
          -0.07287655043189431,
          0.022505940141667707,
          -0.053260998853797564
        ]
      ],
      [
        [
          0.08668145168256788,
          0.12260406827016497,
          0.049245634667431794
        ],
        [
          0.11220736717446425,
          0.040917244521491515,
          -0.03596807763937907
        ],
        [
          0.009769599566937463,
          -0.04421968412227464,
          0.05706316573011484
        ]
      ],
      [
        [
          0.12294543051068214,
          0.031219517634098897,
          0.0837563410984868
        ],
        [
          0.06954967514899064,
          0.018909856457983935,
          0.013402634428371633
        ],
        [
          -0.005922482565053093,
          -0.08351931126449379,
          -0.06863330510571779
        ]
      ],
      [
        [
          0.07341530233815997,
          -0.047753677781124146,
          0.0536337401978526
        ],
        [
          0.11312031211758876,
          -0.028316321405937196,
          -0.024544973742252712
        ],
        [
          0.09003886073998495,
          -0.03587866333395675,
          0.10937670960238917
        ]
      ],
      [
        [
          0.007598046816299901,
          0.12088668152458905,
          0.09649414992818638
        ],
        [
          0.01263981902209805,
          -0.0202385547335112,
          0.08368809432848295
        ],
        [
          -0.034512257732413336,
          -0.05829586239796928,
          0.10502303403881903
        ]
      ],
      [
        [
          0.05671462917350104,
          -0.0427073934256046,
          0.003982398857732823
        ],
        [
          0.06356481850872474,
          -0.054987596189802236,
          -0.06820103039766419
        ],
        [
          0.029795154507173457,
          0.02532538545963393,
          -0.04238380012932211
        ]
      ],
      [
        [
          0.10077225443536574,
          0.08701613833591926,
          -0.018371749100420647
        ],
        [
          0.08832763587000553,
          0.10342641233964052,
          -0.032737104752014815
        ],
        [
          -0.05388447939507524,
          -0.016132139709516755,
          0.0394962810223162
        ]
      ],
      [
        [
          -0.06017432129028967,
          -0.024050259625734184,
          0.018211745913996134
        ],
        [
          -0.031573938799114444,
          -0.030596839925209753,
          0.13342633757598182
        ],
        [
          0.026703286978928424,
          -0.07023874624277454,
          -0.0368392772447785
        ]
      ],
      [
        [
          0.0015073107909070523,
          -0.008656352321636406,
          0.10986120376091053
        ],
        [
          -0.027132185297780474,
          -0.007621059652473572,
          -0.008814431436987865
        ],
        [
          0.0235159127345474,
          -0.05265606154967936,
          0.029044447607084273
        ]
      ],
      [
        [
          -0.013188088170422932,
          0.013207067060640903,
          0.10580747603753636
        ],
        [
          -0.02269244103569477,
          0.021402891762752074,
          0.0392826257332708
        ],
        [
          0.05983104430412469,
          -0.02841251888983,
          0.06553680485924732
        ]
      ]
    ],
    [
      [
        [
          -0.05706552347447155,
          -0.05799166532811745,
          -0.05636203613465539
        ],
        [
          -0.028163912216039994,
          0.06977312555387889,
          -0.059210671144520104
        ],
        [
          0.035830655172025896,
          -0.02345300501983949,
          -0.05803467025251785
        ]
      ],
      [
        [
          0.053467525867821365,
          0.10285816345382431,
          0.09342611459131887
        ],
        [
          -0.023860764691532248,
          0.09666997411972496,
          -0.012117134384138868
        ],
        [
          -0.12168833961911485,
          -0.057222140949804094,
          -0.0827037731221506
        ]
      ],
      [
        [
          -0.06824098403131497,
          0.018725939062334017,
          0.07521114216669945
        ],
        [
          0.05202718857466802,
          -0.08173080829710651,
          0.015778247231778772
        ],
        [
          0.010582389291643029,
          0.019183465140638407,
          -0.0996048027339585
        ]
      ],
      [
        [
          -0.048576955097965085,
          -0.05948069568446594,
          -0.0009100540288954419
        ],
        [
          0.04317164525821226,
          0.044939896055913045,
          -0.08876938185838096
        ],
        [
          0.045665525222701106,
          0.023376744207724964,
          -0.06003190185469732
        ]
      ],
      [
        [
          -0.06698308689618047,
          0.03842129479874657,
          -0.0360540181717279
        ],
        [
          0.07920918792089748,
          0.0021558742888740045,
          -0.0017554680905420355
        ],
        [
          -0.036301830392887306,
          0.079662858352274,
          -0.03742920681174885
        ]
      ],
      [
        [
          -0.011782216049366492,
          -0.02492298310288973,
          -0.07281096690358523
        ],
        [
          -0.037703350310871804,
          0.08949815979734578,
          0.005146037618467464
        ],
        [
          0.023190567782986487,
          0.08734639633756151,
          -0.004354605537723323
        ]
      ],
      [
        [
          -0.06685560832147114,
          -0.060052472936394395,
          -0.020121520048198296
        ],
        [
          -0.08126901293921965,
          0.05682117865714131,
          -0.07409203147489524
        ],
        [
          0.013129342394460551,
          -0.017230240460232697,
          0.07649370883579591
        ]
      ],
      [
        [
          0.01025015139223396,
          -0.0319872061389801,
          -0.05727735190629686
        ],
        [
          -0.00778541469918136,
          -0.0681025656764233,
          -0.11161633932995872
        ],
        [
          0.1274545920664491,
          0.08508805357553928,
          0.06682044881765407
        ]
      ],
      [
        [
          -0.032572355026501465,
          -0.119157989793349,
          0.04336631850657343
        ],
        [
          -0.012922772998514208,
          0.06116112206417766,
          -0.02298626559145898
        ],
        [
          -0.06674978909333629,
          0.013720561960494392,
          -0.07645305398201784
        ]
      ],
      [
        [
          0.07601667324582821,
          0.017391870707000944,
          0.012258259327412535
        ],
        [
          0.02749464097899823,
          -0.02227446086470183,
          0.037551025408278926
        ],
        [
          -0.030361586531704527,
          -0.0702447349663014,
          -0.07705354036903907
        ]
      ],
      [
        [
          -0.07969619939032638,
          -0.026617461284896962,
          -0.08213387588377141
        ],
        [
          0.03598435840321031,
          -0.017124602981410112,
          0.009605268743672565
        ],
        [
          0.06416525680014452,
          0.07773787506453878,
          0.11675906390353902
        ]
      ],
      [
        [
          0.017839915169465044,
          -0.024749421728029034,
          0.12375788392815013
        ],
        [
          0.0021089874374554014,
          0.043282506618244364,
          0.042949707060789204
        ],
        [
          -0.010848105215458748,
          0.05072087627768328,
          -0.059693202061545735
        ]
      ],
      [
        [
          0.01391504823914824,
          -0.0321825045306929,
          0.016045146200965938
        ],
        [
          -0.006785116567924652,
          -0.0581608663713653,
          0.08924969181698843
        ],
        [
          0.054812055322078404,
          -0.022406266819450068,
          0.09569051033482974
        ]
      ],
      [
        [
          0.0060753185458538375,
          -0.07905065733396481,
          0.06568712902183543
        ],
        [
          0.05544535143286895,
          -0.013600419693341673,
          0.011954429105043612
        ],
        [
          -0.05223821251698454,
          -0.040645377193187046,
          -0.022414952778625912
        ]
      ],
      [
        [
          -0.06896777647894255,
          0.03414769441237987,
          -0.06665320854234502
        ],
        [
          0.09565751755365821,
          0.11965845407133426,
          0.0662340094629134
        ],
        [
          0.05849461647917344,
          -0.005548404492200388,
          -0.046097819474166316
        ]
      ],
      [
        [
          0.02094175023320924,
          -0.013895904130182813,
          0.020757183975476497
        ],
        [
          0.07119914201908793,
          0.059380720229746636,
          -0.045495214769790814
        ],
        [
          0.06989866163970022,
          0.08353703361394615,
          -0.044435090592842966
        ]
      ]
    ],
    [
      [
        [
          0.016658990991816537,
          -0.10514088078104371,
          -0.04097323106576144
        ],
        [
          0.0013303080131641823,
          -0.13012956173749735,
          -0.020828782617872337
        ],
        [
          -0.09224961914460147,
          0.031467209561601185,
          -0.05211921438515231
        ]
      ],
      [
        [
          0.03790344530419584,
          -0.010085247518823713,
          0.039897519034432734
        ],
        [
          0.03175432303717399,
          0.02245635576645633,
          -0.029569344075297502
        ],
        [
          -0.07962713823991134,
          -0.007682937637371271,
          0.04540434064989591
        ]
      ],
      [
        [
          0.08364277597018187,
          0.01051292826199194,
          -0.004371810889364551
        ],
        [
          -0.04001574797843945,
          -0.027204813341960173,
          0.11331430205508822
        ],
        [
          0.04177432141091911,
          0.07764049895933117,
          0.07259237404506004
        ]
      ],
      [
        [
          0.03476598364391844,
          0.05291310696501456,
          -0.0631439144210439
        ],
        [
          -0.05392657069407726,
          -0.030251897673025475,
          -0.06960322349108111
        ],
        [
          0.019355439544112035,
          0.07285633235203795,
          -0.06508141527447557
        ]
      ],
      [
        [
          0.010936440577398964,
          0.014284500070502984,
          0.07139112446623926
        ],
        [
          0.014443022211614712,
          -0.05193571538168032,
          0.0023313331957922267
        ],
        [
          0.0050888463227737385,
          -0.02408240515346071,
          -0.020477026432531097
        ]
      ],
      [
        [
          0.02094445396499847,
          -0.03291921886283491,
          0.0004076130013183934
        ],
        [
          0.07316457957026298,
          -0.026917789891696173,
          -0.003718857824720794
        ],
        [
          -0.015800431914025668,
          0.07134808079658,
          -0.038499235562846
        ]
      ],
      [
        [
          0.04951168580386602,
          0.10501244799665124,
          0.10602752987485102
        ],
        [
          0.04026511422992662,
          -0.007416259757472057,
          -0.04632277943575621
        ],
        [
          -0.028380296450779545,
          -0.015740839867262258,
          0.0009140579692357586
        ]
      ],
      [
        [
          0.06667267259859713,
          -0.01801433491124275,
          -0.0020953392247659497
        ],
        [
          0.07173000379982998,
          0.030058532899982462,
          -0.024839211878102015
        ],
        [
          -0.05815870156367627,
          -0.05188440365042658,
          0.03846665723874758
        ]
      ],
      [
        [
          0.06446863121228516,
          0.056020175411164067,
          0.08272761046662498
        ],
        [
          -0.013814062984534229,
          0.019620026084939294,
          0.025472377230100304
        ],
        [
          0.12014341625491427,
          0.1298606925454619,
          0.09330039471731956
        ]
      ],
      [
        [
          0.019938840866694577,
          0.03510996590870928,
          -0.06540608608911072
        ],
        [
          -0.01314287659426057,
          -0.05908762128173471,
          -0.02838452422264847
        ],
        [
          -0.026878693393309776,
          -0.009782619880776564,
          -0.017020995478691868
        ]
      ],
      [
        [
          -0.04597844188096104,
          0.03550628769856726,
          0.06504581640655197
        ],
        [
          -0.05488988633904758,
          -0.011656318462334154,
          0.03359136211530788
        ],
        [
          -0.020701198711007722,
          -0.008217085718305405,
          0.01789392280338879
        ]
      ],
      [
        [
          -0.07499336461523648,
          0.05773889208527278,
          0.07568241268078632
        ],
        [
          0.05024042873264119,
          -0.009546648984144378,
          0.06024836556436996
        ],
        [
          -0.059116613941242215,
          0.04477781552847736,
          0.08665386740393946
        ]
      ],
      [
        [
          -0.11885678798915424,
          -0.004332927697897675,
          0.003247465552115679
        ],
        [
          -0.12376569360891608,
          -0.1224968048814993,
          -0.09039023881162533
        ],
        [
          0.035544798381085,
          -0.08333309541618489,
          -0.07249694562549015
        ]
      ],
      [
        [
          0.06047558910401075,
          0.02127245503611679,
          -0.05590347106589861
        ],
        [
          0.008602515830458686,
          0.060221557280134425,
          -0.011437417108193374
        ],
        [
          0.06336178523720287,
          0.04347747001979632,
          0.09127673108513219
        ]
      ],
      [
        [
          -0.1446356404778186,
          -0.09813272206861129,
          0.006409263719508195
        ],
        [
          -0.1547710575691984,
          -0.16566856584891454,
          0.025479517127521976
        ],
        [
          -0.05936673524132227,
          -0.13572716375709576,
          -0.09216567203870553
        ]
      ],
      [
        [
          -0.08347331334503812,
          -0.0024222846132717388,
          0.04830894420429103
        ],
        [
          -0.05829384700278088,
          0.03929418431970755,
          -0.028179452158499884
        ],
        [
          -0.018106040265932714,
          0.07267646193941033,
          -0.04415534454294166
        ]
      ]
    ],
    [
      [
        [
          0.01967870212932608,
          0.04817983377975015,
          -0.013356758002177602
        ],
        [
          0.05286339340479906,
          0.02414975980679009,
          0.09079524224611527
        ],
        [
          -0.03224072372510928,
          0.09682070237989017,
          0.06530489998345133
        ]
      ],
      [
        [
          -0.01028584191100266,
          0.016343157891241734,
          0.07014989695354945
        ],
        [
          0.06241378027549746,
          0.019738987904453068,
          0.123295388077423
        ],
        [
          -0.026263067926522277,
          0.01858721791214828,
          0.09454282086370949
        ]
      ],
      [
        [
