{
  "conv1.weight": [
    [
      [
        [
          -0.21040000943794163,
          -0.17285300477605836,
          -0.13880996230807854
        ],
        [
          -0.15848116166068937,
          -0.042733021079872986,
          -0.18987385781879457
        ],
        [
          -0.015595832460484621,
          0.03759145364467481,
          0.015099466270341892
        ]
      ],
      [
        [
          0.012152679426198876,
          0.006521183641438238,
          -0.07777510114485499
        ],
        [
          0.1181797887871357,
          -0.03916777183167944,
          -0.1806753855228593
        ],
        [
          -0.1407686107830868,
          0.009488494937599165,
          -0.17991591626031903
        ]
      ],
      [
        [
          0.08923026034793928,
          0.17464384957966567,
          0.20128374921765987
        ],
        [
          0.3273599836981709,
          0.26996446142410907,
          0.18791279447358758
        ],
        [
          0.20873535745079677,
          -0.10392862063364673,
          -0.16442219032498462
        ]
      ]
    ],
    [
      [
        [
          0.28223641380464387,
          0.24511392577606986,
          0.049920944036603146
        ],
        [
          0.10919892621065827,
          0.12752802195137314,
          0.2059612378349876
        ],
        [
          0.22836202672877903,
          0.26316014588803116,
          -0.05238477217501261
        ]
      ],
      [
        [
          0.08227072686063071,
          -0.19247765253601018,
          -0.12902995070854095
        ],
        [
          -0.1700486098707819,
          -0.2425963303468726,
          -0.20258004868367271
        ],
        [
          -0.11657862380776703,
          -0.09842629525737065,
          -0.06284384707642472
        ]
      ],
      [
        [
          -0.13393407464111345,
          0.03347380696553809,
          -0.10804540045557362
        ],
        [
          -0.13659731346688428,
          -0.1890275078480431,
          0.009436669021123134
        ],
        [
          -0.13418013875143156,
          -0.08437135854830467,
          0.1694523271877047
        ]
      ]
    ],
    [
      [
        [
          0.22195064967670078,
          -0.11206213276187232,
          0.028471966429645293
        ],
        [
          0.1742085114766831,
          0.11032501996505892,
          -0.34132561759032487
        ],
        [
          0.2002099317833561,
          0.18837602240079415,
          -0.32695611396427626
        ]
      ],
      [
        [
          0.07077051486684903,
          -0.1227210650604855,
          -0.08620768276843808
        ],
        [
          0.18877529683580396,
          -0.06976349727855691,
          -0.18508534911607616
        ],
        [
          0.12063640577739075,
          -0.1381699984369085,
          -0.1585603438129297
        ]
      ],
      [
        [
          0.07181762829449778,
          3.112960620672829e-05,
          -0.06366902135704133
        ],
        [
          0.2513492227443517,
          -0.027646593228502193,
          -0.2517454432124496
        ],
        [
          0.2645025405044927,
          0.15076814283826054,
          -0.30800064154351997
        ]
      ]
    ],
    [
      [
        [
          -0.0884286698605701,
          0.19966857113989586,
          -0.0027080940950768282
        ],
        [
          0.13204139200710324,
          0.13657067258995687,
          0.06447968247787245
        ],
        [
          0.15614456972899537,
          0.06918607390343924,
          -0.1855950925947688
        ]
      ],
      [
        [
          0.1274338435123962,
          0.019501573146453968,
          -0.08460475708684904
        ],
        [
          -0.014120096661822845,
          0.14960242715846556,
          -0.0728618466789011
        ],
        [
          -0.2012782548951326,
          0.12783736242852647,
          0.05377921840595581
        ]
      ],
      [
        [
          0.14417401816371403,
          0.22338324185823605,
          -0.055094327891273234
        ],
        [
          -0.00861137921162092,
          0.13150525079058267,
          0.05480105359029993
        ],
        [
          0.06026998467461228,
          -0.009821406579593045,
          -0.06467422754410497
        ]
      ]
    ],
    [
      [
        [
          0.25280537456859103,
          0.06563464925777865,
          0.15438781259517903
        ],
        [
          0.1971428229394323,
          0.298858389228129,
          -0.13242883481611634
        ],
        [
          -0.25912929381995076,
          -0.13532188476237458,
          0.14025113956692953
        ]
      ],
      [
        [
          -0.151444266719203,
          -0.22174298005729723,
          -0.17034215885359047
        ],
        [
          0.06177300529582193,
          0.12252313352331227,
          0.1379292109668316
        ],
        [
          -0.20395372653693639,
          -0.04344203614421043,
          0.008658060499447338
        ]
      ],
      [
        [
          -0.20508829468989456,
          -0.13174351527391628,
          -0.2689523231545695
        ],
        [
          0.1320839088080247,
          0.12034364939483268,
          0.05733083240538653
        ],
        [
          0.1902859565017034,
          -0.0323964891595941,
          0.12975519907041352
        ]
      ]
    ],
    [
      [
        [
          -0.11109270295994605,
          0.12853896178149546,
          -0.01415170576848393
        ],
        [
          -0.019676076925449523,
          -0.24446060648652174,
          -0.108225221904889
        ],
        [
          -0.026063782899169472,
          0.022772811067566262,
          0.051428388962722296
        ]
      ],
      [
        [
          -0.09916842811682135,
          -0.21326399500385798,
          -0.08275842056520108
        ],
        [
          -0.1546287306266405,
          -0.1784000943757754,
          0.08904692548535864
        ],
        [
          -0.024500341671579544,
          0.14618284013675656,
          0.05521394065958673
        ]
      ],
      [
        [
          -0.03373906526322671,
          0.06725724216835907,
          0.008433728234895096
        ],
        [
          -0.11840662996281393,
          -0.0188722972614149,
          0.08667364809889129
        ],
        [
          -0.06119880491844614,
          -0.14306905653978064,
          -0.021289148319471148
        ]
      ]
    ],
    [
      [
        [
          0.10583442074368953,
          0.06623754448549492,
          -0.22600547124080966
        ],
        [
          -0.22606799977409472,
          -0.14405509766822078,
          -0.29053648254387227
        ],
        [
          0.07543829515223076,
          -0.24279493795301912,
          0.13621201098121885
        ]
      ],
      [
        [
          0.2588869740113899,
          0.05288633029334722,
          0.07461803941868758
        ],
        [
          0.07780048342944583,
          0.07578904136841726,
          0.11906179382437039
        ],
        [
          0.17261492533038716,
          0.2777906253914099,
          0.3140464964663161
        ]
      ],
      [
        [
          0.07306231172190364,
          -0.06353708565069655,
          -0.00748510102659005
        ],
        [
          -0.1570151561556462,
          -0.24984830989889764,
          -0.23327279974318704
        ],
        [
          -0.1781923019376234,
          -0.02367118332682389,
          -0.04245531739611038
        ]
      ]
    ],
    [
      [
        [
          -0.28863004558454447,
          -0.23089080008055804,
          -0.2562504434486948
        ],
        [
          -0.07229033407205547,
          -0.09760729306595556,
          -0.17125418767031822
        ],
        [
          0.2874376657668025,
          0.2444243268151315,
          0.35708594444242975
        ]
      ],
      [
        [
          -0.1910807166151278,
          -0.03288410209953151,
          0.1293401684060422
        ],
        [
          -0.2317773962098087,
          -0.18319320522322907,
          0.1080111429734477
        ],
        [
          0.19660597166022745,
          0.04391668641114552,
          0.11512211767325466
        ]
      ],
      [
        [
          0.003327793596216153,
          0.13750233921339092,
          0.02115501088440999
        ],
        [
          0.052796099158731354,
          0.0688080068789208,
          -0.1610789048204289
        ],
        [
          0.07844614948423277,
          0.05186720510193261,
          -0.02923476162454796
        ]
      ]
    ],
    [
      [
        [
          -0.45341211887905164,
          0.014927952061062082,
          0.353363953187249
        ],
        [
          0.016778962292286786,
          0.17083980464473542,
          -0.1171896265338232
        ],
        [
          0.09019380572773701,
          0.13877914831260768,
          -0.38110926684382596
        ]
      ],
      [
        [
          -0.3383643087184605,
          0.25316948245626864,
          0.3720759105093725
        ],
        [
          -0.2564931336721556,
          -0.04203984886184189,
          0.20571012725977025
        ],
        [
          0.328906571703142,
          0.015051449006315729,
          -0.33690155759041074
        ]
      ],
      [
        [
          -0.40998955830772177,
          0.21412787056121335,
          0.295154960435918
        ],
        [
          -0.08711412513315829,
          -0.11079852091097182,
          0.03289238355754404
        ],
        [
          0.19459295199587007,
          0.04699299511445301,
          -0.17815181512118386
        ]
      ]
    ],
    [
      [
        [
          0.18977870347146625,
          0.15755562713455318,
          0.019700540930644973
        ],
        [
          0.04330206808552209,
          0.11352965821455638,
          0.11658047585642686
        ],
        [
          -0.05172761984257535,
          0.15558914955293002,
          -0.03191973020337355
        ]
      ],
      [
        [
          -0.19863389253431554,
          -0.19861305021491377,
          -0.17750600156257088
        ],
        [
          -0.09516220147130677,
          -0.3281498997817616,
          -0.266947373624093
        ],
        [
          0.07044525953231505,
          0.009294532613199619,
          -0.3109427399155824
        ]
      ],
      [
        [
          0.17622290195399298,
          0.018567834806329658,
          0.0702874851073003
        ],
        [
          0.04928654302862596,
          0.17993803126846486,
          0.1033128121850263
        ],
        [
          0.02050729322719145,
          0.05810475748017156,
          -0.036923969218474705
        ]
      ]
    ],
    [
      [
        [
          -0.12446812888984839,
          -0.28437305629507714,
          0.017948834813465542
        ],
        [
          -0.14298480976157832,
          -0.09407235000239307,
          -0.154719257996979
        ],
        [
          0.24965741426991422,
          0.36249742716802325,
          -0.022622614240069606
        ]
      ],
      [
        [
          -0.08658482694219037,
          -0.2674403380857684,
          -0.30004790641776835
        ],
        [
          -0.15690959220706058,
          -0.10561931245660602,
          0.08669260675123366
        ],
        [
          0.2700873310983825,
          0.3019655777608582,
          0.2073276256354214
        ]
      ],
      [
        [
          -0.11806519438870156,
          -0.14114737506490052,
          0.07381002435792519
        ],
        [
          0.022925347552616653,
          -0.25180786157017726,
          0.06831233712853417
        ],
        [
          0.18469144966440074,
          0.19032903134556906,
          0.21581252666595305
        ]
      ]
    ],
    [
      [
        [
          -0.3245129422352224,
          0.10191607723702116,
          0.1848722109355331
        ],
        [
          0.10337836461961813,
          0.29232667771273063,
          0.13315044035440388
        ],
        [
          -0.05651806876589465,
          0.02701105146812851,
          -0.33179123127761967
        ]
      ],
      [
        [
          -0.06319964334793418,
          0.09884594288374032,
          -0.027770267135639987
        ],
        [
          0.019577672254951915,
          0.1636051751974028,
          0.15289124702264983
        ],
        [
          0.03142616130309265,
          -0.18065213257500298,
          -0.3140601163607908
        ]
      ],
      [
        [
          -0.39328124480079346,
          -0.23716829832186065,
          -0.09562229755182108
        ],
        [
          0.22432619503827025,
          0.04342037695489493,
          0.07946869997087294
        ],
        [
          0.3023621132579421,
          0.11130964785815188,
          0.051042352393153335
        ]
      ]
    ],
    [
      [
        [
          -0.06804796651875099,
          -0.15650202713187536,
          0.06224087465049442
        ],
        [
          -0.042693966531906484,
          -0.14067207267429663,
          0.07481214231533713
        ],
        [
          -0.23218319949203392,
          -0.18043605743261024,
          0.04912244873226103
        ]
      ],
      [
        [
          -0.009443136559180415,
          -0.11843030937225729,
          0.05284083859577318
        ],
        [
          -0.07242403467570892,
          0.13582520884619007,
          0.197516661499824
        ],
        [
          0.06321511375485933,
          0.12325908636655075,
          -0.14802814120109928
        ]
      ],
      [
        [
          0.034403374469976156,
          -0.04626766584391631,
          -0.09239644143157807
        ],
        [
          0.2693755348211579,
          0.270725580873052,
          0.19886806353709954
        ],
        [
          0.12203573905566485,
          0.21634118873873093,
          0.0122991806839708
        ]
      ]
    ],
    [
      [
        [
          0.15184751768558746,
          0.34973206323014744,
          0.13910403216041145
        ],
        [
          0.14752181806400233,
          -0.2122164539562052,
          -0.10625237096768228
        ],
        [
          0.0505002359273078,
          -0.3009828828860385,
          -0.1119744668862745
        ]
      ],
      [
        [
          0.2756508159323556,
          0.3604925480961587,
          0.30757974759363166
        ],
        [
          -0.2133397182849249,
          -0.20408613581737067,
          0.017533630371837583
        ],
        [
          -0.04955088576645705,
          -0.21543280362885017,
          -0.2626426740393678
        ]
      ],
      [
        [
          0.061365517503864306,
          0.1855429503188365,
          0.21662064301902126
        ],
        [
          -0.038721107479901755,
          -0.25243228794742434,
          -0.15446211477712163
        ],
        [
          0.05309159817194601,
          -0.2619469656557188,
          -0.024388674478530204
        ]
      ]
    ],
    [
      [
        [
          -0.21688102958779343,
          -0.11213117590616298,
          -0.18035970704668375
        ],
        [
          -0.23231826172042166,
          -0.2679072007146203,
          0.008506061542543481
        ],
        [
          -0.10907209704620449,
          0.09387387628578991,
          -0.08320968116573964
        ]
      ],
      [
        [
          0.17605258608240593,
          0.0886672783640958,
          0.040554651277611924
        ],
        [
          -0.12128935755146139,
          0.06940369399519522,
          0.233213176233925
        ],
        [
          0.01362398268024131,
          -0.045685736318150094,
          -0.09325100554233445
        ]
      ],
      [
        [
          -0.07729710015144575,
          0.12327796707240737,
          0.1448445652554377
        ],
        [
          0.1569720463211204,
          0.2267463731633499,
          0.05960833008900883
        ],
        [
          -0.15190689248522599,
          0.13745731308947273,
          -0.05592546750331398
        ]
      ]
    ],
    [
      [
        [
          0.03690515680544817,
          -0.1472721677949064,
          0.052346968185921286
        ],
        [
          0.24450188733997205,
          0.10028248824045509,
          -0.265195730336223
        ],
        [
          0.2196147246477787,
          0.049965126432610106,
          -0.25362733177121166
        ]
      ],
      [
        [
          -0.0447704696744195,
          -0.19574706392387137,
          -0.22977782509377362
        ],
        [
          0.040801681941794045,
          0.052131801461139375,
          -0.34252948465499145
        ],
        [
          0.19558712346063326,
          0.14104771188990567,
          -0.02849180416365208
        ]
      ],
      [
        [
          0.10580734200294828,
          -0.26272695000891594,
          -0.30917008094761494
        ],
        [
          0.3280896959987607,
          0.21999857718141771,
          -0.08636008837915564
        ],
        [
          0.19061960884204485,
          0.16260791733353963,
          0.10689664363151423
        ]
      ]
    ]
  ],
  "conv1.bias": [
    0.009070551763453649,
    0.14713471426494543,
    0.11426232995459529,
    -0.08660700673336195,
    0.10274045132617009,
    -0.10314594722067293,
    0.13902239617185813,
    -0.0423640871528468,
    0.033402710116077164,
    -0.14351660186969514,
    -0.13409375623817346,
    -0.12181467947917686,
    -0.2012888719899948,
    -0.15722237895580898,
    -0.011044034512387875,
    -0.1460428786030386
  ],
  "res1_conv1.weight": [
    [
      [
        [
          0.007790208913142347,
          -0.15820585398703627,
          -0.03974050756744639
        ],
        [
          0.03900216080850164,
          -0.14444350534674905,
          0.04745791817206803
        ],
        [
          0.10382849700734384,
          0.17191372190129983,
          0.07502380806987353
        ]
      ],
      [
        [
          0.32403934717728805,
          0.2368949460102985,
          0.02564172627328857
        ],
        [
          0.16596042365732158,
          -0.07726360472396904,
          0.0029406276164622323
        ],
        [
          -0.02235876212669101,
          -0.12532705706503133,
          -0.026626014563277664
        ]
      ],
      [
        [
          0.13510158604058425,
          -0.3523738974967843,
          0.11292386054245228
        ],
        [
          -0.015344586119725298,
          -0.6713445085100017,
          0.08148388603772182
        ],
        [
          0.0733044472520623,
          -0.4509914088438851,
          0.02742470405795115
        ]
      ],
      [
        [
          0.04631808513207564,
          -0.049262605681340256,
          0.12191405318340179
        ],
        [
          0.07405468613512399,
          -0.04309258509558992,
          0.11426934829870738
        ],
        [
          -0.03840788324790332,
          0.03270878001126283,
          -0.05518486918777999
        ]
      ],
      [
        [
          -0.052375892889866986,
          0.17513460269547426,
          0.07036939443050759
        ],
        [
          -0.08158981018734089,
          0.03606900798906702,
          0.20895680336288694
        ],
        [
          -0.03505159543616304,
          0.013790577507581595,
          -0.045421341304199114
        ]
      ],
      [
        [
          0.16130482905436055,
          0.09094681889875028,
          0.06554925478005626
        ],
        [
          0.17462471883571115,
          0.003423387156259579,
          -0.08165135481391021
        ],
        [
          0.07819368935297616,
          -0.13985942203424448,
          -0.20258038682546445
        ]
      ],
      [
        [
          0.134070343538742,
          0.2433241578386236,
          -0.036517947009619585
        ],
        [
          0.07402366122954443,
          0.037056065481375446,
          -0.1690432097910033
        ],
        [
          0.007073200206972407,
          -0.19670743990637787,
          -0.19880236665377796
        ]
      ],
      [
        [
          -0.023183100752801694,
          0.0019389169672782494,
          0.10603086660698155
        ],
        [
          -0.01652608052815038,
          0.034457941013651856,
          -0.018666018263179086
        ],
        [
          0.14791205766738402,
          0.15494879977670478,
          -0.09734013671930518
        ]
      ],
      [
        [
          0.07235166419774454,
          -0.1189114210059094,
          0.4277650131139218
        ],
        [
          -0.2144936542706876,
          0.27094421318126805,
          -0.06444281768949982
        ],
        [
          0.009510996647419133,
          0.23693246973517298,
          -0.2670343265996955
        ]
      ],
      [
        [
          -0.021117147680633677,
          -0.15904301626473122,
          -0.08721155268645257
        ],
        [
          -0.18688653724625948,
          -0.16005641497539766,
          -0.023633462864862214
        ],
        [
          -0.03244943605093924,
          -0.056439112310740364,
          0.13051560321591904
        ]
      ],
      [
        [
          0.03434926697531893,
          0.08601149570752996,
          0.19137076427438535
        ],
        [
          0.06070943664585089,
          0.08017663787762078,
          -0.053010742854398794
        ],
        [
          0.1565503447679053,
          -0.03518153715702336,
          -0.014786371673902505
        ]
      ],
      [
        [
          0.10277377858863125,
          -0.1474978938987465,
          0.1560024741741302
        ],
        [
          0.07331953819690726,
          0.22243396775318972,
          -0.10137713679397761
        ],
        [
          0.08599493773509567,
          -0.08075308264912959,
          -0.3885828691339702
        ]
      ],
      [
        [
          -0.10365781451662702,
          -0.12580522852708484,
          -0.07337959809106347
        ],
        [
          -0.019437191728435287,
          0.16889521639936644,
          -0.07445235597188017
        ],
        [
          -0.03401762458830617,
          0.05710691168504054,
          -0.10476285628400574
        ]
      ],
      [
        [
          0.3432459148599775,
          -0.16760343252757973,
          0.024827068622289568
        ],
        [
          0.0666726525488265,
          -0.25010263538461347,
          -0.16898624981368576
        ],
        [
          -0.11186810699010782,
          -0.17402930549931667,
          -0.11978566384343096
        ]
      ],
      [
        [
          0.014315564746422349,
          -0.03786773279979883,
          -0.10618387659623255
        ],
        [
          -0.04007502632697661,
          0.08230743851112994,
          -0.04877116576393776
        ],
        [
          0.0857753812041329,
          0.1910411941603035,
          0.07032101568144551
        ]
      ],
      [
        [
          -0.2618900702389495,
          -0.2956849685510657,
          -0.032551349954780096
        ],
        [
          -0.14594978524807653,
          -0.5257773698285848,
          0.14691023979382234
        ],
        [
          -0.051957636987843406,
          -0.35612592386942077,
          0.04889565076806058
        ]
      ]
    ],
    [
      [
        [
          0.16226304901294794,
          0.09048138008187455,
          0.06809884816065818
        ],
        [
          0.13514697436592554,
          0.06700057544307138,
          -0.15967648952209737
        ],
        [
          0.05413912964417652,
          -0.13054072891363053,
          -0.0627915010092129
        ]
      ],
      [
        [
          -0.09634005587319232,
          -0.09248370390448148,
          -0.07894458276759705
        ],
        [
          0.0012154578267270816,
          0.2347124874912003,
          0.26671222350708346
        ],
        [
          -0.07855570949693011,
          0.0784921093432271,
          0.018090962648087572
        ]
      ],
      [
        [
          -0.12650638856348892,
          -0.060174178132239964,
          0.12896835877836993
        ],
        [
          -0.2342027762865929,
          0.009484750597031967,
          0.26257364559318225
        ],
        [
          0.054603085051494124,
          0.1209908293603964,
          0.04940687857627995
        ]
      ],
      [
        [
          -0.024242983202943172,
          -0.07094277780213179,
          -0.060678176609366606
        ],
        [
          0.038743933508044635,
          0.03935003440950365,
          -0.01768271339639807
        ],
        [
          0.06890890922408463,
          0.03533813177686754,
          0.03300545703015672
        ]
      ],
      [
        [
          -0.12502653763026578,
          -0.10832120085581068,
          -0.24491460772689586
        ],
        [
          0.03699253660997405,
          0.18293142104916774,
          0.044388898541719485
        ],
        [
          0.10486432625324123,
          0.15147014479510007,
          0.03792302807033221
        ]
      ],
      [
        [
          -0.0494288247907394,
          -0.019350822611023517,
          0.11304232399797853
        ],
        [
          -0.11659926329587815,
          0.04893428231444442,
          0.04412485366198021
        ],
        [
          0.022900046796964686,
          0.1255718448365491,
          0.09875047300465213
        ]
      ],
      [
        [
          0.2252613668023066,
          -0.0089214115042855,
          -0.08966361262136995
        ],
        [
          0.10111837180319617,
          0.029996106459902742,
          0.018522124692131416
        ],
        [
          0.1521272944006428,
          0.03765231737355982,
          0.010470409477273573
        ]
      ],
      [
        [
          0.21773204179569072,
          0.1655625331180403,
          0.13970744212592554
        ],
        [
          0.08070732635337925,
          -0.10297082701963639,
          -0.05083236399049342
        ],
        [
          0.05157576530210511,
          -0.16561339643410108,
          -0.09854159175620382
        ]
      ],
      [
        [
          -0.458399109482246,
          -0.08436124247078114,
          0.03587792422107407
        ],
        [
          -0.10690876636727739,
          -0.40123943127202455,
          -0.160419231312466
        ],
        [
          -0.08096715298890397,
          -0.0644630911333191,
          0.10077089667613787
        ]
      ],
      [
        [
          0.06153845035552817,
          -0.010909028221670664,
          -0.000761676517826059
        ],
        [
          0.2431096128851154,
          0.33263976973272547,
          0.2510392039270649
        ],
        [
          0.16746232407048994,
          0.07564026760442939,
          -0.10093574989102871
        ]
      ],
      [
        [
          0.1492284137043261,
          0.12184412094390372,
          0.06527392351871625
        ],
        [
          0.013778523793261116,
          -0.19329809073823961,
          0.0697246674725503
        ],
        [
          0.029996799257055538,
          -0.023655282724268232,
          0.029368156524213197
        ]
      ],
      [
        [
          -0.09214248265182252,
          -0.003992661971965144,
          -0.05190453727713938
        ],
        [
          0.14489396547320693,
          -0.10124671319090067,
          -0.01902784661131806
        ],
        [
          0.10423899956893236,
          0.12274129162407353,
          -0.010207061388523798
        ]
      ],
      [
        [
          0.0923792528018947,
          -0.003401934542346734,
          -0.10229933687218176
        ],
        [
          0.138173395032278,
          -0.061234332483362894,
          -0.15106547261222925
        ],
        [
          -0.05496191329296875,
          -0.07327391999554295,
          0.110331126670975
        ]
      ],
      [
        [
          -0.1120440125946802,
          -0.18063458725699574,
          0.1748303964054761
        ],
        [
          0.08972470106031195,
          0.10364159596350454,
          0.08897373281154915
        ],
        [
          0.06649837040815185,
          0.12073688628316466,
          0.07457155711586207
        ]
      ],
      [
        [
          0.23656529372097826,
          0.010383269403232738,
          0.07800706432916113
        ],
        [
          0.06415700008651176,
          -0.16959358961779364,
          -0.1645774418317311
        ],
        [
          -0.051335233502161,
          -0.15365947298738886,
          -0.04334892678677802
        ]
      ],
      [
        [
          0.0204179841066804,
          -0.12618952334312702,
          -0.06544943287650365
        ],
        [
          -0.2173246792316194,
          -0.23640607040069633,
          0.027547870138171174
        ],
        [
          0.049285033370144234,
          -0.12819639335838215,
          0.02474734273391747
        ]
      ]
    ],
    [
      [
        [
          -0.0060609753156830115,
          0.05467841669184952,
          -0.054409989025525726
        ],
        [
          0.037939913172455715,
          0.02420353805344256,
          -0.04086956045421128
        ],
        [
          0.03935121958450948,
          0.05658593087168109,
          -0.03764410832993589
        ]
      ],
      [
        [
          0.04708072732256481,
          0.018950711436106896,
          0.07665462572879052
        ],
        [
          0.03181289804818335,
          0.09958468138155586,
          0.13785500292901692
        ],
        [
          -0.12299909282026907,
          -0.06126719153295362,
          0.12895175901755912
        ]
      ],
      [
        [
          -0.0979408411858636,
          -0.034399281847097285,
          -0.06639714273752007
        ],
        [
          -0.1333284138829798,
          -0.09144043769273824,
          0.1404084921464296
        ],
        [
          -0.09661559982746779,
          -0.10302782043382518,
          0.1720622326964412
        ]
      ],
      [
        [
          -0.02750438416007356,
          -0.002882832481940848,
          0.06975253025449328
        ],
        [
          -0.06346914818123746,
          -0.021739967220718564,
          -0.0015141004417089828
        ],
        [
          -0.019164618679309537,
          0.04738123169411174,
          0.057791017467335205
        ]
      ],
      [
        [
          -0.22676221600763108,
          -0.02072157660653995,
          0.06974695935072804
        ],
        [
          -0.11602170661807933,
          -0.019494254593591,
          0.0913320873701721
        ],
        [
          -0.04184692729303027,
          -0.011073573009000626,
          0.0446338025919386
        ]
      ],
      [
        [
          0.12794065407184224,
          -0.10414798674925088,
          -0.11506729004675524
        ],
        [
          0.18999054592229883,
          -0.04806304110850289,
          -0.09494862852340476
        ],
        [
          0.2274148484603708,
          -0.149061700730336,
          -0.12396030303787069
        ]
      ],
      [
        [
          0.20550423106597518,
          -0.11101060044989408,
          -0.08206834744129118
        ],
        [
          0.11486364656246063,
          -0.12629061384056012,
          -0.051205175964404555
        ],
        [
          0.1331035206995678,
          -0.16563139484874836,
          -0.10228570134668834
        ]
      ],
      [
        [
          0.06789474784850343,
          0.01945354912770489,
          -0.009124430275223982
        ],
        [
          0.1987651460006743,
          0.06252674901482332,
          0.04176734363657583
        ],
        [
          0.24352890890186135,
          0.048409055542725836,
          0.09657210792016944
        ]
      ],
      [
        [
          0.04206797785790129,
          0.11295989042435602,
          0.008453209925693471
        ],
        [
          0.022877452593435266,
          0.012966432687774613,
          -0.13303340010193598
        ],
        [
          0.10813253678946319,
          0.21052713990685554,
          -0.08416556197696688
        ]
      ],
      [
        [
          -0.12314021950811747,
          0.12915363715486558,
          -0.07728674193838303
        ],
        [
          -0.17007902495411853,
          0.12155856413993826,
          0.09254180290077964
        ],
        [
          -0.1829577317905029,
          -0.015540014985796888,
          0.038130573079932714
        ]
      ],
      [
        [
          -0.03441973956193182,
          -0.14332432245192053,
          -0.146831473863064
        ],
        [
          0.06812782262338743,
          -0.040789442484388864,
          -0.018885565971666473
        ],
        [
          0.005895443905313222,
          -0.13158813007318837,
          -0.10033707987602376
        ]
      ],
      [
        [
          -0.096009635886567,
          0.03595859761298784,
          -0.01760793161232638
        ],
        [
          -0.07118266538382523,
          -0.03165309211867658,
          -0.08442157344799578
        ],
        [
          -0.18471069683826008,
          -0.07390896330017303,
          -0.12956788608488626
        ]
      ],
      [
        [
          -0.06459384521211527,
          0.07245939958563503,
          -0.10829674488737566
        ],
        [
          0.11322834189105621,
          0.08659676170958298,
          -0.06937702807933567
        ],
        [
          -0.03707477606915974,
          -0.013562684309221773,
          -0.04542624290858353
        ]
      ],
      [
        [
          -0.033426843334059465,
          -0.39975870224832744,
          -0.129454477706031
        ],
        [
          -0.5709222905416823,
          -0.7323218697165459,
          -0.2790205729950016
        ],
        [
          -0.2708962111357556,
          -0.4781055046594777,
          -0.024856150184831602
        ]
      ],
      [
        [
          0.11120968820138528,
          0.019435190394758977,
          0.010976631685263194
        ],
        [
          0.07868115499901329,
          0.09593817166754033,
          0.052333013620227624
        ],
        [
          0.029088765451710987,
          0.005374191684141612,
          -0.018258064582333405
        ]
      ],
      [
        [
          -0.21304643409375834,
          0.05956547471314281,
          -0.12494024597801719
        ],
        [
          -0.26581529985903907,
          0.0024180583709980867,
          0.07491183252195772
        ],
        [
          -0.22035174116938433,
          0.020228354718415865,
          0.1579403359022238
        ]
      ]
    ],
    [
      [
        [
          0.14272882734766326,
          0.02730733877007197,
          0.19930884658256504
        ],
        [
          -0.044326786277599506,
          -0.1787881129670258,
          -0.19944875876439203
        ],
        [
          0.10047810946269374,
          -0.22626386601643445,
          -0.05440361624114794
        ]
      ],
      [
        [
          -0.2644388559810804,
          -0.003944207177921146,
          0.06898568597075637
        ],
        [
          -0.1118994359706547,
          0.15352024178261128,
          0.3012304750601646
        ],
        [
          -0.1614875190419861,
          0.0876077634061108,
          -0.16535083360462288
        ]
      ],
      [
        [
          0.17018878434309437,
          0.1293148684891819,
          0.05229074416737892
        ],
        [
          0.13722790657145162,
          0.0823835525270933,
          0.002479549244187461
        ],
        [
          -0.043478674895654046,
          0.042677281671314786,
          0.046802316414260116
        ]
      ],
      [
        [
          -0.02623633062553871,
          -0.15149849531305273,
          -0.011361305048899177
        ],
        [
          0.04558208796493176,
          -0.006797343945224693,
          -0.01838124666264448
        ],
        [
          0.09516042434723307,
          0.09883210860318316,
          0.06470477679550134
        ]
      ],
      [
        [
          -0.021915558958861218,
          -0.19143794268132958,
          -0.20176014241205295
        ],
        [
          0.051356087992804875,
          0.15949904683395238,
          0.07644249211047703
        ],
        [
          -0.07202817313027904,
          0.10674113777216879,
          0.13555122268766348
        ]
      ],
      [
        [
          -0.02780165633891984,
          0.03325251422415359,
          0.03545136665495108
        ],
        [
          0.014617487805970346,
          0.03342206798323288,
          0.05838982323797222
        ],
        [
          -0.03419813775667794,
          0.07806848734437552,
          0.013582355135139182
        ]
      ],
      [
        [
          0.09519160579824056,
          0.06583954565507717,
          -0.10873060422809988
        ],
        [
          -0.1054615796217695,
          0.0031594405619503204,
          -0.02686537217519638
        ],
        [
          -0.1802244471427799,
          -0.10369179744908265,
          -0.10378981799749043
        ]
      ],
      [
        [
          -0.025258907386812433,
          0.03973421241452153,
          -0.010279552123898984
        ],
        [
          -2.7854008203960153e-05,
          -0.1640854260281314,
          -0.1158913799093912
        ],
        [
          -0.04998995126211889,
          -0.053576816578631614,
          -0.012011478995169113
        ]
      ],
      [
        [
          -0.07037280685878856,
          0.00552272323282016,
          0.258309543596569
        ],
        [
          -0.03083366694842673,
          -0.022797843605115185,
          0.1367744130450411
        ],
        [
          0.07274465633259233,
          0.08260955651713389,
          0.05154066097780493
        ]
      ],
      [
        [
          -0.22342783549644085,
          -0.04273371057103543,
          -0.1304641185120533
        ],
        [
          -0.0025815035390505873,
          0.04241071093841548,
          0.10075136192232925
        ],
        [
          -0.004426119237521274,
          0.10243884832372686,
          0.1184915024341099
        ]
      ],
      [
        [
          -0.13823334495123482,
          -0.08250013088933078,
          -0.08293063968223031
        ],
        [
          -0.07458070250535294,
          -0.09955187404610691,
          0.027951852794750025
        ],
        [
          -0.000626558158746219,
          0.05303705756997858,
          0.20586419835503592
        ]
      ],
      [
        [
          -0.13706332547630126,
          -0.06538428981328717,
          0.01941667089087311
        ],
        [
          0.03056008926221743,
          0.0070723053772590964,
          0.09428318490283179
        ],
        [
          -0.1955149292179196,
          0.11197492834606149,
          0.19477345431247908
        ]
      ],
      [
        [
          -0.09723110988372881,
          -0.0546062423376359,
          -0.12331421314266286
        ],
        [
          -0.10539103711771403,
          -0.203344414033971,
          -0.16095368228313403
        ],
        [
          0.12448413603140752,
          0.06074237844596816,
          0.0013224539241632493
        ]
      ],
      [
        [
          -0.0957840635654299,
          -0.061674533464292164,
          -0.07047066104303074
        ],
        [
          -0.09543705093783832,
          -0.046259385271831516,
          -0.005282174946642991
        ],
        [
          0.12349509435118085,
          0.04628970133609499,
          0.0009533864331752949
        ]
      ],
      [
        [
          0.26105048562703304,
          0.01897542634647897,
          0.03615976972485272
        ],
        [
          -0.13463902760663626,
          -0.16973982414920333,
          -0.22795687363205674
        ],
        [
          -0.06503004787515075,
          -0.16210996902754535,
          -0.22997517007355114
        ]
      ],
      [
        [
          -0.11195754266178214,
          -0.20335610570338603,
          -0.103251483510846
        ],
        [
          0.07383787574505327,
          -0.005315388629018593,
          0.042949244077977164
        ],
        [
          0.09724615666110896,
          0.05463613500558789,
          -0.004503816745443124
        ]
      ]
    ],
    [
      [
        [
          0.08299131703789137,
          -0.15733072937812428,
          -0.2965070426999194
        ],
        [
          0.25973555283681243,
          -0.00788100646512205,
          -0.2747843468410451
        ],
        [
          0.20428143949164088,
          0.04950136027153638,
          -0.14771725376674757
        ]
      ],
      [
        [
          0.07820893478144345,
          -0.016481014116765752,
          0.017378813434068066
        ],
        [
          0.012844274383124119,
          -0.13014454271899134,
          0.07115193301209648
        ],
        [
          -0.12298571404903934,
          -0.08653342627837741,
          -0.08432567525698909
        ]
      ],
      [
        [
          -0.002825514864668917,
          -0.09690732437628477,
          -0.012468719013277153
        ],
        [
          0.016493243220391893,
          -0.02071159453834872,
          -0.1188774691333118
        ],
        [
          0.06785251701084279,
          -0.11939393181398011,
          0.07291256248005215
        ]
      ],
      [
        [
          0.05884001715508088,
          -0.06944050249436408,
          0.15574534388027866
        ],
        [
          0.053086293352375524,
          -0.03031530810266237,
          0.1573966969083811
        ],
        [
          0.021510430411708064,
          -0.1482029410377976,
          0.09063753654280704
        ]
      ],
      [
        [
          0.028492669902622496,
          0.18272404058608815,
          0.153915448630731
        ],
        [
          -0.07593196991751029,
          -0.01650948006961796,
          0.14066712093164438
        ],
        [
          -0.12093124842785452,
          0.005418405015993001,
          0.05516801209565971
        ]
      ],
      [
        [
          0.08077643981023258,
          0.099195069953944,
          -0.18262632776181675
        ],
        [
          0.07254888916002544,
          -0.013191092191045918,
          -0.011352925145737498
        ],
        [
          0.15229648549006583,
          0.07937482537966678,
          0.05206019454695298
        ]
      ],
      [
        [
          0.035136075300478936,
          -0.08864290513013368,
          0.12102908782738143
        ],
        [
          0.05608896851742197,
          -0.08899549054736884,
          -0.03440552821749454
        ],
        [
          0.09905062881821229,
          -0.007835101276905575,
          0.005535448115917328
        ]
      ],
      [
        [
          -0.21091961311082785,
          -0.2557373334729762,
          -0.09782030979857702
        ],
        [
          -0.01674850272668057,
          -0.052455701246823784,
          -0.10350859337689668
        ],
        [
          0.1391045729968428,
          0.1421352800541327,
          0.09848570668703198
        ]
      ],
      [
        [
          -0.2614940721013465,
          -0.06190767795451282,
          -0.1267069421787353
        ],
        [
          -0.2922449270999552,
          0.08918731867779454,
          0.11693640479595568
        ],
        [
          -0.0581342310082575,
          -0.12493283626137301,
          0.02394548202565705
        ]
      ],
      [
        [
          0.1372302289668146,
          -0.20574983478546172,
          -0.2107531634927714
        ],
        [
          0.13578700043066355,
          -0.1355494254041868,
          -0.18431013427861334
        ],
        [
          0.20308130628006413,
          -0.060498033268504066,
          -0.02333312422093415
        ]
      ],
      [
        [
          -0.196687594603078,
          -0.45072278590043285,
          -0.2390214983549894
        ],
        [
          0.038259549169353396,
          -0.20097996290843365,
          -0.3704408514527296
        ],
        [
          -0.009647552407442622,
          0.10459720771958661,
          0.04613196980193643
        ]
      ],
      [
        [
          0.22620684894281265,
          0.12490791349603467,
          -0.022477988800130425
        ],
        [
          0.018704284021591227,
          -0.07232927653586392,
          0.15532336459219237
        ],
        [
          0.01125179427358077,
          -0.11777739966948839,
          -0.03852928665797372
        ]
      ],
      [
        [
          0.03735336325646963,
          -0.05943303184578749,
          -0.08336462732424524
        ],
        [
          0.03727343563949321,
          0.05012115495149528,
          -0.04259322711560343
        ],
        [
          -0.030758721234520142,
          0.007694250393712928,
          0.03869148381129622
        ]
      ],
      [
        [
          0.06259688076486178,
          0.0058523915090987555,
          -0.20279033310000885
        ],
        [
          -0.11418880184695497,
          -0.03488723099747535,
          -0.03171066444477601
        ],
        [
          0.10698082655819145,
          0.10981402663157783,
          0.09358918506783517
        ]
      ],
      [
        [
          -0.05032437428985938,
          0.008415471999942003,
          -0.15770917295440157
        ],
        [
          0.1589536467466644,
          0.09751934796301236,
          -0.059483849644286074
        ],
        [
          0.1839379567874884,
          -0.03842618656414228,
          -0.18225445709445667
        ]
      ],
      [
        [
          0.03546411975089304,
          -0.06201096859854434,
          0.24836262138169243
        ],
        [
          0.1184476904610823,
          0.04371363177784247,
          -0.15414904528457776
        ],
        [
          0.11064915216354147,
          0.034284801115891994,
          0.18673301108340018
        ]
      ]
    ],
    [
      [
        [
          0.13829961787801323,
          0.022689703212509717,
          -0.012807232391620418
        ],
        [
          0.008385056357775842,
          -0.02532426708493202,
          -0.06936034211619801
        ],
        [
          0.038286654697486315,
          -0.08972807277285923,
          0.05011567356436577
        ]
      ],
      [
        [
          -0.10757764252440821,
          -0.005218039748508218,
          0.02552046682632926
        ],
        [
          0.049701652385634024,
          0.1809254504876074,
          -0.08144993368198765
        ],
        [
          0.011703540289354426,
          0.03907919283884399,
          -0.11738412109738562
        ]
      ],
      [
        [
          -0.002493680708189587,
          -0.005657215953021406,
          -0.03784105882178597
        ],
        [
          0.11948130293964053,
          0.1710358793206182,
          -0.1500868187537449
        ],
        [
          -0.033856590402009515,
          0.08834389239389136,
          0.002460937353918982
        ]
      ],
      [
        [
          0.03772583530632618,
          -0.08271825331630339,
          0.015542675571059756
        ],
        [
          0.04365048822187965,
          -0.09951956790650043,
          0.03771660716495754
        ],
        [
          0.051875043269082356,
          -0.06788921072403212,
          -0.014284271887925493
        ]
      ],
      [
        [
          -0.1405641415411163,
          -0.24917929720079215,
          0.04180158346031234
        ],
        [
          -0.03620766011390459,
          -0.11352947840324526,
          -0.17499211591192354
        ],
        [
          -0.013187698125637977,
          0.006243411245909712,
          -0.05156964727993489
        ]
      ],
      [
        [
          0.029619721052791956,
          0.06495035629612797,
          0.01132972081000738
        ],
        [
          -0.014073975273889278,
          -0.007203747092408097,
          0.039892579112618225
        ],
        [
          0.006287895014416496,
          0.03344089715296773,
          -0.042637918409966634
        ]
      ],
      [
        [
          0.02117295494166081,
          -0.16974791364206468,
          0.04144775907986713
        ],
        [
          -0.1617893762956415,
          0.020438483459238405,
          -0.0036156104096729353
        ],
        [
          0.005227082359993362,
          0.05765061057166374,
          0.13666061046363026
        ]
      ],
      [
        [
          0.14831131258754882,
          -0.16268163784633416,
          -0.05616729399354245
        ],
        [
          -0.19225712199733722,
          -0.4185375064071885,
          -0.0369463409392074
        ],
        [
          -0.3070129137147813,
          -0.24668963534046803,
          0.02517783935629229
        ]
      ],
      [
        [
          0.019533458891150504,
          0.08709943676076569,
          0.0038205383964788884
        ],
        [
          0.21850176993255355,
          -0.31086560861238005,
          0.2242379759413444
        ],
        [
          0.12361099592722734,
          -0.03996078675766949,
          0.34047013418189737
        ]
      ],
      [
        [
          0.013689121010706809,
          0.11357980031356446,
          0.01418640766627142
        ],
        [
          0.07434349477208009,
          0.16670790761343332,
          -0.12929137812321084
        ],
        [
          0.005958979277291076,
          0.11594751731953967,
          -0.09591661057047038
        ]
      ],
      [
        [
          0.12077918375115163,
          -0.1408528323116754,
          -0.25297537140328974
        ],
        [
          -0.3248020438853248,
          -0.1853815747459563,
          -0.17512338430169958
        ],
        [
          -0.3319344898481983,
          -0.13663397788608125,
          -0.026767743811519622
        ]
      ],
      [
        [
          0.0857890367572814,
          0.010195015981008871,
          -0.2814898071731236
        ],
        [
          0.23563470085037952,
          -0.18200118075131166,
          0.0005516795538994386
        ],
        [
          -0.005029810977356228,
          -0.12457359534466554,
          0.06096013588935375
        ]
      ],
      [
        [
          0.14681129302394702,
          -0.12286176382033931,
          0.17019627433914622
        ],
        [
          0.049235791825786905,
          -0.21173101296492153,
          0.07199728718325363
        ],
        [
          -0.021583621028119445,
          -0.08219371908508931,
          0.04755235982650911
        ]
      ],
      [
        [
          -0.21015196801807393,
          0.12010518272899855,
          -0.09390471194985515
        ],
        [
          -0.001829165796188493,
          -0.006482051487020009,
          0.019745390366318866
        ],
        [
          0.018344186020290452,
          -0.1822309499253368,
          0.0313747798641848
        ]
      ],
      [
        [
          0.026059290975277642,
          -0.18336822402628566,
          0.08774393572567853
        ],
        [
          -0.07401780991749987,
          -0.30537015986283006,
          0.005910596419551129
        ],
        [
          0.03475904403804159,
          -0.14119232765019543,
          -0.004010595822994856
        ]
      ],
      [
        [
          0.16457566089563447,
          0.05470415313003588,
          0.07602555743023488
        ],
        [
          0.09153016695394231,
          0.11372607318380193,
          0.00496460047438589
        ],
        [
          0.09087280252121527,
          0.06316645647416567,
          0.1812804476567855
        ]
      ]
    ],
    [
      [
        [
          0.06811196491536421,
          0.11669123512049023,
          -0.011744034279558469
        ],
        [
          0.12974280484761724,
          -0.015057842509744117,
          -0.049078517586768594
        ],
        [
          -0.010083708769005934,
          0.07443915536065246,
          -0.0354288544636799
        ]
      ],
      [
        [
          0.05507098062567399,
          0.02683460328001841,
          -0.014021237160603663
        ],
        [
          0.060358261039900725,
          0.055382773906410575,
          -0.09485361650346058
        ],
        [
          -0.08923410710261992,
          0.03560914155707672,
          -0.06723425589934176
        ]
      ],
      [
        [
          0.017000708746763078,
          0.18651309726378298,
          0.025949772371583458
        ],
        [
          0.0032893961832379066,
          0.05013195153389077,
          -0.011499302656865839
        ],
        [
          0.0030971047696163687,
          -0.1903571665419651,
          0.04966971089675843
        ]
      ],
      [
        [
          0.18479092331403074,
          0.11226794330074852,
          0.040235266528837334
        ],
        [
          0.15082662409709927,
          -0.0442877375045425,
          -0.02002659539778479
        ],
        [
          -0.019356331333880823,
          -0.061515232411810714,
          -0.06163952639734548
        ]
      ],
      [
        [
          0.09119799311414441,
          0.06677580020365519,
          -0.10268167720930108
        ],
        [
          0.07731769171800433,
          0.04569742835907267,
          0.02648715120365793
        ],
        [
          -0.015994245022814553,
          -0.0358979760152234,
          -0.03224829322576084
        ]
      ],
      [
        [
          0.06446019232621857,
          0.05883446810722979,
          0.08278040481010475
        ],
        [
          -0.08343247992763607,
          0.010099187491409476,
          -0.032094228812803
        ],
        [
          0.023684705566753957,
          -0.007507063596541395,
          0.034614470920619346
        ]
      ],
      [
        [
          -0.06355846736889416,
          0.13228370407711956,
          0.000677635346456357
        ],
        [
          -0.1610746661935482,
          0.09930709237658628,
          -0.1041269009419856
        ],
        [
          0.09424876016029238,
          0.10678776670103918,
          0.040596122870161684
        ]
      ],
      [
        [
          0.055646421023773325,
          0.017620146597306947,
          0.18152637435800464
        ],
        [
          -0.06785048057284686,
          0.027012873632495833,
          -0.003697637961515447
        ],
        [
          0.02557415065057912,
          0.03446340233764487,
          0.0044568973895482145
        ]
      ],
      [
        [
          0.026383879493061493,
          -0.1912995318440357,
          -0.040650073827638966
        ],
        [
          -0.13883241051473258,
          -0.9300253793618114,
          -0.07857529823810147
        ],
        [
          -0.4907883360444887,
          -0.8567528171825572,
          -0.3297671557923564
        ]
      ],
      [
        [
          0.06754573287929239,
          0.1074374787095122,
          -0.1076410380474245
        ],
        [
          0.15072646956341462,
          0.03679995201566234,
          -0.10115099022742707
        ],
        [
          -0.015303626668711417,
          -0.05212587092934794,
          -0.1905692860506238
        ]
      ],
      [
        [
          0.07257224130707617,
          0.01656653943179333,
          0.05198864608626448
        ],
        [
          -0.02421103492491315,
          0.15709663388927778,
          0.10808129976272172
        ],
        [
          0.06995208947917991,
          0.06081432948022374,
          0.10017417232274242
        ]
      ],
      [
        [
          0.1599916708181433,
          0.17486633375252797,
          -0.007919369995754976
        ],
        [
          0.22731939933427342,
          -0.01728607462917157,
          0.01941289595311585
        ],
        [
          0.042985582072441665,
          -0.00924757927192449,
          -0.011896125905679586
        ]
      ],
      [
        [
          0.13091281638591562,
          -0.05658270113841695,
          -0.1007663261196363
        ],
        [
          0.11826406684410576,
          -0.05622025304402318,
          -0.06518736893069436
        ],
        [
          0.08121800039073207,
          0.08651859996534736,
          -0.04186921771783874
        ]
      ],
      [
        [
          -0.1042651268825802,
          0.10941119934214918,
          0.04201143897682254
        ],
        [
          0.12453293213055991,
          -0.03567876431503717,
          0.050701617846467394
        ],
        [
          -0.04155259897523741,
          -0.06855236085159667,
          -0.07738207575008263
        ]
      ],
      [
        [
          -0.024910393669275003,
          -0.10694197158852431,
          0.12550987430286614
        ],
        [
          -0.05968278650999668,
          -0.01600744708809222,
          -0.048019425555828825
        ],
        [
          0.049542977790923315,
          0.04363234134306139,
          -0.05988881647933041
        ]
      ],
      [
        [
          0.014182808963552044,
          0.04012662875867315,
          -0.27665286268737144
        ],
        [
          -0.07510504039751471,
          -0.12659422074528587,
          -0.15817931089642256
        ],
        [
          0.05673397828303273,
          -0.24484028163949142,
          -0.17282734114253878
        ]
      ]
    ],
    [
      [
        [
          -0.022587221560501733,
          -0.19959455174740348,
          0.19780675540212628
        ],
        [
          -0.11462007858674596,
          -0.25869788746601874,
          0.25282365347402314
        ],
        [
          -0.02242944245590443,
          -0.16377975824922775,
          0.14986793157429662
        ]
      ],
      [
        [
          0.05857356756484739,
          0.05421694288148923,
          0.013053680954793973
        ],
        [
          0.17813630801744518,
          -0.010307726486747753,
          -0.12571002001409262
        ],
        [
          -0.040955910488544314,
          -0.08277555644610324,
          -0.14287002280840153
        ]
      ],
      [
        [
          0.0063775080456710195,
          -0.09720510904080758,
          0.07986070259518355
        ],
        [
          -0.05934139382169836,
          -0.03246724008244808,
          0.17623269937372124
        ],
        [
          -0.0010426678183722176,
          0.059706001719216514,
          -0.06433590765074515
        ]
      ],
      [
        [
          -0.021022664041546846,
          -0.06470527761656189,
          0.004956951465969792
        ],
        [
          0.001680848078911205,
          -0.06844252211756578,
          0.031370981016775865
        ],
        [
          0.06386922130740916,
          -0.029125696564782876,
          -0.030137929684472667
        ]
      ],
      [
        [
          -0.24755967356720407,
          -0.13632631224362635,
          -0.20697189038733807
        ],
        [
          0.07303498791120382,
          -0.08789500216634741,
          -3.974840114116448e-05
        ],
        [
          0.08443931630626585,
          0.013531056772381315,
          -0.14317679286931392
        ]
      ],
      [
        [
          -0.04749432690166638,
          0.030893879817029714,
          0.05379139086493456
        ],
        [
          0.032361314373471776,
          -0.04652243788108232,
          -0.006897953830870585
        ],
        [
          -0.06237038284859926,
          -0.002511523168707999,
          -0.00728252363955541
        ]
      ],
      [
        [
          0.010730666667133865,
          0.09607718753518332,
          -0.06451485852873715
        ],
        [
          -0.003905560083863846,
          -0.041083114221581035,
          -0.07703813526884878
        ],
        [
          -0.02369931945280765,
          -0.0855314755945215,
          0.002588735628357777
        ]
      ],
      [
        [
          0.01912847232349796,
          -0.17007248845785347,
          -0.06794180175299125
        ],
        [
          -0.061277635493305595,
          -0.11351719363478392,
          -0.0605993453684578
        ],
        [
          -0.03852549970347527,
          -0.1034298625901371,
          -0.11086310209272289
        ]
      ],
      [
        [
          0.188201849718994,
          0.04012940880228037,
          0.1479321588519065
        ],
        [
          -0.13299804137631685,
          0.2423811555329363,
          0.13222572272178
        ],
        [
          0.05895290002799745,
          0.2362385298319602,
          0.10748724966291752
        ]
      ],
      [
        [
          0.014474656814360123,
          -0.13209055228345357,
          0.1442384756722114
        ],
        [
          0.0755929353936752,
          -0.14973832672874515,
          0.11280380775638978
        ],
        [
          0.0738386174038838,
          -0.0944800227572219,
          0.030902875482907655
        ]
      ],
      [
        [
          -0.04307713684955096,
          -0.13862355896383288,
          0.12267061581144952
        ],
        [
          -0.05545676036103291,
          0.05334530739218527,
          0.03693029647060316
        ],
        [
          -0.04328383020316319,
          -0.032177566877327375,
          0.00788659393022806
        ]
      ],
      [
        [
          -0.1347932428694146,
          -0.3560754568262734,
          0.007596531802976484
        ],
        [
          -0.1472999236852262,
          0.04755104879661638,
          0.055613255108385516
        ],
        [
          0.033951208329573705,
          0.10885720007360851,
          -0.06880940928628507
        ]
      ],
      [
        [
          -0.15026240504500893,
          -0.15609589069813717,
          -0.07428223852818246
        ],
        [
          -0.1030117603412751,
          -0.26624128226608346,
          -0.0751261115777655
        ],
        [
          0.0011552087911768252,
          -0.0912832038123187,
          -0.0502289837411239
        ]
      ],
      [
        [
          0.14407605253615505,
          0.025592085338992886,
          -0.14246411260752118
        ],
        [
          0.0018739766463520115,
          -0.08550423633131507,
          -0.05724931999157255
        ],
        [
          -0.03264021504335889,
          0.020436681375012526,
          -0.02474924011955241
        ]
      ],
      [
        [
          -0.06479106186211202,
          -0.055756559765354555,
          0.04828023575828051
        ],
        [
          -0.23496360570323668,
          -0.16262794022048443,
          -0.025495717750327235
        ],
        [
          -0.11646427856186393,
          -0.1556799941019399,
          -0.0029121871874405467
        ]
      ],
      [
        [
          0.011548356979248426,
          -0.002626116844217803,
          0.15316738740802968
        ],
        [
          0.17896697988065435,
          -0.09227794425470198,
          0.19282022734809112
        ],
        [
          0.072365796474492,
          0.010683351820848907,
          0.011942790573015302
        ]
      ]
    ],
    [
      [
        [
          -0.004955529311896422,
          0.0049422227401259376,
          0.1663451224879618
        ],
        [
          -0.03761993353643744,
          0.00027326342154420285,
          0.06044614847377261
        ],
        [
          -0.018804136922536265,
          0.0322728872268928,
          0.1263939023137944
        ]
      ],
      [
        [
          0.019319259584566834,
          0.049610199131951714,
          -0.04101284434707354
        ],
        [
          -0.03191877516222593,
          0.019824182581496205,
          0.11061789062758984
        ],
        [
          0.040912312448226566,
          -0.024867293346941863,
          0.030541070470822353
        ]
      ],
      [
        [
          -0.2357410377384952,
          0.043692554079262834,
          0.1041604911331567
        ],
        [
          -0.021959631815182047,
          0.07602982935641237,
          0.0077289426330836505
        ],
        [
          0.03242921290437474,
          0.10892992204493684,
          0.07637708390896548
        ]
      ],
      [
        [
          -0.06586044472374047,
          0.10015430058676925,
          -0.03741077117451992
        ],
        [
          0.06701207805897978,
          -0.03307098061639201,
          -0.028239399575345023
        ],
        [
          -0.01629791235720021,
          0.03281875393683899,
          -0.14889386156648285
        ]
      ],
      [
        [
          0.06768568769024984,
          0.07568523429504978,
          0.023293956920026816
        ],
        [
          0.04034113445638078,
          -0.049422501956893246,
          -0.0077749233995914315
        ],
        [
          -0.034800397838307545,
          -0.0890747289476681,
          -0.06341951097628337
        ]
      ],
      [
        [
          0.011577772544773329,
          -0.11113340117333086,
          -0.008903644649986615
        ],
        [
          -0.10252376344126246,
          -0.04982190020175,
          -0.0013230070760211305
        ],
        [
          -0.10886135136089033,
          -0.07074875432479111,
          0.11640038697814328
        ]
      ],
      [
        [
          -0.017279554854607464,
          -0.08608043719532027,
          -0.07631740432998153
        ],
        [
          -0.074612612687865,
          0.050415050662879664,
          0.028758068570378235
        ],
        [
          -0.03755473114178364,
          -0.06630670250114529,
          0.06915656471167458
        ]
      ],
      [
        [
          0.1722799649492314,
          -0.11123688552996411,
          -0.055541737106833175
        ],
        [
          -0.2775873119986185,
          -0.2812440732933805,
          -0.2736996092238304
        ],
        [
          -0.30049034707290556,
          -0.2759742976977226,
          -0.2933945540818289
        ]
      ],
      [
        [
          0.024693560967137262,
          -0.08065549491321078,
          -0.18025617857282908
        ],
        [
          -0.10175640427136817,
          -0.2871525120332728,
          -0.3055441027686141
        ],
        [
          -0.16193117843358174,
          -0.38861437391306697,
          -0.19058007645744443
        ]
      ],
      [
        [
          -0.21907278029573096,
          -0.05719561322954962,
          0.015613358132868738
        ],
        [
          -0.059818414612705206,
          0.027346951294762067,
          -0.03200955739346584
        ],
        [
          -0.07229515804451098,
          -0.078087197915079,
          -0.07569942777731177
        ]
      ],
      [
        [
          0.21706271205706373,
          -0.1655193803474728,
          0.039247935656312176
        ],
        [
          -0.28767511467548174,
          -0.37724556593381825,
          -0.3356458037755351
        ],
        [
          -0.3534235512096376,
          -0.3177997825367489,
          -0.24329759782122592
        ]
      ],
      [
        [
          0.09984873434124246,
          -0.05563485763641525,
          -0.08485210832398037
        ],
        [
          0.026224350844313113,
          -0.19332455519435254,
          -0.0859200396449092
        ],
        [
          -0.14485041664776946,
          -0.20868441153606684,
          -0.1595366801100799
        ]
      ],
      [
        [
          0.05679734469429638,
          -0.13254329950210963,
          -0.04967088056447497
        ],
        [
          -0.14327557019775494,
          -0.11941683374429733,
          -0.06759514728797093
        ],
        [
          -0.06038752745126393,
          -0.13676693903591278,
          -0.015510908849529853
        ]
      ],
      [
        [
          -0.17954184750322771,
          0.0007309635922121352,
          -0.029411872936820866
        ],
        [
          -0.05542294978064654,
          0.0571100400287875,
          0.014726397333537242
        ],
        [
          -0.068750805085048,
          0.0285176105197911,
          0.022104068922133936
        ]
      ],
      [
        [
          0.003995072177947717,
          -0.016953075265577804,
          0.1092427245078293
        ],
        [
          -0.08623818371014498,
          -0.06083116439403554,
          0.06096733507190081
        ],
        [
          -0.009625908234412896,
          -0.00847824219398081,
          0.008806947695632813
        ]
      ],
      [
        [
          0.07801684236654163,
          0.057195200726243976,
          0.055101274607273557
        ],
        [
          -0.15211488938307077,
          -0.11800725676137234,
          0.00011286123223199208
        ],
        [
          -0.13887036571819036,
          0.018206107562006312,
          -0.11477935992573716
        ]
      ]
    ],
    [
      [
        [
          0.11759419855125569,
          0.040667175287501404,
          -0.07552758828417017
        ],
        [
          -0.0814881578034,
          -0.05197348705996189,
          -0.11555622203393971
        ],
        [
          -0.05357260914225599,
          -0.08472409601193032,
          0.05716143395144533
        ]
      ],
      [
        [
          -0.05966429765954475,
          0.02844630411633928,
          -0.09016542898621492
        ],
        [
          0.04173160225000472,
          0.007060597962542878,
          -0.12746037520458703
        ],
        [
          -0.07209021322441836,
          0.0023276929718636084,
          -0.04741180879892219
        ]
      ],
      [
        [
          0.07372469059673525,
          -0.05475716965537071,
          -0.10406924471380631
        ],
        [
          -0.00867706081531328,
          0.03434461525801545,
          -0.0463448373272976
        ],
        [
          0.06721952925830714,
          -0.0378516428815928,
          -0.14266571811387013
        ]
      ],
      [
        [
          0.14621625542984865,
          -0.010610987328708257,
          0.004217474897461962
        ],
        [
          -0.08467912228877937,
          -0.07276491902490312,
          -0.043667312340127634
        ],
        [
          -0.019338967530083885,
          -0.16467080700810005,
          -0.08585184379899191
        ]
      ],
      [
        [
          0.0023785813457558275,
          0.03419431752120625,
          0.1980271876322776
        ],
        [
          -0.11924932907363842,
          -0.13417996896006476,
          -0.26275298272722647
        ],
        [
          -0.1501637180703116,
          0.030757322118526352,
          -0.18290466315856577
        ]
      ],
      [
        [
          -0.05230698209922586,
          0.023803439219819117,
          0.0010499246055669916
        ],
        [
          0.09231100994636601,
          0.022695757380354717,
          0.023838222510100267
        ],
        [
          0.044325270655123754,
          0.04328423970625878,
          0.03907287930699982
        ]
      ],
      [
        [
          -0.03040175677344758,
          -0.019286060068208134,
          -0.031840060543595713
        ],
        [
          0.007869909352650863,
          -0.05285493147287253,
          -0.0957953608618066
        ],
        [
          -0.031411029362016084,
          0.06689027054086359,
          0.02230642993207629
        ]
      ],
      [
        [
          -0.13234711525917772,
          -0.2837168717047696,
          -0.19468873360862823
        ],
        [
          -0.11461767244390773,
          -0.06484207312784962,
          -0.05161397328339889
        ],
        [
          0.003806076262314028,
          0.010456833203929294,
          0.07491016984528291
        ]
      ],
      [
        [
          0.05683127478107924,
          -0.010415814606360254,
          0.019764626683981247
        ],
        [
          -0.1903195849593913,
          -0.15195634373663394,
          0.16309198801707012
        ],
        [
          0.018871395329636546,
          -0.2834586484558448,
          -0.03121745180961829
        ]
      ],
      [
        [
          0.1240816246414002,
          0.1472900653121608,
          0.15408471376967764
        ],
        [
          0.09000083716193509,
          0.032846539249515395,
          -0.011754114488271315
        ],
        [
          0.0017952877715654335,
          -0.07326261601329885,
          -0.13377944110678633
        ]
      ],
      [
        [
          -0.24097889554155782,
          -0.2857610689280022,
          -0.07368832673920976
        ],
        [
          -0.2662211636289477,
          -0.32150082746066316,
          -0.3027932359578339
        ],
        [
          -0.07295130335553242,
          -0.1056582269214278,
          0.025327866924667902
        ]
      ],
      [
        [
          0.058306408082796184,
          -0.12651268530510623,
          0.004741276201620603
        ],
        [
          -0.10045341407745255,
          -0.14412275019497228,
          -0.1586530771989043
        ],
        [
          -0.032982859222163756,
          -0.07362267224090806,
          -0.17399471661572063
        ]
      ],
      [
        [
          0.004041230089052353,
          -0.0044658711032518235,
          0.1390306501649215
        ],
        [
          -0.05925485439661817,
          0.012782897039518553,
          -0.066805128656565
        ],
        [
          -0.057363219610184826,
          -0.043160722776553306,
          0.07829743246110331
        ]
      ],
      [
        [
          0.1376320814507886,
          0.03603764962202892,
          -0.009600567649492442
        ],
        [
          0.021094333229738138,
          -0.050089275679563665,
          0.07349930045247122
        ],
        [
          -0.050337595454997816,
          -0.16147939786886203,
          -0.02443910815097806
        ]
      ],
      [
        [
          0.00356035173604094,
          -0.09413412519438025,
          0.034732930547739696
        ],
        [
          0.051759871674668084,
          0.0034494891756772397,
          0.06990023494012199
        ],
        [
          0.06278625380737024,
          -0.018951652560604354,
          0.13688604572696106
        ]
      ],
      [
        [
          -0.03928836404744481,
          -0.2963163055702752,
          -0.21857039573574102
        ],
        [
          -0.15628474331251943,
          -0.4254796029143593,
          -0.2316156375628707
        ],
        [
          0.011963383662086843,
          -0.5015713384132214,
          -0.3115135631233783
        ]
      ]
    ],
    [
      [
        [
          0.0704204221405174,
          0.12420881728789702,
          -0.03032963788482863
        ],
        [
          0.10246641596090365,
          0.04430508606937691,
          -0.18504691874492946
        ],
        [
          0.1314491252121724,
          0.05050147878662197,
          -0.2574722606890697
        ]
      ],
      [
        [
          -0.06915084483912395,
          0.10119982243079456,
          0.3200212663140759
        ],
        [
          -0.31295839806815395,
          -0.04855604392197949,
          0.07698482304514191
        ],
        [
          -0.23872287602960768,
          -0.1117443211413796,
          0.13055058073369485
        ]
      ],
      [
        [
          -0.024863606810524897,
          0.17189121628311935,
          0.1988800356482569
        ],
        [
          -0.08253372689403997,
          0.23873124745659155,
          0.20582919601805533
        ],
        [
          -0.07177999565977591,
          -0.07071539265859714,
          0.020084096854607176
        ]
      ],
      [
        [
          -0.0030110830745220824,
          0.04492386563671342,
          -0.004227826740058176
        ],
        [
          -0.06321693515981597,
          -0.13866265474543843,
          -0.06469342615029768
        ],
        [
          -0.020447235230230724,
          -0.10520773452823247,
          -0.1292980500189549
        ]
      ],
      [
        [
          0.1219973523176187,
          -0.008498845095223145,
          -0.03405568050161719
        ],
        [
          0.028424848425853303,
          -0.07360150297897936,
          -0.0033861262130284475
        ],
        [
          0.0755660976669172,
          -0.015941417776362498,
          0.1307612242496172
        ]
      ],
      [
        [
          -0.08831252522126057,
          0.04421548153335847,
          0.10882242578061063
        ],
        [
          -0.05683686975205064,
          -0.08178987357534939,
          0.13292740848635057
        ],
        [
          -0.07493603069702805,
          0.02101959426504849,
          -0.00023355975514109442
        ]
      ],
      [
        [
          0.04472115631968227,
          -0.036745632126653556,
          -0.003038611871606589
        ],
        [
          -0.03204219436340106,
          0.03138254249681833,
          0.06135869623165932
        ],
        [
          -0.03134512517185742,
          0.0712529303604999,
          -0.16535140297509326
        ]
      ],
      [
        [
          0.12410160188604047,
          -0.19056543758674999,
          -0.2800318584880514
        ],
        [
          0.04305607616231931,
          -0.22701427484323894,
          -0.12561708853186615
        ],
        [
          0.06608347641147326,
          -0.020326540134621054,
          -0.046621468864197185
        ]
      ],
      [
        [
          -0.010897199890272626,
          0.2141790186159661,
          0.06649420881937278
        ],
        [
          0.1551080266213099,
          -0.032654108390854225,
          0.15123908947826328
        ],
        [
          0.08280673126727839,
          0.11494352076318598,
          0.24645774934082845
        ]
      ],
      [
        [
          -0.31524706299467675,
          0.031723021422695084,
          0.00874953589670526
        ],
        [
          -0.46476293328152446,
          -0.1330117547991922,
          -0.23985286221626492
        ],
        [
          -0.4174889434423333,
          -0.3210193218690411,
          -0.1939508858945509
        ]
      ],
      [
        [
          0.20928745584341932,
          -0.027769123677266014,
          -0.13986479399945523
        ],
        [
          0.0256840863270423,
          -0.053195385786362744,
          0.14728392551910852
        ],
        [
          0.1117688674055507,
          -0.022422543906836574,
          -0.05111719100114917
        ]
      ],
      [
        [
          -0.005402565236906358,
          0.23035374189951524,
          -0.09663924118113108
        ],
        [
          0.09845255359714918,
          0.057814627114306655,
          -0.04099080303993067
        ],
        [
          0.15165746273391303,
          0.08090116887411895,
          0.18407992391941697
        ]
      ],
      [
        [
          0.166094793125228,
          -0.0065554134098001985,
          -0.10973623506475912
        ],
        [
          0.27195856873442,
          0.04413140417225132,
          -0.10214117769506022
        ],
        [
          0.18230017911822366,
          0.1070628566336492,
          0.02393884461993287
        ]
      ],
      [
        [
          -0.1267778786285297,
          -0.07250075100557198,
          0.2060661159659413
        ],
        [
          -0.039716262538198925,
          -0.043713490809108815,
          0.0670882131324127
        ],
        [
          0.0066649870983302995,
          0.029758198984775993,
          -0.12699950342800673
        ]
      ],
      [
        [
          0.029425392057208975,
          -0.025986395770295694,
          0.002992445822170453
        ],
        [
          0.12409550234143481,
          -0.1305849089759951,
          -0.11808153759818601
        ],
        [
          0.16549357377559454,
          -0.005326124281233086,
          -0.1311090724905346
        ]
      ],
      [
        [
          0.13052495605707803,
          -0.18279325991366688,
          -0.029444189161439708
        ],
        [
          -0.16450046558704348,
          -0.016869620320668594,
          -0.07808264348720605
        ],
        [
          0.04539363310538206,
          -0.045893915775066234,
          -0.08119977798916636
        ]
      ]
    ],
    [
      [
        [
          0.06697874156881335,
          0.021277423173206005,
          0.021141647829411137
        ],
        [
          -0.010136338964367502,
          -0.07133430219385818,
          0.0581761455870211
        ],
        [
          -0.009622904586900037,
          -0.12748053979386892,
          0.08887368234980475
        ]
      ],
      [
        [
          -0.07501430207641006,
          -0.14371703241615522,
          -0.11904852917074357
        ],
        [
          0.0009842244373529539,
          0.059931077594053424,
          -0.0385720247764988
        ],
        [
          0.12067690528772707,
          0.1628611259650909,
          0.04822280213226512
        ]
      ],
      [
        [
          0.11674366885064467,
          -0.019093392716945837,
          -0.010229812667035895
        ],
        [
          0.017174724621153003,
          0.09708190869654484,
          0.051070128741014506
        ],
        [
          0.1189706072405234,
          -0.010418258239461563,
          0.07280798884104499
        ]
      ],
      [
        [
          0.015015405238146345,
          -0.042164739592047654,
          -0.09272413633223414
        ],
        [
          0.08195556740813201,
          -0.0007904341663899054,
          -0.07402986430002707
        ],
        [
          -0.07113678150860613,
          -0.012332415658522637,
          0.03639013129158948
        ]
      ],
      [
        [
          -0.12820131719061517,
          -0.15938811676126824,
          -0.03445697053282091
        ],
        [
          0.0446237396114624,
          0.11628960211325103,
          0.10139259948983916
        ],
        [
          -0.0531486789220888,
          -0.013232890103706017,
          0.11545374462201699
        ]
      ],
      [
        [
          0.057517284534272746,
          0.12694627581774456,
          0.03402708795803038
        ],
        [
          -0.14970750528520274,
          -0.019644406167838,
          -0.00020724167944863748
        ],
        [
          -0.08575402295059761,
          -0.10666033430746188,
          0.013880744819395153
        ]
      ],
      [
        [
          -0.05116293762618158,
          0.12231572410909043,
          0.23940864516605026
        ],
        [
          -0.10064211990313918,
          -0.006183838451453963,
          0.009869381865796015
        ],
        [
          -0.185603066987009,
          -0.052925557680901354,
          -0.045634218941201905
        ]
      ],
      [
        [
          0.021872794815707704,
          0.08327238613299484,
          0.09871496545031003
        ],
        [
          0.030882192258744987,
          0.08912045884059333,
          0.023861024865079773
        ],
        [
          -0.06508773643771089,
          -0.24387454775894402,
          0.005267776696305986
        ]
      ],
      [
        [
          0.2560723268990907,
          0.1573511600437434,
          0.18671928228297358
        ],
        [
          -0.14684837797192984,
          -0.06086471987680355,
          0.11618563498814545
        ],
        [
          0.061092591598396216,
          -0.09491395916692355,
          -0.13069326028835554
        ]
      ],
      [
        [
          0.0903120094119604,
          -0.03720727110222361,
          -0.11840816465998268
        ],
        [
          0.14583882560876027,
          0.023864876332701197,
          -0.060413464681309356
        ],
        [
          0.1816520579028439,
          -0.024493027921932455,
          0.09910287111013137
        ]
      ],
      [
        [
          -0.03418525356551284,
          0.10424985841016711,
          0.1857646437781611
        ],
        [
          -0.09993035789481222,
          0.02813524166636643,
          0.12810315463198205
        ],
        [
          -0.11222619937664856,
          -0.2556595232379695,
          0.118347079860686
        ]
      ],
      [
        [
          0.05562277054764422,
          -0.07864260001015977,
          0.07169644364016906
        ],
        [
          0.038526039130902065,
          -0.04851970441992909,
          -0.0008287770675118965
        ],
        [
          0.0789466768481496,
          -0.227429381030835,
          -0.24978532962521965
        ]
      ],
      [
        [
          0.08370965049627338,
          0.066233431939194,
          0.02534286066278545
        ],
        [
          0.07521613493544149,
          0.10799945093345754,
          0.02311332102114591
        ],
        [
          -0.052669251752953235,
          -0.037681543152619526,
          0.03816154456894628
        ]
      ],
      [
        [
          -0.12680627491324803,
          0.07287239678403994,
          0.05504406545252373
        ],
        [
          -0.2740120494143962,
          -0.2742329008372246,
          0.15517572166191668
        ],
        [
          -0.14034519982775337,
          -0.1832143406836309,
          -0.12367434936921376
        ]
      ],
      [
        [
          0.036820200087743164,
          0.047344819143429154,
          0.19286428007723969
        ],
        [
          -0.02957061876086453,
          -0.02556727434154669,
          0.028698981576643297
        ],
        [
          -0.021329802989237256,
          -0.09110861425124693,
          0.030281442352977705
        ]
      ],
      [
        [
          -0.06610496897867038,
          -0.11196017192790836,
          0.01700505805207571
        ],
        [
          -0.07261948842831292,
          0.08351483473256917,
          -0.006080734342927968
        ],
        [
          0.0018943888059474252,
          -0.17032214680430938,
          0.10371829908756679
        ]
      ]
    ],
    [
      [
        [
          0.11922078587794667,
          -0.0027033271313555915,
          -0.1611363682111228
        ],
        [
          0.11773285172756807,
          0.011289885523400503,
          -0.15625525128642215
        ],
        [
          0.12727575780611128,
          -0.07767385199907115,
          -0.15281708423157733
        ]
      ],
      [
        [
          0.0553624071031489,
          0.17238031827527775,
          0.1079480905785497
        ],
        [
          -0.0011090580848676136,
          0.20096577330165558,
          0.03775971681866682
        ],
        [
          -0.16638190200907246,
          -0.10233834446825997,
          -0.1421248225854792
        ]
      ],
      [
        [
          -0.08880344097557946,
          0.055520944913097066,
          0.12681008481505884
        ],
        [
          0.0935638271785255,
          -0.08630925543379574,
          0.011481142422511451
        ],
        [
          -0.060953532389901886,
          -0.003167871500428515,
          -0.09392301110674729
        ]
      ],
      [
        [
          -0.11202561941751693,
          -0.19461048573813813,
          -0.2830475154866997
        ],
        [
          0.13028245130049013,
          -0.051460249715756634,
          -0.21330333081653116
        ],
        [
          0.1329632293043652,
          0.0227203404671473,
          -0.15904242425757323
        ]
      ],
      [
        [
          -0.15257096889234936,
          0.003719441319615049,
          -0.13065084258741289
        ],
        [
          0.1387159327289295,
          0.0070921776776651105,
          -0.033670436786702784
        ],
        [
          -0.011032475936176922,
          0.12092906863722262,
          -0.12284394117952327
        ]
      ],
      [
        [
          -0.050125315120827636,
          -0.05966980140558323,
          -0.14497620897654798
        ],
        [
          -0.03485753055774616,
          0.12460239264288488,
          -0.027250969717043726
        ],
        [
          0.05954071243670558,
          0.08797294787283041,
          -0.08592227820726442
        ]
      ],
      [
        [
          -0.15714508011220846,
          -0.12499092732171976,
          -0.021133867781689245
        ],
        [
          -0.10575974493821762,
          0.11413793324390963,
          0.006528983789518508
        ],
        [
          -0.06013844809615533,
          -0.032488897371226795,
          0.10764825804170343
        ]
      ],
      [
        [
          0.19311563654364852,
          -0.21776931390613435,
          -0.21858394594014013
        ],
        [
          0.12265417909362812,
          -0.012438764706440236,
          -0.14923437660112676
        ],
        [
          0.06543339509351075,
          0.08496501174751964,
          -0.036496715864687106
        ]
      ],
      [
        [
          -0.043543923150061364,
          -0.37041667236876125,
          0.02853679037650128
        ],
        [
          0.03495478648190186,
          0.0065270200820785294,
          0.0852456867895994
        ],
        [
          -0.32374385178868953,
          -0.26248436240948436,
          0.03552199360583606
        ]
      ],
      [
        [
          0.1581098849827593,
          0.13149136732580746,
          -0.08598300194641424
        ],
        [
          0.11535526344031806,
          0.05986598175448059,
          -0.06674466445122348
        ],
        [
          -0.12044375553414306,
          -0.19489374645987537,
          -0.32451193164744085
        ]
      ],
      [
        [
          0.06581423266696725,
          -0.3291853011532104,
          -0.35644388943224786
        ],
        [
          0.21820303306617073,
          0.1041997486000689,
          0.0022618289352954062
        ],
        [
          0.017325284477598603,
          0.10015542387188088,
          0.01916811890632689
        ]
      ],
      [
        [
          0.14203042933205617,
          -0.07844170492707712,
          -0.00914273385558969
        ],
        [
          0.12490508351929501,
          0.00802073670913382,
          -0.03485438260633783
        ],
        [
          -0.04132788181377069,
          0.1351144677517639,
          -0.045579485622248096
        ]
      ],
      [
        [
          0.16345337887074002,
          -0.07779578930064807,
          -0.0828286411454543
        ],
        [
          0.13001894190154895,
          -0.08841264769760335,
          0.10163622033964557
        ],
        [
          0.19789807997048856,
          9.96641935797958e-06,
          0.018763912225024888
        ]
      ],
      [
        [
          0.009117171156294747,
          -0.13148424132939376,
          -0.053520470990991095
        ],
        [
          0.17723296129153257,
          0.07888036429060398,
          -0.07566185039378584
        ],
        [
          0.08056289360456736,
          0.031327646197485626,
          0.015527178101888191
        ]
      ],
      [
        [
          0.01696436520808116,
          -0.01632641696953979,
          -0.1870968466944411
        ],
        [
          0.06653487784100084,
          0.021309726284588833,
          -0.05292160253917161
        ],
        [
          0.07150646701497906,
          -0.1688850988579691,
          -0.18839142204117099
        ]
      ],
      [
        [
          0.0747408000919499,
          -0.00876277992730609,
          0.028503865023818842
        ],
        [
          0.2530795990294985,
          0.04333820365520637,
          -0.23023963748337842
        ],
        [
          0.04515754634287997,
          0.15546994424570237,
          -0.08908248581233909
        ]
      ]
    ],
    [
      [
        [
          0.027121634612677425,
          -0.17489678189408633,
          0.013444763578204955
        ],
        [
          -0.15290253151488367,
          -0.40114121883317433,
          -0.1908386260247821
        ],
        [
          -0.1213575775928512,
          -0.1708252862046175,
          -0.23791346513070902
        ]
      ],
      [
        [
          0.004469601313045314,
          -0.04851097627951399,
          -0.03617288408803312
        ],
        [
          0.04471251138685134,
          0.0341011182841082,
          -0.0628631479852897
        ],
        [
          -0.06668326010567327,
          -0.0029203935223861706,
          0.024066615773266978
        ]
      ],
      [
        [
          -0.041292047655736006,
          -0.06716117662253983,
          -0.0799537575167347
        ],
        [
          -0.03174589092686123,
          -0.13990796989719653,
          0.04919391476969787
        ],
        [
          0.06331040829058458,
          0.11543354885912255,
          0.11925381312962209
        ]
      ],
      [
        [
          -0.00230816152485793,
          0.016633047621173833,
          -0.1445343679556553
        ],
        [
          0.021330358405250088,
          0.013868182161904307,
          -0.07880263596273247
        ],
        [
          0.14583128874547205,
          0.14507538680271478,
          -0.04495740581110074
        ]
      ],
      [
        [
          -0.024171685149121536,
          -0.04609445830942865,
          -0.1123665938262278
        ],
        [
          0.09716568096128538,
          -0.05972718394046333,
          -0.11642229992631678
        ],
        [
          0.09520026924219584,
          0.033293311818885896,
          -0.05575309734476747
        ]
      ],
      [
        [
          -0.0037007847657753623,
          -0.060833920130746066,
          0.04269324571252881
        ],
        [
          0.055953570843691236,
          -0.042992264107457864,
          0.007013681528969136
        ],
        [
          -0.03293574214102565,
          0.050711772061801594,
          -0.04734914548524185
        ]
      ],
      [
        [
          -0.04444034812765181,
          0.12991006464651267,
          0.05938457514156593
        ],
        [
          -0.08275889127951219,
          0.0334804619246406,
          -0.007791409262578266
        ],
        [
          -0.18896690494010907,
          -0.1078881131184889,
          -0.047633761342591015
        ]
      ],
      [
        [
          0.16587776085203765,
          -0.05130594107746079,
          -0.030454920155523733
        ],
        [
          0.0957557812898618,
          -0.059672490761390196,
          -0.07939929531660207
        ],
        [
          -0.046954581745676155,
          -0.08029891027836106,
          -0.00502369091695705
        ]
      ],
      [
        [
          0.0824409874846268,
          -0.1253843723387685,
          0.018657897194474322
        ],
        [
          0.03178922240153942,
          -0.09915906728235589,
          -0.11862929776849684
        ],
        [
          0.13268982741679886,
          0.23979540851559725,
          0.07264183309768206
        ]
      ],
      [
        [
          -0.08585141525805197,
          -0.04160967625447107,
          -0.045979758898660766
        ],
        [
          -0.11540611388496828,
          -0.24511985940986886,
          -0.1420875759117146
        ],
        [
          0.0007158266995441665,
          -0.07578844182001493,
          -0.07687968917259899
        ]
      ],
      [
        [
          -0.010770469100848125,
          0.04091137224227084,
          0.11840335362830136
        ],
        [
          -0.035424011219448936,
          -0.04185029101488439,
          0.07802168124477628
        ],
        [
          0.005942220452773508,
          0.02290482910432367,
          0.06751828714385236
        ]
      ],
      [
        [
          -0.20983842426140759,
          -0.22817702846962407,
          -0.17230421744842062
        ],
        [
          0.12966479095329908,
          -0.18603370100600516,
          -0.1259006285496165
        ],
        [
          -0.061123014903257146,
          0.1342242157294897,
          0.144052952105698
        ]
      ],
      [
        [
          -0.13794213982802161,
          -0.03375414994702333,
          0.04857109848019624
        ],
        [
          -0.09045003930916598,
          -0.23865354670033348,
          -0.14914248326815635
        ],
        [
          0.08272752820579157,
          -0.10729109874417378,
          -0.07487047457150915
        ]
      ],
      [
        [
          0.07812722776177498,
          -0.07391107677824077,
          -0.09850091002731777
        ],
        [
          0.03142087383981193,
          0.08352989643588137,
          -0.052201098590626424
        ],
        [
          0.09260168379922216,
          0.1285287420798956,
          0.10719418084116165
        ]
      ],
      [
        [
          -0.022098837458936118,
          -0.004650154090875446,
          0.18213250269462233
        ],
        [
          -0.2015279840928982,
          -0.251113864446052,
          0.013083350312536605
        ],
        [
          -0.04460150535930473,
          -0.17341533003591558,
          -0.1329594787801042
        ]
      ],
      [
        [
          -0.2787444285708452,
          -0.06666366715112097,
          -0.043470977110702004
        ],
        [
          0.011626916357599446,
          -0.016942658366587506,
          -0.10405891842043268
        ],
        [
          0.09932563671044548,
          0.1639190717475971,
          0.020320719705319176
        ]
      ]
    ],
    [
      [
        [
          -0.014789560948633524,
          0.03655544714004292,
          -0.051134372048261864
        ],
        [
          0.0684799097110518,
          0.051855837108050556,
          0.047966773167164155
        ],
        [
          -0.04284155571324751,
          0.08060428098509087,
          0.02835796854032201
        ]
      ],
      [
        [
          -0.02803942034124875,
          0.08973710204409868,
          0.13316793976457522
        ],
        [
          0.03338139024505219,
          0.02048088639244295,
          0.13138059497446009
        ],
        [
          -0.09233980584316,
          -0.07658318074012639,
          0.04556066158169598
        ]
      ],
      [
        [
          -0.11166452970136276,
          0.09105148779854547,
          -0.07342981232496393
        ],
        [
          -0.19323803549898505,
          0.03430662599351851,
          -0.09611342430213236
        ],
        [
          0.009709068093394098,
          0.11273954655255781,
          -0.2265752173325113
        ]
      ],
      [
        [
          0.08955265792192213,
          0.12154381089297264,
