{
  "conv1.weight": [
    [
      [
        [
          -0.2104000094379421,
          -0.1728530047760587,
          -0.1388099623080786
        ],
        [
          -0.15848116166068837,
          -0.04273302107987306,
          -0.1898738578187938
        ],
        [
          -0.01559583246048447,
          0.0375914536446752,
          0.015099466270341751
        ]
      ],
      [
        [
          0.012152679426198961,
          0.006521183641438237,
          -0.0777751011448552
        ],
        [
          0.11817978878713624,
          -0.03916777183167937,
          -0.1806753855228585
        ],
        [
          -0.14076861078308747,
          0.009488494937599163,
          -0.17991591626031914
        ]
      ],
      [
        [
          0.0892302603479391,
          0.17464384957966564,
          0.20128374921765957
        ],
        [
          0.32735998369817054,
          0.26996446142410907,
          0.18791279447358758
        ],
        [
          0.20873535745079597,
          -0.10392862063364659,
          -0.16442219032498492
        ]
      ]
    ],
    [
      [
        [
          0.2822364138046434,
          0.2451139257760706,
          0.04992094403660269
        ],
        [
          0.10919892621065846,
          0.12752802195137347,
          0.20596123783498776
        ],
        [
          0.2283620267287792,
          0.2631601458880306,
          -0.05238477217501262
        ]
      ],
      [
        [
          0.08227072686063074,
          -0.19247765253601068,
          -0.12902995070854095
        ],
        [
          -0.17004860987078085,
          -0.24259633034687333,
          -0.20258004868367305
        ],
        [
          -0.1165786238077666,
          -0.09842629525737094,
          -0.06284384707642465
        ]
      ],
      [
        [
          -0.13393407464111368,
          0.03347380696553817,
          -0.10804540045557309
        ],
        [
          -0.13659731346688425,
          -0.18902750784804315,
          0.009436669021123303
        ],
        [
          -0.13418013875143173,
          -0.08437135854830458,
          0.16945232718770484
        ]
      ]
    ],
    [
      [
        [
          0.22195064967670064,
          -0.1120621327618724,
          0.02847196642964558
        ],
        [
          0.17420851147668268,
          0.11032501996505889,
          -0.3413256175903248
        ],
        [
          0.2002099317833559,
          0.18837602240079415,
          -0.3269561139642767
        ]
      ],
      [
        [
          0.07077051486684915,
          -0.12272106506048572,
          -0.08620768276843775
        ],
        [
          0.18877529683580413,
          -0.06976349727855649,
          -0.18508534911607602
        ],
        [
          0.1206364057773907,
          -0.13816999843690875,
          -0.15856034381293008
        ]
      ],
      [
        [
          0.07181762829449745,
          3.112960620702315e-05,
          -0.06366902135704125
        ],
        [
          0.2513492227443509,
          -0.02764659322850242,
          -0.2517454432124492
        ],
        [
          0.2645025405044939,
          0.15076814283826087,
          -0.3080006415435201
        ]
      ]
    ],
    [
      [
        [
          -0.08842866986056978,
          0.1996685711398954,
          -0.0027080940950768534
        ],
        [
          0.13204139200710346,
          0.13657067258995703,
          0.06447968247787235
        ],
        [
          0.15614456972899554,
          0.06918607390343924,
          -0.18559509259476828
        ]
      ],
      [
        [
          0.12743384351239578,
          0.019501573146453927,
          -0.08460475708684977
        ],
        [
          -0.01412009666182262,
          0.14960242715846572,
          -0.07286184667890157
        ],
        [
          -0.20127825489513254,
          0.12783736242852625,
          0.05377921840595578
        ]
      ],
      [
        [
          0.14417401816371425,
          0.22338324185823608,
          -0.05509432789127289
        ],
        [
          -0.008611379211620793,
          0.13150525079058242,
          0.054801053590300415
        ],
        [
          0.06026998467461214,
          -0.009821406579592871,
          -0.06467422754410482
        ]
      ]
    ],
    [
      [
        [
          0.2528053745685908,
          0.06563464925777848,
          0.1543878125951797
        ],
        [
          0.1971428229394326,
          0.2988583892281289,
          -0.1324288348161161
        ],
        [
          -0.25912929381995026,
          -0.13532188476237464,
          0.14025113956692933
        ]
      ],
      [
        [
          -0.1514442667192028,
          -0.22174298005729698,
          -0.17034215885359105
        ],
        [
          0.06177300529582191,
          0.12252313352331276,
          0.13792921096683133
        ],
        [
          -0.20395372653693625,
          -0.04344203614421007,
          0.00865806049944747
        ]
      ],
      [
        [
          -0.20508829468989442,
          -0.13174351527391628,
          -0.2689523231545699
        ],
        [
          0.13208390880802412,
          0.12034364939483294,
          0.05733083240538676
        ],
        [
          0.1902859565017037,
          -0.03239648915959394,
          0.12975519907041383
        ]
      ]
    ],
    [
      [
        [
          -0.11109270295994618,
          0.1285389617814955,
          -0.014151705768483952
        ],
        [
          -0.019676076925449586,
          -0.2444606064865218,
          -0.10822522190488876
        ],
        [
          -0.026063782899169358,
          0.02277281106756622,
          0.05142838896272244
        ]
      ],
      [
        [
          -0.09916842811682114,
          -0.21326399500385798,
          -0.08275842056520077
        ],
        [
          -0.15462873062664031,
          -0.17840009437577567,
          0.08904692548535852
        ],
        [
          -0.0245003416715796,
          0.14618284013675586,
          0.05521394065958677
        ]
      ],
      [
        [
          -0.03373906526322659,
          0.06725724216835934,
          0.008433728234894881
        ],
        [
          -0.11840662996281395,
          -0.018872297261414765,
          0.08667364809889155
        ],
        [
          -0.06119880491844535,
          -0.14306905653978072,
          -0.021289148319471325
        ]
      ]
    ],
    [
      [
        [
          0.1058344207436894,
          0.06623754448549483,
          -0.22600547124080944
        ],
        [
          -0.22606799977409497,
          -0.1440550976682205,
          -0.2905364825438727
        ],
        [
          0.07543829515223109,
          -0.24279493795301865,
          0.13621201098121943
        ]
      ],
      [
        [
          0.25888697401138944,
          0.052886330293347085,
          0.07461803941868744
        ],
        [
          0.07780048342944612,
          0.07578904136841769,
          0.11906179382437054
        ],
        [
          0.17261492533038805,
          0.27779062539140986,
          0.3140464964663161
        ]
      ],
      [
        [
          0.07306231172190386,
          -0.06353708565069655,
          -0.007485101026590148
        ],
        [
          -0.15701515615564626,
          -0.2498483098988975,
          -0.23327279974318643
        ],
        [
          -0.17819230193762314,
          -0.02367118332682388,
          -0.04245531739611033
        ]
      ]
    ],
    [
      [
        [
          -0.288630045584545,
          -0.23089080008055798,
          -0.2562504434486939
        ],
        [
          -0.07229033407205554,
          -0.09760729306595618,
          -0.17125418767031825
        ],
        [
          0.287437665766803,
          0.24442432681513204,
          0.3570859444424291
        ]
      ],
      [
        [
          -0.19108071661512846,
          -0.03288410209953132,
          0.1293401684060423
        ],
        [
          -0.2317773962098082,
          -0.18319320522322918,
          0.10801114297344784
        ],
        [
          0.19660597166022775,
          0.04391668641114559,
          0.11512211767325436
        ]
      ],
      [
        [
          0.0033277935962162625,
          0.13750233921339083,
          0.021155010884409863
        ],
        [
          0.05279609915873139,
          0.06880800687892105,
          -0.16107890482042853
        ],
        [
          0.07844614948423324,
          0.05186720510193243,
          -0.02923476162454801
        ]
      ]
    ],
    [
      [
        [
          -0.45341211887905203,
          0.014927952061062167,
          0.3533639531872495
        ],
        [
          0.016778962292286818,
          0.17083980464473547,
          -0.11718962653382313
        ],
        [
          0.09019380572773715,
          0.13877914831260726,
          -0.38110926684382657
        ]
      ],
      [
        [
          -0.33836430871846035,
          0.25316948245626875,
          0.372075910509372
        ],
        [
          -0.25649313367215554,
          -0.042039848861841804,
          0.20571012725976986
        ],
        [
          0.32890657170314225,
          0.015051449006315817,
          -0.3369015575904099
        ]
      ],
      [
        [
          -0.40998955830772243,
          0.2141278705612134,
          0.29515496043591805
        ],
        [
          -0.08711412513315794,
          -0.11079852091097152,
          0.032892383557544
        ],
        [
          0.19459295199586998,
          0.04699299511445283,
          -0.17815181512118367
        ]
      ]
    ],
    [
      [
        [
          0.18977870347146572,
          0.1575556271345532,
          0.01970054093064499
        ],
        [
          0.043302068085522304,
          0.11352965821455607,
          0.11658047585642699
        ],
        [
          -0.05172761984257537,
          0.15558914955293007,
          -0.03191973020337325
        ]
      ],
      [
        [
          -0.19863389253431565,
          -0.1986130502149137,
          -0.1775060015625712
        ],
        [
          -0.09516220147130677,
          -0.32814989978176057,
          -0.26694737362409354
        ],
        [
          0.07044525953231495,
          0.009294532613199789,
          -0.3109427399155826
        ]
      ],
      [
        [
          0.17622290195399343,
          0.018567834806329633,
          0.0702874851073
        ],
        [
          0.04928654302862613,
          0.1799380312684647,
          0.1033128121850262
        ],
        [
          0.020507293227191453,
          0.058104757480172,
          -0.03692396921847462
        ]
      ]
    ],
    [
      [
        [
          -0.12446812888984855,
          -0.28437305629507725,
          0.01794883481346535
        ],
        [
          -0.14298480976157812,
          -0.09407235000239249,
          -0.1547192579969792
        ],
        [
          0.24965741426991392,
          0.3624974271680233,
          -0.02262261424006968
        ]
      ],
      [
        [
          -0.08658482694219033,
          -0.2674403380857676,
          -0.3000479064177695
        ],
        [
          -0.15690959220706,
          -0.10561931245660622,
          0.08669260675123329
        ],
        [
          0.2700873310983825,
          0.30196557776085814,
          0.2073276256354216
        ]
      ],
      [
        [
          -0.11806519438870144,
          -0.14114737506490066,
          0.07381002435792493
        ],
        [
          0.02292534755261648,
          -0.25180786157017643,
          0.06831233712853423
        ],
        [
          0.18469144966439993,
          0.190329031345569,
          0.2158125266659541
        ]
      ]
    ],
    [
      [
        [
          -0.32451294223522165,
          0.10191607723702126,
          0.18487221093553258
        ],
        [
          0.1033783646196171,
          0.2923266777127292,
          0.13315044035440363
        ],
        [
          -0.05651806876589427,
          0.027011051468128915,
          -0.3317912312776194
        ]
      ],
      [
        [
          -0.06319964334793421,
          0.09884594288373959,
          -0.02777026713564004
        ],
        [
          0.01957767225495204,
          0.16360517519740236,
          0.15289124702265042
        ],
        [
          0.03142616130309284,
          -0.18065213257500334,
          -0.3140601163607897
        ]
      ],
      [
        [
          -0.39328124480079324,
          -0.2371682983218604,
          -0.09562229755182096
        ],
        [
          0.22432619503826995,
          0.04342037695489508,
          0.0794686999708731
        ],
        [
          0.30236211325794143,
          0.11130964785815195,
          0.05104235239315339
        ]
      ]
    ],
    [
      [
        [
          -0.06804796651875099,
          -0.1565020271318749,
          0.06224087465049436
        ],
        [
          -0.04269396653190671,
          -0.14067207267429635,
          0.07481214231533699
        ],
        [
          -0.23218319949203398,
          -0.1804360574326102,
          0.04912244873226078
        ]
      ],
      [
        [
          -0.009443136559180361,
          -0.11843030937225729,
          0.052840838595773036
        ],
        [
          -0.07242403467570914,
          0.1358252088461899,
          0.19751666149982455
        ],
        [
          0.06321511375485923,
          0.12325908636655106,
          -0.14802814120109886
        ]
      ],
      [
        [
          0.034403374469976135,
          -0.04626766584391622,
          -0.09239644143157819
        ],
        [
          0.26937553482115795,
          0.2707255808730517,
          0.1988680635370995
        ],
        [
          0.12203573905566456,
          0.21634118873873096,
          0.012299180683970767
        ]
      ]
    ],
    [
      [
        [
          0.15184751768558719,
          0.3497320632301475,
          0.13910403216041156
        ],
        [
          0.1475218180640026,
          -0.2122164539562047,
          -0.10625237096768186
        ],
        [
          0.050500235927307686,
          -0.30098288288603864,
          -0.1119744668862744
        ]
      ],
      [
        [
          0.2756508159323549,
          0.36049254809615977,
          0.30757974759363227
        ],
        [
          -0.2133397182849257,
          -0.20408613581737034,
          0.017533630371837576
        ],
        [
          -0.049550885766456575,
          -0.21543280362885014,
          -0.26264267403936875
        ]
      ],
      [
        [
          0.061365517503864396,
          0.18554295031883708,
          0.2166206430190211
        ],
        [
          -0.038721107479902137,
          -0.2524322879474243,
          -0.15446211477712157
        ],
        [
          0.05309159817194619,
          -0.2619469656557186,
          -0.024388674478530267
        ]
      ]
    ],
    [
      [
        [
          -0.21688102958779346,
          -0.11213117590616291,
          -0.18035970704668428
        ],
        [
          -0.23231826172042164,
          -0.2679072007146206,
          0.008506061542543682
        ],
        [
          -0.10907209704620464,
          0.09387387628578932,
          -0.08320968116573985
        ]
      ],
      [
        [
          0.1760525860824065,
          0.08866727836409605,
          0.04055465127761208
        ],
        [
          -0.12128935755146143,
          0.06940369399519543,
          0.2332131762339248
        ],
        [
          0.01362398268024119,
          -0.04568573631815021,
          -0.09325100554233452
        ]
      ],
      [
        [
          -0.07729710015144563,
          0.12327796707240793,
          0.14484456525543749
        ],
        [
          0.1569720463211199,
          0.2267463731633504,
          0.05960833008900889
        ],
        [
          -0.151906892485226,
          0.13745731308947257,
          -0.05592546750331376
        ]
      ]
    ],
    [
      [
        [
          0.03690515680544836,
          -0.14727216779490682,
          0.0523469681859212
        ],
        [
          0.24450188733997208,
          0.10028248824045524,
          -0.26519573033622357
        ],
        [
          0.21961472464777831,
          0.04996512643261042,
          -0.25362733177121227
        ]
      ],
      [
        [
          -0.0447704696744198,
          -0.19574706392387053,
          -0.2297778250937744
        ],
        [
          0.04080168194179436,
          0.052131801461139625,
          -0.34252948465499156
        ],
        [
          0.19558712346063317,
          0.14104771188990523,
          -0.028491804163651897
        ]
      ],
      [
        [
          0.1058073420029483,
          -0.2627269500089165,
          -0.30917008094761267
        ],
        [
          0.32808969599876014,
          0.21999857718141755,
          -0.08636008837915587
        ],
        [
          0.1906196088420447,
          0.16260791733353963,
          0.10689664363151367
        ]
      ]
    ]
  ],
  "conv1.bias": [
    0.009070551763453684,
    0.14713471426494545,
    0.11426232995459532,
    -0.08660700673336165,
    0.10274045132617003,
    -0.10314594722067279,
    0.1390223961718583,
    -0.04236408715284697,
    0.033402710116077414,
    -0.1435166018696958,
    -0.1340937562381737,
    -0.12181467947917632,
    -0.20128887198999473,
    -0.15722237895580884,
    -0.011044034512387953,
    -0.1460428786030385
  ],
  "res1_conv1.weight": [
    [
      [
        [
          0.007790208913142499,
          -0.15820585398703618,
          -0.039740507567446556
        ],
        [
          0.039002160808501496,
          -0.14444350534674902,
          0.04745791817206833
        ],
        [
          0.10382849700734315,
          0.17191372190129944,
          0.07502380806987345
        ]
      ],
      [
        [
          0.3240393471772874,
          0.2368949460102977,
          0.025641726273288742
        ],
        [
          0.16596042365732208,
          -0.07726360472396869,
          0.0029406276164621833
        ],
        [
          -0.02235876212669114,
          -0.1253270570650315,
          -0.026626014563277463
        ]
      ],
      [
        [
          0.13510158604058403,
          -0.3523738974967851,
          0.11292386054245214
        ],
        [
          -0.01534458611972491,
          -0.6713445085100012,
          0.0814838860377219
        ],
        [
          0.0733044472520627,
          -0.4509914088438855,
          0.027424704057951138
        ]
      ],
      [
        [
          0.04631808513207559,
          -0.049262605681340596,
          0.12191405318340173
        ],
        [
          0.07405468613512439,
          -0.04309258509558965,
          0.11426934829870727
        ],
        [
          -0.038407883247902994,
          0.03270878001126313,
          -0.05518486918778017
        ]
      ],
      [
        [
          -0.0523758928898672,
          0.1751346026954742,
          0.07036939443050755
        ],
        [
          -0.08158981018734057,
          0.03606900798906721,
          0.20895680336288733
        ],
        [
          -0.03505159543616303,
          0.013790577507581277,
          -0.04542134130419981
        ]
      ],
      [
        [
          0.16130482905436044,
          0.0909468188987499,
          0.06554925478005655
        ],
        [
          0.1746247188357112,
          0.003423387156259813,
          -0.08165135481390957
        ],
        [
          0.07819368935297624,
          -0.1398594220342451,
          -0.2025803868254648
        ]
      ],
      [
        [
          0.1340703435387416,
          0.24332415783862277,
          -0.03651794700961967
        ],
        [
          0.07402366122954407,
          0.037056065481375446,
          -0.16904320979100346
        ],
        [
          0.007073200206972219,
          -0.1967074399063772,
          -0.19880236665377796
        ]
      ],
      [
        [
          -0.023183100752801365,
          0.001938916967278131,
          0.10603086660698141
        ],
        [
          -0.016526080528150276,
          0.03445794101365225,
          -0.01866601826317899
        ],
        [
          0.1479120576673838,
          0.15494879977670437,
          -0.09734013671930493
        ]
      ],
      [
        [
          0.07235166419774458,
          -0.11891142100590915,
          0.42776501311392195
        ],
        [
          -0.21449365427068842,
          0.27094421318126816,
          -0.06444281768949955
        ],
        [
          0.009510996647418916,
          0.23693246973517335,
          -0.26703432659969417
        ]
      ],
      [
        [
          -0.021117147680634277,
          -0.15904301626473227,
          -0.08721155268645307
        ],
        [
          -0.1868865372462601,
          -0.16005641497539816,
          -0.023633462864862825
        ],
        [
          -0.03244943605093917,
          -0.056439112310740266,
          0.13051560321591912
        ]
      ],
      [
        [
          0.03434926697531879,
          0.08601149570752951,
          0.19137076427438562
        ],
        [
          0.0607094366458508,
          0.080176637877621,
          -0.05301074285439847
        ],
        [
          0.15655034476790505,
          -0.03518153715702289,
          -0.014786371673902798
        ]
      ],
      [
        [
          0.10277377858863133,
          -0.1474978938987459,
          0.15600247417413127
        ],
        [
          0.07331953819690683,
          0.22243396775319008,
          -0.10137713679397764
        ],
        [
          0.08599493773509646,
          -0.08075308264912953,
          -0.3885828691339697
        ]
      ],
      [
        [
          -0.10365781451662696,
          -0.1258052285270847,
          -0.07337959809106356
        ],
        [
          -0.019437191728435464,
          0.16889521639936667,
          -0.07445235597188023
        ],
        [
          -0.034017624588305546,
          0.05710691168504025,
          -0.10476285628400613
        ]
      ],
      [
        [
          0.34324591485997724,
          -0.16760343252757925,
          0.024827068622290147
        ],
        [
          0.06667265254882723,
          -0.2501026353846128,
          -0.16898624981368632
        ],
        [
          -0.11186810699010782,
          -0.17402930549931717,
          -0.11978566384343112
        ]
      ],
      [
        [
          0.014315564746422739,
          -0.03786773279979864,
          -0.10618387659623243
        ],
        [
          -0.04007502632697633,
          0.08230743851112948,
          -0.04877116576393781
        ],
        [
          0.08577538120413328,
          0.19104119416030305,
          0.07032101568144557
        ]
      ],
      [
        [
          -0.26189007023894856,
          -0.29568496855106563,
          -0.03255134995478028
        ],
        [
          -0.14594978524807672,
          -0.5257773698285857,
          0.146910239793822
        ],
        [
          -0.051957636987843364,
          -0.3561259238694204,
          0.04889565076806013
        ]
      ]
    ],
    [
      [
        [
          0.16226304901294808,
          0.0904813800818744,
          0.06809884816065814
        ],
        [
          0.13514697436592568,
          0.06700057544307217,
          -0.1596764895220971
        ],
        [
          0.05413912964417666,
          -0.13054072891363053,
          -0.06279150100921277
        ]
      ],
      [
        [
          -0.09634005587319183,
          -0.0924837039044816,
          -0.07894458276759726
        ],
        [
          0.0012154578267271697,
          0.23471248749119944,
          0.26671222350708346
        ],
        [
          -0.07855570949693014,
          0.07849210934322699,
          0.01809096264808756
        ]
      ],
      [
        [
          -0.12650638856349009,
          -0.06017417813224057,
          0.12896835877837004
        ],
        [
          -0.234202776286593,
          0.009484750597031875,
          0.2625736455931818
        ],
        [
          0.05460308505149431,
          0.12099082936039686,
          0.04940687857628021
        ]
      ],
      [
        [
          -0.02424298320294329,
          -0.07094277780213194,
          -0.0606781766093667
        ],
        [
          0.03874393350804481,
          0.0393500344095036,
          -0.017682713396397917
        ],
        [
          0.06890890922408477,
          0.03533813177686739,
          0.033005457030156525
        ]
      ],
      [
        [
          -0.12502653763026642,
          -0.10832120085581047,
          -0.2449146077268967
        ],
        [
          0.03699253660997433,
          0.18293142104916804,
          0.04438889854171969
        ],
        [
          0.10486432625324069,
          0.15147014479510046,
          0.03792302807033278
        ]
      ],
      [
        [
          -0.049428824790739755,
          -0.01935082261102374,
          0.11304232399797837
        ],
        [
          -0.11659926329587848,
          0.04893428231444435,
          0.0441248536619804
        ],
        [
          0.022900046796964453,
          0.12557184483654865,
          0.09875047300465227
        ]
      ],
      [
        [
          0.22526136680230593,
          -0.008921411504285196,
          -0.08966361262137035
        ],
        [
          0.10111837180319701,
          0.029996106459903193,
          0.018522124692131083
        ],
        [
          0.152127294400642,
          0.03765231737355973,
          0.010470409477273093
        ]
      ],
      [
        [
          0.21773204179569058,
          0.16556253311804076,
          0.1397074421259258
        ],
        [
          0.08070732635337892,
          -0.10297082701963654,
          -0.050832363990493554
        ],
        [
          0.05157576530210517,
          -0.16561339643410047,
          -0.09854159175620374
        ]
      ],
      [
        [
          -0.45839910948224705,
          -0.08436124247078075,
          0.03587792422107444
        ],
        [
          -0.10690876636727682,
          -0.4012394312720244,
          -0.16041923131246585
        ],
        [
          -0.08096715298890404,
          -0.06446309113331913,
          0.10077089667613698
        ]
      ],
      [
        [
          0.06153845035552786,
          -0.010909028221670758,
          -0.0007616765178260423
        ],
        [
          0.24310961288511582,
          0.33263976973272524,
          0.2510392039270657
        ],
        [
          0.16746232407049008,
          0.0756402676044295,
          -0.10093574989102824
        ]
      ],
      [
        [
          0.14922841370432588,
          0.121844120943903,
          0.06527392351871661
        ],
        [
          0.013778523793260979,
          -0.19329809073823934,
          0.06972466747254996
        ],
        [
          0.029996799257055406,
          -0.023655282724267826,
          0.029368156524213443
        ]
      ],
      [
        [
          -0.0921424826518231,
          -0.003992661971965775,
          -0.05190453727713876
        ],
        [
          0.14489396547320785,
          -0.10124671319089998,
          -0.019027846611317914
        ],
        [
          0.10423899956893234,
          0.12274129162407406,
          -0.010207061388523259
        ]
      ],
      [
        [
          0.09237925280189514,
          -0.003401934542346812,
          -0.10229933687218169
        ],
        [
          0.1381733950322775,
          -0.06123433248336204,
          -0.15106547261222858
        ],
        [
          -0.05496191329296801,
          -0.07327391999554204,
          0.11033112667097507
        ]
      ],
      [
        [
          -0.11204401259468133,
          -0.18063458725699522,
          0.17483039640547537
        ],
        [
          0.08972470106031209,
          0.10364159596350442,
          0.08897373281154927
        ],
        [
          0.06649837040815176,
          0.12073688628316402,
          0.0745715571158621
        ]
      ],
      [
        [
          0.2365652937209779,
          0.010383269403232614,
          0.07800706432916092
        ],
        [
          0.06415700008651126,
          -0.1695935896177936,
          -0.16457744183173068
        ],
        [
          -0.051335233502160973,
          -0.15365947298738875,
          -0.04334892678677806
        ]
      ],
      [
        [
          0.020417984106679603,
          -0.1261895233431268,
          -0.06544943287650412
        ],
        [
          -0.2173246792316194,
          -0.23640607040069692,
          0.02754787013817068
        ],
        [
          0.049285033370144206,
          -0.1281963933583823,
          0.024747342733917554
        ]
      ]
    ],
    [
      [
        [
          -0.006060975315682802,
          0.05467841669184936,
          -0.0544099890255259
        ],
        [
          0.03793991317245587,
          0.02420353805344259,
          -0.04086956045421149
        ],
        [
          0.03935121958450969,
          0.05658593087168077,
          -0.03764410832993606
        ]
      ],
      [
        [
          0.04708072732256497,
          0.018950711436106955,
          0.07665462572879028
        ],
        [
          0.031812898048183665,
          0.09958468138155607,
          0.13785500292901667
        ],
        [
          -0.12299909282026904,
          -0.061267191532953916,
          0.12895175901755918
        ]
      ],
      [
        [
          -0.09794084118586374,
          -0.03439928184709687,
          -0.06639714273752025
        ],
        [
          -0.13332841388297956,
          -0.09144043769273759,
          0.140408492146431
        ],
        [
          -0.09661559982746719,
          -0.1030278204338248,
          0.17206223269644108
        ]
      ],
      [
        [
          -0.0275043841600739,
          -0.002882832481940855,
          0.06975253025449321
        ],
        [
          -0.06346914818123736,
          -0.021739967220718512,
          -0.0015141004417089875
        ],
        [
          -0.019164618679309662,
          0.047381231694111445,
          0.05779101746733565
        ]
      ],
      [
        [
          -0.22676221600763158,
          -0.020721576606540053,
          0.06974695935072793
        ],
        [
          -0.11602170661807913,
          -0.01949425459359106,
          0.09133208737017201
        ],
        [
          -0.04184692729303045,
          -0.011073573009000567,
          0.044633802591938374
        ]
      ],
      [
        [
          0.12794065407184244,
          -0.10414798674925116,
          -0.1150672900467552
        ],
        [
          0.18999054592229866,
          -0.04806304110850263,
          -0.0949486285234047
        ],
        [
          0.22741484846037038,
          -0.1490617007303356,
          -0.12396030303787062
        ]
      ],
      [
        [
          0.20550423106597507,
          -0.11101060044989444,
          -0.08206834744129117
        ],
        [
          0.11486364656246126,
          -0.1262906138405594,
          -0.05120517596440436
        ],
        [
          0.13310352069956835,
          -0.16563139484874828,
          -0.10228570134668845
        ]
      ],
      [
        [
          0.06789474784850344,
          0.019453549127705003,
          -0.009124430275223755
        ],
        [
          0.19876514600067371,
          0.0625267490148232,
          0.04176734363657627
        ],
        [
          0.2435289089018614,
          0.04840905554272539,
          0.09657210792016957
        ]
      ],
      [
        [
          0.04206797785790129,
          0.11295989042435582,
          0.008453209925693284
        ],
        [
          0.022877452593435346,
          0.012966432687774424,
          -0.13303340010193604
        ],
        [
          0.10813253678946334,
          0.2105271399068557,
          -0.08416556197696663
        ]
      ],
      [
        [
          -0.12314021950811616,
          0.12915363715486639,
          -0.07728674193838275
        ],
        [
          -0.17007902495411847,
          0.12155856413993804,
          0.0925418029007797
        ],
        [
          -0.1829577317905033,
          -0.015540014985796727,
          0.038130573079932714
        ]
      ],
      [
        [
          -0.03441973956193194,
          -0.14332432245192048,
          -0.1468314738630634
        ],
        [
          0.06812782262338717,
          -0.04078944248438879,
          -0.01888556597166605
        ],
        [
          0.005895443905312964,
          -0.13158813007318812,
          -0.10033707987602355
        ]
      ],
      [
        [
          -0.09600963588656636,
          0.035958597612988155,
          -0.01760793161232661
        ],
        [
          -0.07118266538382553,
          -0.03165309211867731,
          -0.08442157344799571
        ],
        [
          -0.18471069683826008,
          -0.07390896330017294,
          -0.1295678860848861
        ]
      ],
      [
        [
          -0.06459384521211611,
          0.07245939958563491,
          -0.1082967448873758
        ],
        [
          0.11322834189105578,
          0.08659676170958337,
          -0.06937702807933539
        ],
        [
          -0.037074776069159696,
          -0.01356268430922178,
          -0.04542624290858346
        ]
      ],
      [
        [
          -0.03342684333406027,
          -0.39975870224832716,
          -0.12945447770603086
        ],
        [
          -0.5709222905416833,
          -0.7323218697165459,
          -0.2790205729950019
        ],
        [
          -0.2708962111357558,
          -0.4781055046594769,
          -0.024856150184831963
        ]
      ],
      [
        [
          0.11120968820138531,
          0.019435190394758814,
          0.010976631685263279
        ],
        [
          0.07868115499901285,
          0.09593817166754039,
          0.05233301362022733
        ],
        [
          0.02908876545171148,
          0.005374191684141717,
          -0.01825806458233344
        ]
      ],
      [
        [
          -0.21304643409375815,
          0.05956547471314332,
          -0.12494024597801791
        ],
        [
          -0.26581529985903785,
          0.0024180583709985538,
          0.07491183252195766
        ],
        [
          -0.2203517411693841,
          0.020228354718415886,
          0.1579403359022232
        ]
      ]
    ],
    [
      [
        [
          0.14272882734766335,
          0.027307338770071885,
          0.1993088465825649
        ],
        [
          -0.04432678627760006,
          -0.17878811296702618,
          -0.19944875876439275
        ],
        [
          0.1004781094626944,
          -0.22626386601643472,
          -0.05440361624114838
        ]
      ],
      [
        [
          -0.26443885598108,
          -0.003944207177921277,
          0.06898568597075654
        ],
        [
          -0.11189943597065488,
          0.1535202417826113,
          0.3012304750601645
        ],
        [
          -0.16148751904198602,
          0.0876077634061115,
          -0.16535083360462347
        ]
      ],
      [
        [
          0.17018878434309437,
          0.12931486848918172,
          0.05229074416737885
        ],
        [
          0.13722790657145137,
          0.08238355252709349,
          0.002479549244187573
        ],
        [
          -0.043478674895653976,
          0.042677281671315265,
          0.04680231641426043
        ]
      ],
      [
        [
          -0.0262363306255388,
          -0.15149849531305254,
          -0.011361305048899359
        ],
        [
          0.0455820879649318,
          -0.006797343945224426,
          -0.018381246662644533
        ],
        [
          0.09516042434723337,
          0.09883210860318314,
          0.06470477679550135
        ]
      ],
      [
        [
          -0.02191555895886071,
          -0.1914379426813298,
          -0.20176014241205353
        ],
        [
          0.05135608799280501,
          0.15949904683395255,
          0.0764424921104772
        ],
        [
          -0.07202817313027884,
          0.10674113777216898,
          0.13555122268766262
        ]
      ],
      [
        [
          -0.02780165633891988,
          0.033252514224153484,
          0.035451366654951105
        ],
        [
          0.01461748780597058,
          0.0334220679832327,
          0.05838982323797234
        ],
        [
          -0.03419813775667773,
          0.07806848734437584,
          0.013582355135139284
        ]
      ],
      [
        [
          0.09519160579824121,
          0.06583954565507769,
          -0.10873060422809996
        ],
        [
          -0.10546157962176964,
          0.0031594405619504913,
          -0.026865372175196744
        ],
        [
          -0.18022444714278116,
          -0.10369179744908301,
          -0.10378981799748997
        ]
      ],
      [
        [
          -0.025258907386812184,
          0.03973421241452173,
          -0.01027955212389899
        ],
        [
          -2.785400820392906e-05,
          -0.16408542602813142,
          -0.11589137990939187
        ],
        [
          -0.049989951262118984,
          -0.0535768165786315,
          -0.012011478995168823
        ]
      ],
      [
        [
          -0.07037280685878901,
          0.005522723232820369,
          0.2583095435965683
        ],
        [
          -0.03083366694842612,
          -0.022797843605115397,
          0.13677441304504126
        ],
        [
          0.0727446563325919,
          0.08260955651713331,
          0.05154066097780531
        ]
      ],
      [
        [
          -0.22342783549644035,
          -0.04273371057103605,
          -0.13046411851205375
        ],
        [
          -0.002581503539051353,
          0.042410710938415024,
          0.10075136192232836
        ],
        [
          -0.0044261192375208685,
          0.1024388483237268,
          0.11849150243410941
        ]
      ],
      [
        [
          -0.1382333449512349,
          -0.08250013088933042,
          -0.08293063968222998
        ],
        [
          -0.07458070250535313,
          -0.0995518740461068,
          0.027951852794749845
        ],
        [
          -0.0006265581587465988,
          0.053037057569978466,
          0.2058641983550371
        ]
      ],
      [
        [
          -0.13706332547630157,
          -0.06538428981328757,
          0.01941667089087167
        ],
        [
          0.030560089262217285,
          0.007072305377259307,
          0.09428318490283161
        ],
        [
          -0.19551492921791866,
          0.11197492834606193,
          0.19477345431247853
        ]
      ],
      [
        [
          -0.09723110988372886,
          -0.05460624233763584,
          -0.12331421314266405
        ],
        [
          -0.10539103711771412,
          -0.20334441403397063,
          -0.1609536822831339
        ],
        [
          0.12448413603140776,
          0.060742378445968186,
          0.0013224539241630242
        ]
      ],
      [
        [
          -0.09578406356542982,
          -0.06167453346429268,
          -0.07047066104303076
        ],
        [
          -0.09543705093783776,
          -0.046259385271830974,
          -0.0052821749466429235
        ],
        [
          0.12349509435118097,
          0.04628970133609556,
          0.0009533864331756641
        ]
      ],
      [
        [
          0.2610504856270328,
          0.018975426346478228,
          0.03615976972485298
        ],
        [
          -0.13463902760663604,
          -0.16973982414920358,
          -0.22795687363205622
        ],
        [
          -0.06503004787515076,
          -0.16210996902754596,
          -0.22997517007355103
        ]
      ],
      [
        [
          -0.11195754266178255,
          -0.2033561057033865,
          -0.10325148351084555
        ],
        [
          0.07383787574505303,
          -0.0053153886290187545,
          0.042949244077977004
        ],
        [
          0.09724615666110956,
          0.05463613500558753,
          -0.004503816745442788
        ]
      ]
    ],
    [
      [
        [
          0.08299131703789146,
          -0.1573307293781232,
          -0.2965070426999194
        ],
        [
          0.259735552836813,
          -0.007881006465121689,
          -0.2747843468410446
        ],
        [
          0.2042814394916415,
          0.049501360271536655,
          -0.1477172537667481
        ]
      ],
      [
        [
          0.07820893478144339,
          -0.016481014116766023,
          0.017378813434067844
        ],
        [
          0.0128442743831239,
          -0.13014454271899162,
          0.0711519330120966
        ],
        [
          -0.12298571404903966,
          -0.08653342627837768,
          -0.0843256752569889
        ]
      ],
      [
        [
          -0.0028255148646686283,
          -0.096907324376285,
          -0.012468719013277393
        ],
        [
          0.016493243220391904,
          -0.020711594538348695,
          -0.11887746913331218
        ],
        [
          0.06785251701084254,
          -0.11939393181398052,
          0.07291256248005205
        ]
      ],
      [
        [
          0.05884001715508069,
          -0.06944050249436406,
          0.155745343880279
        ],
        [
          0.053086293352375295,
          -0.03031530810266264,
          0.15739669690838068
        ],
        [
          0.021510430411707807,
          -0.1482029410377976,
          0.09063753654280701
        ]
      ],
      [
        [
          0.028492669902622596,
          0.182724040586088,
          0.1539154486307316
        ],
        [
          -0.07593196991751042,
          -0.01650948006961825,
          0.14066712093164427
        ],
        [
          -0.12093124842785508,
          0.005418405015992982,
          0.055168012095660295
        ]
      ],
      [
        [
          0.08077643981023255,
          0.09919506995394425,
          -0.18262632776181711
        ],
        [
          0.07254888916002487,
          -0.0131910921910456,
          -0.011352925145737545
        ],
        [
          0.15229648549006541,
          0.07937482537966657,
          0.05206019454695261
        ]
      ],
      [
        [
          0.03513607530047887,
          -0.08864290513013416,
          0.1210290878273807
        ],
        [
          0.05608896851742269,
          -0.08899549054736883,
          -0.03440552821749486
        ],
        [
          0.09905062881821283,
          -0.007835101276905536,
          0.005535448115917407
        ]
      ],
      [
        [
          -0.2109196131108276,
          -0.2557373334729759,
          -0.09782030979857674
        ],
        [
          -0.01674850272668074,
          -0.05245570124682454,
          -0.10350859337689583
        ],
        [
          0.1391045729968429,
          0.14213528005413323,
          0.09848570668703212
        ]
      ],
      [
        [
          -0.26149407210134645,
          -0.06190767795451303,
          -0.12670694217873485
        ],
        [
          -0.29224492709995437,
          0.0891873186777945,
          0.1169364047959562
        ],
        [
          -0.058134231008257826,
          -0.12493283626137344,
          0.02394548202565664
        ]
      ],
      [
        [
          0.13723022896681475,
          -0.205749834785462,
          -0.21075316349277176
        ],
        [
          0.13578700043066322,
          -0.1355494254041864,
          -0.1843101342786137
        ],
        [
          0.20308130628006343,
          -0.06049803326850475,
          -0.023333124220934448
        ]
      ],
      [
        [
          -0.19668759460307894,
          -0.45072278590043413,
          -0.23902149835498965
        ],
        [
          0.03825954916935352,
          -0.20097996290843306,
          -0.3704408514527287
        ],
        [
          -0.00964755240744236,
          0.10459720771958657,
          0.04613196980193634
        ]
      ],
      [
        [
          0.2262068489428129,
          0.1249079134960353,
          -0.02247798880013029
        ],
        [
          0.018704284021591477,
          -0.07232927653586363,
          0.15532336459219356
        ],
        [
          0.011251794273580067,
          -0.11777739966948857,
          -0.038529286657974074
        ]
      ],
      [
        [
          0.037353363256469825,
          -0.05943303184578769,
          -0.08336462732424521
        ],
        [
          0.037273435639493334,
          0.050121154951495085,
          -0.042593227115603566
        ],
        [
          -0.03075872123452037,
          0.007694250393712909,
          0.03869148381129629
        ]
      ],
      [
        [
          0.06259688076486167,
          0.005852391509098689,
          -0.20279033310000932
        ],
        [
          -0.11418880184695528,
          -0.03488723099747519,
          -0.03171066444477599
        ],
        [
          0.10698082655819148,
          0.10981402663157727,
          0.0935891850678351
        ]
      ],
      [
        [
          -0.0503243742898593,
          0.008415471999942028,
          -0.15770917295440154
        ],
        [
          0.15895364674666432,
          0.09751934796301272,
          -0.0594838496442861
        ],
        [
          0.18393795678748845,
          -0.038426186564141936,
          -0.18225445709445626
        ]
      ],
      [
        [
          0.03546411975089308,
          -0.062010968598544214,
          0.2483626213816916
        ],
        [
          0.11844769046108236,
          0.04371363177784364,
          -0.15414904528457826
        ],
        [
          0.11064915216354146,
          0.03428480111589228,
          0.18673301108340043
        ]
      ]
    ],
    [
      [
        [
          0.13829961787801304,
          0.02268970321250974,
          -0.012807232391620437
        ],
        [
          0.008385056357775634,
          -0.02532426708493187,
          -0.06936034211619808
        ],
        [
          0.03828665469748631,
          -0.08972807277285906,
          0.050115673564365894
        ]
      ],
      [
        [
          -0.10757764252440825,
          -0.005218039748508067,
          0.025520466826329236
        ],
        [
          0.04970165238563413,
          0.1809254504876072,
          -0.08144993368198802
        ],
        [
          0.01170354028935464,
          0.03907919283884434,
          -0.11738412109738514
        ]
      ],
      [
        [
          -0.0024936807081896066,
          -0.005657215953021411,
          -0.03784105882178662
        ],
        [
          0.11948130293963984,
          0.17103587932061776,
          -0.1500868187537445
        ],
        [
          -0.033856590402009425,
          0.08834389239389139,
          0.0024609373539189886
        ]
      ],
      [
        [
          0.0377258353063262,
          -0.08271825331630335,
          0.015542675571059563
        ],
        [
          0.043650488221879814,
          -0.09951956790650003,
          0.03771660716495701
        ],
        [
          0.05187504326908206,
          -0.06788921072403167,
          -0.014284271887925793
        ]
      ],
      [
        [
          -0.1405641415411161,
          -0.24917929720079302,
          0.04180158346031252
        ],
        [
          -0.03620766011390474,
          -0.11352947840324516,
          -0.1749921159119242
        ],
        [
          -0.01318769812563775,
          0.0062434112459098055,
          -0.05156964727993502
        ]
      ],
      [
        [
          0.029619721052791974,
          0.06495035629612787,
          0.011329720810007302
        ],
        [
          -0.014073975273889327,
          -0.007203747092408268,
          0.03989257911261797
        ],
        [
          0.006287895014416662,
          0.033440897152968045,
          -0.042637918409966676
        ]
      ],
      [
        [
          0.021172954941661302,
          -0.16974791364206437,
          0.041447759079867065
        ],
        [
          -0.1617893762956416,
          0.020438483459238533,
          -0.0036156104096728924
        ],
        [
          0.005227082359993307,
          0.057650610571663326,
          0.13666061046363
        ]
      ],
      [
        [
          0.14831131258754857,
          -0.16268163784633383,
          -0.05616729399354212
        ],
        [
          -0.1922571219973364,
          -0.41853750640718795,
          -0.036946340939207824
        ],
        [
          -0.30701291371478134,
          -0.2466896353404686,
          0.025177839356292316
        ]
      ],
      [
        [
          0.019533458891150518,
          0.08709943676076573,
          0.003820538396479174
        ],
        [
          0.21850176993255366,
          -0.3108656086123801,
          0.2242379759413449
        ],
        [
          0.12361099592722817,
          -0.03996078675767059,
          0.3404701341818986
        ]
      ],
      [
        [
          0.013689121010706629,
          0.11357980031356411,
          0.014186407666271248
        ],
        [
          0.07434349477207958,
          0.16670790761343296,
          -0.12929137812321154
        ],
        [
          0.005958979277291148,
          0.11594751731953991,
          -0.09591661057046996
        ]
      ],
      [
        [
          0.12077918375115164,
          -0.14085283231167534,
          -0.2529753714032892
        ],
        [
          -0.32480204388532424,
          -0.18538157474595662,
          -0.17512338430170066
        ],
        [
          -0.331934489848199,
          -0.1366339778860811,
          -0.026767743811519785
        ]
      ],
      [
        [
          0.08578903675728188,
          0.010195015981009227,
          -0.2814898071731224
        ],
        [
          0.23563470085037985,
          -0.1820011807513115,
          0.0005516795539002183
        ],
        [
          -0.005029810977355328,
          -0.12457359534466575,
          0.06096013588935334
        ]
      ],
      [
        [
          0.14681129302394713,
          -0.12286176382033942,
          0.17019627433914603
        ],
        [
          0.049235791825787,
          -0.21173101296492133,
          0.07199728718325327
        ],
        [
          -0.021583621028119424,
          -0.08219371908508914,
          0.047552359826510085
        ]
      ],
      [
        [
          -0.21015196801807343,
          0.12010518272899909,
          -0.09390471194985515
        ],
        [
          -0.0018291657961883002,
          -0.006482051487019823,
          0.01974539036631929
        ],
        [
          0.018344186020290646,
          -0.18223094992533737,
          0.031374779864184695
        ]
      ],
      [
        [
          0.026059290975277084,
          -0.18336822402628605,
          0.08774393572567823
        ],
        [
          -0.07401780991749984,
          -0.3053701598628312,
          0.005910596419551361
        ],
        [
          0.03475904403804169,
          -0.14119232765019604,
          -0.004010595822994355
        ]
      ],
      [
        [
          0.16457566089563447,
          0.05470415313003601,
          0.07602555743023488
        ],
        [
          0.09153016695394244,
          0.113726073183802,
          0.004964600474386742
        ],
        [
          0.09087280252121548,
          0.06316645647416574,
          0.18128044765678616
        ]
      ]
    ],
    [
      [
        [
          0.06811196491536443,
          0.11669123512049018,
          -0.011744034279558157
        ],
        [
          0.12974280484761772,
          -0.015057842509743865,
          -0.049078517586767956
        ],
        [
          -0.010083708769006132,
          0.07443915536065235,
          -0.0354288544636797
        ]
      ],
      [
        [
          0.05507098062567371,
          0.02683460328001851,
          -0.01402123716060341
        ],
        [
          0.06035826103990088,
          0.05538277390641043,
          -0.09485361650345998
        ],
        [
          -0.08923410710261999,
          0.03560914155707673,
          -0.06723425589934205
        ]
      ],
      [
        [
          0.017000708746762842,
          0.18651309726378282,
          0.025949772371584398
        ],
        [
          0.0032893961832377518,
          0.05013195153389054,
          -0.011499302656864621
        ],
        [
          0.0030971047696167282,
          -0.1903571665419648,
          0.0496697108967583
        ]
      ],
      [
        [
          0.18479092331403071,
          0.11226794330074857,
          0.040235266528837584
        ],
        [
          0.15082662409709935,
          -0.04428773750454245,
          -0.020026595397784872
        ],
        [
          -0.019356331333880577,
          -0.06151523241181039,
          -0.0616395263973458
        ]
      ],
      [
        [
          0.09119799311414382,
          0.06677580020365458,
          -0.10268167720930178
        ],
        [
          0.0773176917180046,
          0.04569742835907287,
          0.02648715120365801
        ],
        [
          -0.01599424502281488,
          -0.03589797601522349,
          -0.03224829322576104
        ]
      ],
      [
        [
          0.06446019232621858,
          0.05883446810722996,
          0.08278040481010478
        ],
        [
          -0.08343247992763676,
          0.010099187491409497,
          -0.03209422881280285
        ],
        [
          0.023684705566754137,
          -0.007507063596541377,
          0.03461447092061985
        ]
      ],
      [
        [
          -0.06355846736889408,
          0.1322837040771195,
          0.0006776353464560526
        ],
        [
          -0.1610746661935477,
          0.09930709237658585,
          -0.10412690094198608
        ],
        [
          0.09424876016029281,
          0.10678776670103986,
          0.04059612287016214
        ]
      ],
      [
        [
          0.05564642102377339,
          0.017620146597307113,
          0.18152637435800417
        ],
        [
          -0.06785048057284672,
          0.027012873632495778,
          -0.0036976379615155618
        ],
        [
          0.02557415065057918,
          0.03446340233764464,
          0.0044568973895480314
        ]
      ],
      [
        [
          0.02638387949306178,
          -0.19129953184403586,
          -0.040650073827638376
        ],
        [
          -0.13883241051473283,
          -0.9300253793618106,
          -0.07857529823810312
        ],
        [
          -0.490788336044487,
          -0.8567528171825555,
          -0.32976715579235727
        ]
      ],
      [
        [
          0.06754573287929215,
          0.10743747870951303,
          -0.10764103804742384
        ],
        [
          0.15072646956341387,
          0.036799952015662434,
          -0.10115099022742674
        ],
        [
          -0.015303626668711958,
          -0.05212587092934789,
          -0.19056928605062293
        ]
      ],
      [
        [
          0.07257224130707661,
          0.01656653943179381,
          0.051988646086264384
        ],
        [
          -0.024211034924913225,
          0.1570966338892777,
          0.10808129976272147
        ],
        [
          0.06995208947917993,
          0.06081432948022342,
          0.100174172322742
        ]
      ],
      [
        [
          0.15999167081814356,
          0.17486633375252678,
          -0.007919369995755161
        ],
        [
          0.2273193993342744,
          -0.01728607462917106,
          0.01941289595311525
        ],
        [
          0.04298558207244249,
          -0.009247579271925033,
          -0.011896125905681083
        ]
      ],
      [
        [
          0.13091281638591493,
          -0.056582701138417166,
          -0.1007663261196366
        ],
        [
          0.11826406684410555,
          -0.05622025304402346,
          -0.0651873689306947
        ],
        [
          0.08121800039073265,
          0.08651859996534815,
          -0.04186921771783797
        ]
      ],
      [
        [
          -0.1042651268825805,
          0.10941119934214937,
          0.04201143897682269
        ],
        [
          0.12453293213055981,
          -0.035678764315037685,
          0.05070161784646728
        ],
        [
          -0.041552598975237394,
          -0.06855236085159652,
          -0.07738207575008385
        ]
      ],
      [
        [
          -0.02491039366927502,
          -0.10694197158852503,
          0.1255098743028659
        ],
        [
          -0.05968278650999647,
          -0.016007447088092264,
          -0.04801942555582897
        ],
        [
          0.049542977790922905,
          0.04363234134306187,
          -0.05988881647933021
        ]
      ],
      [
        [
          0.01418280896355171,
          0.04012662875867339,
          -0.27665286268737105
        ],
        [
          -0.07510504039751496,
          -0.12659422074528537,
          -0.1581793108964212
        ],
        [
          0.056733978283032796,
          -0.24484028163949226,
          -0.17282734114253925
        ]
      ]
    ],
    [
      [
        [
          -0.02258722156050175,
          -0.19959455174740418,
          0.19780675540212553
        ],
        [
          -0.11462007858674583,
          -0.2586978874660186,
          0.2528236534740226
        ],
        [
          -0.022429442455904263,
          -0.16377975824922716,
          0.14986793157429723
        ]
      ],
      [
        [
          0.058573567564846545,
          0.0542169428814892,
          0.013053680954794387
        ],
        [
          0.1781363080174453,
          -0.010307726486747729,
          -0.12571002001409284
        ],
        [
          -0.04095591048854442,
          -0.08277555644610368,
          -0.14287002280840172
        ]
      ],
      [
        [
          0.006377508045670976,
          -0.09720510904080744,
          0.07986070259518327
        ],
        [
          -0.05934139382169776,
          -0.03246724008244784,
          0.17623269937372163
        ],
        [
          -0.0010426678183720977,
          0.05970600171921701,
          -0.06433590765074515
        ]
      ],
      [
        [
          -0.02102266404154687,
          -0.06470527761656242,
          0.004956951465969244
        ],
        [
          0.0016808480789113152,
          -0.06844252211756532,
          0.03137098101677582
        ],
        [
          0.0638692213074098,
          -0.02912569656478239,
          -0.03013792968447273
        ]
      ],
      [
        [
          -0.24755967356720435,
          -0.13632631224362665,
          -0.20697189038733804
        ],
        [
          0.07303498791120383,
          -0.08789500216634692,
          -3.974840114117058e-05
        ],
        [
          0.08443931630626597,
          0.013531056772381268,
          -0.14317679286931448
        ]
      ],
      [
        [
          -0.047494326901666675,
          0.030893879817030147,
          0.05379139086493427
        ],
        [
          0.032361314373471464,
          -0.046522437881082235,
          -0.006897953830870386
        ],
        [
          -0.06237038284859923,
          -0.0025115231687078345,
          -0.007282523639555367
        ]
      ],
      [
        [
          0.01073066666713422,
          0.09607718753518328,
          -0.06451485852873717
        ],
        [
          -0.003905560083863535,
          -0.041083114221581125,
          -0.07703813526884869
        ],
        [
          -0.023699319452807396,
          -0.0855314755945221,
          0.0025887356283577963
        ]
      ],
      [
        [
          0.01912847232349797,
          -0.17007248845785347,
          -0.0679418017529914
        ],
        [
          -0.06127763549330577,
          -0.11351719363478323,
          -0.06059934536845806
        ],
        [
          -0.03852549970347524,
          -0.10342986259013669,
          -0.11086310209272204
        ]
      ],
      [
        [
          0.1882018497189934,
          0.04012940880228022,
          0.14793215885190658
        ],
        [
          -0.1329980413763164,
          0.24238115553293654,
          0.13222572272178026
        ],
        [
          0.058952900027997,
          0.23623852983195967,
          0.10748724966291755
        ]
      ],
      [
        [
          0.01447465681436036,
          -0.13209055228345365,
          0.14423847567221162
        ],
        [
          0.07559293539367506,
          -0.14973832672874543,
          0.11280380775638965
        ],
        [
          0.07383861740388363,
          -0.0944800227572217,
          0.030902875482907294
        ]
      ],
      [
        [
          -0.04307713684955123,
          -0.13862355896383183,
          0.12267061581144943
        ],
        [
          -0.05545676036103284,
          0.05334530739218556,
          0.03693029647060305
        ],
        [
          -0.04328383020316349,
          -0.032177566877327396,
          0.007886593930228076
        ]
      ],
      [
        [
          -0.1347932428694137,
          -0.35607545682627395,
          0.007596531802976535
        ],
        [
          -0.14729992368522535,
          0.04755104879661708,
          0.055613255108385676
        ],
        [
          0.03395120832957397,
          0.10885720007360852,
          -0.06880940928628533
        ]
      ],
      [
        [
          -0.150262405045009,
          -0.1560958906981367,
          -0.07428223852818286
        ],
        [
          -0.10301176034127417,
          -0.2662412822660839,
          -0.07512611157776566
        ],
        [
          0.0011552087911778238,
          -0.09128320381231789,
          -0.050228983741124104
        ]
      ],
      [
        [
          0.14407605253615496,
          0.025592085338993487,
          -0.14246411260752131
        ],
        [
          0.0018739766463519525,
          -0.08550423633131525,
          -0.057249319991572546
        ],
        [
          -0.03264021504335848,
          0.020436681375012505,
          -0.02474924011955179
        ]
      ],
      [
        [
          -0.06479106186211145,
          -0.055756559765354395,
          0.04828023575828027
        ],
        [
          -0.2349636057032361,
          -0.16262794022048446,
          -0.025495717750327128
        ],
        [
          -0.11646427856186378,
          -0.15567999410194014,
          -0.0029121871874398376
        ]
      ],
      [
        [
          0.011548356979248381,
          -0.0026261168442179715,
          0.1531673874080288
        ],
        [
          0.17896697988065366,
          -0.09227794425470154,
          0.1928202273480919
        ],
        [
          0.0723657964744915,
          0.010683351820849313,
          0.011942790573015307
        ]
      ]
    ],
    [
      [
        [
          -0.004955529311896201,
          0.004942222740125782,
          0.16634512248796107
        ],
        [
          -0.03761993353643787,
          0.0002732634215438443,
          0.060446148473772714
        ],
        [
          -0.01880413692253686,
          0.03227288722689272,
          0.12639390231379463
        ]
      ],
      [
        [
          0.019319259584566838,
          0.04961019913195165,
          -0.041012844347073744
        ],
        [
          -0.031918775162225695,
          0.019824182581496264,
          0.11061789062758959
        ],
        [
          0.04091231244822654,
          -0.024867293346942182,
          0.030541070470822523
        ]
      ],
      [
        [
          -0.23574103773849525,
          0.043692554079263035,
          0.10416049113315698
        ],
        [
          -0.02195963181518183,
          0.07602982935641246,
          0.007728942633083611
        ],
        [
          0.03242921290437476,
          0.10892992204493637,
          0.07637708390896517
        ]
      ],
      [
        [
          -0.06586044472374043,
          0.10015430058676948,
          -0.037410771174520484
        ],
        [
          0.06701207805897946,
          -0.03307098061639143,
          -0.02823939957534498
        ],
        [
          -0.016297912357200066,
          0.03281875393683904,
          -0.1488938615664838
        ]
      ],
      [
        [
          0.0676856876902501,
          0.07568523429504972,
          0.0232939569200269
        ],
        [
          0.04034113445638065,
          -0.04942250195689313,
          -0.007774923399591337
        ],
        [
          -0.03480039783830767,
          -0.08907472894766841,
          -0.06341951097628397
        ]
      ],
      [
        [
          0.011577772544773324,
          -0.11113340117333109,
          -0.008903644649986713
        ],
        [
          -0.10252376344126277,
          -0.04982190020175001,
          -0.0013230070760211767
        ],
        [
          -0.10886135136089069,
          -0.07074875432479122,
          0.11640038697814346
        ]
      ],
      [
        [
          -0.017279554854607068,
          -0.08608043719532023,
          -0.07631740432998128
        ],
        [
          -0.07461261268786476,
          0.05041505066287994,
          0.02875806857037841
        ],
        [
          -0.037554731141783454,
          -0.06630670250114472,
          0.06915656471167439
        ]
      ],
      [
        [
          0.17227996494923134,
          -0.11123688552996408,
          -0.055541737106832904
        ],
        [
          -0.27758731199861897,
          -0.28124407329338064,
          -0.2736996092238305
        ],
        [
          -0.30049034707290634,
          -0.27597429769772247,
          -0.29339455408182963
        ]
      ],
      [
        [
          0.024693560967136804,
          -0.08065549491321075,
          -0.18025617857282963
        ],
        [
          -0.10175640427136853,
          -0.28715251203327286,
          -0.30554410276861593
        ],
        [
          -0.16193117843358193,
          -0.3886143739130677,
          -0.1905800764574457
        ]
      ],
      [
        [
          -0.21907278029573105,
          -0.05719561322955031,
          0.015613358132868595
        ],
        [
          -0.05981841461270528,
          0.027346951294761643,
          -0.03200955739346596
        ],
        [
          -0.07229515804451096,
          -0.0780871979150789,
          -0.07569942777731212
        ]
      ],
      [
        [
          0.21706271205706343,
          -0.1655193803474725,
          0.039247935656312585
        ],
        [
          -0.28767511467548124,
          -0.3772455659338189,
          -0.3356458037755358
        ],
        [
          -0.3534235512096381,
          -0.3177997825367483,
          -0.24329759782122576
        ]
      ],
      [
        [
          0.09984873434124239,
          -0.05563485763641546,
          -0.0848521083239801
        ],
        [
          0.026224350844313727,
          -0.1933245551943523,
          -0.08592003964490874
        ],
        [
          -0.14485041664776951,
          -0.20868441153606684,
          -0.15953668011007924
        ]
      ],
      [
        [
          0.05679734469429559,
          -0.13254329950211022,
          -0.0496708805644757
        ],
        [
          -0.14327557019775564,
          -0.1194168337442978,
          -0.06759514728797109
        ],
        [
          -0.06038752745126417,
          -0.13676693903591225,
          -0.01551090884952998
        ]
      ],
      [
        [
          -0.1795418475032273,
          0.0007309635922122256,
          -0.029411872936820842
        ],
        [
          -0.05542294978064675,
          0.05711004002878764,
          0.014726397333537398
        ],
        [
          -0.06875080508504831,
          0.028517610519791035,
          0.022104068922133766
        ]
      ],
      [
        [
          0.0039950721779476,
          -0.016953075265577666,
          0.10924272450782875
        ],
        [
          -0.0862381837101455,
          -0.06083116439403577,
          0.06096733507190049
        ],
        [
          -0.009625908234413076,
          -0.008478242193980773,
          0.008806947695632682
        ]
      ],
      [
        [
          0.07801684236654195,
          0.05719520072624386,
          0.055101274607273945
        ],
        [
          -0.15211488938307022,
          -0.118007256761372,
          0.00011286123223207045
        ],
        [
          -0.13887036571819006,
          0.018206107562006357,
          -0.11477935992573747
        ]
      ]
    ],
    [
      [
        [
          0.11759419855125573,
          0.0406671752875013,
          -0.07552758828416946
        ],
        [
          -0.08148815780339962,
          -0.05197348705996206,
          -0.11555622203393977
        ],
        [
          -0.05357260914225574,
          -0.08472409601193066,
          0.05716143395144555
        ]
      ],
      [
        [
          -0.05966429765954484,
          0.028446304116339072,
          -0.0901654289862146
        ],
        [
          0.04173160225000467,
          0.007060597962543124,
          -0.1274603752045874
        ],
        [
          -0.07209021322441843,
          0.002327692971863629,
          -0.04741180879892197
        ]
      ],
      [
        [
          0.07372469059673563,
          -0.05475716965537076,
          -0.10406924471380631
        ],
        [
          -0.008677060815313211,
          0.03434461525801529,
          -0.046344837327298084
        ],
        [
          0.0672195292583073,
          -0.03785164288159318,
          -0.14266571811387002
        ]
      ],
      [
        [
          0.14621625542984837,
          -0.010610987328708117,
          0.004217474897462281
        ],
        [
          -0.08467912228877893,
          -0.07276491902490285,
          -0.04366731234012779
        ],
        [
          -0.019338967530083476,
          -0.16467080700809975,
          -0.08585184379899206
        ]
      ],
      [
        [
          0.0023785813457553586,
          0.03419431752120592,
          0.19802718763227747
        ],
        [
          -0.11924932907363914,
          -0.134179968960065,
          -0.26275298272722675
        ],
        [
          -0.15016371807031212,
          0.030757322118526168,
          -0.18290466315856532
        ]
      ],
      [
        [
          -0.0523069820992257,
          0.023803439219818975,
          0.001049924605566895
        ],
        [
          0.09231100994636643,
          0.022695757380354727,
          0.02383822251009997
        ],
        [
          0.0443252706551238,
          0.043284239706258734,
          0.039072879306999896
        ]
      ],
      [
        [
          -0.030401756773447555,
          -0.01928606006820823,
          -0.031840060543595824
        ],
        [
          0.00786990935265082,
          -0.05285493147287303,
          -0.0957953608618066
        ],
        [
          -0.03141102936201622,
          0.06689027054086392,
          0.0223064299320762
        ]
      ],
      [
        [
          -0.1323471152591779,
          -0.2837168717047701,
          -0.1946887336086288
        ],
        [
          -0.11461767244390846,
          -0.0648420731278497,
          -0.0516139732833988
        ],
        [
          0.0038060762623149747,
          0.010456833203930028,
          0.07491016984528327
        ]
      ],
      [
        [
          0.05683127478107883,
          -0.010415814606360364,
          0.01976462668398173
        ],
        [
          -0.1903195849593907,
          -0.1519563437366338,
          0.16309198801707028
        ],
        [
          0.018871395329636376,
          -0.28345864845584495,
          -0.03121745180961791
        ]
      ],
      [
        [
          0.12408162464140086,
          0.14729006531216102,
          0.15408471376967778
        ],
        [
          0.0900008371619361,
          0.03284653924951545,
          -0.01175411448827127
        ],
        [
          0.0017952877715652028,
          -0.07326261601329909,
          -0.13377944110678622
        ]
      ],
      [
        [
          -0.2409788955415584,
          -0.2857610689280024,
          -0.07368832673921004
        ],
        [
          -0.26622116362894754,
          -0.3215008274606625,
          -0.30279323595783325
        ],
        [
          -0.07295130335553196,
          -0.1056582269214268,
          0.025327866924668336
        ]
      ],
      [
        [
          0.058306408082796295,
          -0.1265126853051058,
          0.004741276201620841
        ],
        [
          -0.1004534140774518,
          -0.1441227501949721,
          -0.15865307719890379
        ],
        [
          -0.03298285922216359,
          -0.07362267224090774,
          -0.1739947166157201
        ]
      ],
      [
        [
          0.0040412300890525004,
          -0.0044658711032517446,
          0.13903065016492078
        ],
        [
          -0.05925485439661774,
          0.012782897039518721,
          -0.0668051286565648
        ],
        [
          -0.057363219610184785,
          -0.04316072277655293,
          0.07829743246110328
        ]
      ],
      [
        [
          0.1376320814507882,
          0.03603764962202892,
          -0.00960056764949247
        ],
        [
          0.021094333229738204,
          -0.05008927567956378,
          0.07349930045247113
        ],
        [
          -0.050337595454997816,
          -0.16147939786886265,
          -0.02443910815097775
        ]
      ],
      [
        [
          0.003560351736040514,
          -0.09413412519438087,
          0.03473293054773949
        ],
        [
          0.051759871674667626,
          0.0034494891756769804,
          0.06990023494012143
        ],
        [
          0.06278625380736966,
          -0.01895165256060456,
          0.13688604572696175
        ]
      ],
      [
        [
          -0.039288364047445117,
          -0.2963163055702752,
          -0.21857039573574105
        ],
        [
          -0.15628474331252043,
          -0.4254796029143597,
          -0.2316156375628715
        ],
        [
          0.01196338366208674,
          -0.5015713384132225,
          -0.3115135631233781
        ]
      ]
    ],
    [
      [
        [
          0.07042042214051773,
          0.12420881728789739,
          -0.03032963788482908
        ],
        [
          0.10246641596090386,
          0.044305086069377476,
          -0.1850469187449296
        ],
        [
          0.1314491252121721,
          0.05050147878662177,
          -0.25747226068906914
        ]
      ],
      [
        [
          -0.06915084483912431,
          0.10119982243079437,
          0.32002126631407507
        ],
        [
          -0.3129583980681542,
          -0.04855604392197907,
          0.07698482304514222
        ],
        [
          -0.23872287602960793,
          -0.11174432114137925,
          0.13055058073369533
        ]
      ],
      [
        [
          -0.024863606810525022,
          0.17189121628311924,
          0.19888003564825704
        ],
        [
          -0.08253372689403987,
          0.23873124745659183,
          0.20582919601805538
        ],
        [
          -0.07177999565977626,
          -0.07071539265859732,
          0.020084096854607356
        ]
      ],
      [
        [
          -0.0030110830745216635,
          0.04492386563671322,
          -0.0042278267400584
        ],
        [
          -0.06321693515981625,
          -0.13866265474543849,
          -0.06469342615029729
        ],
        [
          -0.02044723523023075,
          -0.10520773452823287,
          -0.1292980500189554
        ]
      ],
      [
        [
          0.12199735231761857,
          -0.008498845095223107,
          -0.034055680501617155
        ],
        [
          0.028424848425853244,
          -0.07360150297897956,
          -0.003386126213027955
        ],
        [
          0.07556609766691717,
          -0.01594141777636214,
          0.13076122424961736
        ]
      ],
      [
        [
          -0.08831252522126055,
          0.04421548153335851,
          0.10882242578061058
        ],
        [
          -0.056836869752050725,
          -0.08178987357534909,
          0.1329274084863504
        ],
        [
          -0.07493603069702823,
          0.021019594265048607,
          -0.000233559755141167
        ]
      ],
      [
        [
          0.04472115631968231,
          -0.03674563212665293,
          -0.0030386118716063315
        ],
        [
          -0.032042194363401263,
          0.03138254249681806,
          0.061358696231659654
        ],
        [
          -0.03134512517185781,
          0.07125293036049973,
          -0.16535140297509326
        ]
      ],
      [
        [
          0.12410160188604114,
          -0.19056543758674893,
          -0.28003185848805057
        ],
        [
          0.043056076162319545,
          -0.22701427484323972,
          -0.12561708853186618
        ],
        [
          0.06608347641147265,
          -0.020326540134621162,
          -0.046621468864197185
        ]
      ],
      [
        [
          -0.010897199890271915,
          0.21417901861596583,
          0.06649420881937296
        ],
        [
          0.1551080266213089,
          -0.03265410839085342,
          0.15123908947826337
        ],
        [
          0.08280673126727822,
          0.11494352076318556,
          0.2464577493408284
        ]
      ],
      [
        [
          -0.31524706299467753,
          0.03172302142269488,
          0.008749535896705659
        ],
        [
          -0.46476293328152274,
          -0.133011754799192,
          -0.2398528622162641
        ],
        [
          -0.4174889434423323,
          -0.32101932186904136,
          -0.1939508858945504
        ]
      ],
      [
        [
          0.20928745584341954,
          -0.027769123677265844,
          -0.13986479399945553
        ],
        [
          0.02568408632704201,
          -0.053195385786362966,
          0.1472839255191087
        ],
        [
          0.11176886740555067,
          -0.02242254390683678,
          -0.05111719100114913
        ]
      ],
      [
        [
          -0.005402565236905927,
          0.23035374189951446,
          -0.09663924118113078
        ],
        [
          0.09845255359714952,
          0.05781462711430728,
          -0.04099080303993012
        ],
        [
          0.15165746273391248,
          0.08090116887411844,
          0.18407992391941688
        ]
      ],
      [
        [
          0.16609479312522862,
          -0.006555413409800091,
          -0.1097362350647592
        ],
        [
          0.2719585687344196,
          0.044131404172250976,
          -0.10214117769506001
        ],
        [
          0.18230017911822283,
          0.10706285663364921,
          0.023938844619932394
        ]
      ],
      [
        [
          -0.12677787862852932,
          -0.07250075100557188,
          0.20606611596594143
        ],
        [
          -0.039716262538199015,
          -0.04371349080910871,
          0.06708821313241174
        ],
        [
          0.006664987098330239,
          0.029758198984776087,
          -0.12699950342800714
        ]
      ],
      [
        [
          0.029425392057209364,
          -0.02598639577029559,
          0.002992445822170572
        ],
        [
          0.12409550234143457,
          -0.13058490897599506,
          -0.11808153759818597
        ],
        [
          0.1654935737755954,
          -0.00532612428123339,
          -0.13110907249053444
        ]
      ],
      [
        [
          0.13052495605707826,
          -0.18279325991366746,
          -0.029444189161439177
        ],
        [
          -0.1645004655870438,
          -0.016869620320668546,
          -0.07808264348720612
        ],
        [
          0.04539363310538157,
          -0.04589391577506655,
          -0.08119977798916682
        ]
      ]
    ],
    [
      [
        [
          0.06697874156881319,
          0.021277423173205925,
          0.021141647829411123
        ],
        [
          -0.010136338964367674,
          -0.0713343021938583,
          0.05817614558702122
        ],
        [
          -0.009622904586900429,
          -0.1274805397938695,
          0.08887368234980428
        ]
      ],
      [
        [
          -0.07501430207641015,
          -0.143717032416155,
          -0.1190485291707439
        ],
        [
          0.0009842244373527939,
          0.0599310775940531,
          -0.03857202477649878
        ],
        [
          0.12067690528772704,
          0.16286112596509084,
          0.048222802132264986
        ]
      ],
      [
        [
          0.11674366885064491,
          -0.019093392716946093,
          -0.010229812667035754
        ],
        [
          0.017174724621153072,
          0.09708190869654502,
          0.051070128741014256
        ],
        [
          0.11897060724052341,
          -0.010418258239461391,
          0.07280798884104442
        ]
      ],
      [
        [
          0.015015405238146772,
          -0.04216473959204742,
          -0.09272413633223368
        ],
        [
          0.08195556740813248,
          -0.0007904341663896838,
          -0.0740298643000269
        ],
        [
          -0.0711367815086057,
          -0.012332415658522505,
          0.03639013129158963
        ]
      ],
      [
        [
          -0.12820131719061598,
          -0.15938811676126868,
          -0.03445697053282062
        ],
        [
          0.04462373961146222,
          0.11628960211325061,
          0.10139259948983918
        ],
        [
          -0.053148678922088535,
          -0.013232890103706176,
          0.11545374462201738
        ]
      ],
      [
        [
          0.05751728453427285,
          0.12694627581774434,
          0.034027087958030375
        ],
        [
          -0.14970750528520313,
          -0.019644406167838045,
          -0.0002072416794486209
        ],
        [
          -0.08575402295059802,
          -0.10666033430746204,
          0.013880744819394913
        ]
      ],
      [
        [
          -0.05116293762618136,
          0.1223157241090904,
          0.23940864516604943
        ],
        [
          -0.10064211990313937,
          -0.0061838384514542365,
          0.009869381865795657
        ],
        [
          -0.1856030669870083,
          -0.05292555768090119,
          -0.04563421894120126
        ]
      ],
      [
        [
          0.02187279481570787,
          0.08327238613299404,
          0.09871496545030951
        ],
        [
          0.030882192258745358,
          0.0891204588405931,
          0.02386102486507957
        ],
        [
          -0.06508773643771104,
          -0.24387454775894396,
          0.005267776696305683
        ]
      ],
      [
        [
          0.2560723268990908,
          0.15735116004374386,
          0.1867192822829733
        ],
        [
          -0.1468483779719294,
          -0.06086471987680419,
          0.11618563498814583
        ],
        [
          0.061092591598396265,
          -0.09491395916692369,
          -0.13069326028835443
        ]
      ],
      [
        [
          0.09031200941196015,
          -0.03720727110222314,
          -0.11840816465998236
        ],
        [
          0.1458388256087598,
          0.023864876332701415,
          -0.0604134646813092
        ],
        [
          0.18165205790284306,
          -0.024493027921932174,
          0.09910287111013184
        ]
      ],
      [
        [
          -0.034185253565512955,
          0.10424985841016739,
          0.18576464377816054
        ],
        [
          -0.09993035789481251,
          0.028135241666366453,
          0.12810315463198238
        ],
        [
          -0.1122261993766488,
          -0.2556595232379699,
          0.11834707986068586
        ]
      ],
      [
        [
          0.055622770547644335,
          -0.07864260001015885,
          0.07169644364016928
        ],
        [
          0.0385260391309021,
          -0.048519704419929435,
          -0.0008287770675124426
        ],
        [
          0.07894667684814967,
          -0.2274293810308351,
          -0.2497853296252194
        ]
      ],
      [
        [
          0.08370965049627295,
          0.06623343193919412,
          0.025342860662785367
        ],
        [
          0.07521613493544087,
          0.10799945093345739,
          0.0231133210211458
        ],
        [
          -0.05266925175295333,
          -0.037681543152620275,
          0.038161544568945924
        ]
      ],
      [
        [
          -0.12680627491324808,
          0.07287239678403983,
          0.055044065452523716
        ],
        [
          -0.2740120494143957,
          -0.27423290083722457,
          0.1551757216619167
        ],
        [
          -0.14034519982775367,
          -0.1832143406836316,
          -0.12367434936921375
        ]
      ],
      [
        [
          0.03682020008774317,
          0.047344819143428744,
          0.1928642800772407
        ],
        [
          -0.029570618760864933,
          -0.025567274341547062,
          0.028698981576643242
        ],
        [
          -0.021329802989237704,
          -0.09110861425124654,
          0.030281442352977594
        ]
      ],
      [
        [
          -0.06610496897867041,
          -0.11196017192790855,
          0.01700505805207597
        ],
        [
          -0.07261948842831341,
          0.08351483473256929,
          -0.0060807343429281555
        ],
        [
          0.0018943888059475484,
          -0.17032214680430913,
          0.10371829908756701
        ]
      ]
    ],
    [
      [
        [
          0.11922078587794738,
          -0.0027033271313553456,
          -0.1611363682111226
        ],
        [
          0.11773285172756837,
          0.011289885523400262,
          -0.15625525128642276
        ],
        [
          0.12727575780611078,
          -0.07767385199907095,
          -0.15281708423157744
        ]
      ],
      [
        [
          0.055362407103148485,
          0.1723803182752775,
          0.10794809057854933
        ],
        [
          -0.0011090580848679898,
          0.20096577330165638,
          0.03775971681866689
        ],
        [
          -0.1663819020090722,
          -0.10233834446826012,
          -0.1421248225854784
        ]
      ],
      [
        [
          -0.08880344097557949,
          0.05552094491309701,
          0.1268100848150584
        ],
        [
          0.09356382717852531,
          -0.08630925543379621,
          0.011481142422511
        ],
        [
          -0.06095353238990208,
          -0.0031678715004283967,
          -0.0939230111067465
        ]
      ],
      [
        [
          -0.11202561941751735,
          -0.1946104857381373,
          -0.2830475154866992
        ],
        [
          0.13028245130049027,
          -0.05146024971575646,
          -0.21330333081653116
        ],
        [
          0.13296322930436544,
          0.022720340467147902,
          -0.15904242425757342
        ]
      ],
      [
        [
          -0.1525709688923495,
          0.0037194413196146832,
          -0.13065084258741336
        ],
        [
          0.13871593272892907,
          0.00709217767766464,
          -0.033670436786703124
        ],
        [
          -0.011032475936177184,
          0.12092906863722293,
          -0.12284394117952345
        ]
      ],
      [
        [
          -0.05012531512082797,
          -0.05966980140558347,
          -0.14497620897654753
        ],
        [
          -0.03485753055774617,
          0.12460239264288488,
          -0.027250969717044014
        ],
        [
          0.05954071243670581,
          0.0879729478728306,
          -0.08592227820726457
        ]
      ],
      [
        [
          -0.15714508011220926,
          -0.12499092732171954,
          -0.02113386778168951
        ],
        [
          -0.10575974493821759,
          0.11413793324390946,
          0.006528983789518433
        ],
        [
          -0.06013844809615551,
          -0.03248889737122658,
          0.10764825804170403
        ]
      ],
      [
        [
          0.1931156365436486,
          -0.2177693139061337,
          -0.21858394594013947
        ],
        [
          0.12265417909362782,
          -0.01243876470644004,
          -0.14923437660112715
        ],
        [
          0.06543339509351104,
          0.08496501174751973,
          -0.03649671586468696
        ]
      ],
      [
        [
          -0.043543923150060684,
          -0.3704166723687603,
          0.02853679037650145
        ],
        [
          0.034954786481902214,
          0.006527020082078968,
          0.0852456867895999
        ],
        [
          -0.3237438517886899,
          -0.2624843624094836,
          0.035521993605836494
        ]
      ],
      [
        [
          0.15810988498275824,
          0.13149136732580657,
          -0.08598300194641406
        ],
        [
          0.11535526344031759,
          0.05986598175447986,
          -0.0667446644512237
        ],
        [
          -0.12044375553414319,
          -0.19489374645987526,
          -0.32451193164743997
        ]
      ],
      [
        [
          0.0658142326669671,
          -0.32918530115320943,
          -0.35644388943224775
        ],
        [
          0.21820303306616978,
          0.10419974860006896,
          0.0022618289352950263
        ],
        [
          0.01732528447759868,
          0.10015542387188135,
          0.01916811890632703
        ]
      ],
      [
        [
          0.14203042933205617,
          -0.07844170492707682,
          -0.00914273385558983
        ],
        [
          0.12490508351929502,
          0.008020736709134066,
          -0.034854382606338094
        ],
        [
          -0.04132788181377019,
          0.135114467751764,
          -0.04557948562224802
        ]
      ],
      [
        [
          0.1634533788707399,
          -0.07779578930064787,
          -0.08282864114545409
        ],
        [
          0.1300189419015489,
          -0.08841264769760253,
          0.10163622033964548
        ],
        [
          0.197898079970489,
          9.966419358681787e-06,
          0.018763912225024843
        ]
      ],
      [
        [
          0.00911717115629489,
          -0.13148424132939487,
          -0.053520470990992206
        ],
        [
          0.17723296129153246,
          0.07888036429060351,
          -0.07566185039378587
        ],
        [
          0.08056289360456771,
          0.03132764619748503,
          0.015527178101888106
        ]
      ],
      [
        [
          0.016964365208081127,
          -0.01632641696953968,
          -0.18709684669444204
        ],
        [
          0.066534877841001,
          0.02130972628458897,
          -0.0529216025391719
        ],
        [
          0.07150646701497954,
          -0.16888509885796837,
          -0.18839142204117146
        ]
      ],
      [
        [
          0.07474080009195,
          -0.008762779927306086,
          0.028503865023818617
        ],
        [
          0.2530795990294982,
          0.04333820365520625,
          -0.23023963748337806
        ],
        [
          0.04515754634288028,
          0.15546994424570235,
          -0.08908248581233877
        ]
      ]
    ],
    [
      [
        [
          0.027121634612677383,
          -0.17489678189408686,
          0.013444763578204505
        ],
        [
          -0.15290253151488414,
          -0.40114121883317466,
          -0.19083862602478277
        ],
        [
          -0.12135757759285114,
          -0.17082528620461795,
          -0.23791346513070902
        ]
      ],
      [
        [
          0.0044696013130455245,
          -0.04851097627951422,
          -0.03617288408803329
        ],
        [
          0.04471251138685132,
          0.034101118284107904,
          -0.06286314798528982
        ],
        [
          -0.06668326010567348,
          -0.0029203935223859807,
          0.024066615773266607
        ]
      ],
      [
        [
          -0.041292047655735596,
          -0.06716117662254004,
          -0.07995375751673489
        ],
        [
          -0.03174589092686095,
          -0.1399079698971953,
          0.04919391476969771
        ],
        [
          0.0633104082905843,
          0.1154335488591225,
          0.1192538131296219
        ]
      ],
      [
        [
          -0.002308161524857452,
          0.016633047621174207,
          -0.1445343679556554
        ],
        [
          0.021330358405250167,
          0.013868182161904502,
          -0.0788026359627323
        ],
        [
          0.14583128874547227,
          0.14507538680271448,
          -0.044957405811100484
        ]
      ],
      [
        [
          -0.024171685149121148,
          -0.046094458309428536,
          -0.11236659382622738
        ],
        [
          0.0971656809612857,
          -0.059727183940462863,
          -0.11642229992631689
        ],
        [
          0.09520026924219593,
          0.033293311818885576,
          -0.05575309734476733
        ]
      ],
      [
        [
          -0.0037007847657755757,
          -0.06083392013074594,
          0.04269324571252884
        ],
        [
          0.055953570843690924,
          -0.042992264107458066,
          0.007013681528969079
        ],
        [
          -0.032935742141025494,
          0.05071177206180193,
          -0.047349145485241696
        ]
      ],
      [
        [
          -0.04444034812765182,
          0.12991006464651286,
          0.05938457514156585
        ],
        [
          -0.08275889127951218,
          0.03348046192464004,
          -0.007791409262578526
        ],
        [
          -0.18896690494010898,
          -0.10788811311848964,
          -0.04763376134259112
        ]
      ],
      [
        [
          0.16587776085203731,
          -0.05130594107746094,
          -0.03045492015552409
        ],
        [
          0.09575578128986191,
          -0.05967249076139023,
          -0.07939929531660184
        ],
        [
          -0.046954581745675884,
          -0.08029891027836117,
          -0.0050236909169571
        ]
      ],
      [
        [
          0.08244098748462665,
          -0.1253843723387676,
          0.018657897194474343
        ],
        [
          0.031789222401539106,
          -0.09915906728235559,
          -0.11862929776849637
        ],
        [
          0.13268982741679788,
          0.23979540851559666,
          0.07264183309768255
        ]
      ],
      [
        [
          -0.08585141525805162,
          -0.04160967625447091,
          -0.0459797588986605
        ],
        [
          -0.11540611388496715,
          -0.24511985940986813,
          -0.1420875759117138
        ],
        [
          0.0007158266995445524,
          -0.07578844182001379,
          -0.07687968917259845
        ]
      ],
      [
        [
          -0.010770469100848357,
          0.04091137224227075,
          0.11840335362830119
        ],
        [
          -0.03542401121944886,
          -0.041850291014884376,
          0.0780216812447767
        ],
        [
          0.005942220452773779,
          0.02290482910432376,
          0.06751828714385251
        ]
      ],
      [
        [
          -0.20983842426140653,
          -0.2281770284696245,
          -0.172304217448421
        ],
        [
          0.12966479095329916,
          -0.18603370100600486,
          -0.1259006285496163
        ],
        [
          -0.061123014903257215,
          0.13422421572948956,
          0.14405295210569755
        ]
      ],
      [
        [
          -0.13794213982802184,
          -0.03375414994702323,
          0.048571098480196126
        ],
        [
          -0.09045003930916551,
          -0.23865354670033392,
          -0.14914248326815624
        ],
        [
          0.08272752820579213,
          -0.10729109874417382,
          -0.07487047457150904
        ]
      ],
      [
        [
          0.07812722776177508,
          -0.07391107677824038,
          -0.09850091002731749
        ],
        [
          0.03142087383981206,
          0.08352989643588149,
          -0.052201098590626105
        ],
        [
          0.09260168379922187,
          0.12852874207989548,
          0.10719418084116196
        ]
      ],
      [
        [
          -0.022098837458936878,
          -0.004650154090875554,
          0.18213250269462272
        ],
        [
          -0.20152798409289843,
          -0.2511138644460513,
          0.01308335031253626
        ],
        [
          -0.044601505359304496,
          -0.17341533003591542,
          -0.13295947878010375
        ]
      ],
      [
        [
          -0.2787444285708448,
          -0.06666366715112099,
          -0.043470977110702004
        ],
        [
          0.01162691635759948,
          -0.01694265836658764,
          -0.10405891842043227
        ],
        [
          0.09932563671044538,
          0.16391907174759704,
          0.02032071970531893
        ]
      ]
    ],
    [
      [
        [
          -0.014789560948634088,
          0.03655544714004283,
          -0.05113437204826194
        ],
        [
          0.06847990971105176,
          0.05185583710805098,
          0.047966773167164065
        ],
        [
          -0.042841555713247416,
          0.08060428098509088,
          0.02835796854032232
        ]
      ],
      [
        [
          -0.02803942034124839,
          0.08973710204409863,
          0.13316793976457536
        ],
        [
          0.03338139024505244,
          0.020480886392442613,
          0.13138059497445936
        ],
        [
          -0.09233980584315966,
          -0.07658318074012656,
          0.0455606615816963
        ]
      ],
      [
        [
          -0.11166452970136265,
          0.09105148779854556,
          -0.07342981232496386
        ],
        [
          -0.1932380354989853,
          0.03430662599351843,
          -0.09611342430213225
        ],
        [
          0.00970906809339349,
          0.11273954655255816,
          -0.22657521733251162
        ]
      ],
      [
        [
          0.08955265792192112,
          0.12154381089297231,
          0.06690494891470293
        ],
