{
  "conv1.weight": [
    [
      [
        [
          -0.18558917306289927,
          -0.16621083005175016,
          -0.1560282513833381
        ],
        [
          -0.14678035575629345,
          -0.03259036258711376,
          -0.16516197250475095
        ],
        [
          -0.026030806541234686,
          0.043949459712115675,
          0.03985189217337609
        ]
      ],
      [
        [
          0.003509083038435873,
          -0.003774661302174676,
          -0.13595450706657672
        ],
        [
          0.10889559854861766,
          -0.025466312167070983,
          -0.16908522526298692
        ],
        [
          -0.18079256134617086,
          0.013213446377982286,
          -0.17034293039864692
        ]
      ],
      [
        [
          0.1058035559594794,
          0.18971500290428286,
          0.16078605573440266
        ],
        [
          0.3296828747917214,
          0.2983092143914606,
          0.21569636539657847
        ],
        [
          0.16819333549311288,
          -0.09583110045875157,
          -0.14859930828243692
        ]
      ]
    ],
    [
      [
        [
          0.2683116501296848,
          0.2204011081641466,
          0.015205438551021274
        ],
        [
          0.15779045322562973,
          0.16518383181582114,
          0.21593578503852523
        ],
        [
          0.24564602659739052,
          0.29406246426563987,
          -0.04871222869294792
        ]
      ],
      [
        [
          0.09087359287415325,
          -0.18294563351865362,
          -0.10819470027470725
        ],
        [
          -0.1227682439139699,
          -0.20615913690597099,
          -0.15848609680925435
        ],
        [
          -0.09278447652355744,
          -0.0641934520557135,
          -0.020834714214778394
        ]
      ],
      [
        [
          -0.1862028340047228,
          -0.0246888792950792,
          -0.12731612913642357
        ],
        [
          -0.15895428101792433,
          -0.22354890802096147,
          0.015779901231070557
        ],
        [
          -0.11390337257859491,
          -0.053267443906738425,
          0.22695314479633227
        ]
      ]
    ],
    [
      [
        [
          0.07397904168634137,
          0.01045083984123951,
          0.0038674802759127366
        ],
        [
          0.0282383189729329,
          0.27103820087375485,
          -0.3153620022730108
        ],
        [
          0.051071614347784386,
          0.24929951979667428,
          -0.3289516101426273
        ]
      ],
      [
        [
          -0.029850115979509564,
          0.07263515227400652,
          -0.060886607669745796
        ],
        [
          0.0741058404365061,
          0.14893404068442095,
          -0.12358731244074733
        ],
        [
          -0.023679134107701467,
          -0.04547722920869812,
          -0.1435086616959223
        ]
      ],
      [
        [
          -0.055595943453256615,
          0.1452535797049201,
          -0.07933311103386875
        ],
        [
          0.1122394619030392,
          0.14416706124380868,
          -0.2359225158581068
        ],
        [
          0.12397109796590304,
          0.22772137104139575,
          -0.320011159734288
        ]
      ]
    ],
    [
      [
        [
          -0.11912465907716974,
          0.16726517188705095,
          -0.023902850483776016
        ],
        [
          0.13708042680742594,
          0.12592610713338093,
          0.06967228974752619
        ],
        [
          0.18732124677041778,
          0.07080723385812997,
          -0.18755226616331167
        ]
      ],
      [
        [
          0.11865040722004798,
          0.026307987304701453,
          -0.05153271754335976
        ],
        [
          -0.006461811714327676,
          0.15946627041391673,
          -0.03203682822004179
        ],
        [
          -0.20408934134413292,
          0.11719300522561395,
          0.054020590286464776
        ]
      ],
      [
        [
          0.14482689624545345,
          0.23986313281476976,
          -0.027108949036138412
        ],
        [
          -0.022075767456329016,
          0.12340825497566395,
          0.0656821771374053
        ],
        [
          -0.000605434998070684,
          -0.07282317579280409,
          -0.12358342876820706
        ]
      ]
    ],
    [
      [
        [
          0.15437231570718982,
          -0.02483957776019837,
          0.07895125765847877
        ],
        [
          0.12357651939500902,
          0.19196154741587493,
          -0.22742767230523336
        ],
        [
          -0.16007913582767822,
          -0.09396095853557035,
          0.11760465133162439
        ]
      ],
      [
        [
          -0.10236409640607733,
          -0.14736082045663504,
          -0.07394948640404994
        ],
        [
          0.047232098138046505,
          0.09224243259709235,
          0.13435206612361955
        ],
        [
          -0.13440227424478857,
          -0.0031232376855855433,
          0.014117117211957584
        ]
      ],
      [
        [
          -0.15286181400657434,
          -0.028814375016613544,
          -0.16877998646603873
        ],
        [
          0.10491142485785256,
          0.11071311959427305,
          0.0608159998470262
        ],
        [
          0.16268558880979037,
          -0.037666833326053126,
          0.09999010057975412
        ]
      ]
    ],
    [
      [
        [
          -0.09339237072727613,
          0.11165576732010644,
          -0.02749985457353491
        ],
        [
          -0.0010049399091945027,
          -0.24182299709429877,
          -0.08030782682519692
        ],
        [
          -0.05276305359566095,
          0.025862579025457223,
          0.10532941189065735
        ]
      ],
      [
        [
          -0.04494819511723544,
          -0.20959703054845708,
          -0.08931409205561845
        ],
        [
          -0.10680611447455302,
          -0.16320423845105045,
          0.11149599722062868
        ],
        [
          -0.03592324445209986,
          0.14820054216585138,
          0.09038556425282597
        ]
      ],
      [
        [
          -0.04690485594855673,
          0.020933348788137046,
          -0.020126495793414877
        ],
        [
          -0.126241118937576,
          -0.04606239872464721,
          0.08823287980787597
        ],
        [
          -0.10303940171270742,
          -0.15927639779857677,
          0.015886481583305734
        ]
      ]
    ],
    [
      [
        [
          0.09174700885169794,
          0.10502086221714667,
          -0.158787568146794
        ],
        [
          -0.22494523449911188,
          -0.13501074339020624,
          -0.25256050075130204
        ],
        [
          0.0802237299895049,
          -0.2554539740352155,
          0.13681008807061
        ]
      ],
      [
        [
          0.23526380667689814,
          0.05948774142981017,
          0.1005079566853647
        ],
        [
          0.049187611212754875,
          0.03342408560415949,
          0.09764270620708057
        ],
        [
          0.16282843454810442,
          0.23000947749147094,
          0.27359826838329826
        ]
      ],
      [
        [
          0.06645647678516006,
          -0.06300834720615577,
          0.02232876140931138
        ],
        [
          -0.15646470310421381,
          -0.270130724084,
          -0.2163276275168347
        ],
        [
          -0.1344855470601352,
          -0.011818428952607594,
          0.0046201320125181
        ]
      ]
    ],
    [
      [
        [
          -0.24383994250039007,
          -0.189014396295831,
          -0.2494120128186245
        ],
        [
          -0.010239135827561507,
          -0.06105833880613469,
          -0.16641460538766117
        ],
        [
          0.30585666877571965,
          0.2441761607248282,
          0.3212910569920211
        ]
      ],
      [
        [
          -0.13799294086965358,
          0.00044187899852494045,
          0.12400806814981331
        ],
        [
          -0.18174861954883556,
          -0.18162081093286586,
          0.06965736029019577
        ],
        [
          0.20771914108408013,
          0.014619083945521255,
          0.04048960670572725
        ]
      ],
      [
        [
          0.0046413383258841695,
          0.12984078039398356,
          0.02120227589432826
        ],
        [
          0.04059561831523619,
          0.030516326686830714,
          -0.18588378801325708
        ],
        [
          0.06256443728543098,
          0.02228897502323526,
          -0.05712863206560067
        ]
      ]
    ],
    [
      [
        [
          -0.3475248903239244,
          -0.028236906289659854,
          0.28458140889370265
        ],
        [
          0.10295431885264426,
          0.1751568646411147,
          -0.13149759151230944
        ],
        [
          0.11789143433005723,
          0.14438866058879718,
          -0.330083733973307
        ]
      ],
      [
        [
          -0.2910832179031333,
          0.14091247829038547,
          0.26216657367292384
        ],
        [
          -0.19342312079910776,
          -0.0684482968007921,
          0.1624558911180379
        ],
        [
          0.3291140735080589,
          -0.016377525263947625,
          -0.3227973928015288
        ]
      ],
      [
        [
          -0.3516087097569877,
          0.15001860487871807,
          0.2084871396540615
        ],
        [
          -0.0032845070230466604,
          -0.0894658169152875,
          0.021830363737344066
        ],
        [
          0.20666232784132058,
          0.03600309220186684,
          -0.17107313439629077
        ]
      ]
    ],
    [
      [
        [
          0.18919268884690055,
          0.16834270492661318,
          0.006913948802472025
        ],
        [
          0.05093666198385627,
          0.11467491661391563,
          0.1039984941994374
        ],
        [
          -0.04748161362146252,
          0.1476894098004645,
          -0.030052533530725394
        ]
      ],
      [
        [
          -0.1842710017189331,
          -0.16966478046817088,
          -0.14963994869676966
        ],
        [
          -0.0898849616848925,
          -0.31096354558561057,
          -0.23914493119215183
        ],
        [
          0.08376302146275401,
          0.026173101996593996,
          -0.2726800124632491
        ]
      ],
      [
        [
          0.1683820846293046,
          0.015425324173783339,
          0.08232768123865977
        ],
        [
          -0.008707165019480295,
          0.1352089774915573,
          0.08850534438140206
        ],
        [
          -0.04271723598969064,
          0.003988127542113362,
          -0.05800243215418094
        ]
      ]
    ],
    [
      [
        [
          -0.16117456806272576,
          -0.26164608330231565,
          0.027677882344412316
        ],
        [
          -0.1121837422976016,
          -0.03701804763921584,
          -0.16242234438115283
        ],
        [
          0.24907233595974582,
          0.37815411188715164,
          -0.05100624027764789
        ]
      ],
      [
        [
          -0.07082911820501309,
          -0.2091162893129038,
          -0.27243258175746043
        ],
        [
          -0.11087991108981464,
          -0.060472772871786006,
          0.04784799114713296
        ],
        [
          0.2646701868394239,
          0.2878013232891652,
          0.12978426498982934
        ]
      ],
      [
        [
          -0.1284427933711571,
          -0.11622605834664954,
          0.06068917373670698
        ],
        [
          0.03689096609291326,
          -0.23878621290409133,
          -0.0026244442284861233
        ],
        [
          0.17451297856740397,
          0.17779115424211395,
          0.1456119786059584
        ]
      ]
    ],
    [
      [
        [
          -0.23216698269905187,
          0.08468813884983599,
          0.08717410140350271
        ],
        [
          0.13761341141544198,
          0.26272876139832857,
          0.14364009566661215
        ],
        [
          -0.1420732893553278,
          -0.03898356698995309,
          -0.2947042046311117
        ]
      ],
      [
        [
          0.08414664303660127,
          0.09772876417600199,
          -0.10110385286741831
        ],
        [
          0.06986168650663718,
          0.1328555000924438,
          0.18527100643884653
        ],
        [
          -0.04288569256504889,
          -0.23003640352780222,
          -0.23571689425373255
        ]
      ],
      [
        [
          -0.2817417739179272,
          -0.2561098275204614,
          -0.14882877540001768
        ],
        [
          0.21320225391355163,
          -0.009640361407939328,
          0.12920336143840194
        ],
        [
          0.1644492748105023,
          0.04513126270716203,
          0.1470346009427019
        ]
      ]
    ],
    [
      [
        [
          -0.06331718943366436,
          -0.17051565503244787,
          -0.0263037191300281
        ],
        [
          -0.010860592584950955,
          -0.1185435597780758,
          0.03498109240852812
        ],
        [
          -0.2106472217680352,
          -0.1498481587235918,
          0.08491988281717526
        ]
      ],
      [
        [
          0.009403756776005717,
          -0.10108579046195346,
          0.0033807944199437446
        ],
        [
          -0.06082016839104108,
          0.15464513517013204,
          0.16509815134342895
        ],
        [
          0.04859286931308005,
          0.13771832993216698,
          -0.11988025282458963
        ]
      ],
      [
        [
          0.009623917305521971,
          -0.04843416029568458,
          -0.12464013943784552
        ],
        [
          0.2493899993807158,
          0.2772577666060412,
          0.18405979515740464
        ],
        [
          0.07887287359473598,
          0.21336402169555319,
          0.03984144889200095
        ]
      ]
    ],
    [
      [
        [
          0.11692097084243536,
          0.3813378050866096,
          0.12243172239619127
        ],
        [
          0.10375756919347744,
          -0.19379549662395176,
          -0.12631717771764056
        ],
        [
          0.00427804856949486,
          -0.27087261674502106,
          -0.08272458765705126
        ]
      ],
      [
        [
          0.259424709164585,
          0.39333508045776794,
          0.2603180057050918
        ],
        [
          -0.22091120980655746,
          -0.1718962549884704,
          -0.014950683706354223
        ],
        [
          -0.057990491098061335,
          -0.17034841910163068,
          -0.24461221989124327
        ]
      ],
      [
        [
          0.061903206292388005,
          0.24459164208695688,
          0.22394392424201026
        ],
        [
          -0.038819940303362145,
          -0.19925229395785496,
          -0.14523695314810828
        ],
        [
          0.022452489440135642,
          -0.22720672612035073,
          -0.003640277186167066
        ]
      ]
    ],
    [
      [
        [
          -0.21283660729248507,
          -0.12132731241763042,
          -0.18549470261394574
        ],
        [
          -0.2660307420447399,
          -0.2979501810855284,
          -0.027870141572598796
        ],
        [
          -0.1520037639228772,
          0.07471102909781796,
          -0.09054369219336292
        ]
      ],
      [
        [
          0.2174846036201287,
          0.1227852044385347,
          0.07352263499676052
        ],
        [
          -0.12896183474270542,
          0.0724438055369718,
          0.23053961382300672
        ],
        [
          0.0068647322405203095,
          -0.02091747511849843,
          -0.05735119539292994
        ]
      ],
      [
        [
          -0.07467381452184137,
          0.13967238237863142,
          0.18205310697052104
        ],
        [
          0.11666093221584534,
          0.21232564122819408,
          0.055817190731403135
        ],
        [
          -0.1716474622809654,
          0.16034279717397776,
          -0.009819413226204164
        ]
      ]
    ],
    [
      [
        [
          0.10637304526559585,
          -0.0607095741600973,
          0.006034499941569703
        ],
        [
          0.2151677734926285,
          0.07093432215075582,
          -0.321789611743971
        ],
        [
          0.2666305764121459,
          0.023482405429652218,
          -0.3311932297635846
        ]
      ],
      [
        [
          0.10441897706211849,
          -0.02766683999184904,
          -0.21183366475497675
        ],
        [
          0.0717029931594139,
          0.07833528000305898,
          -0.35611220243456904
        ],
        [
          0.2730058227103125,
          0.13490750021257075,
          -0.09549726236320041
        ]
      ],
      [
        [
          0.16179795008938627,
          -0.17101799189656805,
          -0.34378569946819204
        ],
        [
          0.2595378957239671,
          0.14561040365800315,
          -0.18328602130239302
        ],
        [
          0.16294943605535642,
          0.05385472824973755,
          -0.045467542532151135
        ]
      ]
    ]
  ],
  "conv1.bias": [
    -0.004284609299590803,
    0.20810971551177404,
    -0.059387445726137,
    -0.11245244017476665,
    0.23943767085798615,
    -0.15025219684646177,
    0.11962499984547204,
    -0.06759531448164115,
    -0.040015837399174775,
    -0.19609763437612507,
    -0.10093903556748314,
    -0.10412336316556951,
    -0.4045690149882708,
    -0.07981255150681238,
    0.09770058399774388,
    -0.09568387197821447
  ],
  "res1_conv1.weight": [
    [
      [
        [
          -0.12714145314468264,
          -0.17489366433870504,
          -0.12025272815035398
        ],
        [
          -0.010018961586363978,
          -0.04615736900375608,
          -0.0599534397586711
        ],
        [
          -0.0015037490238919355,
          0.13962724541845487,
          -0.08318872341312207
        ]
      ],
      [
        [
          0.28889440263181904,
          0.1528144883507456,
          -0.00830317770468734
        ],
        [
          0.11967278154504468,
          -0.10281620652370706,
          -0.07933539419513165
        ],
        [
          0.025293479780436934,
          -0.04852018443066275,
          -0.11803106755962225
        ]
      ],
      [
        [
          -0.09539185786710483,
          -0.004989860850489659,
          0.0974717789094593
        ],
        [
          -0.5166575724365097,
          -0.16788419312925087,
          0.044598024719123566
        ],
        [
          0.07033824075898049,
          -0.02486629298824952,
          -0.01758774750950276
        ]
      ],
      [
        [
          -0.15209207962938445,
          -0.18015703447163944,
          -0.043673595083355235
        ],
        [
          -0.06138037258111794,
          -0.05725757777408329,
          0.00017533470777831626
        ],
        [
          -0.14820001054751625,
          -0.02361505824156841,
          -0.09042346560960551
        ]
      ],
      [
        [
          -0.022043755352580355,
          0.0875203097688833,
          -0.0032885625256932104
        ],
        [
          -0.016445366368791493,
          0.0233868427021747,
          0.1284577021971624
        ],
        [
          -0.018141871550625573,
          -0.004957418332257391,
          -0.025836373940843465
        ]
      ],
      [
        [
          0.13572935185642496,
          0.09862216199849248,
          0.03801066095690892
        ],
        [
          0.11748737775619231,
          -0.02053289158783229,
          -0.061859568204950616
        ],
        [
          0.036119149640830385,
          -0.11028843705799643,
          -0.10114306342134498
        ]
      ],
      [
        [
          0.0728191187681399,
          0.027445070695823016,
          -0.12096268813829736
        ],
        [
          -0.13128984571223856,
          -0.19658729464772215,
          -0.2638554311851526
        ],
        [
          -0.03605791107349889,
          -0.18629810697691065,
          -0.16601647427121435
        ]
      ],
      [
        [
          -0.06581355561640465,
          -0.008518264813452286,
          -0.008344143666570545
        ],
        [
          -0.03131507458121519,
          -0.03651744631793284,
          0.04723016505716549
        ],
        [
          0.08643162081629478,
          -0.0009743099278357593,
          -0.10691686674647086
        ]
      ],
      [
        [
          -0.014433494729872277,
          0.05348780039304884,
          0.16414315968256385
        ],
        [
          -0.005247928333803072,
          0.16490787551553196,
          -0.1035970972774946
        ],
        [
          0.040773759180906186,
          0.05346971839763053,
          -0.30689874776103404
        ]
      ],
      [
        [
          -0.05974011256012213,
          -0.206154074914439,
          -0.21643750369720802
        ],
        [
          -0.3970640986233993,
          -0.46465124272040403,
          -0.33445898202753593
        ],
        [
          -0.1463250996891422,
          -0.1681741350165147,
          -0.12996825376754786
        ]
      ],
      [
        [
          0.04811319079472775,
          0.15198495384011196,
          0.06481981384910618
        ],
        [
          0.1252475638403752,
          0.11123353675736376,
          0.06895315873809828
        ],
        [
          0.15798912036230803,
          -0.10999513516584171,
          0.0263566160250143
        ]
      ],
      [
        [
          0.011173317585081615,
          -0.046941578961927515,
          -0.10614518405244008
        ],
        [
          0.06764327454810258,
          0.08966611459693948,
          -0.18304709111834372
        ],
        [
          0.09028824106350072,
          -0.14407645260855273,
          -0.3449217783620198
        ]
      ],
      [
        [
          -0.10936616801875958,
          -0.08520634732243805,
          -0.018377472729938265
        ],
        [
          0.09425128490288871,
          0.17038292911807457,
          -0.04573170088190344
        ],
        [
          -0.07769746951376631,
          -0.07823778200986929,
          -0.136287253172853
        ]
      ],
      [
        [
          0.16112692080478994,
          -0.017074683690693766,
          0.05442298728599252
        ],
        [
          0.0691588291447659,
          0.14116501471809986,
          0.015847345030895188
        ],
        [
          0.1197911155002157,
          0.13044556006285435,
          0.09300617731494541
        ]
      ],
      [
        [
          -0.03376888790005896,
          -0.060238059169437204,
          -0.05296136235034698
        ],
        [
          0.01679841800852493,
          -0.007042972543159455,
          -0.05165746462550152
        ],
        [
          0.11510111501704826,
          0.07124698540469354,
          0.09699511700090362
        ]
      ],
      [
        [
          -0.20628142923927079,
          0.13516464155642263,
          -0.06507197057893807
        ],
        [
          -0.4082491101415775,
          -0.08295922392970738,
          0.10683579180548347
        ],
        [
          -0.29113027515635614,
          -0.05284871459079028,
          0.009103377258208045
        ]
      ]
    ],
    [
      [
        [
          0.034960641815232216,
          0.054273989554742004,
          0.06402396554606181
        ],
        [
          0.057770792762628406,
          0.1683545372205827,
          0.047345856637621725
        ],
        [
          0.005862056326374052,
          -0.05746851547072562,
          -0.012319258935949807
        ]
      ],
      [
        [
          0.04374723817279512,
          0.04097882095035032,
          -0.058221648534038245
        ],
        [
          -0.06409918254955678,
          0.025219877445532536,
          0.005593742265589862
        ],
        [
          -0.05376663778024773,
          -0.02515768263357352,
          -0.03225675982408866
        ]
      ],
      [
        [
          -0.191933142611761,
          -0.07018096667884945,
          0.0499234633392409
        ],
        [
          -0.251573884730251,
          -0.18153538067364097,
          0.014360659592254976
        ],
        [
          0.056512652250816545,
          -0.061248057712356994,
          -0.2022624448248965
        ]
      ],
      [
        [
          0.08157377573694626,
          0.026007422005158508,
          -0.01224357434566695
        ],
        [
          0.015120802729905037,
          0.04934392343726603,
          0.01897163836032647
        ],
        [
          0.007474859062883714,
          0.005956573225956922,
          0.0036309290833417885
        ]
      ],
      [
        [
          -0.027469465703342133,
          0.10116272057558254,
          -0.09584828527578139
        ],
        [
          -0.019984254144999748,
          0.11490871349860424,
          0.0015050956264565888
        ],
        [
          0.1131418119816559,
          0.07336741490906695,
          -0.0026202649643821013
        ]
      ],
      [
        [
          -0.028149745382816983,
          -0.09699468165143028,
          0.05731487060682023
        ],
        [
          -0.12087228210718627,
          0.02388148503401391,
          -0.024949152422236418
        ],
        [
          0.04826016403527433,
          0.14992299434653591,
          0.10263267925838607
        ]
      ],
      [
        [
          -0.03173517610588129,
          -0.12173552113763018,
          -0.0978477270926068
        ],
        [
          0.025218582152629065,
          0.018523924193472426,
          -0.013332796587188394
        ],
        [
          0.20323804158858177,
          0.12902722345550918,
          0.11475321578796593
        ]
      ],
      [
        [
          0.07257492783266144,
          0.04777721148321396,
          0.07128699264279299
        ],
        [
          -0.09325016130694083,
          -0.07508416082081792,
          -0.010000382780596435
        ],
        [
          0.06108580885995395,
          -0.061745353772915824,
          -0.053807048935614527
        ]
      ],
      [
        [
          -0.014406540767302677,
          0.034625053250164316,
          0.014274352844270125
        ],
        [
          0.11931416103248045,
          -0.10333944573459733,
          -0.04875818838495734
        ],
        [
          0.10553307474923143,
          0.07630468343855214,
          0.04181641400161211
        ]
      ],
      [
        [
          0.15981906953447753,
          0.0868177548168321,
          0.0708576659792045
        ],
        [
          0.10250656016089374,
          0.130395361477102,
          0.11823452730715533
        ],
        [
          0.07724098171824557,
          -0.024431929579555072,
          -0.12263367346890103
        ]
      ],
      [
        [
          0.0541966055226823,
          0.09658675889607952,
          0.07793629641856353
        ],
        [
          -0.0053188838339628414,
          -0.07853392125898137,
          0.1419765178720939
        ],
        [
          -0.020309169487229568,
          -0.0371826452087511,
          -0.08346275952857728
        ]
      ],
      [
        [
          0.08106818096207041,
          0.13743655814372194,
          -0.008554667067755298
        ],
        [
          -0.009003863351159401,
          -0.03402657014846231,
          0.06417478038130317
        ],
        [
          -0.029701336910188784,
          -0.04023086333207869,
          -0.05990317288430447
        ]
      ],
      [
        [
          -0.02247704735238733,
          -0.024040051213546843,
          -0.08726334298745474
        ],
        [
          0.061992029617836814,
          0.05442134503945047,
          -0.016969561539146305
        ],
        [
          -0.09792141146457709,
          -0.10941179578341212,
          0.004921860792796973
        ]
      ],
      [
        [
          -0.06413944229166894,
          0.02070360642460233,
          0.08641763636377436
        ],
        [
          0.11449036104582418,
          0.1865133213409079,
          0.07622628087831335
        ],
        [
          0.07173120109255779,
          0.13883302247861534,
          0.09767996098247322
        ]
      ],
      [
        [
          0.009755545141478045,
          -0.11060448940649409,
          -0.002598865958989551
        ],
        [
          -0.025680401931562697,
          -0.01692515920643354,
          0.006512601590168302
        ],
        [
          -0.03920170805256916,
          -0.05801565180127883,
          -0.018003605092662203
        ]
      ],
      [
        [
          -0.04432780032880785,
          -0.05390740558634382,
          -0.013581148573661012
        ],
        [
          -0.20539605275746436,
          -0.2520938968911438,
          -0.08330026413551897
        ],
        [
          0.0569596531811534,
          -0.20566145075495637,
          -0.18318030710314578
        ]
      ]
    ],
    [
      [
        [
          -0.033309778334467854,
          0.029825949117946567,
          -0.05867890839073931
        ],
        [
          -0.04515793206278424,
          -0.08737106306512817,
          -0.08914008581273769
        ],
        [
          0.020082250560104084,
          0.0243300647837795,
          -0.052509109968456445
        ]
      ],
      [
        [
          0.009926308130102535,
          0.005484367583405317,
          0.06435617638427067
        ],
        [
          -0.0002932407929160167,
          0.07776725829565331,
          0.08947951831464776
        ],
        [
          -0.10249941254571264,
          -0.04771076958200056,
          0.09976436032290355
        ]
      ],
      [
        [
          -0.10690392796020526,
          0.0028087118334976344,
          0.003231870713571878
        ],
        [
          -0.10978836265619953,
          -0.05657324985139616,
          0.03776668936779996
        ],
        [
          -0.12214350371861381,
          -0.0013347441222760217,
          0.06536933721463935
        ]
      ],
      [
        [
          0.0866133335282095,
          0.019276443272251125,
          0.05893652213199309
        ],
        [
          -0.00919246260241848,
          -0.09549386486512046,
          -0.12452235539880253
        ],
        [
          0.023091905093820003,
          0.04665287464151106,
          0.04510564053515312
        ]
      ],
      [
        [
          -0.110650399895697,
          -0.0549479123841488,
          -0.01594697948333989
        ],
        [
          -0.07033666510201544,
          -0.10736548231160976,
          -0.02571597070066983
        ],
        [
          0.012495627757795051,
          -0.029706272451119304,
          0.02041808972653774
        ]
      ],
      [
        [
          -0.09335082745310626,
          -0.13633459719467633,
          -0.09756223712195743
        ],
        [
          -0.12821693790001767,
          -0.08759935693187514,
          -0.03942268889085105
        ],
        [
          0.04837748596834053,
          -0.04112455221734295,
          0.08175806192390546
        ]
      ],
      [
        [
          0.11108356856364256,
          -0.03242882015759836,
          -0.05364826705556814
        ],
        [
          0.04274150893518982,
          0.0762791528577365,
          0.032916180566210394
        ],
        [
          0.21505542539438782,
          0.16283205416213775,
          0.057583713538659834
        ]
      ],
      [
        [
          0.047854794911814824,
          -0.013157351710982557,
          -0.01784717194644143
        ],
        [
          0.07249783845097925,
          0.03106945026231628,
          0.044986269785367856
        ],
        [
          0.0021522553931013007,
          -0.17211756475978068,
          -0.06633645166477722
        ]
      ],
      [
        [
          -0.10836628010738192,
          -0.08207720821368795,
          -0.03565846974889689
        ],
        [
          -0.2720627548052336,
          -0.3814411307225627,
          0.0009211013829064048
        ],
        [
          -0.019536202272655696,
          -0.053904527063465775,
          -0.0050131396300733795
        ]
      ],
      [
        [
          -0.03630889468554159,
          0.17825517036976252,
          0.046897123890183155
        ],
        [
          0.026868098790279585,
          0.24260846547793966,
          0.20959675834353783
        ],
        [
          0.05341792613505994,
          0.07854365519399438,
          0.05332111487807275
        ]
      ],
      [
        [
          0.041807914290587105,
          -0.08854993686581468,
          -0.04064755495277178
        ],
        [
          0.04539421699380915,
          0.052827479527508464,
          0.06159745767397449
        ],
        [
          -0.24684758792843176,
          -0.22823628843614577,
          -0.13439117521546842
        ]
      ],
      [
        [
          0.09728635488415496,
          0.1247420421970653,
          0.16574601428777397
        ],
        [
          0.07743774000610493,
          0.03368711605981008,
          0.03758015379377281
        ],
        [
          0.02678243503737191,
          0.04468371175476248,
          0.053016287077882196
        ]
      ],
      [
        [
          -0.12102302321385745,
          -0.0019679140274173734,
          -0.13748979042779258
        ],
        [
          0.12935030989108065,
          0.07539902080806225,
          -0.08580379505721308
        ],
        [
          -0.019062835598918953,
          -0.019404455112635884,
          -0.08953852771234747
        ]
      ],
      [
        [
          -0.009801253167577764,
          0.0699568830248635,
          0.0795698052456155
        ],
        [
          -0.17524337984983274,
          -0.17450325026042815,
          -0.02754896146503526
        ],
        [
          0.1528627962032809,
          0.030669078722175103,
          0.037969305825130674
        ]
      ],
      [
        [
          0.05920541844503033,
          -0.009039642114128763,
          0.06452724014585237
        ],
        [
          0.0263794760506899,
          0.01163888772892662,
          0.043599705480039205
        ],
        [
          0.10885809858678322,
          0.036098983395837156,
          0.03748738408201126
        ]
      ],
      [
        [
          -0.08918660696526987,
          -0.07283040136921363,
          -0.10633590177145232
        ],
        [
          -0.16530248102408465,
          -0.019497384620710368,
          0.061526234817827895
        ],
        [
          -0.15015755601332834,
          0.09328833169470267,
          0.16744836003588257
        ]
      ]
    ],
    [
      [
        [
          0.03783438574687174,
          0.018956317984429885,
          0.02104037301773725
        ],
        [
          -0.001504363261122476,
          0.017868598593470588,
          -0.1480470156887216
        ],
        [
          0.05145066843123553,
          -0.1842035984305629,
          -0.1850394929004748
        ]
      ],
      [
        [
          -0.27445151813786145,
          -0.1139730530049294,
          0.04931014441047123
        ],
        [
          -0.19658977727772026,
          -0.028922092066903382,
          0.2575439920973134
        ],
        [
          -0.0623228190009349,
          0.22452501637232908,
          0.09504814551070387
        ]
      ],
      [
        [
          -0.14133935431459274,
          -0.08160818795022615,
          -0.03834011367838716
        ],
        [
          0.1290891103784028,
          -0.12155003209091406,
          -0.20316918278798166
        ],
        [
          0.036318280032902835,
          -0.0016432538391017543,
          -0.09486986214154426
        ]
      ],
      [
        [
          -0.12295176023089112,
          -0.11501686505606919,
          0.014960801541501584
        ],
        [
          0.039375929168006314,
          0.01017198915019227,
          -0.0013877103737048215
        ],
        [
          0.10219343597887394,
          0.06753346291175967,
          0.04826637045833893
        ]
      ],
      [
        [
          0.07512489953757344,
          -0.06007336843349808,
          -0.05722295012606409
        ],
        [
          0.01282937662074995,
          0.019311798328700804,
          0.017448838187038542
        ],
        [
          0.0053745695016754825,
          0.0666990532294756,
          0.11917717949652867
        ]
      ],
      [
        [
          -0.14301800197854073,
          -0.08553977885582702,
          -0.11476173431647742
        ],
        [
          0.002290857788804304,
          0.07281280876492943,
          -0.0008157108280220072
        ],
        [
          -0.03290208315199591,
          0.18222969868070124,
          0.08318856847255912
        ]
      ],
      [
        [
          -0.18612602763175354,
          -0.12341451738211127,
          -0.12349387393332746
        ],
        [
          -0.06975006436127479,
          0.11228383739363232,
          0.12780432661390106
        ],
        [
          -0.014533260026475541,
          0.18473549164741768,
          0.1983423677199202
        ]
      ],
      [
        [
          -0.09450608283969493,
          0.03345655514949364,
          0.003373572867194681
        ],
        [
          0.17304559356257673,
          0.024070643584951423,
          -0.0030162477516984
        ],
        [
          -0.042956556419516595,
          0.09129431334819826,
          0.0010710102278454257
        ]
      ],
      [
        [
          -0.08999174647695717,
          -0.26571011261935584,
          0.03422446119754302
        ],
        [
          0.0031696435821678653,
          0.15350841195054746,
          -0.07035677453308069
        ],
        [
          -0.1028758554911547,
          0.1581779296627106,
          0.250101752236035
        ]
      ],
      [
        [
          -0.08584689840791528,
          0.1214313207060747,
          0.06831024821262219
        ],
        [
          0.07440689472907705,
          0.05493300775838006,
          0.12165155347571353
        ],
        [
          -0.21606226754337546,
          -0.09927704099328442,
          -0.11700244869159572
        ]
      ],
      [
        [
          -0.10228091836216807,
          -0.16052641461745307,
          -0.04259324820059464
        ],
        [
          0.08300865565644164,
          -0.05963487604054786,
          0.04676021801471657
        ],
        [
          -0.03647006401914363,
          0.11209463689938336,
          0.10072773576841026
        ]
      ],
      [
        [
          -0.18742512245865428,
          -0.22443443422861856,
          -0.09275186556052838
        ],
        [
          -0.11122665289014233,
          -0.095429750843944,
          0.06393621180636863
        ],
        [
          0.03320616148040045,
          0.18553036649690358,
          0.21716034107165286
        ]
      ],
      [
        [
          -0.03390848270938724,
          0.11700581346692727,
          -0.10713166099921434
        ],
        [
          0.0313295894111729,
          -0.08447828443148668,
          -0.05658635930998425
        ],
        [
          0.16887400897111085,
          0.04948061161735317,
          0.03070111139905296
        ]
      ],
      [
        [
          0.040864028012582404,
          -0.16658448673861748,
          -0.15660661512607202
        ],
        [
          -0.11181541206193474,
          0.04583183394985124,
          0.006314318329816893
        ],
        [
          0.1361299990283833,
          0.02798597992255028,
          0.1422272602412397
        ]
      ],
      [
        [
          0.23358316840057194,
          0.06965024911147324,
          -0.10211385471273082
        ],
        [
          -0.01772118669408381,
          0.12735239454163702,
          -0.04640299330411811
        ],
        [
          -0.021149305657372892,
          -0.02699482515477812,
          -0.06339379499541531
        ]
      ],
      [
        [
          -0.2207157747669362,
          -0.2075715483462482,
          -0.07213736108923254
        ],
        [
          0.0708159522222447,
          -0.09524485024827217,
          -0.10501036413865983
        ],
        [
          0.11118829424383148,
          0.04792467073323576,
          -0.22731641607948105
        ]
      ]
    ],
    [
      [
        [
          -0.014635568465523545,
          -0.20191142228562434,
          -0.25648079161814574
        ],
        [
          0.12730918692004958,
          -0.16151183663688856,
          -0.26683116989141153
        ],
        [
          0.05950653214269172,
          -0.028076771183244375,
          -0.05589291574666753
        ]
      ],
      [
        [
          0.09888922029333586,
          0.0016349392154743402,
          0.046022226229590665
        ],
        [
          0.09999195011353176,
          -0.1040943328979993,
          0.0772824608756707
        ],
        [
          -0.012564922356180015,
          -0.02959171336775892,
          -0.03525367185881455
        ]
      ],
      [
        [
          0.010223844021976304,
          -0.00142333053179629,
          -0.047655136140244074
        ],
        [
          0.07506937932996342,
          0.02389578781615531,
          0.006746903236817787
        ],
        [
          -0.013758644511147805,
          -0.12466138028351074,
          0.08246073004629847
        ]
      ],
      [
        [
          0.06367710174644682,
          -0.07378660663521021,
          0.16039646851112055
        ],
        [
          0.05958336918928771,
          -0.061829229387151206,
          0.11782877199519719
        ],
        [
          -0.061435348898656546,
          -0.21371108025680274,
          0.022568228363415904
        ]
      ],
      [
        [
          0.025533783570050844,
          0.12607108243288478,
          0.08069722609137238
        ],
        [
          -0.024623029849689893,
          -0.01585655968058098,
          0.02408064551233006
        ],
        [
          -0.0777225334976784,
          -0.05952791131932532,
          -0.01919495168785999
        ]
      ],
      [
        [
          0.07287307192591218,
          0.08930326711518331,
          -0.16821521359923103
        ],
        [
          0.03184676447247603,
          -0.04123887067322842,
          -0.03740995777858313
        ],
        [
          0.1686146935219701,
          0.07831090186570502,
          0.06295065416235598
        ]
      ],
      [
        [
          -0.18027221781437877,
          -0.25255819298708226,
          -0.1795677629366075
        ],
        [
          -0.09126976918717802,
          -0.19672249942988076,
          -0.1746262271610078
        ],
        [
          0.13804311917141743,
          -0.06615248147446802,
          -0.08045055267366039
        ]
      ],
      [
        [
          -0.01492901639164517,
          -0.0891681154390507,
          -0.08566367489823135
        ],
        [
          -0.3970427952572281,
          -0.39608763351489246,
          -0.41383640200831034
        ],
        [
          0.1474534592550671,
          0.1279226246185554,
          0.07878095411339316
        ]
      ],
      [
        [
          -0.2021305491989161,
          -0.13885017409142422,
          0.036633026919385844
        ],
        [
          -0.3287663879363032,
          -0.0325212291488103,
          0.04215967313199948
        ],
        [
          -0.1598594785288532,
          0.06825687474005784,
          -0.042012475194458034
        ]
      ],
      [
        [
          -0.011351676965812702,
          -0.25872614883734874,
          -0.19756644195035616
        ],
        [
          0.02239305210596977,
          -0.19438178738233322,
          -0.15635320269449024
        ],
        [
          0.11176725796902404,
          -0.04825632621118389,
          0.0437759254976128
        ]
      ],
      [
        [
          0.036931667439467575,
          -0.05852134231973128,
          -0.04133554908005724
        ],
        [
          -0.223405163047987,
          -0.4311487576428548,
          -0.4136234952873376
        ],
        [
          0.10514250661180816,
          0.13485876962394996,
          0.06288363504178791
        ]
      ],
      [
        [
          0.07570721645474267,
          -0.1092028278933323,
          -0.12535003632828412
        ],
        [
          0.05582874749126921,
          -0.12173991303762206,
          0.07490906252157774
        ],
        [
          0.04544280751706073,
          -0.038338328726865635,
          -0.11426013183039631
        ]
      ],
      [
        [
          0.05485062212984865,
          -0.09039645879910378,
          -0.047879291196008894
        ],
        [
          -0.08947478966557904,
          -0.1344268614190461,
          -0.18757787212448981
        ],
        [
          -0.1261773542083154,
          0.029130781300311062,
          0.07152071396608513
        ]
      ],
      [
        [
          -0.08510868394383996,
          -0.11039750268342466,
          -0.19411069977866913
        ],
        [
          0.12341135361796135,
          0.10787314701267693,
          0.07196766904920927
        ],
        [
          0.16095191628930805,
          0.15022151406248843,
          0.14098151918003987
        ]
      ],
      [
        [
          -0.1459203881930326,
          -0.012415416796893529,
          -0.12732597464085402
        ],
        [
          -0.0928298578459088,
          0.027972201289025455,
          -0.10465704865863337
        ],
        [
          0.016770032123959763,
          0.0029761214643979268,
          -0.06383136498918171
        ]
      ],
      [
        [
          0.012896890787472632,
          0.09401991909602393,
          0.08236230459290757
        ],
        [
          0.01916120208293744,
          0.04132110182632851,
          -0.04236632192789296
        ],
        [
          0.03417632878823311,
          -0.06579074529546637,
          0.06608237117240115
        ]
      ]
    ],
    [
      [
        [
          0.20219747456241813,
          0.01575877630795926,
          -0.06547184743923969
        ],
        [
          0.1332349951888833,
          0.0013543867981260192,
          -0.16397486128895827
        ],
        [
          0.10394052057051799,
          -0.04124570124924244,
          -0.09072495864501813
        ]
      ],
      [
        [
          -0.08531123393922468,
          0.061674826417093084,
          0.154960254595993
        ],
        [
          -0.022583238534194822,
          0.14386800541687936,
          0.0007640453347666628
        ],
        [
          -0.024519123115587356,
          0.012999855004947016,
          -0.014976850964946234
        ]
      ],
      [
        [
          0.02729173965867784,
          0.002283189111319763,
          -0.16534315865043075
        ],
        [
          0.22342444233707925,
          0.05234648612843061,
          -0.1373073893199181
        ],
        [
          0.007955123619826436,
          0.129902911899205,
          0.01704910061459184
        ]
      ],
      [
        [
          -0.05593676075394903,
          -0.009645649223442448,
          -0.13984498337690307
        ],
        [
          -0.04333504347697761,
          -0.06989059878413972,
          -0.0449620874069198
        ],
        [
          -0.057504439435209234,
          -0.1293720831776385,
          -0.009163599857735794
        ]
      ],
      [
        [
          -0.06820748372902456,
          -0.057922219564967396,
          -0.016864362826732465
        ],
        [
          -0.09652685480286015,
          0.01365591691235699,
          -0.03909445394656306
        ],
        [
          -0.08809582858271345,
          -0.004290087544230398,
          0.022963923588817534
        ]
      ],
      [
        [
          -0.020189224121649106,
          0.02973563039186119,
          0.024215497680572982
        ],
        [
          0.020271027155080643,
          0.005504513642700796,
          0.03484491694633585
        ],
        [
          0.043868854125411416,
          0.058492506939273804,
          -0.036282889083301746
        ]
      ],
      [
        [
          0.03210865923915268,
          -0.09430631894955802,
          0.04755615374691882
        ],
        [
          -0.1277321460550518,
          0.02884738491316903,
          0.00010852758739334032
        ],
        [
          0.005072500937339731,
          0.016922953211674453,
          0.14205619835169941
        ]
      ],
      [
        [
          0.04647145665783683,
          0.004107070093799665,
          -0.0961717400459523
        ],
        [
          -0.066755489507776,
          -0.25732965058612484,
          0.028439162905873592
        ],
        [
          -0.09925090912458814,
          -0.10990538733276248,
          0.014371396972390748
        ]
      ],
      [
        [
          0.15465045728114862,
          0.18684141372136567,
          -0.07646636765514911
        ],
        [
          0.3422602646225054,
          -0.0512882552357579,
          -0.0049985939498645784
        ],
        [
          0.06411950179920672,
          0.4234264713732703,
          0.17894464923529926
        ]
      ],
      [
        [
          -0.040710394856569646,
          0.1367548591431549,
          0.10243286875727231
        ],
        [
          -0.06610061206406269,
          0.04806204381600978,
          -0.08166438455531426
        ],
        [
          -0.14143194078093374,
          -0.03681362023885322,
          -0.15049468187555112
        ]
      ],
      [
        [
          0.1213567068898019,
          0.058502127579434494,
          -0.21097232183491654
        ],
        [
          -0.22820584911323344,
          -0.06800095746570727,
          -0.013318287157171265
        ],
        [
          -0.24123355841900573,
          -0.12111066281639334,
          -0.09138939075729728
        ]
      ],
      [
        [
          0.2574672441328463,
          0.11339590621493927,
          -0.17724175425823746
        ],
        [
          0.19097646133148985,
          0.004091018208097707,
          0.08619798896357168
        ],
        [
          -0.04547479582665291,
          0.05187929143880184,
          0.08900796434190193
        ]
      ],
      [
        [
          0.23681270680389493,
          -0.04990446168728276,
          -0.05028099011501903
        ],
        [
          0.08585236060154264,
          -0.15868702458736825,
          -0.059850149329071886
        ],
        [
          -0.009410462864749045,
          -0.13395093090923132,
          -0.13297637416503785
        ]
      ],
      [
        [
          -0.011335647056100474,
          0.1665279619333206,
          -0.04201088462381684
        ],
        [
          0.1008096672746153,
          -0.07906527274898187,
          -0.1829627216879019
        ],
        [
          0.004376950361034155,
          -0.04894900668862302,
          0.042146783414668466
        ]
      ],
      [
        [
          0.15687940868826214,
          -0.08362807049915179,
          0.045200965702986116
        ],
        [
          0.0773370646570405,
          -0.08514118865243499,
          -0.07363198739510861
        ],
        [
          0.0965749007128612,
          -0.05235339971842477,
          -0.06252376445963409
        ]
      ],
      [
        [
          -0.04936395916201255,
          0.03618802613890297,
          -0.02060917348471195
        ],
        [
          -0.014358235185542344,
          -0.02769745922000399,
          0.02757363493657084
        ],
        [
          0.0679022683556835,
          -0.04561728600082597,
          0.043213592063038056
        ]
      ]
    ],
    [
      [
        [
          0.06746079530651579,
          0.047816455127769456,
          -0.05887558059231418
        ],
        [
          0.09376193174663575,
          -0.025303295092218944,
          0.0011682755035141426
        ],
        [
          -0.09192351649966833,
          0.06698397941734105,
          0.04191877726205716
        ]
      ],
      [
        [
          0.0359506237679948,
          0.03279785644791444,
          0.03910230131544885
        ],
        [
          0.10871836856914101,
          0.06760746328328715,
          -0.050047070640943304
        ],
        [
          -0.07027205934057656,
          0.022782959821190905,
          -0.09039049458787114
        ]
      ],
      [
        [
          0.08688066456330225,
          0.1467483719203098,
          0.07888465858371839
        ],
        [
          0.0858802846521973,
          -0.06361107446064997,
          0.10105124691899137
        ],
        [
          -0.06090893467990043,
          -0.01946659858024176,
          0.17989622846483524
        ]
      ],
      [
        [
          0.0783572318088228,
          -0.04495800546602537,
          -0.11019613033736099
        ],
        [
          0.06990011834293786,
          -0.157266782203736,
          -6.963625691898807e-05
        ],
        [
          -0.1177824592324297,
          -0.2467683966431342,
          -0.11048420256314477
        ]
      ],
      [
        [
          -0.08779567733598517,
          -0.031249928008399548,
          -0.1622687697606382
        ],
        [
          -0.12941764751735746,
          -0.0973768005984363,
          -0.003719776244416718
        ],
        [
          -0.051388868805818326,
          -0.13567559168156224,
          -0.049098347705401856
        ]
      ],
      [
        [
          -0.04986000658816021,
          -0.009471777874289017,
          0.045348653469237714
        ],
        [
          -0.12468910245056514,
          0.0264594183799897,
          -0.05224115252298888
        ],
        [
          0.00191256546798962,
          0.009708968643646633,
          0.03291942756885348
        ]
      ],
      [
        [
          0.01219798508474488,
          0.19707746594681186,
          -0.030081400715495536
        ],
        [
          0.03947414025844694,
          0.20691147702925552,
          -0.09817582387709695
        ],
        [
          0.10365857801181017,
          0.02960995710064393,
          -0.15491457817198204
        ]
      ],
      [
        [
          0.07290599128034844,
          -0.030302364800036192,
          0.09333550067036274
        ],
        [
          0.023307520084191905,
          0.08432031734724782,
          -0.08079845819175588
        ],
        [
          0.03188367510177453,
          0.10139024973112339,
          -0.0520840911102103
        ]
      ],
      [
        [
          -0.0010701731156676118,
          -0.4097603840727164,
          -0.06143822617529169
        ],
        [
          -0.42233547415161415,
          -0.6556637972611695,
          0.01883087857812438
        ],
        [
          -0.6872984073010243,
          -0.2594956826190235,
          0.028938820354457523
        ]
      ],
      [
        [
          0.09219186774847757,
          0.09245296700289134,
          0.05738164457400926
        ],
        [
          0.12119124433609169,
          -0.012596837809682156,
          0.02968522545090743
        ],
        [
          0.041616342956733623,
          0.03659960782989771,
          -0.040090349164419274
        ]
      ],
      [
        [
          0.11910361755811934,
          -0.0072943152930807316,
          0.026255677458946244
        ],
        [
          0.023972001339145715,
          0.1916984810780379,
          0.011428383863545135
        ],
        [
          0.07853286687344656,
          0.11749420549602717,
          0.003721979453678654
        ]
      ],
      [
        [
          0.27625758108245385,
          0.16671215346870874,
          -0.159931288180986
        ],
        [
          0.15505239309985594,
          0.0552092414902973,
          -0.113423044262766
        ],
        [
          0.04029087801075524,
          -0.06932329887010978,
          -0.11808434793614225
        ]
      ],
      [
        [
          0.11995343082039282,
          0.0331706983212802,
          -0.004679631673781344
        ],
        [
          0.0814586691944354,
          -0.00020543837030721852,
          -0.0034126370274420565
        ],
        [
          0.006520328638602899,
          0.04660819257988037,
          -0.054585715837527096
        ]
      ],
      [
        [
          -0.014892846211200642,
          0.1278821520994567,
          -0.09395193508195891
        ],
        [
          0.2804082626622689,
          0.046766936835389544,
          -0.06623730034771229
        ],
        [
          0.04534100214829679,
          0.003432515306112256,
          -0.20968458570916354
        ]
      ],
      [
        [
          -0.06817791540231938,
          -0.11748840808285897,
          0.12163397668594576
        ],
        [
          -0.09358782009682336,
          0.05022814851317175,
          0.03627896299830678
        ],
        [
          -0.03012479329921508,
          0.02882250329679131,
          0.01435132176978524
        ]
      ],
      [
        [
          0.00399330724439566,
          0.0954111207678812,
          -0.0053453890711531475
        ],
        [
          0.022082292273892,
          -0.18571911372457142,
          0.01287777997839818
        ],
        [
          0.1383957454081592,
          -0.08051590228874399,
          0.050919928350201184
        ]
      ]
    ],
    [
      [
        [
          0.02371873621663423,
          -0.14320747467270145,
          0.05974755945681192
        ],
        [
          -0.032604085753777545,
          -0.13681433045694022,
          0.2018355471507358
        ],
        [
          -0.031241121616633206,
          -0.06467254546419678,
          0.12981549718818744
        ]
      ],
      [
        [
          0.047272013342968267,
          0.024846136804949782,
          0.062076007488324716
        ],
        [
          0.12386157334086902,
          -0.0744048596693576,
          -0.07429228146313832
        ],
        [
          0.036666774966116956,
          -0.01693889963637534,
          -0.013506341786456346
        ]
      ],
      [
        [
          0.19683270701533156,
          -0.014199299266134752,
          0.0910548298783153
        ],
        [
          0.17547094496182938,
          0.13579733705596392,
          0.20292456448005258
        ],
        [
          0.049399995186003305,
          0.0547580369111977,
          -0.16309479960621914
        ]
      ],
      [
        [
          -0.03125947298851891,
          -0.0763117130031564,
          0.03797888146419723
        ],
        [
          -0.10054895645512388,
          -0.03244744748970312,
          0.13815907558535914
        ],
        [
          -0.09557277021055964,
          -0.03912487967696853,
          0.029872748899263234
        ]
      ],
      [
        [
          -0.051508113630639625,
          0.039437385961237595,
          -0.0061289829131141536
        ],
        [
          -0.05626128299220934,
          -0.04578084997221504,
          0.15085438412770308
        ],
        [
          0.03816821632360441,
          0.047301369699356936,
          -0.022032409978751832
        ]
      ],
      [
        [
          -0.014249277971012872,
          0.08531816806225401,
          -0.055446975546093714
        ],
        [
          0.12272120867354695,
          0.019962460981915977,
          -0.09252617692573144
        ],
        [
          0.013141351021666142,
          0.03837958734069292,
          -0.05716138469810601
        ]
      ],
      [
        [
          0.07222139154086245,
          0.1248758821681068,
          -0.07130037410160733
        ],
        [
          0.08289244014628971,
          -0.0459590340689292,
          -0.13932618744201167
        ],
        [
          0.03965155524065844,
          -0.13527540807581886,
          -0.05810854277694495
        ]
      ],
      [
        [
          -0.131987192406975,
          -0.10023012060398584,
          -0.05206949040277562
        ],
        [
          -0.038207208812290276,
          -0.0007299233149646858,
          0.023160095059802946
        ],
        [
          0.05893877229914281,
          0.06172220432528314,
          0.0004292292338104917
        ]
      ],
      [
        [
          0.24742018438993946,
          0.04477291477250323,
          0.2033478157157345
        ],
        [
          0.15585266207504567,
          0.44100448739034503,
          0.18862209426403612
        ],
        [
          0.09659007502528096,
          0.35482106990898876,
          -0.015627747399410398
        ]
      ],
      [
        [
          0.0560210164414956,
          -0.14016470053180555,
          0.02041331440964352
        ],
        [
          0.0745911870066036,
          -0.1513824765406387,
          0.0064321789807050955
        ],
        [
          0.04957439840246581,
          -0.09541590079328469,
          0.013468519471804857
        ]
      ],
      [
        [
          -0.151365320139214,
          -0.0859788425501199,
          0.081490697071967
        ],
        [
          -0.07601313050254484,
          0.08900593259925992,
          -0.01540094676534763
        ],
        [
          0.0212148706292853,
          -0.016814467850431142,
          -0.04485088208541689
        ]
      ],
      [
        [
          0.07444354965061359,
          -0.09940462939640268,
          0.03165306166633014
        ],
        [
          -0.06166909723622817,
          0.04719056467767291,
          0.11125860418698068
        ],
        [
          0.05958310238391844,
          0.07591937753729092,
          -0.05554411249460532
        ]
      ],
      [
        [
          -0.07586351538744283,
          0.020672311508373866,
          0.07483965501684792
        ],
        [
          -0.09311538770589815,
          -0.05581734197212443,
          0.11906311153517068
        ],
        [
          0.018656040282184854,
          0.018068081485503967,
          0.03582881084227154
        ]
      ],
      [
        [
          0.12601077597696456,
          -0.0026083730047758913,
          -0.24440831737186214
        ],
        [
          0.046624339659895826,
          -0.07970285103321058,
          -0.039133082128855246
        ],
        [
          -0.11084572187707646,
          -0.06348984532110219,
          0.003073943858650385
        ]
      ],
      [
        [
          0.02157812915286047,
          0.11494984045193697,
          0.05790387736856528
        ],
        [
          -0.08028803978663833,
          0.07755976938313744,
          0.015413913927800848
        ],
        [
          -0.05451274082339805,
          -0.04228280637975052,
          -0.0736264540818706
        ]
      ],
      [
        [
          -0.01050515690897934,
          -0.014832437470921408,
          0.04317527325930114
        ],
        [
          0.1548540598196656,
          -0.17559145100512494,
          0.09670992264635288
        ],
        [
          -0.09001557833736598,
          -0.17386046595001226,
          -0.0776514797018084
        ]
      ]
    ],
    [
      [
        [
          0.08528636458430058,
          -0.011854729924609607,
          0.038346314263421624
        ],
        [
          -0.0027650227633433493,
          -0.05165965706153055,
          -0.08870823971963424
        ],
        [
          0.01061222161131623,
          -0.016622705009611854,
          -0.02058474346094756
        ]
      ],
      [
        [
          0.08581665384031102,
          0.09663320329624409,
          0.01531285568161206
        ],
        [
          -0.040939899164286565,
          -0.013580962746732848,
          0.07509003870579326
        ],
        [
          0.026919185033475134,
          -0.04719198381533077,
          0.007949561353774875
        ]
      ],
      [
        [
          -0.03340343569011593,
          0.13316798176789957,
          0.14560259481974486
        ],
        [
          0.06519125816198168,
          0.07435340925427142,
          -0.061476205529948875
        ],
        [
          0.13236889399919224,
          0.09983377699032787,
          0.037125881887174715
        ]
      ],
      [
        [
          -0.056159213567858815,
          0.08192001236958177,
          0.026297104439690352
        ],
        [
          0.03565365578430212,
          -0.07305524547860562,
          0.00044016996072884557
        ],
        [
          -0.06688584052515263,
          -0.01218649598953092,
          -0.08536180096291862
        ]
      ],
      [
        [
          0.06907709281550693,
          0.07146441271696313,
          0.10216640866615848
        ],
        [
          0.02063486883787525,
          -0.05137383802495712,
          0.05531189258178015
        ],
        [
          -0.014817559494022364,
          -0.06337444440114007,
          0.03686176036294275
        ]
      ],
      [
        [
          0.04265666680101985,
          -0.07692593065389354,
          0.005616913869287189
        ],
        [
          -0.01874780371140425,
          0.008488882495409553,
          0.008015676665620775
        ],
        [
          0.0010759056501262216,
          0.01151873337605072,
          0.15441613836784152
        ]
      ],
      [
        [
          -0.0031491070064251043,
          -0.031616885053244774,
          -0.03225747901526829
        ],
        [
          -0.06755155485006059,
          0.08268085056387074,
          0.05250255907958618
        ],
        [
          -0.014699062751552765,
          -0.010620688884072884,
          0.0965451213193681
        ]
      ],
      [
        [
          -0.0360080532461337,
          -0.40098025574718127,
          -0.13744580340874896
        ],
        [
          -0.4422872104509884,
          -0.5373831610978818,
          -0.24368506899730003
        ],
        [
          -0.2738837347871396,
          -0.49921324186348326,
          -0.39607668406567925
        ]
      ],
      [
        [
          0.09794555263670962,
          -0.09171497976503545,
          -0.1089171863034635
        ],
        [
          -0.1785893804162789,
          -0.3351990695096503,
          -0.27462802698641925
        ],
        [
          -0.22205499859697897,
          -0.44526870580349937,
          -0.16738224362690055
        ]
      ],
      [
        [
          -0.10904761743090989,
          -0.020944349491746186,
          0.04707534625203715
        ],
        [
          0.06518952195418433,
          0.07414171421117315,
          0.00489837197898183
        ],
        [
          0.06622649592606707,
          0.003131756843465196,
          0.036744910276053824
        ]
      ],
      [
        [
          -0.057433326630021056,
          -0.43168854167764303,
          0.008499560828466922
        ],
        [
          -0.6828279062000358,
          -0.8882945083976852,
          -0.4554475124517395
        ],
        [
          -0.5802352332685698,
          -0.717926991733183,
          -0.5165726797037307
        ]
      ],
      [
        [
          0.11068893220459161,
          -0.11958941479419373,
          -0.05720380863894793
        ],
        [
          -0.06621363427639759,
          -0.24364176307042384,
          -0.13742512069917767
        ],
        [
          -0.3026840702939944,
          -0.4399993651258711,
          -0.39545821189126756
        ]
      ],
      [
        [
          0.050775006729623456,
          -0.06339073013974553,
          0.08826432406603328
        ],
        [
          -0.1341876250211421,
          -0.027785673772971056,
          0.05639836545189888
        ],
        [
          -0.10625366298949172,
          -0.10353375204452334,
          0.02805695682316485
        ]
      ],
      [
        [
          -0.02708570712477146,
          0.0352139493028605,
          -0.04671659729978433
        ],
        [
          0.04781434011076149,
          0.088686959590723,
          0.029771868076109674
        ],
        [
          -0.027218742680577362,
          -0.008125191591404785,
          -0.05328220097964423
        ]
      ],
      [
        [
          0.05753931313228638,
          -0.021740556052766598,
          0.10890314500385763
        ],
        [
          -0.07913079537814276,
          -0.060778401894812505,
          0.047386248016440945
        ],
        [
          0.007648341846018558,
          0.01277185860811107,
          0.006830956546555081
        ]
      ],
      [
        [
          0.05237866648300608,
          0.03812074719767858,
          0.07207490000308643
        ],
        [
          -0.07246083022963953,
          -0.09854944558412636,
          -0.011354026436703106
        ],
        [
          -0.004898947307188995,
          0.015447876283354886,
          -0.11743629800500889
        ]
      ]
    ],
    [
      [
        [
          0.0610596612061346,
          -0.049831776443318515,
          -0.09823568072393683
        ],
        [
          -0.1136072892020568,
          -0.1632648301512962,
          -0.20067462000789127
        ],
        [
          -0.08926009218667465,
          -0.17674684734198334,
          0.02358423641198308
        ]
      ],
      [
        [
          0.03563193473484921,
          0.022649615310992948,
          -0.018835476295281057
        ],
        [
          0.11266214916218609,
          0.021732107537669857,
          -0.020044682436967876
        ],
        [
          -0.00101020733239991,
          0.007532737260296381,
          0.03669760263093553
        ]
      ],
      [
        [
          0.14951885811222115,
          -0.023807494646721217,
          -0.027857931474930202
        ],
        [
          0.04513511086250994,
          0.10629144319197927,
          -0.014391189270294988
        ],
        [
          0.1073560986365314,
          0.16214929747574852,
          -0.09737351898114788
        ]
      ],
      [
        [
          0.04386012612987356,
          -0.16825026412187674,
          0.01582662499225592
        ],
        [
          -0.03299415340860282,
          -0.1053846246619251,
          0.05019816921826041
        ],
        [
          0.08884784852888607,
          -0.1711453960282237,
          0.07968224447081688
        ]
      ],
      [
        [
          0.021541920040679008,
          -0.02499392755981491,
          0.22535947436971804
        ],
        [
          -0.0027603133586002197,
          -0.017537962131576594,
          0.059558758026228696
        ],
        [
          -0.06937670138871992,
          0.059664072608065014,
          0.09237185253474366
        ]
      ],
      [
        [
          -0.09847067290083265,
          0.01983899390394866,
          -0.03078197846121313
        ],
        [
          0.06843851339717852,
          0.01677354501229465,
          0.0022185871092403647
        ],
        [
          0.0385531503047546,
          0.04443440025221662,
          0.04585272753272352
        ]
      ],
      [
        [
          0.007466427885290449,
          0.028462185799255614,
          0.006872188576525057
        ],
        [
          0.03525361211872716,
          -0.0023038513531548864,
          -0.058571653672304345
        ],
        [
          -0.025819827244710294,
          0.0776543842002616,
          0.00696486601112215
        ]
      ],
      [
        [
          -0.017180039778086197,
          -0.21170143248039058,
          -0.08465982094056103
        ],
        [
          -0.14917027949151443,
          -0.1789198547603781,
          -0.10261284567430719
        ],
        [
          -0.15827498037086102,
          -0.10836287052681402,
          -0.20215720086046965
        ]
      ],
      [
        [
          -0.0978847083017074,
          -0.12446444373288176,
          -0.023646311723259664
        ],
        [
          -0.23389330250858517,
          -0.21591485478744477,
          0.06794578655733907
        ],
        [
          -0.017418075823328834,
          -0.1399696322633276,
          0.0028160724225523297
        ]
      ],
      [
        [
          -0.08884826384746068,
          -0.05724554719600812,
          -0.02699268182748851
        ],
        [
          -0.06276124171752913,
          -0.12231743225165097,
          -0.08019412792700066
        ],
        [
          -0.07497701146743511,
          -0.12913721756587482,
          -0.11660716117952982
        ]
      ],
      [
        [
          -0.15921381299918644,
          -0.2717273917212997,
          -0.02144513519029625
        ],
        [
          -0.28337473236746225,
          -0.36226783540002616,
          -0.31948044333704956
        ],
        [
          -0.16355593425361195,
          -0.11201625634758171,
          -0.20752209908268945
        ]
      ],
      [
        [
          -0.08853844799167068,
          -0.3564845569751179,
          -0.07094736186458797
        ],
        [
          -0.2855914666822694,
          -0.25083639179655454,
          -0.19342417231415124
        ],
        [
          -0.16691612377359183,
          -0.15408960071250777,
          -0.22406483974542143
        ]
      ],
      [
        [
          -0.002716726761725634,
          -0.05736570918581305,
          0.15737738457630226
        ],
        [
          0.05394682312362922,
          0.02238342637516879,
          0.10773737884406315
        ],
        [
          0.10377243533077479,
          -0.007912438810009727,
          0.32505067515285774
        ]
      ],
      [
        [
          0.07395211967694224,
          -0.05087964295797835,
          -0.054358828676410176
        ],
        [
          -0.0020879968501426108,
          -0.1158498139212195,
          -0.003303302166643147
        ],
        [
          -0.19677563926422598,
          -0.23911645802140935,
          -0.11091256932359478
        ]
      ],
      [
        [
          0.007427606975072213,
          -0.06391180230943225,
          0.04690208247585823
        ],
        [
          0.05655754360938863,
          -0.014820029944084191,
          0.06926842748980037
        ],
        [
          0.06638852572876752,
          -0.08135729554962572,
          0.13462769327949617
        ]
      ],
      [
        [
          0.19101275867683623,
          0.11901277365979317,
          -0.21690803166354983
        ],
        [
          0.2000261522421826,
          0.08093652813400609,
          -0.24670356092408674
        ],
        [
          0.2002755556453936,
          0.1890962943586313,
          -0.1421242384226067
        ]
      ]
    ],
    [
      [
        [
          0.00022893257356365046,
          0.0895261858774599,
          -0.06696594282166506
        ],
        [
          0.01583914572404795,
          0.07981851612863596,
          0.017238985307482642
        ],
        [
          -0.14322455262296135,
          -0.0634948916537089,
          -0.09943951038036054
        ]
      ],
      [
        [
          -0.07827129579715854,
          -0.06858859864024291,
          -0.06275634581143638
        ],
        [
          -0.1323246125388623,
          0.020557837815217566,
          -0.08832134128576012
        ],
        [
          -0.005686255956412806,
          0.15183570554766357,
          0.1898673359806876
        ]
      ],
      [
        [
          0.021087090689244206,
          0.055777603851381266,
          0.07425979419694333
        ],
        [
          -0.08902844108507821,
          -0.028433077964758115,
          -0.010695063169236898
        ],
        [
          -0.10389605083262243,
          -0.09232854699973227,
          -0.046227858198356606
        ]
      ],
      [
        [
          0.0014113777857607467,
          -0.005950641058543014,
          -0.12270163974431304
        ],
        [
          -0.0637832403370084,
          -0.032003533280953594,
          -0.002653797961590665
        ],
        [
          0.016554832373827277,
          0.12922264521584187,
          -0.05166109849847234
        ]
      ],
      [
        [
          -0.04104675425771769,
          -0.06347617207098333,
          -0.19696163760855698
        ],
        [
          -0.10550834099088412,
          -0.20391559913252064,
          -0.1463055610113625
        ],
        [
          0.14577475335493748,
          0.17143432707407882,
          0.07297646054388486
        ]
      ],
      [
        [
          -0.12816926590878874,
          -0.005081483114671244,
          0.025101840543731924
        ],
        [
          -0.020507391201520134,
          -0.04368530922626948,
          0.07553786884601796
        ],
        [
          -0.0462858749793387,
          0.0936425259814687,
          0.07235370597341105
        ]
      ],
      [
        [
          0.043609281481720566,
          0.1111105891112192,
          0.028126553809198526
        ],
        [
          -0.011282438625193809,
          0.07243688967827462,
          0.0706224983117897
        ],
        [
          -0.10630773513402642,
          0.06510447402682179,
          -0.06249046183888348
        ]
      ],
      [
        [
          -0.08049856169442704,
          -0.12990569378236766,
          -0.15898399810098504
        ],
        [
          0.10748754980768861,
          0.11018387946342888,
          -0.04382329526048439
        ],
        [
          -0.04341655179379694,
          0.04683056143731768,
          -0.034443077965458785
        ]
      ],
      [
        [
          0.023194747290702797,
          -0.04233619340831851,
          0.03023487185832173
        ],
        [
          0.09418240090374565,
          -0.05173594693276084,
          -0.07207132067945403
        ],
        [
          0.07940581537454909,
          0.10940742768470531,
          -0.027374209377950636
        ]
      ],
      [
        [
          -0.4902008276002787,
          -0.39215037850254003,
          -0.1660618636508146
        ],
        [
          -0.15215212205552225,
          -0.09905262024613767,
          -0.11806060236650752
        ],
        [
          0.14903652411193674,
          0.2234583660329916,
          0.17698098315702687
        ]
      ],
      [
        [
          -0.02786423605486066,
          0.03388314100026834,
          -0.007354828741945537
        ],
        [
          -0.10460942220106315,
          -0.004643964390007055,
          0.05535675200671618
        ],
        [
          -0.005771880928033803,
          -0.008336134817836847,
          -0.04592681238564343
        ]
      ],
      [
        [
          0.0664391436625425,
          0.09814551608105687,
          0.11897982953962118
        ],
        [
          0.11956126002834194,
          0.08732640433244773,
          0.146372304082377
        ],
        [
          0.3567670134326249,
          0.3282252246235243,
          0.277416105645294
        ]
      ],
      [
        [
          -0.12059327973028304,
          -0.11017376702962141,
          -0.07804542409155657
        ],
        [
          -0.045250736764954905,
          -0.007605850862492166,
          -0.0024867850201589874
        ],
        [
          0.11968831412107504,
          0.13049646048064625,
          0.03478183001306128
        ]
      ],
      [
        [
          0.03745700346988145,
          -0.06130695064466257,
          0.03971716710576618
        ],
        [
          -0.03122713691656292,
          -0.07416621516778106,
          0.011032295257721174
        ],
        [
          0.14259695147452633,
          0.2261380564831227,
          0.03904737695177886
        ]
      ],
      [
        [
          -0.00462385973715244,
          0.10571255038597362,
          0.031867455625558594
        ],
        [
          0.042929214868724856,
          0.014857786092728123,
          0.025760379224931025
        ],
        [
          -0.0956892243690867,
          -0.14752283780455944,
          -0.11337820636115022
        ]
      ],
      [
        [
          0.17558520928595764,
          -0.0012903142588424905,
          0.011188101196822196
        ],
        [
          -0.15066558618342007,
          -0.1253159336385932,
          -0.11654882285033628
        ],
        [
          0.06272221671847716,
          -0.003476398169136392,
          -0.1033197828184579
        ]
      ]
    ],
    [
      [
        [
          0.04764398515266336,
          -0.002708589288122093,
          0.002357333015114231
        ],
        [
          -0.0013547314885109956,
          -0.09137745371551101,
          0.07980992930514648
        ],
        [
          -0.03840186783715576,
          -0.19843592724743117,
          0.04302955841714651
        ]
      ],
      [
        [
          -0.06787731767934023,
          -0.21038131258176437,
          -0.167511481498198
        ],
        [
          0.03850703251087434,
          0.07569617315181891,
          -0.046095912192755384
        ],
        [
          0.15985371611892224,
          0.1709156089063383,
          0.07324097695265226
        ]
      ],
      [
        [
          0.0426172571365562,
          -0.051781609522447127,
          0.06569245951286011
        ],
        [
          -0.011762973561767996,
          -0.1217410668233173,
          0.06178532903173323
        ],
        [
          0.13546524356657438,
          0.006054917798350035,
          0.052826992824927824
        ]
      ],
      [
        [
          -0.053112453442195943,
          0.00014913298385399375,
          -0.02771951144499732
        ],
        [
          0.06394636771252528,
          0.03428837988298588,
          -0.023710733666665425
        ],
        [
          -0.011950416149725843,
          -0.008362936547284941,
          0.033943644567834934
        ]
      ],
      [
        [
          -0.09914886875607445,
          -0.03934026912281792,
          -0.006362649833122394
        ],
        [
          0.004654936727277338,
          0.09160108064845106,
          0.12573388110762418
        ],
        [
          0.05530498893693767,
          0.018564432328832384,
          0.11395475107518813
        ]
      ],
      [
        [
          0.04643763475924124,
          0.10054357769912309,
          0.03000171634309308
        ],
        [
          -0.06968615997352937,
          -0.008220352441266393,
          -0.04759466515336315
        ],
        [
          0.07616774216951044,
          0.00700274680506704,
          0.05155688374695916
        ]
      ],
      [
        [
          -0.005921832484011354,
          0.08664765839143491,
          0.09451065161095203
        ],
        [
          -0.16417774444863675,
          -0.10741856232485439,
          -0.11585962139029811
        ],
        [
          -0.0893225858704254,
          0.03459872797574204,
          -0.013705766449036127
        ]
      ],
      [
        [
          0.06349375907866928,
          0.1676951864984832,
          0.09012274692067875
        ],
        [
          0.13274351936576426,
          0.05009064688569933,
          -0.018337264078996985
        ],
        [
          -0.2825415905115188,
          -0.4371733494313661,
          -0.33151798319031633
        ]
      ],
      [
        [
          0.14571397057824792,
          0.10620791058836862,
          0.20020872931489359
        ],
        [
          -0.014230156949213908,
          -0.22735187162157408,
          -0.0974740264497256
        ],
        [
          -0.18299970001621343,
          -0.2498597525984657,
          -0.304439327316249
        ]
      ],
      [
        [
          -0.0094560306231485,
          -0.15353261102505736,
          -0.07317050902525706
        ],
        [
          0.14926070537380945,
          -0.035111622712800945,
          -0.06608207652304225
        ],
        [
          0.14903290296447888,
          -0.011285130185480002,
          0.11220876546866237
        ]
      ],
      [
        [
          -0.04095242265247586,
          0.14860761816619128,
          0.11838580847115748
        ],
        [
          -0.04712057745835898,
          -0.11576331695444023,
          0.060150211444945416
        ],
        [
          -0.3695235539706572,
          -0.5021130162768577,
          -0.27326118044160813
        ]
      ],
      [
        [
          0.02129542525575759,
          -0.04177036852972582,
          -0.005857560404044075
        ],
        [
          0.09157417856529901,
          -0.12734569943194468,
          -0.13613156551546438
        ],
        [
          -0.03122456311414416,
          -0.14224205194113787,
          -0.25835356459035785
        ]
      ],
      [
        [
          0.06838488126565986,
          0.09274724352924425,
          -0.00668866469721528
        ],
        [
          0.081064655545931,
          0.09069749289341957,
          -0.022711737073827537
        ],
        [
          -0.054436864416166436,
          -0.03942975471680434,
          -0.05012609035933079
        ]
      ],
      [
        [
          0.1002960000327324,
          0.050489117905981824,
          0.08994291500510626
        ],
        [
          -0.183857283076465,
          -0.170807003197575,
          -0.04098569184359183
        ],
        [
          -0.03083643199371052,
          -0.08324695082035219,
          0.02718163574381308
        ]
      ],
      [
        [
          0.026682856318116763,
          0.0009965124265326533,
          0.13101895620355622
        ],
        [
          -0.0651972722943628,
          -0.07911964677221271,
          -0.08097934571555725
        ],
        [
          -0.0834941483391723,
          -0.12796813796788908,
          -0.057570857848250924
        ]
      ],
      [
        [
          -0.10244861459204069,
          -0.04551985609626654,
          0.04299690060839506
        ],
        [
          -0.1203220346560833,
          -0.07723089550026081,
          0.03900176362171182
        ],
        [
          0.06561878007980128,
          -0.09559709233566462,
          0.05546478882728646
        ]
      ]
    ],
    [
      [
        [
          -0.11194916031916444,
          -0.08629878655076599,
          -0.013249776171002509
        ],
        [
          -0.03077955647785966,
          0.10326982362920871,
          -0.008873354011545114
        ],
        [
          0.07182071790042563,
          0.04194089313608327,
          -0.008985713223139659
        ]
      ],
      [
        [
          0.10686967555045376,
          0.24677546486253513,
          0.1345530642821641
        ],
        [
          -0.029682013661956747,
          0.12320981809519965,
          -0.08270657832120426
        ],
        [
          -0.18851835131638237,
          -0.16698370622070338,
          -0.23437587372672047
        ]
      ],
      [
        [
          -0.0996402995561122,
          0.03440707084917343,
          0.08397140383928328
        ],
        [
          0.05116485536772024,
          -0.07367805020613595,
          0.014784939220561738
        ],
        [
          -0.015639068889983423,
          -0.02779512098653303,
          -0.07271196700299652
        ]
      ],
      [
        [
          -0.012497205382387116,
          0.06612389470901739,
          0.10859950570374723
        ],
        [
          -0.03193568409545497,
          -0.03649291639997687,
          -0.13359792060477674
        ],
        [
          -0.03804657319439649,
          -0.05129611283427189,
          -0.004209678979059968
        ]
      ],
      [
        [
          -0.07967823142895188,
          0.10351168816523007,
          -0.00615644412640468
        ],
        [
          0.10087174869862443,
          0.11316642515307564,
          0.051718882219436615
        ],
        [
          -0.06087374807543096,
          0.11774700964178167,
          0.0017474091734095048
        ]
      ],
      [
        [
          0.031023112237279292,
          0.012294732511245087,
          -0.05018047179938665
        ],
        [
          -0.041227370946827276,
          0.10042112279277522,
          -0.009150682593641732
        ],
        [
          0.028880454707614047,
          0.10201183437618525,
          -0.01143559252042974
        ]
      ],
      [
        [
          -0.02360795175779094,
          -0.026251848055260058,
          0.021244537260432118
        ],
        [
          -0.0884017646319188,
          0.05799061977061985,
          -0.08810036717545493
        ],
        [
          0.054549264162475936,
          0.02543307708669796,
          0.03969356599421099
        ]
      ],
      [
        [
          -0.07114624614525011,
          -0.15770605774581853,
          -0.16477982140128508
        ],
        [
          -0.10923142193031042,
          -0.16686207503917366,
          -0.17655083847536585
        ],
        [
          0.07547583989031705,
          0.12638381010935065,
          0.09220486663633012
        ]
      ],
      [
        [
          -0.16211270854815205,
          -0.2167389932704107,
          -0.048615787403902495
        ],
        [
          0.010887168004429609,
          0.09368908058934154,
          -0.0407328262275159
        ],
        [
          -0.07255289021770661,
          0.04994181389323437,
          -0.035606976372425596
        ]
      ],
      [
        [
          0.18668277608503953,
          0.13260361949700983,
          -0.019593820463107276
        ],
        [
          0.04543411216183817,
          0.004216812759562199,
          -0.017611390884869377
        ],
        [
          -0.13127845394759594,
          -0.18441488694781288,
          -0.20042287363885442
        ]
      ],
      [
        [
          -0.16211462013048875,
          -0.17410582923035328,
          -0.18572926849660365
        ],
        [
          0.01404973600308294,
          -0.005303245652479673,
          -0.02610122225340141
        ],
        [
          0.03599386767853552,
          0.14505041824150605,
          0.13222600705573123
        ]
      ],
      [
        [
          0.1334939398875485,
          0.11865081202929668,
          0.16797742896126144
        ],
        [
          0.2474654066598302,
          0.3299938520400696,
          0.15952730063745074
        ],
        [
          0.10332512706187197,
          0.24631456618122072,
          0.10510871058284041
        ]
      ],
      [
        [
          0.0673449265474868,
          0.03124143511452415,
          0.04159012599476178
        ],
        [
          -0.1053639371386122,
          -0.15255413237354734,
          0.053228092336874575
        ],
        [
          -0.0038500267543241503,
          0.002900315160398765,
          0.0795982996309725
        ]
      ],
      [
        [
          -0.03315236339124318,
          -0.06775488202621015,
          0.07808598402779657
        ],
        [
          0.03811454054730249,
          -0.0039597414714351,
          -0.05927397130416663
        ],
        [
          0.05243009541377256,
          0.053347433379168745,
          -0.0016156301367377204
        ]
      ],
      [
        [
          -0.14809157430002579,
          -0.0637934889395594,
          -0.08724707762883185
        ],
        [
          0.018132354855033676,
          0.08501868022868965,
          0.05551513547087478
        ],
        [
          0.04629893545097697,
          0.01523829472487487,
          -0.045549417373315124
        ]
      ],
      [
        [
          -0.039341816862608514,
          0.003912830491439692,
          0.007132622187878612
        ],
        [
          0.05213312192350117,
          0.05495934022164036,
          -0.09165140840717809
        ],
        [
          -0.010662751661295683,
          0.06524360831463026,
          0.0161610904067022
        ]
      ]
    ],
    [
      [
        [
          -0.25441929014378223,
          -0.4067160827771018,
          -0.1375794645783123
        ],
        [
          -0.39872639278104804,
          -0.4319242308373142,
          -0.38181478477919145
        ],
        [
          -0.15111001942664015,
          -0.10015504692765666,
          -0.2808653308856362
        ]
      ],
      [
        [
          0.016552324260784904,
          -0.04729353973921699,
          -0.017413260680342515
        ],
        [
          0.0039003239196771606,
          -0.014887917317427318,
          -0.07302279985047004
        ],
        [
          -0.14373855563334578,
          -0.06464238197879134,
          -0.043088866630890406
        ]
      ],
      [
        [
          0.1084039886965009,
          -0.030881709269957563,
          0.002419941542855243
        ],
        [
          -0.06608073703352857,
          -0.010598694084852195,
          0.101331794685723
        ],
        [
          0.03269783734902606,
          0.12483216614899184,
          0.05203474831102305
        ]
      ],
      [
        [
          0.04161638321058715,
          0.01873262135946331,
          -0.14579045893826917
        ],
        [
          0.017533295305991747,
          0.009645251212694626,
          -0.13616705415718378
        ],
        [
          0.14085784934892182,
          0.1506960591673903,
          -0.0799225776040827
        ]
      ],
      [
        [
          0.007801987236040841,
          -0.026128119161965453,
          0.0019748256108489846
        ],
        [
          0.04717553851919767,
          -0.09234344289561651,
          -0.0757180122374192
        ],
        [
          0.05581932088305539,
          -0.0012856267190549536,
          -0.02734280599985211
        ]
      ],
      [
        [
          -0.009303987684275043,
          -0.04072216735778014,
          0.025015133479113175
        ],
        [
          0.06743897099613234,
          -0.04141379114659954,
          0.01985535896196345
        ],
        [
          -0.018851778227821227,
          0.054786657547364864,
          0.0008176023168714245
        ]
      ],
      [
        [
          0.0026499851256182785,
          0.08577455455326977,
          0.06723299605459203
        ],
        [
          0.01544236686003846,
          -0.01576337494920953,
          -0.0017331245338771692
        ],
        [
          -0.09356183893460264,
          -0.045409947572417585,
          0.007103502112892511
        ]
      ],
      [
        [
          0.07891250030320965,
          -0.02435020059977794,
          0.014817619121490393
        ],
        [
          0.050541461988189984,
          -0.036267674962005975,
          -0.07577471458589143
        ],
        [
          -0.058660610238692054,
          -0.09022946418399393,
          0.0619496152066303
        ]
      ],
      [
        [
          0.18963336640944686,
          0.16867201438247456,
          0.25249634691516326
        ],
        [
          0.08187486454684456,
          0.15011222996950482,
          0.07557118187834845
        ],
        [
          0.19247672218539105,
          0.14393591294296618,
          0.1331404278792289
        ]
      ],
      [
        [
          0.0182260881525833,
          0.04129635679037023,
          0.043966201342953364
        ],
        [
          -0.04389805211785988,
          -0.07030718907770299,
          0.02986338350310941
        ],
        [
          0.007788332627163793,
          0.025966942849843064,
          0.015155394996632966
        ]
      ],
      [
        [
          -0.022340190213288966,
          0.07626845394947032,
          0.1423975546245338
        ],
        [
          -0.04733117546100406,
          -0.03958660246805306,
          0.059216216620955775
        ],
        [
          0.00805255407677088,
          0.007956981524819039,
          0.11449461600424071
        ]
      ],
      [
        [
          -0.13643077818316957,
          -0.023692986895650026,
          0.033489210638948184
        ],
        [
          0.029009406070909512,
          -0.026542545404922322,
          -0.006631450635580661
        ],
        [
          0.04279966993255567,
          0.1055409395297059,
          0.16492210056522297
        ]
      ],
      [
        [
          -0.13677666879207304,
          0.02416840455917261,
          -0.0031079483018855527
        ],
        [
          -0.03925085578352406,
          -0.11314516211922493,
          -0.1953086147074637
        ],
        [
          0.2175093436137834,
          0.007785677372980995,
          0.002825847989648568
        ]
      ],
      [
        [
          0.07691573727343444,
          -0.009619583282271338,
          -0.0366067550377957
        ],
        [
          -0.004050918653210248,
          0.04612240523187059,
          0.01515342549009827
        ],
        [
          0.09200808385589171,
          0.07810863898598534,
          0.11087289138690558
        ]
      ],
      [
        [
          -0.2211746742732762,
          -0.10770021874103772,
          0.030481058114051423
        ],
        [
          -0.16925903003418877,
          -0.19040068668061821,
          -0.0070909063207137725
        ],
        [
          0.03428922182387145,
          -0.10357917449039511,
          -0.013819172812087737
        ]
      ],
      [
        [
          -0.0898487040252933,
          -0.03179330268058859,
          0.08158929029535285
        ],
        [
          -0.09729862697950148,
          0.051133636776476366,
          -0.015366903699716763
        ],
        [
          -0.022645251776455762,
          0.15265246896080012,
          -0.03083875540263597
        ]
      ]
    ],
    [
      [
        [
          -0.04368125645428364,
          -0.03962472472909365,
          -0.0713283490981665
        ],
        [
          -0.05245193400969783,
          -0.030474665193054255,
          0.02417606587234329
        ],
        [
          -0.0800063257428839,
          0.1306454942963042,
          0.06933795987436814
        ]
      ],
      [
        [
          -0.10176789643597557,
          0.040103214379500964,
          0.15073324798599652
        ],
        [
          0.02212130818489003,
          0.0432013504824513,
          0.21124688713635242
        ],
        [
          -0.13699048894312899,
          -0.08752112535656621,
          0.06096319313648404
        ]
      ],
      [
        [
          -0.15660973571958683,
          0.1347439316441928,
          -0.03535023185901657
        ],
        [
          -0.2449807529420775,
          0.196907884624122,
          0.012185236335853394
        ],
        [
          -0.09594407303283967,
          0.19708850729564614,
          0.06386064913928433
        ]
