{
  "conv1.weight": [
    [
      [
        [
          -0.18558917306289904,
          -0.16621083005175022,
          -0.15602825138333798
        ],
        [
          -0.14678035575629325,
          -0.0325903625871139,
          -0.16516197250475112
        ],
        [
          -0.026030806541234765,
          0.04394945971211544,
          0.0398518921733763
        ]
      ],
      [
        [
          0.0035090830384358587,
          -0.003774661302174749,
          -0.13595450706657708
        ],
        [
          0.10889559854861737,
          -0.025466312167070994,
          -0.16908522526298678
        ],
        [
          -0.1807925613461709,
          0.013213446377982569,
          -0.17034293039864723
        ]
      ],
      [
        [
          0.10580355595947903,
          0.189715002904283,
          0.16078605573440288
        ],
        [
          0.3296828747917213,
          0.29830921439146096,
          0.2156963653965785
        ],
        [
          0.16819333549311305,
          -0.09583110045875147,
          -0.14859930828243723
        ]
      ]
    ],
    [
      [
        [
          0.26831165012968505,
          0.22040110816414632,
          0.015205438551021357
        ],
        [
          0.15779045322562957,
          0.16518383181582127,
          0.21593578503852554
        ],
        [
          0.24564602659739096,
          0.2940624642656398,
          -0.04871222869294793
        ]
      ],
      [
        [
          0.09087359287415336,
          -0.18294563351865398,
          -0.10819470027470725
        ],
        [
          -0.1227682439139701,
          -0.20615913690597154,
          -0.1584860968092542
        ],
        [
          -0.0927844765235573,
          -0.06419345205571335,
          -0.020834714214778498
        ]
      ],
      [
        [
          -0.18620283400472307,
          -0.02468887929507901,
          -0.12731612913642382
        ],
        [
          -0.15895428101792403,
          -0.22354890802096156,
          0.01577990123107064
        ],
        [
          -0.11390337257859504,
          -0.05326744390673861,
          0.2269531447963326
        ]
      ]
    ],
    [
      [
        [
          0.07397904168634141,
          0.010450839841239448,
          0.0038674802759127336
        ],
        [
          0.028238318972932937,
          0.2710382008737547,
          -0.31536200227301087
        ],
        [
          0.05107161434778457,
          0.24929951979667445,
          -0.3289516101426274
        ]
      ],
      [
        [
          -0.02985011597950944,
          0.07263515227400645,
          -0.06088660766974579
        ],
        [
          0.07410584043650609,
          0.14893404068442095,
          -0.12358731244074725
        ],
        [
          -0.023679134107701342,
          -0.04547722920869808,
          -0.1435086616959226
        ]
      ],
      [
        [
          -0.05559594345325658,
          0.14525357970492017,
          -0.0793331110338685
        ],
        [
          0.11223946190303914,
          0.1441670612438087,
          -0.23592251585810714
        ],
        [
          0.12397109796590287,
          0.2277213710413956,
          -0.3200111597342878
        ]
      ]
    ],
    [
      [
        [
          -0.11912465907716971,
          0.16726517188705117,
          -0.023902850483776043
        ],
        [
          0.13708042680742588,
          0.12592610713338073,
          0.06967228974752608
        ],
        [
          0.18732124677041798,
          0.07080723385812977,
          -0.1875522661633113
        ]
      ],
      [
        [
          0.11865040722004835,
          0.02630798730470137,
          -0.05153271754336002
        ],
        [
          -0.0064618117143276045,
          0.15946627041391692,
          -0.032036828220041835
        ],
        [
          -0.2040893413441335,
          0.11719300522561386,
          0.05402059028646474
        ]
      ],
      [
        [
          0.14482689624545322,
          0.23986313281476998,
          -0.02710894903613823
        ],
        [
          -0.022075767456328905,
          0.12340825497566384,
          0.06568217713740522
        ],
        [
          -0.0006054349980706375,
          -0.07282317579280397,
          -0.12358342876820722
        ]
      ]
    ],
    [
      [
        [
          0.15437231570718965,
          -0.02483957776019837,
          0.07895125765847881
        ],
        [
          0.12357651939500855,
          0.1919615474158748,
          -0.22742767230523334
        ],
        [
          -0.16007913582767838,
          -0.0939609585355703,
          0.11760465133162472
        ]
      ],
      [
        [
          -0.1023640964060773,
          -0.14736082045663493,
          -0.07394948640404991
        ],
        [
          0.047232098138046526,
          0.09224243259709236,
          0.13435206612361997
        ],
        [
          -0.13440227424478882,
          -0.003123237685585389,
          0.014117117211957632
        ]
      ],
      [
        [
          -0.15286181400657417,
          -0.028814375016613568,
          -0.16877998646603853
        ],
        [
          0.10491142485785285,
          0.11071311959427305,
          0.06081599984702577
        ],
        [
          0.16268558880979048,
          -0.03766683332605303,
          0.09999010057975358
        ]
      ]
    ],
    [
      [
        [
          -0.09339237072727613,
          0.11165576732010624,
          -0.02749985457353486
        ],
        [
          -0.0010049399091945522,
          -0.24182299709429886,
          -0.08030782682519665
        ],
        [
          -0.05276305359566085,
          0.02586257902545737,
          0.10532941189065738
        ]
      ],
      [
        [
          -0.044948195117235565,
          -0.20959703054845746,
          -0.08931409205561815
        ],
        [
          -0.10680611447455307,
          -0.1632042384510507,
          0.11149599722062871
        ],
        [
          -0.035923244452099615,
          0.14820054216585116,
          0.09038556425282586
        ]
      ],
      [
        [
          -0.0469048559485567,
          0.020933348788137095,
          -0.020126495793414682
        ],
        [
          -0.12624111893757595,
          -0.04606239872464717,
          0.088232879807876
        ],
        [
          -0.10303940171270763,
          -0.1592763977985767,
          0.01588648158330572
        ]
      ]
    ],
    [
      [
        [
          0.09174700885169788,
          0.10502086221714663,
          -0.15878756814679412
        ],
        [
          -0.22494523449911197,
          -0.13501074339020608,
          -0.2525605007513019
        ],
        [
          0.08022372998950472,
          -0.2554539740352155,
          0.13681008807060982
        ]
      ],
      [
        [
          0.2352638066768983,
          0.05948774142981002,
          0.10050795668536464
        ],
        [
          0.04918761121275496,
          0.03342408560415938,
          0.0976427062070806
        ],
        [
          0.16282843454810458,
          0.2300094774914712,
          0.273598268383298
        ]
      ],
      [
        [
          0.06645647678516023,
          -0.06300834720615577,
          0.022328761409311365
        ],
        [
          -0.1564647031042138,
          -0.2701307240839998,
          -0.2163276275168347
        ],
        [
          -0.1344855470601356,
          -0.01181842895260758,
          0.004620132012518072
        ]
      ]
    ],
    [
      [
        [
          -0.24383994250038987,
          -0.18901439629583117,
          -0.2494120128186244
        ],
        [
          -0.010239135827561615,
          -0.06105833880613476,
          -0.1664146053876615
        ],
        [
          0.3058566687757198,
          0.24417616072482828,
          0.32129105699202126
        ]
      ],
      [
        [
          -0.13799294086965383,
          0.00044187899852492847,
          0.12400806814981355
        ],
        [
          -0.18174861954883567,
          -0.18162081093286553,
          0.06965736029019584
        ],
        [
          0.20771914108407974,
          0.014619083945521286,
          0.04048960670572736
        ]
      ],
      [
        [
          0.004641338325884145,
          0.1298407803939836,
          0.021202275894328368
        ],
        [
          0.04059561831523587,
          0.03051632668683051,
          -0.1858837880132574
        ],
        [
          0.06256443728543136,
          0.022288975023235486,
          -0.05712863206560068
        ]
      ]
    ],
    [
      [
        [
          -0.3475248903239237,
          -0.02823690628965998,
          0.28458140889370265
        ],
        [
          0.10295431885264414,
          0.1751568646411144,
          -0.13149759151230955
        ],
        [
          0.11789143433005742,
          0.14438866058879707,
          -0.330083733973307
        ]
      ],
      [
        [
          -0.291083217903134,
          0.1409124782903859,
          0.2621665736729239
        ],
        [
          -0.19342312079910745,
          -0.0684482968007922,
          0.16245589111803818
        ],
        [
          0.32911407350805866,
          -0.01637752526394766,
          -0.32279739280152875
        ]
      ],
      [
        [
          -0.35160870975698816,
          0.15001860487871813,
          0.20848713965406135
        ],
        [
          -0.003284507023046573,
          -0.08946581691528738,
          0.02183036373734395
        ],
        [
          0.20666232784132055,
          0.03600309220186715,
          -0.17107313439629068
        ]
      ]
    ],
    [
      [
        [
          0.18919268884690066,
          0.168342704926613,
          0.006913948802472102
        ],
        [
          0.05093666198385603,
          0.11467491661391582,
          0.10399849419943752
        ],
        [
          -0.0474816136214625,
          0.14768940980046438,
          -0.030052533530725328
        ]
      ],
      [
        [
          -0.1842710017189334,
          -0.1696647804681708,
          -0.1496399486967696
        ],
        [
          -0.08988496168489246,
          -0.31096354558561085,
          -0.2391449311921519
        ],
        [
          0.08376302146275408,
          0.02617310199659385,
          -0.27268001246324863
        ]
      ],
      [
        [
          0.16838208462930457,
          0.015425324173783212,
          0.08232768123865981
        ],
        [
          -0.008707165019480299,
          0.13520897749155758,
          0.08850534438140206
        ],
        [
          -0.04271723598969059,
          0.0039881275421133075,
          -0.05800243215418123
        ]
      ]
    ],
    [
      [
        [
          -0.1611745680627259,
          -0.26164608330231515,
          0.027677882344412427
        ],
        [
          -0.11218374229760135,
          -0.03701804763921588,
          -0.16242234438115294
        ],
        [
          0.2490723359597457,
          0.3781541118871511,
          -0.05100624027764787
        ]
      ],
      [
        [
          -0.07082911820501311,
          -0.20911628931290405,
          -0.2724325817574607
        ],
        [
          -0.11087991108981446,
          -0.06047277287178582,
          0.04784799114713296
        ],
        [
          0.264670186839424,
          0.2878013232891652,
          0.1297842649898296
        ]
      ],
      [
        [
          -0.1284427933711566,
          -0.11622605834664956,
          0.06068917373670709
        ],
        [
          0.03689096609291317,
          -0.23878621290409177,
          -0.0026244442284859967
        ],
        [
          0.17451297856740403,
          0.177791154242114,
          0.145611978605958
        ]
      ]
    ],
    [
      [
        [
          -0.23216698269905175,
          0.08468813884983614,
          0.08717410140350249
        ],
        [
          0.13761341141544187,
          0.2627287613983288,
          0.14364009566661223
        ],
        [
          -0.14207328935532734,
          -0.03898356698995311,
          -0.2947042046311124
        ]
      ],
      [
        [
          0.08414664303660115,
          0.0977287641760018,
          -0.10110385286741816
        ],
        [
          0.0698616865066371,
          0.13285550009244396,
          0.1852710064388468
        ],
        [
          -0.04288569256504895,
          -0.23003640352780233,
          -0.2357168942537326
        ]
      ],
      [
        [
          -0.2817417739179272,
          -0.25610982752046146,
          -0.1488287754000177
        ],
        [
          0.21320225391355177,
          -0.009640361407939429,
          0.12920336143840191
        ],
        [
          0.16444927481050206,
          0.04513126270716222,
          0.14703460094270215
        ]
      ]
    ],
    [
      [
        [
          -0.0633171894336645,
          -0.1705156550324481,
          -0.026303719130027967
        ],
        [
          -0.010860592584951135,
          -0.11854355977807578,
          0.03498109240852824
        ],
        [
          -0.210647221768035,
          -0.14984815872359172,
          0.0849198828171754
        ]
      ],
      [
        [
          0.009403756776005617,
          -0.10108579046195364,
          0.003380794419943831
        ],
        [
          -0.06082016839104122,
          0.1546451351701319,
          0.16509815134342903
        ],
        [
          0.04859286931308022,
          0.13771832993216687,
          -0.11988025282458946
        ]
      ],
      [
        [
          0.009623917305522098,
          -0.0484341602956845,
          -0.1246401394378456
        ],
        [
          0.24938999938071596,
          0.27725776660604096,
          0.1840597951574045
        ],
        [
          0.07887287359473592,
          0.21336402169555374,
          0.039841448892001106
        ]
      ]
    ],
    [
      [
        [
          0.11692097084243554,
          0.3813378050866097,
          0.12243172239619142
        ],
        [
          0.10375756919347735,
          -0.19379549662395162,
          -0.1263171777176407
        ],
        [
          0.004278048569494782,
          -0.2708726167450212,
          -0.08272458765705139
        ]
      ],
      [
        [
          0.2594247091645852,
          0.39333508045776805,
          0.26031800570509156
        ],
        [
          -0.22091120980655782,
          -0.17189625498847078,
          -0.014950683706354266
        ],
        [
          -0.057990491098061106,
          -0.17034841910163037,
          -0.24461221989124293
        ]
      ],
      [
        [
          0.06190320629238792,
          0.24459164208695652,
          0.22394392424201026
        ],
        [
          -0.03881994030336214,
          -0.19925229395785496,
          -0.14523695314810794
        ],
        [
          0.02245248944013555,
          -0.22720672612035073,
          -0.003640277186167095
        ]
      ]
    ],
    [
      [
        [
          -0.21283660729248513,
          -0.12132731241763059,
          -0.1854947026139457
        ],
        [
          -0.2660307420447395,
          -0.2979501810855281,
          -0.027870141572598928
        ],
        [
          -0.1520037639228772,
          0.07471102909781792,
          -0.09054369219336326
        ]
      ],
      [
        [
          0.21748460362012859,
          0.1227852044385345,
          0.07352263499676076
        ],
        [
          -0.12896183474270567,
          0.07244380553697193,
          0.2305396138230071
        ],
        [
          0.0068647322405202,
          -0.020917475118498563,
          -0.05735119539293002
        ]
      ],
      [
        [
          -0.07467381452184131,
          0.13967238237863136,
          0.1820531069705209
        ],
        [
          0.11666093221584525,
          0.2123256412281942,
          0.055817190731403114
        ],
        [
          -0.17164746228096553,
          0.16034279717397804,
          -0.009819413226204037
        ]
      ]
    ],
    [
      [
        [
          0.10637304526559588,
          -0.06070957416009722,
          0.00603449994156973
        ],
        [
          0.21516777349262897,
          0.07093432215075576,
          -0.32178961174397147
        ],
        [
          0.2666305764121456,
          0.023482405429652353,
          -0.33119322976358456
        ]
      ],
      [
        [
          0.1044189770621185,
          -0.0276668399918492,
          -0.21183366475497692
        ],
        [
          0.07170299315941402,
          0.0783352800030592,
          -0.356112202434569
        ],
        [
          0.27300582271031204,
          0.13490750021257078,
          -0.09549726236320012
        ]
      ],
      [
        [
          0.161797950089386,
          -0.17101799189656772,
          -0.3437856994681922
        ],
        [
          0.2595378957239672,
          0.14561040365800285,
          -0.183286021302393
        ],
        [
          0.16294943605535625,
          0.05385472824973776,
          -0.045467542532151045
        ]
      ]
    ]
  ],
  "conv1.bias": [
    -0.004284609299590799,
    0.20810971551177398,
    -0.05938744572613707,
    -0.11245244017476673,
    0.2394376708579865,
    -0.15025219684646185,
    0.11962499984547212,
    -0.06759531448164113,
    -0.04001583739917484,
    -0.19609763437612515,
    -0.1009390355674831,
    -0.10412336316556976,
    -0.40456901498827125,
    -0.0798125515068123,
    0.09770058399774385,
    -0.09568387197821447
  ],
  "res1_conv1.weight": [
    [
      [
        [
          -0.1271414531446825,
          -0.17489366433870518,
          -0.12025272815035387
        ],
        [
          -0.010018961586363968,
          -0.046157369003755805,
          -0.059953439758671186
        ],
        [
          -0.0015037490238917852,
          0.13962724541845503,
          -0.08318872341312207
        ]
      ],
      [
        [
          0.2888944026318192,
          0.15281448835074596,
          -0.008303177704687463
        ],
        [
          0.11967278154504471,
          -0.10281620652370715,
          -0.07933539419513211
        ],
        [
          0.025293479780436775,
          -0.04852018443066303,
          -0.118031067559622
        ]
      ],
      [
        [
          -0.09539185786710465,
          -0.004989860850489533,
          0.09747177890945931
        ],
        [
          -0.5166575724365099,
          -0.16788419312925149,
          0.04459802471912374
        ],
        [
          0.0703382407589804,
          -0.0248662929882498,
          -0.017587747509502923
        ]
      ],
      [
        [
          -0.15209207962938417,
          -0.18015703447163994,
          -0.04367359508335537
        ],
        [
          -0.061380372581118184,
          -0.05725757777408309,
          0.00017533470777813157
        ],
        [
          -0.14820001054751591,
          -0.023615058241568433,
          -0.09042346560960585
        ]
      ],
      [
        [
          -0.02204375535258044,
          0.0875203097688831,
          -0.003288562525693442
        ],
        [
          -0.01644536636879156,
          0.02338684270217479,
          0.1284577021971628
        ],
        [
          -0.018141871550625816,
          -0.004957418332257191,
          -0.02583637394084318
        ]
      ],
      [
        [
          0.13572935185642496,
          0.09862216199849273,
          0.038010660956909144
        ],
        [
          0.11748737775619217,
          -0.02053289158783221,
          -0.061859568204950546
        ],
        [
          0.03611914964083042,
          -0.11028843705799661,
          -0.101143063421345
        ]
      ],
      [
        [
          0.07281911876813998,
          0.0274450706958232,
          -0.12096268813829764
        ],
        [
          -0.13128984571223865,
          -0.19658729464772223,
          -0.2638554311851528
        ],
        [
          -0.03605791107349876,
          -0.1862981069769107,
          -0.1660164742712146
        ]
      ],
      [
        [
          -0.06581355561640483,
          -0.00851826481345222,
          -0.008344143666570518
        ],
        [
          -0.03131507458121528,
          -0.03651744631793289,
          0.04723016505716546
        ],
        [
          0.08643162081629484,
          -0.0009743099278358465,
          -0.10691686674647097
        ]
      ],
      [
        [
          -0.014433494729871895,
          0.053487800393049206,
          0.1641431596825643
        ],
        [
          -0.005247928333802694,
          0.16490787551553235,
          -0.10359709727749405
        ],
        [
          0.04077375918090647,
          0.05346971839763051,
          -0.3068987477610342
        ]
      ],
      [
        [
          -0.05974011256012221,
          -0.2061540749144388,
          -0.21643750369720832
        ],
        [
          -0.39706409862339953,
          -0.46465124272040337,
          -0.33445898202753627
        ],
        [
          -0.14632509968914278,
          -0.16817413501651451,
          -0.1299682537675482
        ]
      ],
      [
        [
          0.048113190794727506,
          0.15198495384011196,
          0.06481981384910611
        ],
        [
          0.12524756384037525,
          0.11123353675736351,
          0.06895315873809833
        ],
        [
          0.1579891203623082,
          -0.10999513516584186,
          0.02635661602501424
        ]
      ],
      [
        [
          0.011173317585081959,
          -0.046941578961927084,
          -0.1061451840524397
        ],
        [
          0.06764327454810248,
          0.08966611459693967,
          -0.1830470911183439
        ],
        [
          0.09028824106350099,
          -0.14407645260855256,
          -0.3449217783620195
        ]
      ],
      [
        [
          -0.10936616801875965,
          -0.08520634732243806,
          -0.01837747272993825
        ],
        [
          0.0942512849028889,
          0.1703829291180747,
          -0.045731700881903856
        ],
        [
          -0.07769746951376628,
          -0.07823778200986947,
          -0.136287253172853
        ]
      ],
      [
        [
          0.16112692080479024,
          -0.017074683690693756,
          0.05442298728599273
        ],
        [
          0.0691588291447663,
          0.14116501471809922,
          0.015847345030895188
        ],
        [
          0.11979111550021572,
          0.13044556006285465,
          0.09300617731494558
        ]
      ],
      [
        [
          -0.033768887900058914,
          -0.06023805916943711,
          -0.05296136235034686
        ],
        [
          0.016798418008525,
          -0.007042972543159372,
          -0.0516574646255017
        ],
        [
          0.11510111501704791,
          0.0712469854046934,
          0.09699511700090342
        ]
      ],
      [
        [
          -0.20628142923927045,
          0.13516464155642272,
          -0.0650719705789381
        ],
        [
          -0.40824911014157805,
          -0.08295922392970775,
          0.10683579180548328
        ],
        [
          -0.2911302751563568,
          -0.05284871459079053,
          0.00910337725820789
        ]
      ]
    ],
    [
      [
        [
          0.03496064181523236,
          0.0542739895547419,
          0.06402396554606185
        ],
        [
          0.057770792762628545,
          0.1683545372205828,
          0.047345856637621704
        ],
        [
          0.005862056326374179,
          -0.05746851547072555,
          -0.012319258935949793
        ]
      ],
      [
        [
          0.043747238172795126,
          0.040978820950350214,
          -0.05822164853403804
        ],
        [
          -0.06409918254955657,
          0.025219877445532488,
          0.005593742265589976
        ],
        [
          -0.05376663778024793,
          -0.02515768263357347,
          -0.03225675982408884
        ]
      ],
      [
        [
          -0.1919331426117608,
          -0.07018096667884928,
          0.04992346333924077
        ],
        [
          -0.251573884730251,
          -0.18153538067364092,
          0.01436065959225503
        ],
        [
          0.05651265225081652,
          -0.061248057712356856,
          -0.20226244482489622
        ]
      ],
      [
        [
          0.08157377573694638,
          0.02600742200515844,
          -0.012243574345666954
        ],
        [
          0.01512080272990499,
          0.04934392343726576,
          0.018971638360326372
        ],
        [
          0.0074748590628837255,
          0.005956573225957125,
          0.003630929083341948
        ]
      ],
      [
        [
          -0.02746946570334225,
          0.1011627205755827,
          -0.0958482852757813
        ],
        [
          -0.01998425414499976,
          0.11490871349860428,
          0.0015050956264565502
        ],
        [
          0.11314181198165595,
          0.0733674149090671,
          -0.00262026496438199
        ]
      ],
      [
        [
          -0.028149745382816966,
          -0.09699468165143023,
          0.05731487060681986
        ],
        [
          -0.12087228210718633,
          0.023881485034013796,
          -0.024949152422236415
        ],
        [
          0.048260164035274236,
          0.14992299434653622,
          0.10263267925838618
        ]
      ],
      [
        [
          -0.031735176105881134,
          -0.1217355211376302,
          -0.097847727092607
        ],
        [
          0.02521858215262899,
          0.018523924193472513,
          -0.013332796587188249
        ],
        [
          0.2032380415885817,
          0.1290272234555092,
          0.11475321578796595
        ]
      ],
      [
        [
          0.07257492783266152,
          0.0477772114832139,
          0.07128699264279284
        ],
        [
          -0.09325016130694093,
          -0.07508416082081816,
          -0.010000382780596345
        ],
        [
          0.061085808859953974,
          -0.061745353772915866,
          -0.05380704893561441
        ]
      ],
      [
        [
          -0.014406540767302597,
          0.034625053250164475,
          0.014274352844270128
        ],
        [
          0.11931416103248042,
          -0.10333944573459729,
          -0.048758188384957275
        ],
        [
          0.10553307474923125,
          0.07630468343855219,
          0.041816414001612255
        ]
      ],
      [
        [
          0.15981906953447747,
          0.08681775481683189,
          0.07085766597920481
        ],
        [
          0.10250656016089357,
          0.1303953614771022,
          0.11823452730715547
        ],
        [
          0.0772409817182455,
          -0.024431929579555138,
          -0.12263367346890114
        ]
      ],
      [
        [
          0.054196605522682496,
          0.09658675889607937,
          0.0779362964185636
        ],
        [
          -0.005318883833962796,
          -0.07853392125898118,
          0.1419765178720937
        ],
        [
          -0.020309169487229602,
          -0.03718264520875084,
          -0.08346275952857721
        ]
      ],
      [
        [
          0.08106818096207086,
          0.1374365581437219,
          -0.008554667067755173
        ],
        [
          -0.00900386335115918,
          -0.03402657014846205,
          0.06417478038130353
        ],
        [
          -0.029701336910188593,
          -0.04023086333207856,
          -0.059903172884304225
        ]
      ],
      [
        [
          -0.022477047352387414,
          -0.024040051213546604,
          -0.08726334298745474
        ],
        [
          0.061992029617836834,
          0.05442134503945039,
          -0.016969561539146385
        ],
        [
          -0.0979214114645772,
          -0.10941179578341258,
          0.004921860792796986
        ]
      ],
      [
        [
          -0.06413944229166897,
          0.02070360642460226,
          0.08641763636377447
        ],
        [
          0.11449036104582405,
          0.18651332134090806,
          0.07622628087831328
        ],
        [
          0.0717312010925579,
          0.1388330224786152,
          0.09767996098247346
        ]
      ],
      [
        [
          0.009755545141478028,
          -0.110604489406494,
          -0.0025988659589894895
        ],
        [
          -0.02568040193156274,
          -0.0169251592064338,
          0.006512601590168271
        ],
        [
          -0.03920170805256917,
          -0.05801565180127908,
          -0.018003605092662252
        ]
      ],
      [
        [
          -0.04432780032880776,
          -0.05390740558634371,
          -0.013581148573661214
        ],
        [
          -0.20539605275746456,
          -0.252093896891144,
          -0.08330026413551914
        ],
        [
          0.05695965318115342,
          -0.20566145075495648,
          -0.18318030710314548
        ]
      ]
    ],
    [
      [
        [
          -0.03330977833446774,
          0.029825949117946643,
          -0.05867890839073923
        ],
        [
          -0.0451579320627841,
          -0.08737106306512796,
          -0.08914008581273787
        ],
        [
          0.02008225056010393,
          0.024330064783779342,
          -0.05250910996845648
        ]
      ],
      [
        [
          0.009926308130102701,
          0.005484367583405503,
          0.06435617638427044
        ],
        [
          -0.000293240792916044,
          0.07776725829565331,
          0.08947951831464757
        ],
        [
          -0.10249941254571249,
          -0.04771076958200076,
          0.0997643603229035
        ]
      ],
      [
        [
          -0.10690392796020513,
          0.0028087118334975017,
          0.003231870713571919
        ],
        [
          -0.10978836265619983,
          -0.05657324985139646,
          0.037766689367799915
        ],
        [
          -0.1221435037186137,
          -0.001334744122276258,
          0.06536933721463933
        ]
      ],
      [
        [
          0.08661333352820964,
          0.01927644327225122,
          0.05893652213199307
        ],
        [
          -0.009192462602418508,
          -0.09549386486512051,
          -0.12452235539880284
        ],
        [
          0.023091905093820007,
          0.04665287464151128,
          0.04510564053515325
        ]
      ],
      [
        [
          -0.11065039989569708,
          -0.05494791238414868,
          -0.015946979483339892
        ],
        [
          -0.07033666510201554,
          -0.10736548231160964,
          -0.025715970700669808
        ],
        [
          0.012495627757795199,
          -0.029706272451119054,
          0.020418089726537712
        ]
      ],
      [
        [
          -0.09335082745310612,
          -0.13633459719467608,
          -0.0975622371219577
        ],
        [
          -0.12821693790001798,
          -0.0875993569318753,
          -0.03942268889085091
        ],
        [
          0.04837748596834077,
          -0.041124552217342965,
          0.0817580619239053
        ]
      ],
      [
        [
          0.11108356856364257,
          -0.032428820157598404,
          -0.0536482670555681
        ],
        [
          0.042741508935189756,
          0.07627915285773668,
          0.03291618056621056
        ],
        [
          0.21505542539438757,
          0.16283205416213772,
          0.05758371353866008
        ]
      ],
      [
        [
          0.047854794911814935,
          -0.013157351710982666,
          -0.01784717194644162
        ],
        [
          0.07249783845097907,
          0.031069450262316414,
          0.044986269785368044
        ],
        [
          0.002152255393101066,
          -0.17211756475978107,
          -0.06633645166477725
        ]
      ],
      [
        [
          -0.10836628010738185,
          -0.08207720821368798,
          -0.03565846974889685
        ],
        [
          -0.2720627548052337,
          -0.3814411307225627,
          0.0009211013829064451
        ],
        [
          -0.019536202272655265,
          -0.05390452706346572,
          -0.0050131396300736675
        ]
      ],
      [
        [
          -0.03630889468554141,
          0.17825517036976218,
          0.046897123890183134
        ],
        [
          0.02686809879027965,
          0.24260846547794024,
          0.20959675834353772
        ],
        [
          0.05341792613506013,
          0.07854365519399416,
          0.05332111487807294
        ]
      ],
      [
        [
          0.04180791429058703,
          -0.08854993686581462,
          -0.040647554952772
        ],
        [
          0.04539421699380922,
          0.05282747952750843,
          0.06159745767397464
        ],
        [
          -0.2468475879284315,
          -0.22823628843614574,
          -0.13439117521546817
        ]
      ],
      [
        [
          0.097286354884155,
          0.1247420421970654,
          0.1657460142877741
        ],
        [
          0.07743774000610494,
          0.0336871160598101,
          0.03758015379377264
        ],
        [
          0.026782435037372175,
          0.04468371175476245,
          0.053016287077881925
        ]
      ],
      [
        [
          -0.12102302321385745,
          -0.00196791402741735,
          -0.1374897904277925
        ],
        [
          0.1293503098910807,
          0.07539902080806223,
          -0.08580379505721318
        ],
        [
          -0.01906283559891898,
          -0.019404455112635794,
          -0.0895385277123475
        ]
      ],
      [
        [
          -0.00980125316757778,
          0.06995688302486325,
          0.07956980524561541
        ],
        [
          -0.17524337984983251,
          -0.1745032502604284,
          -0.027548961465035413
        ],
        [
          0.1528627962032814,
          0.03066907872217513,
          0.03796930582513043
        ]
      ],
      [
        [
          0.05920541844503012,
          -0.009039642114128731,
          0.06452724014585208
        ],
        [
          0.026379476050689916,
          0.011638887728926762,
          0.04359970548003911
        ],
        [
          0.10885809858678301,
          0.03609898339583739,
          0.037487384082011174
        ]
      ],
      [
        [
          -0.08918660696526935,
          -0.07283040136921386,
          -0.10633590177145219
        ],
        [
          -0.1653024810240844,
          -0.019497384620710472,
          0.06152623481782809
        ],
        [
          -0.15015755601332845,
          0.09328833169470245,
          0.16744836003588245
        ]
      ]
    ],
    [
      [
        [
          0.037834385746871625,
          0.01895631798442995,
          0.02104037301773705
        ],
        [
          -0.0015043632611226505,
          0.017868598593470723,
          -0.14804701568872147
        ],
        [
          0.05145066843123558,
          -0.18420359843056316,
          -0.18503949290047494
        ]
      ],
      [
        [
          -0.27445151813786123,
          -0.11397305300492949,
          0.049310144410471025
        ],
        [
          -0.1965897772777201,
          -0.028922092066903732,
          0.2575439920973133
        ],
        [
          -0.0623228190009352,
          0.22452501637232944,
          0.095048145510704
        ]
      ],
      [
        [
          -0.14133935431459274,
          -0.08160818795022638,
          -0.03834011367838714
        ],
        [
          0.12908911037840295,
          -0.12155003209091407,
          -0.2031691827879819
        ],
        [
          0.03631828003290278,
          -0.0016432538391017073,
          -0.09486986214154422
        ]
      ],
      [
        [
          -0.1229517602308911,
          -0.11501686505606905,
          0.014960801541501331
        ],
        [
          0.039375929168006245,
          0.010171989150192025,
          -0.0013877103737046836
        ],
        [
          0.102193435978874,
          0.06753346291175977,
          0.04826637045833873
        ]
      ],
      [
        [
          0.07512489953757354,
          -0.060073368433497885,
          -0.05722295012606387
        ],
        [
          0.012829376620749833,
          0.01931179832870085,
          0.01744883818703839
        ],
        [
          0.005374569501675704,
          0.06669905322947568,
          0.11917717949652858
        ]
      ],
      [
        [
          -0.1430180019785407,
          -0.08553977885582711,
          -0.11476173431647713
        ],
        [
          0.002290857788804254,
          0.07281280876492932,
          -0.0008157108280221415
        ],
        [
          -0.03290208315199573,
          0.18222969868070132,
          0.08318856847255883
        ]
      ],
      [
        [
          -0.18612602763175343,
          -0.12341451738211093,
          -0.12349387393332746
        ],
        [
          -0.06975006436127486,
          0.11228383739363228,
          0.12780432661390112
        ],
        [
          -0.014533260026475611,
          0.1847354916474174,
          0.19834236771992006
        ]
      ],
      [
        [
          -0.09450608283969546,
          0.03345655514949342,
          0.0033735728671946247
        ],
        [
          0.17304559356257698,
          0.02407064358495138,
          -0.0030162477516981687
        ],
        [
          -0.042956556419516505,
          0.09129431334819815,
          0.0010710102278454873
        ]
      ],
      [
        [
          -0.08999174647695697,
          -0.2657101126193561,
          0.03422446119754279
        ],
        [
          0.003169643582167977,
          0.1535084119505474,
          -0.0703567745330811
        ],
        [
          -0.10287585549115476,
          0.15817792966271046,
          0.25010175223603476
        ]
      ],
      [
        [
          -0.08584689840791537,
          0.12143132070607444,
          0.06831024821262197
        ],
        [
          0.07440689472907686,
          0.054933007758380094,
          0.12165155347571295
        ],
        [
          -0.21606226754337501,
          -0.09927704099328456,
          -0.11700244869159546
        ]
      ],
      [
        [
          -0.10228091836216811,
          -0.1605264146174534,
          -0.04259324820059465
        ],
        [
          0.08300865565644178,
          -0.05963487604054782,
          0.04676021801471657
        ],
        [
          -0.03647006401914342,
          0.11209463689938326,
          0.1007277357684103
        ]
      ],
      [
        [
          -0.18742512245865445,
          -0.22443443422861836,
          -0.09275186556052839
        ],
        [
          -0.11122665289014248,
          -0.0954297508439442,
          0.06393621180636866
        ],
        [
          0.0332061614804004,
          0.18553036649690335,
          0.21716034107165286
        ]
      ],
      [
        [
          -0.03390848270938696,
          0.11700581346692744,
          -0.1071316609992146
        ],
        [
          0.03132958941117274,
          -0.08447828443148661,
          -0.05658635930998439
        ],
        [
          0.1688740089711108,
          0.04948061161735341,
          0.03070111139905332
        ]
      ],
      [
        [
          0.04086402801258239,
          -0.16658448673861778,
          -0.15660661512607182
        ],
        [
          -0.11181541206193485,
          0.04583183394985122,
          0.00631431832981711
        ],
        [
          0.13612999902838327,
          0.027985979922550374,
          0.14222726024123988
        ]
      ],
      [
        [
          0.23358316840057217,
          0.0696502491114733,
          -0.10211385471273077
        ],
        [
          -0.01772118669408387,
          0.12735239454163702,
          -0.0464029933041182
        ],
        [
          -0.021149305657372948,
          -0.026994825154778107,
          -0.06339379499541527
        ]
      ],
      [
        [
          -0.22071577476693605,
          -0.20757154834624833,
          -0.0721373610892327
        ],
        [
          0.07081595222224452,
          -0.09524485024827221,
          -0.10501036413865966
        ],
        [
          0.11118829424383146,
          0.04792467073323555,
          -0.2273164160794812
        ]
      ]
    ],
    [
      [
        [
          -0.014635568465523503,
          -0.2019114222856247,
          -0.2564807916181457
        ],
        [
          0.12730918692004958,
          -0.1615118366368885,
          -0.26683116989141176
        ],
        [
          0.0595065321426919,
          -0.02807677118324436,
          -0.05589291574666746
        ]
      ],
      [
        [
          0.09888922029333592,
          0.001634939215474386,
          0.04602222622959047
        ],
        [
          0.09999195011353174,
          -0.10409433289799913,
          0.07728246087567056
        ],
        [
          -0.012564922356180152,
          -0.029591713367758996,
          -0.03525367185881456
        ]
      ],
      [
        [
          0.010223844021976543,
          -0.001423330531796195,
          -0.04765513614024406
        ],
        [
          0.07506937932996342,
          0.023895787816155437,
          0.006746903236817841
        ],
        [
          -0.01375864451114821,
          -0.12466138028351091,
          0.08246073004629845
        ]
      ],
      [
        [
          0.06367710174644681,
          -0.07378660663521057,
          0.16039646851112063
        ],
        [
          0.05958336918928762,
          -0.06182922938715133,
          0.1178287719951973
        ],
        [
          -0.061435348898656206,
          -0.21371108025680258,
          0.02256822836341593
        ]
      ],
      [
        [
          0.025533783570051146,
          0.12607108243288495,
          0.08069722609137221
        ],
        [
          -0.024623029849689865,
          -0.015856559680581007,
          0.0240806455123299
        ],
        [
          -0.07772253349767866,
          -0.05952791131932535,
          -0.019194951687860076
        ]
      ],
      [
        [
          0.07287307192591212,
          0.08930326711518329,
          -0.16821521359923103
        ],
        [
          0.03184676447247603,
          -0.04123887067322864,
          -0.037409957778583094
        ],
        [
          0.16861469352197037,
          0.07831090186570522,
          0.06295065416235598
        ]
      ],
      [
        [
          -0.18027221781437924,
          -0.2525581929870819,
          -0.1795677629366077
        ],
        [
          -0.09126976918717798,
          -0.19672249942988085,
          -0.17462622716100779
        ],
        [
          0.13804311917141737,
          -0.06615248147446817,
          -0.08045055267366073
        ]
      ],
      [
        [
          -0.01492901639164524,
          -0.08916811543905062,
          -0.08566367489823096
        ],
        [
          -0.39704279525722824,
          -0.3960876335148916,
          -0.41383640200830984
        ],
        [
          0.14745345925506675,
          0.12792262461855533,
          0.0787809541133936
        ]
      ],
      [
        [
          -0.20213054919891596,
          -0.13885017409142444,
          0.03663302691938562
        ],
        [
          -0.328766387936303,
          -0.03252122914881001,
          0.04215967313199964
        ],
        [
          -0.15985947852885313,
          0.06825687474005787,
          -0.04201247519445742
        ]
      ],
      [
        [
          -0.011351676965812617,
          -0.2587261488373487,
          -0.19756644195035605
        ],
        [
          0.022393052105969796,
          -0.19438178738233325,
          -0.15635320269449052
        ],
        [
          0.11176725796902391,
          -0.04825632621118387,
          0.04377592549761295
        ]
      ],
      [
        [
          0.036931667439467596,
          -0.05852134231973151,
          -0.041335549080056926
        ],
        [
          -0.22340516304798697,
          -0.4311487576428546,
          -0.4136234952873371
        ],
        [
          0.10514250661180843,
          0.13485876962395,
          0.06288363504178784
        ]
      ],
      [
        [
          0.07570721645474277,
          -0.10920282789333206,
          -0.12535003632828434
        ],
        [
          0.055828747491269155,
          -0.12173991303762206,
          0.07490906252157786
        ],
        [
          0.045442807517060556,
          -0.038338328726865996,
          -0.11426013183039638
        ]
      ],
      [
        [
          0.054850622129848606,
          -0.09039645879910381,
          -0.047879291196008866
        ],
        [
          -0.08947478966557926,
          -0.1344268614190462,
          -0.1875778721244897
        ],
        [
          -0.12617735420831525,
          0.029130781300311256,
          0.07152071396608513
        ]
      ],
      [
        [
          -0.08510868394383994,
          -0.11039750268342491,
          -0.19411069977866882
        ],
        [
          0.12341135361796178,
          0.10787314701267683,
          0.07196766904920898
        ],
        [
          0.16095191628930788,
          0.15022151406248874,
          0.14098151918003993
        ]
      ],
      [
        [
          -0.14592038819303266,
          -0.012415416796893567,
          -0.1273259746408544
        ],
        [
          -0.09282985784590864,
          0.027972201289025483,
          -0.10465704865863369
        ],
        [
          0.016770032123959715,
          0.002976121464397891,
          -0.0638313649891816
        ]
      ],
      [
        [
          0.01289689078747265,
          0.09401991909602408,
          0.08236230459290786
        ],
        [
          0.01916120208293739,
          0.04132110182632871,
          -0.04236632192789295
        ],
        [
          0.03417632878823293,
          -0.06579074529546636,
          0.06608237117240084
        ]
      ]
    ],
    [
      [
        [
          0.2021974745624182,
          0.01575877630795927,
          -0.06547184743923969
        ],
        [
          0.13323499518888313,
          0.0013543867981257827,
          -0.16397486128895855
        ],
        [
          0.1039405205705179,
          -0.041245701249242185,
          -0.09072495864501794
        ]
      ],
      [
        [
          -0.08531123393922471,
          0.061674826417093105,
          0.15496025459599344
        ],
        [
          -0.022583238534194826,
          0.14386800541687889,
          0.0007640453347665061
        ],
        [
          -0.02451912311558713,
          0.01299985500494707,
          -0.014976850964946215
        ]
      ],
      [
        [
          0.02729173965867798,
          0.0022831891113196928,
          -0.16534315865043078
        ],
        [
          0.2234244423370792,
          0.05234648612843049,
          -0.13730738931991804
        ],
        [
          0.00795512361982637,
          0.12990291189920478,
          0.01704910061459178
        ]
      ],
      [
        [
          -0.05593676075394883,
          -0.009645649223442129,
          -0.1398449833769029
        ],
        [
          -0.043335043476977524,
          -0.06989059878413999,
          -0.044962087406920176
        ],
        [
          -0.05750443943520921,
          -0.12937208317763843,
          -0.009163599857735858
        ]
      ],
      [
        [
          -0.06820748372902428,
          -0.05792221956496754,
          -0.01686436282673294
        ],
        [
          -0.09652685480286004,
          0.013655916912357043,
          -0.03909445394656338
        ],
        [
          -0.0880958285827132,
          -0.004290087544230268,
          0.022963923588817593
        ]
      ],
      [
        [
          -0.020189224121649096,
          0.02973563039186118,
          0.02421549768057303
        ],
        [
          0.020271027155080598,
          0.005504513642700795,
          0.0348449169463359
        ],
        [
          0.04386885412541133,
          0.05849250693927368,
          -0.03628288908330166
        ]
      ],
      [
        [
          0.03210865923915257,
          -0.09430631894955804,
          0.047556153746918885
        ],
        [
          -0.1277321460550519,
          0.028847384913168878,
          0.00010852758739334706
        ],
        [
          0.005072500937339676,
          0.01692295321167456,
          0.14205619835169989
        ]
      ],
      [
        [
          0.046471456657837036,
          0.004107070093799628,
          -0.0961717400459527
        ],
        [
          -0.06675548950777578,
          -0.25732965058612434,
          0.028439162905873602
        ],
        [
          -0.09925090912458814,
          -0.1099053873327626,
          0.014371396972390761
        ]
      ],
      [
        [
          0.1546504572811487,
          0.18684141372136565,
          -0.07646636765514936
        ],
        [
          0.3422602646225056,
          -0.05128825523575781,
          -0.004998593949864747
        ],
        [
          0.06411950179920696,
          0.4234264713732705,
          0.17894464923529912
        ]
      ],
      [
        [
          -0.040710394856569715,
          0.13675485914315524,
          0.10243286875727245
        ],
        [
          -0.06610061206406294,
          0.048062043816009495,
          -0.08166438455531412
        ],
        [
          -0.141431940780934,
          -0.03681362023885316,
          -0.15049468187555112
        ]
      ],
      [
        [
          0.12135670688980184,
          0.058502127579434626,
          -0.2109723218349167
        ],
        [
          -0.2282058491132341,
          -0.0680009574657069,
          -0.01331828715717136
        ],
        [
          -0.2412335584190055,
          -0.12111066281639346,
          -0.09138939075729713
        ]
      ],
      [
        [
          0.257467244132846,
          0.11339590621493918,
          -0.17724175425823724
        ],
        [
          0.19097646133149002,
          0.004091018208097677,
          0.08619798896357152
        ],
        [
          -0.04547479582665291,
          0.05187929143880182,
          0.08900796434190207
        ]
      ],
      [
        [
          0.23681270680389505,
          -0.04990446168728255,
          -0.05028099011501922
        ],
        [
          0.085852360601543,
          -0.15868702458736786,
          -0.05985014932907234
        ],
        [
          -0.009410462864748961,
          -0.1339509309092313,
          -0.13297637416503816
        ]
      ],
      [
        [
          -0.01133564705610035,
          0.1665279619333204,
          -0.04201088462381667
        ],
        [
          0.10080966727461542,
          -0.07906527274898201,
          -0.18296272168790198
        ],
        [
          0.004376950361034404,
          -0.048949006688622815,
          0.04214678341466826
        ]
      ],
      [
        [
          0.15687940868826195,
          -0.08362807049915194,
          0.04520096570298647
        ],
        [
          0.07733706465704053,
          -0.08514118865243514,
          -0.07363198739510861
        ],
        [
          0.09657490071286101,
          -0.05235339971842456,
          -0.0625237644596341
        ]
      ],
      [
        [
          -0.049363959162012486,
          0.03618802613890304,
          -0.020609173484711883
        ],
        [
          -0.01435823518554237,
          -0.02769745922000401,
          0.027573634936571056
        ],
        [
          0.06790226835568346,
          -0.04561728600082613,
          0.04321359206303797
        ]
      ]
    ],
    [
      [
        [
          0.06746079530651589,
          0.04781645512776947,
          -0.05887558059231436
        ],
        [
          0.09376193174663557,
          -0.025303295092219073,
          0.0011682755035141684
        ],
        [
          -0.09192351649966787,
          0.06698397941734108,
          0.041918777262056964
        ]
      ],
      [
        [
          0.03595062376799502,
          0.03279785644791478,
          0.039102301315448666
        ],
        [
          0.10871836856914087,
          0.06760746328328696,
          -0.050047070640943506
        ],
        [
          -0.07027205934057662,
          0.022782959821191037,
          -0.09039049458787098
        ]
      ],
      [
        [
          0.08688066456330232,
          0.14674837192031015,
          0.07888465858371863
        ],
        [
          0.08588028465219778,
          -0.06361107446064967,
          0.10105124691899128
        ],
        [
          -0.06090893467990062,
          -0.019466598580242,
          0.1798962284648354
        ]
      ],
      [
        [
          0.07835723180882259,
          -0.04495800546602529,
          -0.11019613033736123
        ],
        [
          0.06990011834293802,
          -0.15726678220373572,
          -6.963625691900936e-05
        ],
        [
          -0.11778245923242955,
          -0.24676839664313396,
          -0.1104842025631446
        ]
      ],
      [
        [
          -0.08779567733598526,
          -0.031249928008399635,
          -0.16226876976063798
        ],
        [
          -0.12941764751735735,
          -0.09737680059843665,
          -0.003719776244416915
        ],
        [
          -0.05138886880581862,
          -0.13567559168156243,
          -0.04909834770540186
        ]
      ],
      [
        [
          -0.04986000658816006,
          -0.00947177787428901,
          0.04534865346923755
        ],
        [
          -0.12468910245056507,
          0.026459418379989635,
          -0.052241152522989255
        ],
        [
          0.0019125654679896286,
          0.009708968643646574,
          0.03291942756885354
        ]
      ],
      [
        [
          0.012197985084744581,
          0.19707746594681183,
          -0.030081400715495418
        ],
        [
          0.039474140258447254,
          0.20691147702925544,
          -0.09817582387709693
        ],
        [
          0.10365857801181022,
          0.02960995710064416,
          -0.15491457817198223
        ]
      ],
      [
        [
          0.07290599128034848,
          -0.030302364800036344,
          0.09333550067036264
        ],
        [
          0.023307520084191725,
          0.08432031734724774,
          -0.08079845819175555
        ],
        [
          0.03188367510177452,
          0.10139024973112364,
          -0.05208409111021007
        ]
      ],
      [
        [
          -0.0010701731156671015,
          -0.4097603840727166,
          -0.0614382261752917
        ],
        [
          -0.4223354741516139,
          -0.6556637972611687,
          0.018830878578124453
        ],
        [
          -0.687298407301024,
          -0.25949568261902356,
          0.028938820354457395
        ]
      ],
      [
        [
          0.09219186774847755,
          0.09245296700289136,
          0.057381644574009176
        ],
        [
          0.12119124433609188,
          -0.012596837809681969,
          0.029685225450907328
        ],
        [
          0.041616342956733866,
          0.03659960782989783,
          -0.0400903491644193
        ]
      ],
      [
        [
          0.11910361755811935,
          -0.007294315293081139,
          0.026255677458946122
        ],
        [
          0.02397200133914542,
          0.191698481078038,
          0.011428383863545135
        ],
        [
          0.07853286687344667,
          0.1174942054960274,
          0.0037219794536787446
        ]
      ],
      [
        [
          0.2762575810824538,
          0.16671215346870877,
          -0.1599312881809863
        ],
        [
          0.15505239309985613,
          0.05520924149029712,
          -0.1134230442627667
        ],
        [
          0.04029087801075525,
          -0.06932329887010993,
          -0.11808434793614256
        ]
      ],
      [
        [
          0.11995343082039285,
          0.03317069832128011,
          -0.004679631673781371
        ],
        [
          0.08145866919443534,
          -0.00020543837030697417,
          -0.0034126370274420417
        ],
        [
          0.006520328638602847,
          0.046608192579880255,
          -0.05458571583752694
        ]
      ],
      [
        [
          -0.014892846211200572,
          0.1278821520994566,
          -0.09395193508195882
        ],
        [
          0.28040826266226876,
          0.04676693683538962,
          -0.06623730034771258
        ],
        [
          0.04534100214829691,
          0.0034325153061120924,
          -0.2096845857091636
        ]
      ],
      [
        [
          -0.06817791540231923,
          -0.11748840808285885,
          0.12163397668594596
        ],
        [
          -0.09358782009682358,
          0.050228148513171644,
          0.036278962998306866
        ],
        [
          -0.030124793299215216,
          0.02882250329679153,
          0.014351321769785296
        ]
      ],
      [
        [
          0.003993307244395849,
          0.09541112076788147,
          -0.0053453890711529645
        ],
        [
          0.022082292273892083,
          -0.18571911372457137,
          0.01287777997839783
        ],
        [
          0.1383957454081592,
          -0.08051590228874443,
          0.05091992835020084
        ]
      ]
    ],
    [
      [
        [
          0.023718736216634333,
          -0.14320747467270142,
          0.059747559456812004
        ],
        [
          -0.03260408575377743,
          -0.13681433045693994,
          0.20183554715073557
        ],
        [
          -0.03124112161663321,
          -0.06467254546419698,
          0.12981549718818763
        ]
      ],
      [
        [
          0.04727201334296823,
          0.02484613680494983,
          0.0620760074883247
        ],
        [
          0.1238615733408688,
          -0.07440485966935752,
          -0.07429228146313832
        ],
        [
          0.036666774966116866,
          -0.016938899636375293,
          -0.013506341786456093
        ]
      ],
      [
        [
          0.19683270701533187,
          -0.0141992992661345,
          0.0910548298783152
        ],
        [
          0.17547094496182963,
          0.13579733705596383,
          0.20292456448005278
        ],
        [
          0.04939999518600326,
          0.054758036911197634,
          -0.16309479960621917
        ]
      ],
      [
        [
          -0.03125947298851898,
          -0.07631171300315658,
          0.03797888146419732
        ],
        [
          -0.10054895645512406,
          -0.032447447489703136,
          0.13815907558535925
        ],
        [
          -0.0955727702105596,
          -0.039124879676968455,
          0.02987274889926321
        ]
      ],
      [
        [
          -0.05150811363063983,
          0.039437385961237525,
          -0.006128982913114128
        ],
        [
          -0.0562612829922094,
          -0.04578084997221509,
          0.1508543841277035
        ],
        [
          0.03816821632360447,
          0.047301369699357165,
          -0.02203240997875184
        ]
      ],
      [
        [
          -0.014249277971012846,
          0.08531816806225388,
          -0.05544697554609369
        ],
        [
          0.12272120867354706,
          0.019962460981915987,
          -0.09252617692573147
        ],
        [
          0.01314135102166609,
          0.03837958734069282,
          -0.057161384698105985
        ]
      ],
      [
        [
          0.07222139154086238,
          0.12487588216810674,
          -0.07130037410160725
        ],
        [
          0.08289244014628977,
          -0.045959034068929254,
          -0.1393261874420116
        ],
        [
          0.03965155524065831,
          -0.135275408075819,
          -0.05810854277694468
        ]
      ],
      [
        [
          -0.13198719240697543,
          -0.10023012060398583,
          -0.05206949040277525
        ],
        [
          -0.038207208812290304,
          -0.0007299233149647341,
          0.023160095059802963
        ],
        [
          0.05893877229914277,
          0.06172220432528324,
          0.0004292292338103156
        ]
      ],
      [
        [
          0.24742018438993932,
          0.04477291477250311,
          0.20334781571573476
        ],
        [
          0.15585266207504586,
          0.441004487390345,
          0.18862209426403587
        ],
        [
          0.0965900750252811,
          0.3548210699089889,
          -0.01562774739941065
        ]
      ],
      [
        [
          0.05602101644149584,
          -0.14016470053180557,
          0.020413314409643456
        ],
        [
          0.07459118700660346,
          -0.1513824765406385,
          0.006432178980705065
        ],
        [
          0.049574398402465795,
          -0.09541590079328507,
          0.013468519471804882
        ]
      ],
      [
        [
          -0.15136532013921383,
          -0.08597884255011985,
          0.0814906970719667
        ],
        [
          -0.07601313050254475,
          0.08900593259925965,
          -0.015400946765347569
        ],
        [
          0.02121487062928512,
          -0.016814467850431246,
          -0.044850882085416946
        ]
      ],
      [
        [
          0.0744435496506137,
          -0.09940462939640285,
          0.03165306166633013
        ],
        [
          -0.0616690972362281,
          0.04719056467767309,
          0.11125860418698048
        ],
        [
          0.059583102383918514,
          0.07591937753729099,
          -0.05554411249460516
        ]
      ],
      [
        [
          -0.07586351538744315,
          0.020672311508374012,
          0.07483965501684793
        ],
        [
          -0.09311538770589813,
          -0.05581734197212437,
          0.11906311153517046
        ],
        [
          0.018656040282184826,
          0.01806808148550385,
          0.03582881084227143
        ]
      ],
      [
        [
          0.12601077597696453,
          -0.002608373004775883,
          -0.24440831737186208
        ],
        [
          0.04662433965989591,
          -0.0797028510332106,
          -0.039133082128855204
        ],
        [
          -0.11084572187707657,
          -0.06348984532110219,
          0.003073943858650364
        ]
      ],
      [
        [
          0.0215781291528603,
          0.11494984045193707,
          0.05790387736856529
        ],
        [
          -0.08028803978663826,
          0.07755976938313774,
          0.015413913927800798
        ],
        [
          -0.054512740823398055,
          -0.04228280637975067,
          -0.07362645408187059
        ]
      ],
      [
        [
          -0.010505156908979348,
          -0.014832437470921526,
          0.043175273259301095
        ],
        [
          0.15485405981966552,
          -0.175591451005125,
          0.09670992264635277
        ],
        [
          -0.09001557833736591,
          -0.17386046595001223,
          -0.07765147970180818
        ]
      ]
    ],
    [
      [
        [
          0.0852863645843005,
          -0.011854729924609599,
          0.038346314263421666
        ],
        [
          -0.0027650227633432426,
          -0.05165965706153076,
          -0.0887082397196341
        ],
        [
          0.01061222161131619,
          -0.016622705009611896,
          -0.02058474346094751
        ]
      ],
      [
        [
          0.08581665384031116,
          0.09663320329624393,
          0.015312855681612092
        ],
        [
          -0.04093989916428657,
          -0.01358096274673287,
          0.075090038705793
        ],
        [
          0.026919185033475103,
          -0.047191983815330754,
          0.007949561353774948
        ]
      ],
      [
        [
          -0.03340343569011575,
          0.13316798176789968,
          0.1456025948197449
        ],
        [
          0.06519125816198162,
          0.07435340925427149,
          -0.061476205529948834
        ],
        [
          0.13236889399919247,
          0.09983377699032783,
          0.0371258818871747
        ]
      ],
      [
        [
          -0.056159213567858746,
          0.08192001236958175,
          0.026297104439690494
        ],
        [
          0.03565365578430206,
          -0.0730552454786056,
          0.000440169960728874
        ],
        [
          -0.06688584052515276,
          -0.012186495989530907,
          -0.08536180096291848
        ]
      ],
      [
        [
          0.06907709281550681,
          0.07146441271696322,
          0.10216640866615832
        ],
        [
          0.020634868837875284,
          -0.051373838024957166,
          0.05531189258178019
        ],
        [
          -0.014817559494022156,
          -0.06337444440113991,
          0.036861760362942836
        ]
      ],
      [
        [
          0.04265666680101988,
          -0.07692593065389342,
          0.005616913869287119
        ],
        [
          -0.018747803711404273,
          0.008488882495409564,
          0.008015676665620888
        ],
        [
          0.0010759056501262524,
          0.011518733376050696,
          0.1544161383678414
        ]
      ],
      [
        [
          -0.003149107006425153,
          -0.0316168850532448,
          -0.03225747901526838
        ],
        [
          -0.06755155485006055,
          0.08268085056387084,
          0.052502559079586134
        ],
        [
          -0.014699062751552841,
          -0.010620688884072884,
          0.09654512131936809
        ]
      ],
      [
        [
          -0.036008053246133515,
          -0.40098025574718105,
          -0.13744580340874887
        ],
        [
          -0.442287210450989,
          -0.5373831610978824,
          -0.24368506899729953
        ],
        [
          -0.2738837347871396,
          -0.4992132418634833,
          -0.3960766840656797
        ]
      ],
      [
        [
          0.09794555263670937,
          -0.0917149797650356,
          -0.10891718630346346
        ],
        [
          -0.17858938041627911,
          -0.3351990695096502,
          -0.2746280269864185
        ],
        [
          -0.22205499859697922,
          -0.44526870580349953,
          -0.16738224362690038
        ]
      ],
      [
        [
          -0.10904761743090967,
          -0.02094434949174614,
          0.04707534625203702
        ],
        [
          0.06518952195418447,
          0.0741417142111729,
          0.004898371978981915
        ],
        [
          0.06622649592606691,
          0.0031317568434652016,
          0.03674491027605399
        ]
      ],
      [
        [
          -0.05743332663002098,
          -0.4316885416776435,
          0.008499560828466701
        ],
        [
          -0.6828279062000353,
          -0.8882945083976842,
          -0.4554475124517393
        ],
        [
          -0.58023523326857,
          -0.7179269917331831,
          -0.5165726797037306
        ]
      ],
      [
        [
          0.11068893220459143,
          -0.11958941479419376,
          -0.057203808638947806
        ],
        [
          -0.06621363427639772,
          -0.243641763070424,
          -0.13742512069917784
        ],
        [
          -0.30268407029399386,
          -0.4399993651258712,
          -0.39545821189126773
        ]
      ],
      [
        [
          0.05077500672962363,
          -0.06339073013974571,
          0.08826432406603292
        ],
        [
          -0.13418762502114234,
          -0.027785673772971045,
          0.05639836545189913
        ],
        [
          -0.10625366298949183,
          -0.10353375204452346,
          0.02805695682316516
        ]
      ],
      [
        [
          -0.027085707124771468,
          0.035213949302860564,
          -0.046716597299784404
        ],
        [
          0.04781434011076138,
          0.08868695959072342,
          0.029771868076109542
        ],
        [
          -0.027218742680577362,
          -0.00812519159140483,
          -0.053282200979644395
        ]
      ],
      [
        [
          0.05753931313228629,
          -0.021740556052766744,
          0.10890314500385764
        ],
        [
          -0.0791307953781428,
          -0.06077840189481268,
          0.047386248016440966
        ],
        [
          0.0076483418460185255,
          0.012771858608111144,
          0.006830956546554988
        ]
      ],
      [
        [
          0.05237866648300599,
          0.038120747197678384,
          0.07207490000308661
        ],
        [
          -0.07246083022963974,
          -0.09854944558412633,
          -0.011354026436703041
        ],
        [
          -0.004898947307188996,
          0.015447876283354993,
          -0.11743629800500899
        ]
      ]
    ],
    [
      [
        [
          0.06105966120613451,
          -0.04983177644331849,
          -0.09823568072393682
        ],
        [
          -0.11360728920205675,
          -0.1632648301512963,
          -0.20067462000789163
        ],
        [
          -0.08926009218667469,
          -0.17674684734198323,
          0.02358423641198304
        ]
      ],
      [
        [
          0.03563193473484923,
          0.022649615310993004,
          -0.018835476295281043
        ],
        [
          0.11266214916218605,
          0.021732107537669975,
          -0.02004468243696789
        ],
        [
          -0.0010102073323999903,
          0.007532737260296463,
          0.03669760263093555
        ]
      ],
      [
        [
          0.149518858112221,
          -0.023807494646721113,
          -0.027857931474930007
        ],
        [
          0.04513511086250997,
          0.1062914431919792,
          -0.01439118927029501
        ],
        [
          0.1073560986365314,
          0.1621492974757486,
          -0.0973735189811477
        ]
      ],
      [
        [
          0.043860126129873556,
          -0.1682502641218769,
          0.015826624992255883
        ],
        [
          -0.03299415340860289,
          -0.1053846246619247,
          0.050198169218260556
        ],
        [
          0.0888478485288861,
          -0.1711453960282238,
          0.07968224447081665
        ]
      ],
      [
        [
          0.02154192004067907,
          -0.02499392755981476,
          0.22535947436971757
        ],
        [
          -0.0027603133586002354,
          -0.017537962131576646,
          0.05955875802622866
        ],
        [
          -0.06937670138871994,
          0.05966407260806477,
          0.0923718525347436
        ]
      ],
      [
        [
          -0.09847067290083249,
          0.019838993903948606,
          -0.030781978461213097
        ],
        [
          0.0684385133971783,
          0.016773545012294753,
          0.0022185871092403626
        ],
        [
          0.0385531503047546,
          0.044434400252216615,
          0.045852727532723625
        ]
      ],
      [
        [
          0.007466427885290414,
          0.028462185799255517,
          0.0068721885765251345
        ],
        [
          0.03525361211872704,
          -0.0023038513531548894,
          -0.05857165367230424
        ],
        [
          -0.025819827244710308,
          0.07765438420026173,
          0.006964866011122135
        ]
      ],
      [
        [
          -0.017180039778086232,
          -0.21170143248039053,
          -0.08465982094056067
        ],
        [
          -0.1491702794915145,
          -0.1789198547603784,
          -0.10261284567430715
        ],
        [
          -0.1582749803708612,
          -0.1083628705268141,
          -0.20215720086046948
        ]
      ],
      [
        [
          -0.09788470830170763,
          -0.12446444373288179,
          -0.023646311723259848
        ],
        [
          -0.2338933025085849,
          -0.2159148547874452,
          0.06794578655733953
        ],
        [
          -0.017418075823329014,
          -0.139969632263328,
          0.002816072422552216
        ]
      ],
      [
        [
          -0.08884826384746056,
          -0.05724554719600803,
          -0.02699268182748844
        ],
        [
          -0.06276124171752914,
          -0.12231743225165109,
          -0.08019412792700083
        ],
        [
          -0.07497701146743509,
          -0.12913721756587462,
          -0.1166071611795299
        ]
      ],
      [
        [
          -0.15921381299918652,
          -0.27172739172129967,
          -0.02144513519029613
        ],
        [
          -0.2833747323674623,
          -0.36226783540002594,
          -0.31948044333704995
        ],
        [
          -0.163555934253612,
          -0.11201625634758174,
          -0.20752209908268984
        ]
      ],
      [
        [
          -0.08853844799167099,
          -0.3564845569751176,
          -0.0709473618645882
        ],
        [
          -0.28559146668226926,
          -0.25083639179655437,
          -0.1934241723141511
        ],
        [
          -0.1669161237735915,
          -0.1540896007125078,
          -0.22406483974542146
        ]
      ],
      [
        [
          -0.00271672676172578,
          -0.057365709185812824,
          0.15737738457630238
        ],
        [
          0.05394682312362923,
          0.022383426375168776,
          0.1077373788440628
        ],
        [
          0.10377243533077474,
          -0.007912438810009637,
          0.32505067515285807
        ]
      ],
      [
        [
          0.07395211967694235,
          -0.050879642957978276,
          -0.054358828676410106
        ],
        [
          -0.0020879968501426897,
          -0.11584981392121971,
          -0.0033033021666432935
        ],
        [
          -0.19677563926422623,
          -0.2391164580214096,
          -0.11091256932359451
        ]
      ],
      [
        [
          0.007427606975072115,
          -0.06391180230943216,
          0.046902082475858475
        ],
        [
          0.056557543609388534,
          -0.014820029944084217,
          0.06926842748980053
        ],
        [
          0.06638852572876734,
          -0.08135729554962581,
          0.13462769327949628
        ]
      ],
      [
        [
          0.19101275867683623,
          0.11901277365979306,
          -0.21690803166354977
        ],
        [
          0.2000261522421828,
          0.08093652813400597,
          -0.24670356092408696
        ],
        [
          0.2002755556453937,
          0.18909629435863146,
          -0.1421242384226069
        ]
      ]
    ],
    [
      [
        [
          0.00022893257356369537,
          0.08952618587745997,
          -0.06696594282166515
        ],
        [
          0.015839145724047925,
          0.07981851612863587,
          0.017238985307482396
        ],
        [
          -0.14322455262296116,
          -0.06349489165370888,
          -0.0994395103803604
        ]
      ],
      [
        [
          -0.07827129579715858,
          -0.06858859864024291,
          -0.0627563458114363
        ],
        [
          -0.13232461253886252,
          0.02055783781521733,
          -0.08832134128576012
        ],
        [
          -0.005686255956412821,
          0.15183570554766376,
          0.18986733598068772
        ]
      ],
      [
        [
          0.021087090689244133,
          0.05577760385138139,
          0.07425979419694333
        ],
        [
          -0.08902844108507856,
          -0.028433077964758025,
          -0.010695063169236766
        ],
        [
          -0.10389605083262238,
          -0.0923285469997324,
          -0.04622785819835677
        ]
      ],
      [
        [
          0.001411377785760762,
          -0.005950641058543011,
          -0.12270163974431274
        ],
        [
          -0.06378324033700876,
          -0.03200353328095364,
          -0.0026537979615906386
        ],
        [
          0.01655483237382742,
          0.12922264521584184,
          -0.051661098498472294
        ]
      ],
      [
        [
          -0.04104675425771764,
          -0.0634761720709834,
          -0.1969616376085569
        ],
        [
          -0.10550834099088412,
          -0.20391559913252078,
          -0.1463055610113627
        ],
        [
          0.14577475335493764,
          0.17143432707407866,
          0.07297646054388467
        ]
      ],
      [
        [
          -0.12816926590878877,
          -0.005081483114671287,
          0.025101840543731962
        ],
        [
          -0.020507391201520408,
          -0.04368530922626941,
          0.0755378688460181
        ],
        [
          -0.046285874979338795,
          0.09364252598146865,
          0.07235370597341115
        ]
      ],
      [
        [
          0.04360928148172065,
          0.11111058911121906,
          0.02812655380919856
        ],
        [
          -0.011282438625193592,
          0.07243688967827447,
          0.07062249831178967
        ],
        [
          -0.10630773513402642,
          0.06510447402682185,
          -0.06249046183888384
        ]
      ],
      [
        [
          -0.08049856169442718,
          -0.12990569378236758,
          -0.15898399810098512
        ],
        [
          0.10748754980768832,
          0.11018387946342882,
          -0.04382329526048433
        ],
        [
          -0.0434165517937968,
          0.046830561437317474,
          -0.034443077965458806
        ]
      ],
      [
        [
          0.023194747290702616,
          -0.04233619340831837,
          0.030234871858321744
        ],
        [
          0.09418240090374543,
          -0.05173594693276083,
          -0.07207132067945408
        ],
        [
          0.079405815374549,
          0.10940742768470496,
          -0.02737420937795071
        ]
      ],
      [
        [
          -0.4902008276002785,
          -0.3921503785025398,
          -0.16606186365081457
        ],
        [
          -0.15215212205552278,
          -0.09905262024613777,
          -0.11806060236650762
        ],
        [
          0.14903652411193685,
          0.22345836603299196,
          0.17698098315702732
        ]
      ],
      [
        [
          -0.027864236054860526,
          0.03388314100026841,
          -0.00735482874194556
        ],
        [
          -0.10460942220106305,
          -0.0046439643900069725,
          0.05535675200671612
        ],
        [
          -0.005771880928033871,
          -0.008336134817836793,
          -0.04592681238564357
        ]
      ],
      [
        [
          0.06643914366254282,
          0.09814551608105726,
          0.11897982953962082
        ],
        [
          0.11956126002834196,
          0.08732640433244786,
          0.14637230408237697
        ],
        [
          0.3567670134326245,
          0.32822522462352527,
          0.277416105645294
        ]
      ],
      [
        [
          -0.12059327973028325,
          -0.11017376702962128,
          -0.07804542409155639
        ],
        [
          -0.04525073676495477,
          -0.007605850862492125,
          -0.002486785020158948
        ],
        [
          0.11968831412107483,
          0.13049646048064623,
          0.034781830013061364
        ]
      ],
      [
        [
          0.03745700346988133,
          -0.06130695064466265,
          0.039717167105766074
        ],
        [
          -0.03122713691656305,
          -0.07416621516778106,
          0.011032295257721321
        ],
        [
          0.1425969514745267,
          0.22613805648312285,
          0.039047376951778644
        ]
      ],
      [
        [
          -0.004623859737152357,
          0.10571255038597356,
          0.031867455625558504
        ],
        [
          0.04292921486872491,
          0.014857786092728156,
          0.025760379224931157
        ],
        [
          -0.09568922436908689,
          -0.14752283780455938,
          -0.11337820636115026
        ]
      ],
      [
        [
          0.1755852092859578,
          -0.0012903142588425569,
          0.011188101196822148
        ],
        [
          -0.1506655861834204,
          -0.12531593363859322,
          -0.11654882285033616
        ],
        [
          0.06272221671847719,
          -0.0034763981691363043,
          -0.1033197828184578
        ]
      ]
    ],
    [
      [
        [
          0.047643985152663465,
          -0.0027085892881220435,
          0.0023573330151140585
        ],
        [
          -0.0013547314885109765,
          -0.09137745371551112,
          0.07980992930514656
        ],
        [
          -0.03840186783715576,
          -0.1984359272474316,
          0.04302955841714668
        ]
      ],
      [
        [
          -0.06787731767934015,
          -0.21038131258176443,
          -0.16751148149819797
        ],
        [
          0.03850703251087451,
          0.07569617315181908,
          -0.046095912192755426
        ],
        [
          0.15985371611892232,
          0.17091560890633817,
          0.07324097695265204
        ]
      ],
      [
        [
          0.042617257136556376,
          -0.051781609522447355,
          0.06569245951286014
        ],
        [
          -0.011762973561767968,
          -0.1217410668233172,
          0.06178532903173316
        ],
        [
          0.1354652435665746,
          0.006054917798350019,
          0.052826992824927636
        ]
      ],
      [
        [
          -0.05311245344219599,
          0.00014913298385390374,
          -0.02771951144499726
        ],
        [
          0.06394636771252536,
          0.03428837988298578,
          -0.02371073366666531
        ],
        [
          -0.011950416149725819,
          -0.008362936547285031,
          0.033943644567834795
        ]
      ],
      [
        [
          -0.09914886875607472,
          -0.039340269122817795,
          -0.006362649833122376
        ],
        [
          0.00465493672727733,
          0.09160108064845117,
          0.1257338811076241
        ],
        [
          0.055304988936937825,
          0.018564432328832342,
          0.11395475107518813
        ]
      ],
      [
        [
          0.04643763475924121,
          0.10054357769912325,
          0.03000171634309318
        ],
        [
          -0.06968615997352941,
          -0.008220352441266317,
          -0.047594665153363434
        ],
        [
          0.07616774216951032,
          0.007002746805066965,
          0.05155688374695934
        ]
      ],
      [
        [
          -0.005921832484011443,
          0.08664765839143515,
          0.09451065161095198
        ],
        [
          -0.16417774444863706,
          -0.10741856232485436,
          -0.11585962139029805
        ],
        [
          -0.0893225858704252,
          0.034598727975742066,
          -0.013705766449036112
        ]
      ],
      [
        [
          0.0634937590786692,
          0.16769518649848328,
          0.09012274692067862
        ],
        [
          0.13274351936576448,
          0.05009064688569903,
          -0.018337264078997047
        ],
        [
          -0.28254159051151917,
          -0.4371733494313659,
          -0.3315179831903166
        ]
      ],
      [
        [
          0.14571397057824823,
          0.10620791058836872,
          0.20020872931489345
        ],
        [
          -0.01423015694921421,
          -0.22735187162157447,
          -0.09747402644972561
        ],
        [
          -0.18299970001621332,
          -0.2498597525984656,
          -0.3044393273162492
        ]
      ],
      [
        [
          -0.00945603062314862,
          -0.15353261102505722,
          -0.07317050902525707
        ],
        [
          0.1492607053738094,
          -0.0351116227128009,
          -0.06608207652304235
        ],
        [
          0.14903290296447888,
          -0.011285130185479962,
          0.11220876546866229
        ]
      ],
      [
        [
          -0.04095242265247603,
          0.14860761816619156,
          0.1183858084711577
        ],
        [
          -0.04712057745835889,
          -0.1157633169544402,
          0.06015021144494535
        ],
        [
          -0.3695235539706568,
          -0.5021130162768567,
          -0.2732611804416083
        ]
      ],
      [
        [
          0.021295425255757658,
          -0.04177036852972579,
          -0.005857560404044069
        ],
        [
          0.09157417856529881,
          -0.12734569943194468,
          -0.13613156551546424
        ],
        [
          -0.031224563114144056,
          -0.14224205194113768,
          -0.25835356459035796
        ]
      ],
      [
        [
          0.06838488126565981,
          0.0927472435292444,
          -0.0066886646972153345
        ],
        [
          0.08106465554593113,
          0.09069749289341951,
          -0.02271173707382754
        ],
        [
          -0.05443686441616638,
          -0.03942975471680435,
          -0.05012609035933093
        ]
      ],
      [
        [
          0.10029600003273231,
          0.0504891179059819,
          0.08994291500510623
        ],
        [
          -0.1838572830764655,
          -0.17080700319757483,
          -0.04098569184359179
        ],
        [
          -0.030836431993710306,
          -0.08324695082035237,
          0.027181635743813055
        ]
      ],
      [
        [
          0.026682856318116812,
          0.000996512426532714,
          0.13101895620355597
        ],
        [
          -0.06519727229436316,
          -0.07911964677221255,
          -0.08097934571555748
        ],
        [
          -0.08349414833917242,
          -0.12796813796788944,
          -0.05757085784825084
        ]
      ],
      [
        [
          -0.1024486145920407,
          -0.04551985609626651,
          0.042996900608395096
        ],
        [
          -0.12032203465608317,
          -0.07723089550026077,
          0.03900176362171178
        ],
        [
          0.06561878007980099,
          -0.09559709233566456,
          0.05546478882728633
        ]
      ]
    ],
    [
      [
        [
          -0.1119491603191644,
          -0.08629878655076603,
          -0.013249776171002477
        ],
        [
          -0.030779556477859727,
          0.10326982362920861,
          -0.008873354011545095
        ],
        [
          0.07182071790042541,
          0.04194089313608332,
          -0.008985713223139557
        ]
      ],
      [
        [
          0.10686967555045378,
          0.24677546486253524,
          0.13455306428216404
        ],
        [
          -0.029682013661956757,
          0.12320981809519958,
          -0.08270657832120416
        ],
        [
          -0.18851835131638234,
          -0.1669837062207032,
          -0.2343758737267205
        ]
      ],
      [
        [
          -0.09964029955611238,
          0.034407070849173375,
          0.08397140383928346
        ],
        [
          0.05116485536772023,
          -0.07367805020613548,
          0.014784939220561821
        ],
        [
          -0.015639068889983405,
          -0.027795120986533025,
          -0.07271196700299647
        ]
      ],
      [
        [
          -0.012497205382387057,
          0.06612389470901739,
          0.10859950570374713
        ],
        [
          -0.031935684095454955,
          -0.03649291639997676,
          -0.13359792060477652
        ],
        [
          -0.03804657319439638,
          -0.051296112834271906,
          -0.0042096789790599335
        ]
      ],
      [
        [
          -0.07967823142895172,
          0.10351168816522978,
          -0.006156444126404865
        ],
        [
          0.10087174869862449,
          0.1131664251530757,
          0.05171888221943649
        ],
        [
          -0.060873748075430945,
          0.11774700964178131,
          0.0017474091734096043
        ]
      ],
      [
        [
          0.031023112237279292,
          0.01229473251124507,
          -0.05018047179938671
        ],
        [
          -0.04122737094682735,
          0.10042112279277553,
          -0.009150682593641827
        ],
        [
          0.02888045470761405,
          0.10201183437618537,
          -0.011435592520429841
        ]
      ],
      [
        [
          -0.02360795175779083,
          -0.026251848055260037,
          0.021244537260432038
        ],
        [
          -0.0884017646319189,
          0.05799061977061974,
          -0.08810036717545507
        ],
        [
          0.05454926416247595,
          0.025433077086697998,
          0.039693565994211005
        ]
      ],
      [
        [
          -0.07114624614525,
          -0.15770605774581872,
          -0.16477982140128533
        ],
        [
          -0.10923142193031052,
          -0.16686207503917344,
          -0.1765508384753658
        ],
        [
          0.0754758398903169,
          0.12638381010935085,
          0.09220486663633001
        ]
      ],
      [
        [
          -0.1621127085481524,
          -0.21673899327041068,
          -0.0486157874039025
        ],
        [
          0.010887168004429544,
          0.09368908058934143,
          -0.04073282622751599
        ],
        [
          -0.0725528902177066,
          0.049941813893234537,
          -0.035606976372425686
        ]
      ],
      [
        [
          0.18668277608503955,
          0.13260361949700972,
          -0.019593820463107307
        ],
        [
          0.04543411216183837,
          0.004216812759562204,
          -0.017611390884869363
        ],
        [
          -0.131278453947596,
          -0.1844148869478132,
          -0.20042287363885458
        ]
      ],
      [
        [
          -0.1621146201304888,
          -0.17410582923035328,
          -0.185729268496604
        ],
        [
          0.014049736003082867,
          -0.005303245652479713,
          -0.026101222253401387
        ],
        [
          0.0359938676785356,
          0.1450504182415061,
          0.13222600705573162
        ]
      ],
      [
        [
          0.13349393988754846,
          0.11865081202929664,
          0.16797742896126136
        ],
        [
          0.24746540665983055,
          0.3299938520400694,
          0.1595273006374508
        ],
        [
          0.10332512706187191,
          0.24631456618122058,
          0.10510871058284076
        ]
      ],
      [
        [
          0.0673449265474868,
          0.03124143511452412,
          0.04159012599476168
        ],
        [
          -0.10536393713861246,
          -0.15255413237354745,
          0.05322809233687466
        ],
        [
          -0.00385002675432415,
          0.002900315160398882,
          0.07959829963097242
        ]
      ],
      [
        [
          -0.03315236339124325,
          -0.06775488202620993,
          0.07808598402779637
        ],
        [
          0.03811454054730241,
          -0.003959741471435145,
          -0.05927397130416668
        ],
        [
          0.05243009541377262,
          0.053347433379168765,
          -0.0016156301367377707
        ]
      ],
      [
        [
          -0.14809157430002567,
          -0.06379348893955948,
          -0.08724707762883216
        ],
        [
          0.01813235485503348,
          0.08501868022869001,
          0.05551513547087483
        ],
        [
          0.04629893545097686,
          0.015238294724874906,
          -0.04554941737331506
        ]
      ],
      [
        [
          -0.03934181686260849,
          0.003912830491439641,
          0.007132622187878674
        ],
        [
          0.05213312192350109,
          0.05495934022164031,
          -0.09165140840717828
        ],
        [
          -0.010662751661295584,
          0.06524360831463019,
          0.016161090406702036
        ]
      ]
    ],
    [
      [
        [
          -0.2544192901437824,
          -0.406716082777102,
          -0.1375794645783115
        ],
        [
          -0.3987263927810479,
          -0.4319242308373139,
          -0.3818147847791917
        ],
        [
          -0.1511100194266401,
          -0.10015504692765667,
          -0.2808653308856361
        ]
      ],
      [
        [
          0.01655232426078492,
          -0.04729353973921693,
          -0.017413260680342643
        ],
        [
          0.0039003239196773085,
          -0.014887917317427153,
          -0.07302279985047017
        ],
        [
          -0.14373855563334573,
          -0.06464238197879153,
          -0.043088866630890336
        ]
      ],
      [
        [
          0.1084039886965008,
          -0.03088170926995767,
          0.0024199415428553125
        ],
        [
          -0.06608073703352836,
          -0.010598694084852296,
          0.1013317946857228
        ],
        [
          0.032697837349025934,
          0.12483216614899184,
          0.05203474831102284
        ]
      ],
      [
        [
          0.04161638321058714,
          0.018732621359463426,
          -0.14579045893826945
        ],
        [
          0.01753329530599173,
          0.009645251212694595,
          -0.13616705415718408
        ],
        [
          0.1408578493489221,
          0.15069605916739026,
          -0.07992257760408247
        ]
      ],
      [
        [
          0.00780198723604083,
          -0.02612811916196544,
          0.001974825610849073
        ],
        [
          0.04717553851919764,
          -0.09234344289561651,
          -0.07571801223741942
        ],
        [
          0.055819320883055586,
          -0.0012856267190549996,
          -0.02734280599985209
        ]
      ],
      [
        [
          -0.009303987684275046,
          -0.040722167357780115,
          0.025015133479113157
        ],
        [
          0.06743897099613214,
          -0.04141379114659946,
          0.019855358961963422
        ],
        [
          -0.01885177822782119,
          0.05478665754736482,
          0.0008176023168714947
        ]
      ],
      [
        [
          0.0026499851256183045,
          0.0857745545532698,
          0.06723299605459203
        ],
        [
          0.015442366860038626,
          -0.01576337494920942,
          -0.0017331245338772245
        ],
        [
          -0.09356183893460257,
          -0.045409947572417675,
          0.007103502112892494
        ]
      ],
      [
        [
          0.07891250030320966,
          -0.024350200599777893,
          0.014817619121490318
        ],
        [
          0.05054146198818998,
          -0.036267674962005905,
          -0.07577471458589155
        ],
        [
          -0.058660610238691846,
          -0.09022946418399393,
          0.06194961520663032
        ]
      ],
      [
        [
          0.18963336640944675,
          0.1686720143824745,
          0.2524963469151635
        ],
        [
          0.0818748645468446,
          0.1501122299695049,
          0.07557118187834848
        ],
        [
          0.19247672218539116,
          0.14393591294296598,
          0.13314042787922933
        ]
      ],
      [
        [
          0.018226088152583142,
          0.041296356790370164,
          0.043966201342953495
        ],
        [
          -0.043898052117859986,
          -0.0703071890777029,
          0.029863383503109544
        ],
        [
          0.00778833262716374,
          0.025966942849843057,
          0.015155394996633105
        ]
      ],
      [
        [
          -0.02234019021328898,
          0.07626845394947046,
          0.14239755462453374
        ],
        [
          -0.04733117546100411,
          -0.03958660246805323,
          0.0592162166209559
        ],
        [
          0.008052554076770876,
          0.007956981524819058,
          0.1144946160042406
        ]
      ],
      [
        [
          -0.13643077818316954,
          -0.023692986895649984,
          0.0334892106389479
        ],
        [
          0.029009406070909672,
          -0.026542545404922162,
          -0.006631450635580556
        ],
        [
          0.04279966993255561,
          0.10554093952970628,
          0.16492210056522325
        ]
      ],
      [
        [
          -0.1367766687920731,
          0.02416840455917254,
          -0.0031079483018855844
        ],
        [
          -0.039250855783524205,
          -0.11314516211922446,
          -0.1953086147074635
        ],
        [
          0.2175093436137834,
          0.0077856773729807986,
          0.0028258479896484338
        ]
      ],
      [
        [
          0.07691573727343426,
          -0.009619583282271164,
          -0.03660675503779562
        ],
        [
          -0.0040509186532102105,
          0.04612240523187047,
          0.015153425490098264
        ],
        [
          0.09200808385589174,
          0.0781086389859853,
          0.1108728913869054
        ]
      ],
      [
        [
          -0.22117467427327608,
          -0.10770021874103773,
          0.030481058114051395
        ],
        [
          -0.1692590300341891,
          -0.1904006866806181,
          -0.007090906320713771
        ],
        [
          0.03428922182387134,
          -0.10357917449039522,
          -0.013819172812087588
        ]
      ],
      [
        [
          -0.08984870402529317,
          -0.03179330268058855,
          0.08158929029535283
        ],
        [
          -0.09729862697950152,
          0.051133636776476254,
          -0.015366903699716834
        ],
        [
          -0.022645251776455926,
          0.15265246896080037,
          -0.03083875540263597
        ]
      ]
    ],
    [
      [
        [
          -0.04368125645428345,
          -0.03962472472909349,
          -0.07132834909816618
        ],
        [
          -0.052451934009697936,
          -0.030474665193054154,
          0.02417606587234331
        ],
        [
          -0.08000632574288417,
          0.13064549429630387,
          0.06933795987436805
        ]
      ],
      [
        [
          -0.10176789643597543,
          0.0401032143795006,
          0.1507332479859966
        ],
        [
          0.022121308184889915,
          0.04320135048245146,
          0.21124688713635245
        ],
        [
          -0.13699048894312885,
          -0.0875211253565662,
          0.06096319313648384
        ]
      ],
      [
        [
          -0.15660973571958714,
          0.1347439316441927,
          -0.03535023185901661
        ],
        [
          -0.24498075294207716,
          0.19690788462412234,
          0.012185236335853606
        ],
        [
          -0.0959440730328401,
          0.1970885072956456,
          0.06386064913928435
        ]
      ],
      [
        [
          0.0752625063085774,
