{
  "conv1.weight": [
    [
      [
        [
          -0.21558441665490768,
          -0.17721523208311898,
          -0.09955470823130136
        ],
        [
          -0.1977218554525446,
          -0.06594942460596659,
          -0.18056099564062925
        ],
        [
          -0.023774548084999104,
          0.037416770560794586,
          0.07560310344827438
        ]
      ],
      [
        [
          -0.00315156238402897,
          -0.014211799423834952,
          -0.04580964411569787
        ],
        [
          0.08046020356959405,
          -0.06509962687969342,
          -0.17799701859509476
        ],
        [
          -0.1624206009705969,
          -0.020924068527529316,
          -0.16319107329384874
        ]
      ],
      [
        [
          0.11283328172932607,
          0.2024392101211987,
          0.2750138004637701
        ],
        [
          0.3354523195952515,
          0.29268281919056127,
          0.2218352664195557
        ],
        [
          0.2613863436942882,
          -0.08294780119795933,
          -0.13868891478409232
        ]
      ]
    ],
    [
      [
        [
          0.22077279474834868,
          0.21267707042444906,
          0.06630666154259135
        ],
        [
          0.14718195993773692,
          0.18737858781857686,
          0.18424460961746286
        ],
        [
          0.26517927792958107,
          0.26515868695479866,
          -0.1130310641156663
        ]
      ],
      [
        [
          0.08912669533031668,
          -0.1522697790085195,
          -0.057224109698440946
        ],
        [
          -0.15321461980100828,
          -0.19304858313110496,
          -0.21399953085547385
        ],
        [
          -0.12015279929184633,
          -0.09971672994830184,
          -0.08480603554556733
        ]
      ],
      [
        [
          -0.1663661497880284,
          0.0265087020736279,
          -0.011611243765353692
        ],
        [
          -0.13930284364406803,
          -0.17470747358622202,
          0.03529851176424439
        ],
        [
          -0.1277233883108575,
          -0.08031091610711623,
          0.21104948802872603
        ]
      ]
    ],
    [
      [
        [
          0.015773335758350222,
          0.04368899270217477,
          0.03405436768552055
        ],
        [
          -0.0966299265569936,
          0.31145888209459494,
          -0.275074373589323
        ],
        [
          0.013950625250644721,
          0.34427634440128957,
          -0.279647428991298
        ]
      ],
      [
        [
          -0.08543897520668035,
          0.08237405374392465,
          -0.07029808889694593
        ],
        [
          -0.03425753031874135,
          0.19223556773243744,
          -0.11128025066739988
        ],
        [
          -0.05266640702239569,
          0.03510686403063948,
          -0.14440106798886146
        ]
      ],
      [
        [
          -0.07024675105705817,
          0.1811259358022225,
          -0.06894876872458841
        ],
        [
          0.02745627652597651,
          0.19636478357664292,
          -0.21577244520906733
        ],
        [
          0.08622734846512477,
          0.2855828404836782,
          -0.3260659750932241
        ]
      ]
    ],
    [
      [
        [
          -0.08795932064932087,
          0.14334846907589865,
          -0.009247839749527496
        ],
        [
          0.12523227322637115,
          0.046754926217678315,
          0.07378011343745043
        ],
        [
          0.1462784142526496,
          0.025591701735279943,
          -0.10216032278554642
        ]
      ],
      [
        [
          0.1826886896097989,
          0.00957518372444975,
          -0.06267400269159956
        ],
        [
          0.01043993519383428,
          0.08876428643784862,
          -0.03019552339841394
        ],
        [
          -0.2457318730982509,
          0.06208713764393526,
          0.13712455461375886
        ]
      ],
      [
        [
          0.20221786152892798,
          0.22741853918792324,
          -0.03610402776548123
        ],
        [
          0.014032075616424219,
          0.09151281548284484,
          0.1194296143243343
        ],
        [
          -0.01238475252710909,
          -0.06478021654046123,
          0.030021057347991206
        ]
      ]
    ],
    [
      [
        [
          0.18068704546846884,
          -0.0870645779766059,
          0.1125080975746321
        ],
        [
          0.11175713940942325,
          0.31033835628422446,
          -0.26285936085480216
        ],
        [
          -0.2718449532150629,
          -0.08518251557788149,
          0.16954518993071138
        ]
      ],
      [
        [
          -0.05708110255425121,
          -0.23181183332296407,
          -0.11606336696731472
        ],
        [
          0.06228313367916652,
          0.2030815100753977,
          0.032434398256221575
        ],
        [
          -0.23454670366301372,
          -0.020989105901968157,
          0.016235586784258897
        ]
      ],
      [
        [
          -0.07553874364775655,
          -0.1285179291616978,
          -0.2068132150692803
        ],
        [
          0.17487390335191494,
          0.2342223882939976,
          0.012250397518647019
        ],
        [
          0.13859140249874727,
          -0.0017678944082812375,
          0.1857221696096111
        ]
      ]
    ],
    [
      [
        [
          -0.053782475660456595,
          0.10566879915978428,
          -0.1082532145961311
        ],
        [
          0.01596172459407789,
          -0.19880810631479087,
          -0.060110851698211815
        ],
        [
          -0.039194139927109045,
          0.04251307047176872,
          0.0719659737701345
        ]
      ],
      [
        [
          -0.020274701527760067,
          -0.20169804416530054,
          -0.18200852509400597
        ],
        [
          -0.11111934260966394,
          -0.13715939461222287,
          0.07088731977238942
        ],
        [
          -0.04399599203788598,
          0.13388126700516287,
          -0.009676493618103015
        ]
      ],
      [
        [
          0.01417220548284412,
          0.0564669144013013,
          -0.07579373614648546
        ],
        [
          -0.09629286060863552,
          0.006343951288218279,
          0.07494267213236515
        ],
        [
          -0.061564404701500326,
          -0.13675726614198233,
          -0.03684917053211409
        ]
      ]
    ],
    [
      [
        [
          0.21456436578440644,
          0.12371652109760083,
          -0.2191347400535573
        ],
        [
          -0.21221139187912047,
          -0.22175308056453824,
          -0.242773027007956
        ],
        [
          0.11881544297020818,
          -0.1873027983768027,
          0.2626284350428912
        ]
      ],
      [
        [
          0.286881300524449,
          0.012749223979512232,
          -0.011990755454064745
        ],
        [
          -0.022463895053782892,
          -0.13114668337203073,
          0.05361908466655188
        ],
        [
          0.10105736589379131,
          0.17854669019531408,
          0.2905841407109204
        ]
      ],
      [
        [
          0.1459469886866619,
          -0.02992388893142697,
          -0.0031516591400643523
        ],
        [
          -0.14837469986222948,
          -0.3102419960554933,
          -0.16980913558419675
        ],
        [
          -0.08013074767662988,
          0.05968919680162905,
          0.11098104155491062
        ]
      ]
    ],
    [
      [
        [
          -0.1874328068244363,
          -0.08259548803960579,
          -0.15416500566994126
        ],
        [
          -0.05517086834764439,
          -0.13729577818695424,
          -0.2565932610180757
        ],
        [
          0.2960954212247462,
          0.23679466987217268,
          0.356805880947223
        ]
      ],
      [
        [
          -0.1005825553979795,
          0.08089900388503857,
          0.19370880526416004
        ],
        [
          -0.22215479753555786,
          -0.24908440596427697,
          -0.005989109367068328
        ],
        [
          0.17646672762602278,
          -0.0010600895789450364,
          0.06277698769672688
        ]
      ],
      [
        [
          0.03562159993710431,
          0.19243346165307598,
          0.067587359428963
        ],
        [
          0.015600734893998264,
          -0.015283024024729535,
          -0.23561142355296283
        ],
        [
          0.021581317286723866,
          0.004307909045347967,
          -0.033643150448571246
        ]
      ]
    ],
    [
      [
        [
          -0.36137609537811366,
          -0.06285881540603049,
          0.32776558217694735
        ],
        [
          0.10589533341429405,
          0.08271883430875082,
          -0.1010313216972952
        ],
        [
          0.1175262595364746,
          0.13293633010497788,
          -0.31734843322270323
        ]
      ],
      [
        [
          -0.24796445822497626,
          0.13252673785457836,
          0.2935604638997499
        ],
        [
          -0.15768228235701326,
          -0.13699661985186357,
          0.18354286549295618
        ],
        [
          0.3500800278343338,
          -0.010099798067680412,
          -0.29767111219538195
        ]
      ],
      [
        [
          -0.3449385281694504,
          0.13408148241338397,
          0.23731453813868386
        ],
        [
          -0.01569778227774657,
          -0.17056042244037656,
          0.01726379221597311
        ],
        [
          0.18991226171740394,
          0.028475172568418416,
          -0.16466788350197364
        ]
      ]
    ],
    [
      [
        [
          0.15247683573552553,
          0.25576647545538317,
          0.004835149108412984
        ],
        [
          0.018691509789720884,
          0.2206618410301248,
          0.0493463339133979
        ],
        [
          -0.12893590139575298,
          0.22033770292872348,
          -0.08961730323729468
        ]
      ],
      [
        [
          -0.21578504550175792,
          -0.0969089404299828,
          -0.14106604354551822
        ],
        [
          -0.08921164201239808,
          -0.20467993276921578,
          -0.24864226478118817
        ],
        [
          0.06836095850530735,
          0.11450785068703791,
          -0.29866205196396217
        ]
      ],
      [
        [
          0.07739606976890767,
          0.01537600226295673,
          0.0841759802808528
        ],
        [
          -0.06788791720994085,
          0.18056900893643726,
          0.0798348249039158
        ],
        [
          -0.1114458389187738,
          0.04612461660471949,
          -0.06535718964317298
        ]
      ]
    ],
    [
      [
        [
          -0.12358070610491986,
          -0.18796647723360038,
          0.03954780500864948
        ],
        [
          -0.11322061324066655,
          -0.0499089167914009,
          -0.201630954855646
        ],
        [
          0.21231195964448865,
          0.2732758063101781,
          -0.09228622604704352
        ]
      ],
      [
        [
          -0.06566167424873016,
          -0.14225636346237858,
          -0.2692972171212651
        ],
        [
          -0.138212402201449,
          -0.07931600733784899,
          0.00017619054657190612
        ],
        [
          0.20715671022705034,
          0.17350363700668467,
          0.07000853036233538
        ]
      ],
      [
        [
          -0.08483950007005053,
          -0.025582316919737415,
          0.11134119702193415
        ],
        [
          0.07862603635525152,
          -0.18570540466535593,
          0.04277326273527825
        ],
        [
          0.15539210413517202,
          0.12367436767735866,
          0.1724653709595166
        ]
      ]
    ],
    [
      [
        [
          -0.27270091899716,
          0.11472968979858211,
          0.21337950359225025
        ],
        [
          0.1307677028936918,
          0.34295888488091186,
          0.009348060423486326
        ],
        [
          -0.014909519043773484,
          0.0038518002511180043,
          -0.39937040592161555
        ]
      ],
      [
        [
          -0.03580540699790838,
          0.11338836357839102,
          -0.02425604062683416
        ],
        [
          -0.023378473002044396,
          0.1811896843528751,
          -0.0015633680554738765
        ],
        [
          -0.011405923592800286,
          -0.2430395483551173,
          -0.37685783512049476
        ]
      ],
      [
        [
          -0.3319417646054117,
          -0.1216980127889342,
          0.017293804070701937
        ],
        [
          0.1598172880186877,
          0.11056695780097218,
          0.049059867475114795
        ],
        [
          0.21813283128657665,
          0.07298105724968534,
          0.06191440817916677
        ]
      ]
    ],
    [
      [
        [
          -0.03246682796817113,
          -0.21569265794200232,
          0.06605597718653601
        ],
        [
          -0.1066145242997571,
          -0.10495863142765625,
          0.1433540812860118
        ],
        [
          -0.20903749726655946,
          -0.06534339994203293,
          0.12263773642803523
        ]
      ],
      [
        [
          -0.10348354917240071,
          -0.2447343414202235,
          0.04292573267726847
        ],
        [
          -0.23064177610111508,
          0.1503761066886225,
          0.2661058534586112
        ],
        [
          0.01235848459799696,
          0.22286743864520062,
          -0.09221688679736784
        ]
      ],
      [
        [
          -0.16309039953238197,
          -0.2291294167575374,
          -0.12550159434281957
        ],
        [
          0.06977793024463066,
          0.2450273647405884,
          0.24348104397589193
        ],
        [
          0.05111846199229719,
          0.28305426424293856,
          0.04041878309715329
        ]
      ]
    ],
    [
      [
        [
          0.028889317774475887,
          0.28237146686096387,
          0.0931964019638457
        ],
        [
          0.009197230189324135,
          -0.269301636991842,
          -0.08068827887055122
        ],
        [
          0.07650159660605801,
          -0.16989662680032705,
          0.0024155340990452408
        ]
      ],
      [
        [
          0.2119400812781323,
          0.3702642946376206,
          0.3223320031083606
        ],
        [
          -0.32422176800024965,
          -0.24401147863457273,
          0.025151777325623945
        ],
        [
          -0.00586302002809738,
          -0.09411573040131725,
          -0.18360041592852083
        ]
      ],
      [
        [
          -0.0010905345037412752,
          0.17721852193381857,
          0.21619452563342062
        ],
        [
          -0.12852315345309134,
          -0.28574260174354177,
          -0.14931040404916218
        ],
        [
          0.11498136445090283,
          -0.13612702970731616,
          0.06536493218914033
        ]
      ]
    ],
    [
      [
        [
          -0.2088370296157825,
          -0.04656708179753216,
          -0.2879496843296242
        ],
        [
          -0.2502566143816246,
          -0.15650180538743277,
          -0.048589139963928926
        ],
        [
          -0.164670910353813,
          0.14625503632030662,
          -0.11852306205933834
        ]
      ],
      [
        [
          0.19893914720622338,
          0.19479829018466974,
          -0.01237983797177748
        ],
        [
          -0.15627780779328357,
          0.1997679780526152,
          0.22392470850830287
        ],
        [
          -0.08525617451731457,
          -0.021887051912014014,
          -0.1460760476725177
        ]
      ],
      [
        [
          -0.08442300432048654,
          0.1919208300879687,
          0.06830567770888021
        ],
        [
          0.10843476963054745,
          0.3305715752988246,
          0.029822761141037844
        ],
        [
          -0.22836299649098382,
          0.17450136910106367,
          -0.092870045371451
        ]
      ]
    ],
    [
      [
        [
          0.12694276076647903,
          -0.07193801723946514,
          0.07059395643391084
        ],
        [
          0.1752623884935043,
          0.06574479620791748,
          -0.21575531492244304
        ],
        [
          0.15652659995866333,
          0.0477170060905014,
          -0.2674144153239993
        ]
      ],
      [
        [
          0.10840135399066057,
          -0.10356421984926699,
          -0.2084604916903473
        ],
        [
          0.014822228516604053,
          0.0035110206418715335,
          -0.3206082654858906
        ],
        [
          0.14325590290203802,
          0.08676454393941513,
          -0.11386817907323736
        ]
      ],
      [
        [
          0.22583146438542703,
          -0.18987728319927727,
          -0.2634595038306121
        ],
        [
          0.25499400302733405,
          0.12201152119150488,
          -0.09486400919764364
        ],
        [
          0.09929598139756872,
          0.06517991922702261,
          -0.016137602189539753
        ]
      ]
    ]
  ],
  "conv1.bias": [
    -0.05720842840938363,
    0.2062478603036078,
    0.15159647797379389,
    -0.11604858484125784,
    0.2215867683225251,
    0.03352484275949847,
    0.14542673653506608,
    -0.051475990473790624,
    0.023621757342542835,
    -0.18059878437068863,
    -0.14323183215575178,
    -0.1462711148025062,
    -0.25429381370617044,
    -0.18262057603051912,
    0.027228267603935763,
    -0.07610720805805031
  ],
  "res1_conv1.weight": [
    [
      [
        [
          0.023857663482647992,
          -0.07956058127783593,
          0.06130317192602925
        ],
        [
          -0.09947896441869183,
          -0.1372227311100249,
          0.07167400469738501
        ],
        [
          -0.11490213395937908,
          0.11662425058753338,
          0.06532451658162992
        ]
      ],
      [
        [
          0.17127916556797063,
          0.17574594819920528,
          0.023042454230672003
        ],
        [
          0.14079484437240647,
          0.059330921243326104,
          0.04873024350967721
        ],
        [
          0.036658785396988185,
          0.0165566562335826,
          -0.06331285750304885
        ]
      ],
      [
        [
          0.017850485466504255,
          -0.27878322137640466,
          0.09571019918031996
        ],
        [
          -0.37786327319355545,
          -0.46864190351776935,
          -0.017176284187393538
        ],
        [
          -0.004992523266369209,
          -0.1691455704365468,
          0.04263695660455139
        ]
      ],
      [
        [
          -0.03499156015310354,
          -0.018740028414102897,
          0.12386002663368029
        ],
        [
          -0.029533794567399973,
          -0.02384812692632324,
          0.09230994320127657
        ],
        [
          -0.1777148270121208,
          0.038770544413088456,
          0.05207733303144133
        ]
      ],
      [
        [
          -0.013447177480917925,
          0.15887196755490085,
          0.03512994323783548
        ],
        [
          -0.1503886522960854,
          -0.039139907318757994,
          0.15038753213832437
        ],
        [
          -0.05577150758858528,
          0.0014599492131023967,
          0.06036394759592626
        ]
      ],
      [
        [
          0.09161233294713705,
          0.06576238124875206,
          0.028872343716166628
        ],
        [
          0.1446813742280198,
          0.026774274623897202,
          -0.06263952659959421
        ],
        [
          0.13975179823594278,
          -0.06196822873005582,
          -0.19477805215336363
        ]
      ],
      [
        [
          0.06766065108864673,
          0.1371301678435987,
          -0.03788048653703622
        ],
        [
          -0.003080792698489436,
          0.10084085417904869,
          -0.19883823213120244
        ],
        [
          0.02040687856252589,
          -0.21475186588258952,
          -0.2601983682685649
        ]
      ],
      [
        [
          -0.07078017146631582,
          -0.06055361655623941,
          0.02576601007746755
        ],
        [
          -0.11679670761271592,
          -0.04718541983638896,
          0.12350591790384641
        ],
        [
          0.012238893222980867,
          0.014853008491753176,
          -0.04759880970357033
        ]
      ],
      [
        [
          0.08057643572961637,
          -0.08743380251697888,
          0.22352979294086367
        ],
        [
          -0.04766196897728364,
          0.0966955434827628,
          -0.0589183606420622
        ],
        [
          0.043577879607712595,
          0.20960398749141432,
          -0.10030178887605766
        ]
      ],
      [
        [
          0.08028652839208571,
          -0.07322945243810434,
          -0.12248710554020481
        ],
        [
          -0.0686994106320443,
          -0.2677647121437758,
          -0.23964965548417097
        ],
        [
          -0.033100263429905206,
          -0.15404632287828912,
          -0.038776106059881854
        ]
      ],
      [
        [
          -0.04000810666550718,
          0.030278630706809997,
          0.011187930761658717
        ],
        [
          -0.0040375379607147065,
          0.11038291881565379,
          0.05800244795052979
        ],
        [
          0.16441857918102087,
          0.007707578563779475,
          0.013921379588646287
        ]
      ],
      [
        [
          0.007314165616639719,
          -0.1806892047976974,
          -0.02303126724551282
        ],
        [
          -0.10718880044848435,
          0.06282017636257205,
          -0.120069077869176
        ],
        [
          0.013522279287789372,
          0.024429394324125445,
          -0.17924360936144615
        ]
      ],
      [
        [
          -0.20117229190550212,
          -0.09012312785934418,
          0.07704020148202696
        ],
        [
          -0.07323960414618215,
          0.17189209198485741,
          -0.045037544989727736
        ],
        [
          0.04009774044635767,
          0.16141220515145116,
          -0.15285086356951585
        ]
      ],
      [
        [
          0.1217727139853426,
          -0.08625892705298388,
          -0.18726264499358003
        ],
        [
          0.14427330748358366,
          -0.01133074744651725,
          -0.2564692647630773
        ],
        [
          -0.12313702925750239,
          -0.010860569821507028,
          0.025200733202618755
        ]
      ],
      [
        [
          0.05242347637616965,
          0.02005043797731194,
          0.002581734764823455
        ],
        [
          -0.006478721814521315,
          -0.0599765828286146,
          -0.07106537164497918
        ],
        [
          -0.01915145755149502,
          0.02014243080075994,
          0.058720285094453366
        ]
      ],
      [
        [
          -0.09061265241077975,
          -0.009266556911630685,
          -0.04283245859930536
        ],
        [
          -0.2470796193809627,
          -0.4027314231844765,
          0.021198345967813483
        ],
        [
          -0.1469074643418008,
          -0.23168230997071737,
          0.0741560064034438
        ]
      ]
    ],
    [
      [
        [
          0.07002053512190647,
          0.09874246740676282,
          0.10867628343189042
        ],
        [
          0.03504950091927562,
          0.14182581786797088,
          -0.001740277713566276
        ],
        [
          0.024919472575194623,
          -0.04204485511879307,
          0.028505186473546922
        ]
      ],
      [
        [
          0.039135166110894674,
          -0.007933633138181153,
          -0.08861553075582662
        ],
        [
          0.026731241002681535,
          0.11545113214431232,
          0.11511232470037719
        ],
        [
          -0.06243583475077334,
          -0.005049076482408998,
          0.010223678748301572
        ]
      ],
      [
        [
          -0.041172341081486076,
          -0.15992328739897416,
          -0.01521499946751113
        ],
        [
          -0.1483862081883073,
          -0.30620331332679523,
          0.02549577337622204
        ],
        [
          0.05575487947149958,
          -0.14555072252367326,
          -0.04922315936119028
        ]
      ],
      [
        [
          0.1258827804234522,
          0.01486050481083899,
          -0.04846690130092496
        ],
        [
          0.062197415663965236,
          0.06944143947981368,
          0.045600497311246525
        ],
        [
          0.043264080086835445,
          0.061513062815724974,
          0.0721959383882526
        ]
      ],
      [
        [
          -0.10325214552718127,
          0.030733091280687876,
          -0.16956605341780956
        ],
        [
          -0.066844600831788,
          0.1141759492384733,
          0.007653641611298125
        ],
        [
          -0.033332812876598686,
          0.007729225562980671,
          0.0035436263253394817
        ]
      ],
      [
        [
          -0.08021187921890435,
          -0.1289318702812591,
          -0.01195377280932312
        ],
        [
          -0.0631218240414545,
          0.11629299996106204,
          -0.021191707168893396
        ],
        [
          0.10889450643886422,
          0.17480887377539478,
          0.056757058186619955
        ]
      ],
      [
        [
          0.10904686598821571,
          0.019217729111700048,
          0.04524352651145942
        ],
        [
          -0.06600216649537506,
          0.01529553595496816,
          0.03232829969574066
        ],
        [
          0.11242187060395824,
          0.0024015546712442583,
          0.08804167885762064
        ]
      ],
      [
        [
          0.13491883955836442,
          0.11595821555833324,
          0.21264933577507397
        ],
        [
          -0.06757402996489054,
          -0.002698586865392684,
          0.050447889359927486
        ],
        [
          -0.11650053730062508,
          -0.24305718744312874,
          -0.022126832140077744
        ]
      ],
      [
        [
          0.010841442361535765,
          -0.07874819721484361,
          0.13103908433927983
        ],
        [
          0.07777329033077286,
          -0.2249335663015459,
          -0.1819992927977331
        ],
        [
          0.06582581553404171,
          0.044744356680398646,
          -0.05235029286094433
        ]
      ],
      [
        [
          0.12278609357996594,
          -0.03038803352118409,
          -0.0691493024107447
        ],
        [
          0.16114601092041272,
          0.09638660299610073,
          0.17145469447992465
        ],
        [
          0.1252756807689558,
          -0.036423035236896766,
          -0.04688414495657717
        ]
      ],
      [
        [
          0.06620792299361934,
          0.06470343498053537,
          0.10277531557041884
        ],
        [
          -0.07224886293822873,
          -0.07899577741767745,
          0.14886485563726418
        ],
        [
          -0.08404571445898655,
          -0.19449862397877354,
          -0.04295348096382318
        ]
      ],
      [
        [
          0.2372515949294332,
          0.04949905383842674,
          0.034083378493075384
        ],
        [
          0.065680824230012,
          -0.10000194784906505,
          0.01933833495863456
        ],
        [
          -0.01499662065926059,
          -0.0961349358462537,
          -0.06527596339812894
        ]
      ],
      [
        [
          -0.041166910605030804,
          -0.10711111758259781,
          -0.1706573955752533
        ],
        [
          -0.12314895895348181,
          -0.12298415024517326,
          -0.04731709715781027
        ],
        [
          -0.3034886420399665,
          -0.28237218284837445,
          -0.07535931926846927
        ]
      ],
      [
        [
          -0.09251630552478829,
          -0.10307840337312711,
          0.054561650539307595
        ],
        [
          0.10086745006274421,
          0.11693651975540131,
          0.026629071503164355
        ],
        [
          0.10622314125374727,
          0.1708531413384116,
          0.07809325537611206
        ]
      ],
      [
        [
          0.06273013716858364,
          -0.08946017968526085,
          0.06668334042715056
        ],
        [
          0.049607366188631964,
          0.030418074980214163,
          -0.03099097296438468
        ],
        [
          0.05788016511750155,
          0.07234144422631873,
          0.029354832547150368
        ]
      ],
      [
        [
          0.005636906802501343,
          -0.12480781617329353,
          -0.05004229466561933
        ],
        [
          -0.13760203550964772,
          -0.2562713188031793,
          0.0010649109162285469
        ],
        [
          0.01253630886797313,
          -0.4184993933218491,
          -0.07050847865355139
        ]
      ]
    ],
    [
      [
        [
          -0.05551932421246202,
          0.035048899663962615,
          -0.0842313558867403
        ],
        [
          0.007459553191766697,
          -0.0202614653506701,
          -0.05982326129766068
        ],
        [
          0.05691857197398155,
          0.015883538307058576,
          -0.019192761310257704
        ]
      ],
      [
        [
          0.05758628235720065,
          -0.0025169738740860644,
          0.0739281137005722
        ],
        [
          0.00978715467171213,
          0.04617173096148268,
          0.05516905873118103
        ],
        [
          -0.11483509876972911,
          -0.052645523378097116,
          0.1322971844241288
        ]
      ],
      [
        [
          0.006778520257041972,
          0.1305802794819643,
          -0.13490829814281183
        ],
        [
          0.08288476047306634,
          0.03024729644341892,
          0.02048235671307764
        ],
        [
          -0.10665556831354678,
          -0.09657106428569694,
          0.06917579090102223
        ]
      ],
      [
        [
          0.06321464141306582,
          0.019652935292808836,
          0.12713708159015677
        ],
        [
          -0.10047432164649024,
          -0.14636758764476057,
          -0.05587894890075442
        ],
        [
          -0.0785088998130888,
          -0.076526960529606,
          -0.004798984812083163
        ]
      ],
      [
        [
          -0.12164482659237902,
          -0.061529121170913956,
          0.12589792182924509
        ],
        [
          -0.05309866521962688,
          -0.05290458020780568,
          -0.017676586502262188
        ],
        [
          -0.0158066203845733,
          -0.031062147972139784,
          -0.006937940109672477
        ]
      ],
      [
        [
          -0.04890986959724592,
          -0.11245542279461809,
          -0.07257746196030089
        ],
        [
          -0.03234618379482102,
          -0.021874558041799465,
          -0.06087833285508495
        ],
        [
          0.08927858111688634,
          -0.05609239608921744,
          0.04582351932205264
        ]
      ],
      [
        [
          0.009095030814570276,
          -0.1328962678267585,
          -0.02823158761451325
        ],
        [
          -0.0524160284880251,
          0.015639396821727297,
          -0.07444281002119821
        ],
        [
          0.048070526604881134,
          -0.06804363023322303,
          -0.11270417090823122
        ]
      ],
      [
        [
          0.02074604291170108,
          -0.02047609624402449,
          -0.06038566344914224
        ],
        [
          0.11705101514666169,
          0.03782709269079816,
          0.11406265378297788
        ],
        [
          0.09460431598021743,
          -0.05061766012678579,
          0.02363451342745644
        ]
      ],
      [
        [
          -0.10432719327302994,
          0.0316549769353437,
          -0.2785144647280453
        ],
        [
          -0.015872205396907237,
          -0.1927725892617482,
          0.09634937606911598
        ],
        [
          -0.021702059491790687,
          0.019937925825492114,
          -0.007499341221322896
        ]
      ],
      [
        [
          -0.10265630106870918,
          0.12953202016358434,
          -0.05094159252768724
        ],
        [
          -0.047175575432554774,
          0.11281873653600473,
          0.07039488613711732
        ],
        [
          0.008538358511660186,
          0.027561076003528175,
          0.08270609671229347
        ]
      ],
      [
        [
          -0.029531623718846906,
          -0.15529381560078306,
          -0.07841390925014645
        ],
        [
          0.068033481700737,
          0.05500322505710125,
          0.08660818888372708
        ],
        [
          -0.10192264802594245,
          -0.10713456254747028,
          -0.11715711746800854
        ]
      ],
      [
        [
          0.10210800537112925,
          0.27956811782526764,
          0.008702839853778723
        ],
        [
          0.039760240776561526,
          -0.029996149520550724,
          -0.019947164634387084
        ],
        [
          -0.1585185546845501,
          -0.1164990524629571,
          0.024525487064028642
        ]
      ],
      [
        [
          -0.07645005547776992,
          0.13239822010914756,
          -0.1867179300811808
        ],
        [
          0.11174320672387858,
          0.09939968121955371,
          -0.1407036060582131
        ],
        [
          0.024819766471329222,
          0.06647210180194117,
          0.08497614483658612
        ]
      ],
      [
        [
          -0.008278980489164157,
          0.16909997664475365,
          0.14748570054057802
        ],
        [
          -0.04170284287099293,
          -0.1038008197853265,
          0.008991510744513324
        ],
        [
          0.07974684023362721,
          0.015033189631300202,
          0.07254057263932046
        ]
      ],
      [
        [
          0.0405597867630935,
          -0.046165706544662184,
          0.03557797905983777
        ],
        [
          0.061825093783012805,
          0.041079714752442695,
          0.10398460453680931
        ],
        [
          0.09293548793757828,
          0.01302804489407683,
          0.023828828961260554
        ]
      ],
      [
        [
          -0.11858923270636207,
          -0.0005282926204290215,
          -0.14542149105142033
        ],
        [
          0.00210239717345275,
          0.03859722398510431,
          0.1169441859182887
        ],
        [
          -0.11848902249002255,
          0.013311414028318815,
          0.09663827674814261
        ]
      ]
    ],
    [
      [
        [
          -0.00116762385977271,
          -0.014820154396615137,
          0.11375871114789696
        ],
        [
          -0.023685083213734942,
          0.029424339328902906,
          -0.0014263779943863735
        ],
        [
          0.05845570838209945,
          0.03663120586118926,
          0.12052900379402938
        ]
      ],
      [
        [
          -0.042016106192138,
          -0.01663177475191243,
          -0.016676220954495176
        ],
        [
          -0.008612585818019339,
          -0.004383818151390507,
          0.10502442957789786
        ],
        [
          -0.0023266765979076958,
          0.12425988862496688,
          -0.0871779712355508
        ]
      ],
      [
        [
          0.19389443214397564,
          -0.09862263634046482,
          0.15137314045659564
        ],
        [
          0.17300324107665954,
          -0.12974921011907195,
          0.02455771555109682
        ],
        [
          0.10291818732454293,
          0.048565092874411464,
          0.06510704205096465
        ]
      ],
      [
        [
          -0.02484699465979798,
          -0.07080590298974633,
          0.06277666142166043
        ],
        [
          0.04174107490383362,
          0.014281819222083101,
          -0.022924551874302392
        ],
        [
          0.1267747675356459,
          0.11849205549093533,
          -0.00976149843822419
        ]
      ],
      [
        [
          -0.01839090624059263,
          -0.08980471087046753,
          -0.06774720962605413
        ],
        [
          -0.018997801057300263,
          -0.018862493850602388,
          -0.0733086511709546
        ],
        [
          0.016205515401424744,
          0.09389570216921188,
          0.0990911823959171
        ]
      ],
      [
        [
          -0.05567551239471516,
          0.022236269453983312,
          -0.06040795973568609
        ],
        [
          -6.422489105033271e-05,
          -0.05196153679469003,
          -0.16133015574925683
        ],
        [
          -0.13933041675043975,
          -0.029512993362757145,
          -0.09369892183459645
        ]
      ],
      [
        [
          -0.12738913285311196,
          -0.044941547142502855,
          -0.06313557119171449
        ],
        [
          -0.020566191912345804,
          0.10036959229200124,
          0.21725023363676416
        ],
        [
          -0.003992902124493167,
          0.11128188116325369,
          0.1753186630288151
        ]
      ],
      [
        [
          -0.046335460909132244,
          0.050741891786433846,
          -0.04200328105805574
        ],
        [
          -0.03630865042026651,
          -0.0085377404665555,
          -0.07406320548414089
        ],
        [
          -0.030774839405524005,
          0.04332597758714882,
          -0.07648551194629706
        ]
      ],
      [
        [
          -0.03253281135024124,
          -0.03087986315128284,
          0.05355670816564578
        ],
        [
          -0.08672133521450526,
          0.1675308344761847,
          0.017907425049053818
        ],
        [
          -0.00577672906844978,
          0.10260772817340713,
          -0.08755211016214243
        ]
      ],
      [
        [
          -0.03214254848508492,
          -0.12001347516004708,
          0.14104969340761683
        ],
        [
          -0.050652274678360226,
          -0.18362928170838114,
          0.2285853846343848
        ],
        [
          0.045026013225875905,
          0.03262628733793289,
          0.17440396799481073
        ]
      ],
      [
        [
          -0.06874901134689254,
          -0.011745169363946205,
          -0.02194305071692955
        ],
        [
          -0.12132215080845986,
          0.010742307053333849,
          0.014000528380541593
        ],
        [
          -0.07504930208309046,
          0.041524250338688756,
          0.03813219419982815
        ]
      ],
      [
        [
          -0.102199785958734,
          -0.06516232390101354,
          0.13761753641153032
        ],
        [
          -0.043972213286046544,
          0.009341703493663433,
          0.10214864754518814
        ],
        [
          0.1324677016579308,
          0.3335399597503983,
          0.23727157257517717
        ]
      ],
      [
        [
          -0.07465245784349572,
          0.1679459257436242,
          -0.02582560035551147
        ],
        [
          -0.03914130361116655,
          0.03371874245024268,
          -0.09764873893969538
        ],
        [
          0.06469016438351582,
          0.2100840122759417,
          0.11863026942395395
        ]
      ],
      [
        [
          -0.03735688194042406,
          -0.18460795762847618,
          -0.3155146441726866
        ],
        [
          -0.24947380675407968,
          -0.28086917816567486,
          -0.18325706192309416
        ],
        [
          0.11498530748597033,
          0.005765363371010657,
          0.01562628023009408
        ]
      ],
      [
        [
          0.04713000722062543,
          -0.1373368959442281,
          -0.1847661283684722
        ],
        [
          -0.20604158629346045,
          -0.07121415185962668,
          -0.06403866273780878
        ],
        [
          -0.12463580453262091,
          0.06385209518944356,
          0.046555274965693595
        ]
      ],
      [
        [
          -0.06303218942402948,
          -0.3527154760059176,
          -0.04389117655505958
        ],
        [
          0.03884891166024921,
          -0.23645560705879923,
          -0.02182865451607657
        ],
        [
          0.14160310868610104,
          -0.11818405399959582,
          -0.16312795222197385
        ]
      ]
    ],
    [
      [
        [
          -0.00037652439493070206,
          -0.06958725536525362,
          -0.12425844630413771
        ],
        [
          0.04719015948917989,
          -0.05325816405000746,
          -0.10544977877537177
        ],
        [
          -0.03361088693038525,
          -0.0654019323463221,
          -0.08887327538958532
        ]
      ],
      [
        [
          0.08529471572798254,
          -0.0772873959918463,
          -0.1339033008584171
        ],
        [
          0.10267111845772875,
          -0.10481970186700855,
          0.015114794377307759
        ],
        [
          0.03614106408636243,
          0.04572142929762079,
          -0.0070311810766039646
        ]
      ],
      [
        [
          0.04472821168893311,
          -0.000452545904467879,
          0.04866947540325865
        ],
        [
          0.08669441758013006,
          -0.005491228404697838,
          0.07640316030473444
        ],
        [
          0.1511208232659056,
          -0.09882858836540216,
          0.10414277342390796
        ]
      ],
      [
        [
          0.0027009808416587956,
          -0.11145156191240506,
          0.13654407233498794
        ],
        [
          0.004230912087163228,
          -0.09705067932818057,
          0.12366145777856942
        ],
        [
          0.13072293088072942,
          -0.08607327721230464,
          0.10172887291652698
        ]
      ],
      [
        [
          -0.1339780827814071,
          0.022153736619020533,
          0.02452517922272067
        ],
        [
          -0.078836550442224,
          -0.08246112479295727,
          -0.0163510651280524
        ],
        [
          0.06456101056608113,
          -0.01595999820812268,
          0.005429061044815876
        ]
      ],
      [
        [
          0.023970358965662526,
          0.06575099414929765,
          -0.21230479276632544
        ],
        [
          0.011422719638891441,
          -0.06123879815890765,
          -0.027851468477248665
        ],
        [
          0.0787603041802736,
          0.04517957402249772,
          -0.03047059891329078
        ]
      ],
      [
        [
          -0.0850381997213914,
          -0.15262399661050524,
          -0.03631646349234748
        ],
        [
          0.009208598955059764,
          0.023057188127270093,
          0.0972391134991627
        ],
        [
          0.006553887418406835,
          -0.034869150138066914,
          -0.030811248315538588
        ]
      ],
      [
        [
          -0.29675284295084126,
          -0.23443369658736524,
          -0.1343953344737797
        ],
        [
          -0.02914229277054825,
          0.01409539916405972,
          0.12933637847442278
        ],
        [
          0.01799645337761129,
          0.036326976044438145,
          0.05944928265959977
        ]
      ],
      [
        [
          -0.24491006101915053,
          -0.08664885579866316,
          -0.022384004792535148
        ],
        [
          -0.28318225556491,
          -0.026129707519612494,
          0.06141889642232381
        ],
        [
          -0.07049032701366195,
          -0.03880617736527206,
          0.0007293128383587842
        ]
      ],
      [
        [
          0.23946291915013967,
          0.01369880642192734,
          -0.11426310148710495
        ],
        [
          0.13699571468355579,
          -0.045319061397220146,
          -0.0836580908524202
        ],
        [
          0.18875150062303608,
          0.007457942770622085,
          0.04277292906020788
        ]
      ],
      [
        [
          -0.1302578958422696,
          -0.21312684014314576,
          -0.10046821635588553
        ],
        [
          0.12872377719140088,
          -0.019879731281927118,
          0.08481123475765057
        ],
        [
          -0.11768795550878901,
          -0.007673821678661704,
          -0.022701545742886516
        ]
      ],
      [
        [
          -0.022772046888766797,
          -0.05215950259533769,
          0.028390144296116228
        ],
        [
          -0.007123537397913146,
          -0.12714844427639055,
          0.11102997692352068
        ],
        [
          0.09365174476815796,
          -0.056103530307626194,
          0.035555787113022735
        ]
      ],
      [
        [
          0.0219693299944596,
          0.08853797430528833,
          0.02684408854558523
        ],
        [
          -0.015070322139451987,
          0.14602556540185363,
          0.10950015282049319
        ],
        [
          -0.09595151445061402,
          0.12366959180195652,
          0.1772686852100883
        ]
      ],
      [
        [
          0.02758799053604175,
          -0.01714576072956066,
          -0.06731507765672957
        ],
        [
          -0.2819055387424051,
          -0.12258640820817783,
          -0.13492631782470976
        ],
        [
          0.08891229453542744,
          0.13100669167022627,
          0.08929026355765417
        ]
      ],
      [
        [
          -0.1048377564203181,
          0.10370066645768622,
          0.08905595303804141
        ],
        [
          0.024061002868052427,
          0.17903873562535652,
          0.2037408931662655
        ],
        [
          0.0077579883583643915,
          -0.03818779084728176,
          0.010391012771099415
        ]
      ],
      [
        [
          0.09995918966241131,
          -0.01891250843927036,
          0.03291846845877466
        ],
        [
          0.13964393688448853,
          0.0177177299476544,
          -0.0011528093963780275
        ],
        [
          0.18393373914645147,
          -0.07383295291730219,
          0.007651753698130035
        ]
      ]
    ],
    [
      [
        [
          0.11762343246562246,
          0.07936627823612259,
          0.0018323250249193666
        ],
        [
          0.057584300052846274,
          0.10879776100333215,
          -0.0851064558479386
        ],
        [
          0.06760283492382373,
          0.07635559997279577,
          -0.06493359984877478
        ]
      ],
      [
        [
          -0.1107664842648405,
          -0.03744776713739075,
          -0.0010737997482452438
        ],
        [
          0.06201143651528386,
          0.15939146967593923,
          -0.0356533306670023
        ],
        [
          -0.005520024987869849,
          0.10017394222269042,
          0.040852325446659864
        ]
      ],
      [
        [
          -0.0634842498728887,
          -0.044154746388589725,
          0.03093814191202567
        ],
        [
          -0.0803569690017505,
          0.025723081240804836,
          -0.09721307048160717
        ],
        [
          -0.09990002548250063,
          -0.032425088262531425,
          -0.1867544406874241
        ]
      ],
      [
        [
          -0.07565361213529204,
          -0.23022828224494557,
          -0.1946076911964836
        ],
        [
          -0.11489840274502747,
          0.01222672496562535,
          -0.10733297740069554
        ],
        [
          -0.08733882433289031,
          0.052757006670945863,
          -0.031217625484360665
        ]
      ],
      [
        [
          0.12009683403257179,
          0.024662965081961016,
          0.012768180260492267
        ],
        [
          0.12123211915096706,
          0.29292611782097333,
          -0.006488746428335675
        ],
        [
          0.09492960268907344,
          0.2524626621270441,
          0.10899650771527379
        ]
      ],
      [
        [
          0.004756459998021868,
          0.07067044032522725,
          0.06868964369794936
        ],
        [
          0.022468502045183445,
          -0.0394152737873969,
          0.07214190454307032
        ],
        [
          0.05603640230117446,
          0.07119300642385606,
          0.026048461708545446
        ]
      ],
      [
        [
          0.034863038226803866,
          -0.1390275834843771,
          0.1231635560948551
        ],
        [
          -0.2577970236769479,
          -0.11235946672895025,
          -0.11516018959608265
        ],
        [
          0.038957939615127786,
          0.009767693264874151,
          0.1707584863779361
        ]
      ],
      [
        [
          0.08596198640984806,
          0.14323499446163734,
          0.03950173662095551
        ],
        [
          -0.10041426489411054,
          -0.20218581873544028,
          0.11191885203995565
        ],
        [
          0.08330304288463491,
          -0.021780467786909778,
          -0.024139804164518816
        ]
      ],
      [
        [
          -0.028321290067363784,
          0.15515206807999293,
          -0.02090074712194546
        ],
        [
          0.2155801681927221,
          -0.2511441150213312,
          -0.1055409666146899
        ],
        [
          0.07442548419770781,
          0.16638478981006752,
          -0.10692727667330672
        ]
      ],
      [
        [
          -0.18591250743175813,
          -0.00945015560049201,
          0.06618451974022964
        ],
        [
          -0.02191596077704919,
          0.1177337548234798,
          0.011318995989996078
        ],
        [
          0.03884210531388523,
          0.18095311672940992,
          0.01901623985787063
        ]
      ],
      [
        [
          0.01605522506468288,
          0.13447087802259416,
          -0.14003285581442093
        ],
        [
          -0.2416162545998023,
          -0.014402282220838553,
          0.06817311646959909
        ],
        [
          0.07889041484451656,
          -0.02229941339514692,
          0.02327934910815626
        ]
      ],
      [
        [
          -0.20477350232694486,
          -0.12089021466023335,
          -0.21629477128843982
        ],
        [
          0.00493902001108477,
          -0.17324919055450966,
          -0.1173922666812829
        ],
        [
          -0.14679632158167116,
          0.04108739587038176,
          -0.16757889438377815
        ]
      ],
      [
        [
          -0.02500087587561089,
          -0.09966387362319801,
          -0.10102899924431762
        ],
        [
          -0.11623122589441931,
          -0.24684281793241858,
          -0.05883762597314466
        ],
        [
          -0.09076934752251076,
          -0.33113818941464795,
          -0.18482393686107998
        ]
      ],
      [
        [
          -0.02958788864680737,
          0.034850812863584595,
          0.0025475052890977816
        ],
        [
          0.1865452438227998,
          -0.13345529236381035,
          -0.11016913013690441
        ],
        [
          0.020053014638143657,
          0.17873346624541803,
          0.12231875787355138
        ]
      ],
      [
        [
          -0.019698816765143855,
          -0.15088782306089377,
          0.017377944692205233
        ],
        [
          -0.026667754914459517,
          -0.031568299184646,
          -0.10019153528741419
        ],
        [
          0.12944575414347798,
          -0.027840683117809413,
          -0.08194433013196259
        ]
      ],
      [
        [
          -0.0046343001626451726,
          0.10302016549501995,
          0.03896517128719051
        ],
        [
          -0.0575925798395821,
          0.0524391388524394,
          0.1181283985348015
        ],
        [
          0.1485005960534328,
          -0.00900055388391541,
          0.03984144234785228
        ]
      ]
    ],
    [
      [
        [
          0.1415115555318178,
          0.17260100411357826,
          -0.037417492227483945
        ],
        [
          0.18128807786534143,
          0.01750202881177918,
          -0.08994233021732174
        ],
        [
          0.05783217239610882,
          0.07016854552879476,
          -0.045779362645121995
        ]
      ],
      [
        [
          0.0978315040563394,
          0.024573090386142433,
          0.04550508432942038
        ],
        [
          0.12734409078216896,
          -0.01589989312613692,
          -0.09544609428715463
        ],
        [
          -0.03836114475204994,
          -0.013852691730339945,
          -0.010903246099097454
        ]
      ],
      [
        [
          0.024363960860938984,
          0.06810729563419285,
          0.024425742350248195
        ],
        [
          0.10978468554620228,
          -0.035744174742648606,
          0.09864504959900597
        ],
        [
          0.020367515665059573,
          -0.08404517095990346,
          0.11487236273612554
        ]
      ],
      [
        [
          0.14651739279416418,
          0.015225813241498083,
          0.04314348209837191
        ],
        [
          0.10378563846398373,
          -0.09896225953734916,
          -0.010063735036837999
        ],
        [
          -0.04755737607728524,
          -0.04459822096203287,
          -0.08940226261894423
        ]
      ],
      [
        [
          -0.15300494530942485,
          -0.07914031446030607,
          -0.07599952540283263
        ],
        [
          -0.21861226034643985,
          -0.12350919916533458,
          -0.005574004874557234
        ],
        [
          -0.06429450264743602,
          -0.18516191491245468,
          -0.1096691668084688
        ]
      ],
      [
        [
          -0.035144276610730225,
          -0.03443809386750776,
          0.017931973678756367
        ],
        [
          -0.09348923339255022,
          0.06276242989537446,
          -0.06780182465762047
        ],
        [
          0.09599592722592362,
          0.07921242325478256,
          0.05740121725698793
        ]
      ],
      [
        [
          -0.10393313826359253,
          0.025784535651065806,
          -0.03596285607981507
        ],
        [
          -0.013275992360202146,
          0.20768310161373424,
          -0.14603630818426652
        ],
        [
          0.14539246514916895,
          0.06537703823436306,
          -0.11222157326992269
        ]
      ],
      [
        [
          -0.1542631976634768,
          -0.20962417985400428,
          -0.11770470943398831
        ],
        [
          -0.04573934175917224,
          0.055309730974668375,
          -0.08679189219619862
        ],
        [
          -0.0333805530004817,
          0.10068220667683733,
          -0.001614638082650755
        ]
      ],
      [
        [
          -0.11072147338380205,
          -0.22356034380452716,
          -0.2094457792048891
        ],
        [
          -0.08088283775885223,
          -0.25535684508770656,
          0.17142228958341807
        ],
        [
          -0.28027825765953596,
          -0.002235779091221079,
          0.11105460616690768
        ]
      ],
      [
        [
          0.016714579166816075,
          -0.033887584205902974,
          -0.020853909238448775
        ],
        [
          0.12254741607512937,
          -0.14856851158135811,
          -0.04649763178929748
        ],
        [
          -0.027845561296724018,
          -0.12364014192016895,
          -0.08073859908532821
        ]
      ],
      [
        [
          -0.12078644304145005,
          -0.23634109969364658,
          -0.2047367428748173
        ],
        [
          -0.07364296920955196,
          0.11722604758464646,
          0.017078241834378727
        ],
        [
          0.0013031172136032936,
          0.11305655798045625,
          0.03962807948865977
        ]
      ],
      [
        [
          0.08231116667050714,
          0.1847520894528388,
          -0.2041967829685689
        ],
        [
          0.3213496309672655,
          0.03855622364006529,
          0.03558961666089962
        ],
        [
          0.03219120772283288,
          -0.07792596369049895,
          0.08027729652888757
        ]
      ],
      [
        [
          0.18009706575578288,
          -0.12521644902840956,
          -0.06290017141844705
        ],
        [
          -0.010955364852994347,
          -0.034470946499971046,
          -0.02000436032998637
        ],
        [
          0.0009009540367495724,
          0.2197908254122825,
          -0.07149365792497493
        ]
      ],
      [
        [
          -0.11478663489306387,
          0.08515152519727028,
          0.02647710130664184
        ],
        [
          0.06243640350439127,
          0.001125124129120677,
          -0.06905098982903018
        ],
        [
          0.047921765771655515,
          0.11087932093939348,
          -0.11058784611923776
        ]
      ],
      [
        [
          -0.0849462938197519,
          -0.13055629778081349,
          0.0663172603909338
        ],
        [
          -0.13006728358249636,
          0.03288903441060253,
          -0.06115962995853123
        ],
        [
          -0.06068279756550943,
          0.07812850838833738,
          -0.13367070635816033
        ]
      ],
      [
        [
          -0.04484126086392753,
          0.06365695071264643,
          -0.11610340409767837
        ],
        [
          0.03996592357168565,
          0.028062906537190516,
          -0.015010377296048103
        ],
        [
          0.16658504649417435,
          0.007348971502427112,
          0.014419143866358649
        ]
      ]
    ],
    [
      [
        [
          -0.07975674950238101,
          -0.27509385757492144,
          0.06097708927045805
        ],
        [
          -0.05896195561873656,
          -0.059842889884378005,
          0.2108376778058392
        ],
        [
          -0.06256695501646924,
          -0.059319303824375065,
          0.06706677622084992
        ]
      ],
      [
        [
          0.09779807063432296,
          0.02253479336416755,
          0.05220717924904758
        ],
        [
          0.14574228217431862,
          -0.054526637363459,
          -0.09466054622604543
        ],
        [
          0.02119543755169403,
          -0.030840057184255542,
          -0.03268291874381225
        ]
      ],
      [
        [
          0.09015742537650821,
          0.04787268365625534,
          0.10463616666762518
        ],
        [
          -0.03592426774296648,
          0.09756920101489368,
          0.14227257373150953
        ],
        [
          0.017695740857256694,
          0.03931656237670348,
          -0.09494079138257376
        ]
      ],
      [
        [
          -0.030196182004913787,
          -0.08205668176063814,
          0.02212001927522753
        ],
        [
          -0.07927988305374895,
          -0.035567597736605144,
          0.06445133091150039
        ],
        [
          0.024662705486883107,
          -0.055310473844408604,
          0.044483921704000805
        ]
      ],
      [
        [
          -0.083321382654992,
          0.008027991437988827,
          -0.0621215396901102
        ],
        [
          0.10339856423228685,
          -0.011978352409549045,
          0.1235634053170583
        ],
        [
          0.10872229438466766,
          0.051434365619104624,
          0.007336348488297879
        ]
      ],
      [
        [
          9.433136385194106e-05,
          0.04596078710640386,
          0.025713928794443126
        ],
        [
          0.06416527353422428,
          -0.06312631538434925,
          -0.023740349858796434
        ],
        [
          -0.052512315389860384,
          -0.00489841431447764,
          0.018236494309572363
        ]
      ],
      [
        [
          0.08494935678563464,
          0.10044960193951412,
          -0.025899241308913863
        ],
        [
          0.06568477883260601,
          -0.02579669804095926,
          -0.10349104869826604
        ],
        [
          0.04939009099722393,
          -0.02719364348906724,
          0.006027346750572318
        ]
      ],
      [
        [
          -0.0264655115971566,
          -0.1893245539776125,
          -0.15004544841387357
        ],
        [
          0.014552026825029514,
          -0.10152440984225639,
          -0.07947898001718971
        ],
        [
          0.0933186311285176,
          0.062040239759511395,
          0.01953837812828142
        ]
      ],
      [
        [
          0.14376830067180937,
          0.03509569769306817,
          0.008726975971039266
        ],
        [
          -0.028317909394442703,
          0.1998147311844336,
          0.11731470737143308
        ],
        [
          0.10330972939620302,
          0.10722092166953842,
          0.07188743955928535
        ]
      ],
      [
        [
          0.030581887671619935,
          -0.005618147814829662,
          0.002929630227121847
        ],
        [
          0.030308299319522426,
          -0.04269540775184398,
          0.010890906263149876
        ],
        [
          0.040601805941826975,
          -0.07144641332703132,
          -0.008833043971908396
        ]
      ],
      [
        [
          -0.08348211641885057,
          -0.2647430032921732,
          0.0226425529363742
        ],
        [
          -0.025101781239322232,
          -0.003943056282421762,
          -0.17396800727189127
        ],
        [
          0.03754937483594013,
          -0.040300610798254886,
          -0.10003134358030806
        ]
      ],
      [
        [
          -0.1216296282096438,
          -0.31246125164481364,
          -0.16051462258836402
        ],
        [
          -0.1134344860770903,
          0.08943804118410868,
          0.044548847075165
        ],
        [
          0.059416752297619876,
          0.12289442433159536,
          -0.02767332511585326
        ]
      ],
      [
        [
          -0.19017326005649032,
          -0.18680595698897112,
          -0.14258685428990106
        ],
        [
          -0.09501030502823257,
          -0.03730441405322698,
          -0.047873942983395465
        ],
        [
          -0.17244568118680256,
          -0.13253540077620815,
          -0.006784955438778297
        ]
      ],
      [
        [
          0.05600694839195276,
          0.05268552763306944,
          -0.07290647377968802
        ],
        [
          -0.024415988166951612,
          -0.13423576158094983,
          -0.039037924810390714
        ],
        [
          0.07762235200896202,
          0.08040755893113573,
          -0.0352400394285987
        ]
      ],
      [
        [
          -0.09109647496623384,
          0.0945354654560326,
          -0.015159302766891043
        ],
        [
          -0.044647335535538256,
          0.024499092421714982,
          -0.08631139338854416
        ],
        [
          -0.022271088586197658,
          -0.13065300544534733,
          -0.15113034080586785
        ]
      ],
      [
        [
          -0.04181953447221511,
          -0.056966382904279196,
          0.13389037045828509
        ],
        [
          0.10551746536317437,
          -0.13018164318537848,
          0.08759879095028371
        ],
        [
          -0.05520674928910477,
          -0.10743597944692847,
          -0.0685726742292159
        ]
      ]
    ],
    [
      [
        [
          -0.06859416327865897,
          -0.13249011442009206,
          0.004656021093182707
        ],
        [
          -0.0530058552543169,
          0.01379199439614563,
          0.008404134473724368
        ],
        [
          -0.09510749089657797,
          -0.054941191055519076,
          -0.055943854984993616
        ]
      ],
      [
        [
          0.12496935257170458,
          0.12266400686222574,
          0.03657073301323508
        ],
        [
          -0.030631133952887066,
          -0.002070709763379175,
          0.11889493323402457
        ],
        [
          0.03857225781384297,
          -0.05243447395972156,
          0.040288524029615184
        ]
      ],
      [
        [
          -0.07428606899118877,
          0.08018563204548942,
          0.0969447497886375
        ],
        [
          0.07490129560877642,
          0.1117744740326991,
          -0.027595365260739618
        ],
        [
          0.11821253454033977,
          0.09264901246123126,
          0.004701632655434971
        ]
      ],
      [
        [
          -0.0720101675088786,
          0.0802714869406995,
          -0.06811671675213272
        ],
        [
          0.08960254765630016,
          -0.03501447778271251,
          -0.03594695898300641
        ],
        [
          -0.07914908428577971,
          -0.05555738247677251,
          -0.21420254656703402
        ]
      ],
      [
        [
          0.04678135739901528,
          0.04606579242274514,
          -0.05278113362289324
        ],
        [
          0.04575325145642956,
          -0.03256570848398771,
          0.038096851681095945
        ],
        [
          -0.04747167181898292,
          -0.036190675655731704,
          0.03533351873771816
        ]
      ],
      [
        [
          0.14048876359119597,
          -0.07290706992354348,
          0.018657978711847285
        ],
        [
          -0.08395226187999248,
          -0.04887072385411973,
          0.03127248227386004
        ],
        [
          -0.0905555158539553,
          -0.030565089904415862,
          0.13445365103919446
        ]
      ],
      [
        [
          0.05274051337392442,
          -0.10088879913101934,
          0.03746757083044947
        ],
        [
          -0.07412892633222697,
          0.06893313387797093,
          0.13208775013251436
        ],
        [
          -0.0710660934796604,
          -0.029912684163873656,
          0.13636977871285427
        ]
      ],
      [
        [
          -0.041073071691896466,
          -0.2394628036330884,
          -0.21450882313524272
        ],
        [
          -0.20946628491743255,
          -0.28829692616930774,
          -0.15157090443170324
        ],
        [
          -0.30166395066744167,
          -0.20816899158280416,
          -0.05628328097733022
        ]
      ],
      [
        [
          0.1392052396997359,
          0.06453207462497806,
          -0.06157378143134037
        ],
        [
          -0.04061608973262685,
          -0.009109475739368532,
          -0.1807101295665913
        ],
        [
          -0.02492600796317502,
          -0.06962513400435516,
          -0.05376379992610205
        ]
      ],
      [
        [
          -0.08755211454446706,
          -0.08160545648117487,
          0.0014483733729800104
        ],
        [
          -0.00562800600191107,
          -0.01342549762674347,
          -0.024803604226898573
        ],
        [
          -0.007404904363145025,
          -0.09228335139693368,
          0.0031459011144316248
        ]
      ],
      [
        [
          0.1681684206840903,
          -0.2201480990768462,
          -0.07348095262792026
        ],
        [
          -0.11715744848119652,
          -0.434789820146967,
          -0.09006245731635149
        ],
        [
          -0.4305310916744681,
          -0.2507951979344577,
          -0.031807334838629235
        ]
      ],
      [
        [
          0.08502879981497628,
          -0.06801096442334488,
          0.0021259632749056874
        ],
        [
          0.045307967019732616,
          -0.06410158672609308,
          -0.06407702232938137
        ],
        [
          -0.08219280994824978,
          -0.10871871401766933,
          -0.10334109680263207
        ]
      ],
      [
        [
          0.2513575516985883,
          0.10684059611381529,
          -0.1600917598234685
        ],
        [
          -0.03797644111221492,
          -0.05980402612950842,
          -0.1636842122090503
        ],
        [
          -0.12442324006538875,
          -0.22128523891524218,
          -0.08101463046450325
        ]
      ],
      [
        [
          -0.2401733599139849,
          -0.15324031196541765,
          -0.09212630040091191
        ],
        [
          -0.12531408714212414,
          -0.06565448255540882,
          -0.1367229887265762
        ],
        [
          -0.07899763045612965,
          0.028384791446201506,
          -0.03350385598303821
        ]
      ],
      [
        [
          -0.168520483847741,
          -0.14701567544821015,
          0.05356527072798361
        ],
        [
          -0.22080403758035982,
          0.0854520031448317,
          0.20946108765247726
        ],
        [
          -0.25197004017405605,
          0.05311900073705603,
          0.05793862916780852
        ]
      ],
      [
        [
          0.06439621205435139,
          -0.006536370265845813,
          0.0008334595127682084
        ],
        [
          0.02255054228140255,
          -0.0406899212395055,
          0.09894813601718636
        ],
        [
          -0.00780772105718558,
          0.05758273894570072,
          -0.029322091100588452
        ]
      ]
    ],
    [
      [
        [
          0.26678019458413205,
          0.012580192211870317,
          -0.13045451541806966
        ],
        [
          0.0184214596041977,
          -0.173655513018787,
          -0.07134736944387607
        ],
        [
          -0.015007965120066627,
          -0.214440096337831,
          0.06294538018981546
        ]
      ],
      [
        [
          -0.06010189284497011,
          -0.0038715856310341536,
          -0.09632583696041774
        ],
        [
          0.0538319490212857,
          -0.007629786158620611,
          -0.037814647005055595
        ],
        [
          -0.06681451883179801,
          0.06250679718822828,
          0.10839902072185834
        ]
      ],
      [
        [
          0.22857625308656196,
          -0.025233873924650242,
          -0.028405767230026528
        ],
        [
          0.08265682440056506,
          0.04395050797430488,
          0.04085643285776575
        ],
        [
          0.11318299121297587,
          -0.005164752778037933,
          -0.022615047255860485
        ]
      ],
      [
        [
          0.04657066456509407,
          -0.034741140935134786,
          -0.03286064247675909
        ],
        [
          -0.061935323645098975,
          0.005635128993945519,
          0.012155915373411742
        ],
        [
          0.060339214785037835,
          -0.06518750072801878,
          0.03485561179078679
        ]
      ],
      [
        [
          -0.11187838283984176,
          -0.13094337219298552,
          -0.0020624908536105682
        ],
        [
          -0.16989473430601865,
          -0.16987713006078708,
          -0.23131938317578962
        ],
        [
          -0.21143029861628154,
          -0.10543688390768743,
          -0.20687950520005102
        ]
      ],
      [
        [
          -0.13717055867820796,
          -0.001632012977479805,
          0.005519684528723611
        ],
        [
          0.0742496152471857,
          0.02021293223143545,
          0.01726435713240954
        ],
        [
          0.05374385792356633,
          0.02672855152037102,
          0.02567010545885928
        ]
      ],
      [
        [
          0.0332134025561424,
          0.06366457383075666,
          0.07193669767319877
        ],
        [
          0.10499160974341487,
          -0.009445588031934626,
          -0.05242606304850162
        ],
        [
          -0.006380624554756108,
          0.0087850227358012,
          -0.030703721679196442
        ]
      ],
      [
        [
          0.07286108076964505,
          -0.15810949368987737,
          -0.10789607641948021
        ],
        [
          -0.0023562196317251398,
          0.026396539422519745,
          0.02841344877457546
        ],
        [
          -0.09878188232362349,
          -0.18955568113557075,
          -0.2319373507100798
        ]
      ],
      [
        [
          0.1322053901096594,
          -0.06829032238242781,
          -0.056338437722323505
        ],
        [
          -0.04384540711036969,
          -0.05741546225206011,
          0.19222604601531393
        ],
        [
          0.08293083376643991,
          -0.08700104001470284,
          -0.03633363570809265
        ]
      ],
      [
        [
          0.013088499842909537,
          0.06138039204746381,
          0.0006666205752481664
        ],
        [
          0.026819204319023505,
          0.004699924309367402,
          -0.11149037644588028
        ],
        [
          -0.0022363132912176812,
          -0.049462913256977416,
          -0.13883374242546914
        ]
      ],
      [
        [
          -0.1693281924353616,
          -0.2268425290883055,
          0.025175938071349015
        ],
        [
          -0.20249130737048696,
          -0.16502745950040193,
          -0.18410803469358844
        ],
        [
          -0.05151823518125811,
          -0.1477586916893504,
          -0.12232250591313773
        ]
      ],
      [
        [
          0.26739538898172704,
          0.007740113160710923,
          0.08717940214390055
        ],
        [
          0.0266774893111509,
          0.011528048054002234,
          0.1048713502974782
        ],
        [
          0.0075930374072061485,
          -0.027060060891675935,
          -0.11513298597031527
        ]
      ],
      [
        [
          0.31161596272609443,
          0.13436093045673186,
          0.21784341830235643
        ],
        [
          0.21401676299860772,
          0.2047069089719779,
          0.035655147943892775
        ],
        [
          0.07773326076551271,
          0.11194966441945395,
          0.13880448285534971
        ]
      ],
      [
        [
          0.13950356134890773,
          -0.005596631834963205,
          -0.10020241246125762
        ],
        [
          -0.001050834091716223,
          -0.19286387564584828,
          -0.0006354946782135505
        ],
        [
          -0.13466890994235367,
          -0.24143331553662634,
          -0.25939076031879543
        ]
      ],
      [
        [
          0.12658336403286918,
          -0.11795318377826701,
          0.0358481433084244
        ],
        [
          0.04204104704214382,
          -0.052485638170380176,
          -0.009246782303097584
        ],
        [
          0.04204919375121553,
          -0.10952645869938002,
          0.05632196805984881
        ]
      ],
      [
        [
          0.13796359620232032,
          0.013979059660180404,
          -0.11893371396817003
        ],
        [
          0.14153546218913465,
          -0.08733353812287233,
          -0.04550813378515986
        ],
        [
          0.14904535689190487,
          -0.14954053880230617,
          -0.0219015864126359
        ]
      ]
    ],
    [
      [
        [
          0.018992149417658748,
          0.11841722935567468,
          0.04446969619401297
        ],
        [
          0.16526900139693654,
          0.23691401554717917,
          0.08141124560705061
        ],
        [
          0.07497172405263527,
          -0.021217381275109158,
          -0.08908556433983476
        ]
      ],
      [
        [
          -0.018791073087557373,
          -0.04110999967025684,
          0.014196231331625018
        ],
        [
          -0.2517110045524855,
          0.024753092067981233,
          0.06935117923280687
        ],
        [
          -0.10530726145532353,
          0.17455748844500682,
          0.2838465970057035
        ]
      ],
      [
        [
          -0.06918108933639071,
          0.09594383031658243,
          0.05152534994316554
        ],
        [
          -0.14792140574099746,
          0.12339431879093024,
          0.02315094856199475
        ],
        [
          -0.09376697127256242,
          -0.05512378826544685,
          0.03580592673393726
        ]
      ],
      [
        [
          0.03089676598836878,
          0.03536920236783943,
          0.002347181563067538
        ],
        [
          -0.02658427613227775,
          -0.07422822538470002,
          -0.036173268885543744
        ],
        [
          0.02375607963947622,
          -0.007896291218671478,
          -0.06481768342104023
        ]
      ],
      [
        [
          0.0245584720299798,
          0.045712073620863866,
          -0.12183753393282626
        ],
        [
          -0.04135536748024584,
          -0.22203282176627176,
          -0.12070656373486001
        ],
        [
          0.07539592434782372,
          -0.06610110300094113,
          -0.00837366113413255
        ]
      ],
      [
        [
          -0.13050716667629267,
          -0.02267101333114414,
          0.08069527514453445
        ],
        [
          -0.061346504090443614,
          -0.024019374569166526,
          0.17183170625565058
        ],
        [
          -0.015219025469073591,
          0.1479976123765942,
          0.1285575593645355
        ]
      ],
      [
        [
          0.11332236237728877,
          0.09041980745751174,
          0.06310280360796784
        ],
        [
          -0.0978486909316454,
          0.12133452913124942,
          0.22523368110753447
        ],
        [
          -0.037574543914379664,
          0.11964514230406913,
          -0.004415208132862647
        ]
      ],
      [
        [
          -0.08946184283509936,
          -0.09262216081326552,
          -0.20294453248506497
        ],
        [
          0.12150738193191818,
          0.15178005753622717,
          0.10324396730490941
        ],
        [
          0.05693775074902852,
          0.01946739418422474,
          -0.13431404014198095
        ]
      ],
      [
        [
          0.010744496397930412,
          0.020139800765675342,
          0.031120132141704653
        ],
        [
          -0.07145472206999934,
          -0.09321595388780637,
          -0.05923274613489641
        ],
        [
          -0.20233657519670076,
          -0.07325984759935085,
          0.07904729568437316
        ]
      ],
      [
        [
          -0.4727206851217636,
          -0.2622363719947484,
          -0.15476143750445046
        ],
        [
          -0.33697358855547754,
          -0.052230969685695086,
          -0.05793813512846603
        ],
        [
          -0.060019600685543587,
          0.14328985746841028,
          0.20154256002644855
        ]
      ],
      [
        [
          0.13208641687410227,
          0.07511804993726842,
          -0.1310069504692137
        ],
        [
          -0.0818266621755493,
          -0.07341320980570058,
          0.12187610697401777
        ],
        [
          0.030282821028254307,
          -0.09724099862974227,
          -0.10946320771276419
        ]
      ],
      [
        [
          0.02310917864843563,
          0.04040022407954753,
          -0.024496869485018658
        ],
        [
          0.08976939990815673,
          0.05725221907858527,
          0.03070674641383047
        ],
        [
          0.03184260805089529,
          -0.027145769905102056,
          0.17313025616480351
        ]
      ],
      [
        [
          0.05042373799883517,
          0.017934701501173912,
          -0.11219561435265081
        ],
        [
          0.09563009567308693,
          -0.16344932651052158,
          -0.06706124263629579
        ],
        [
          -0.026906126315225907,
          0.018271068891723155,
          0.03893037948114024
        ]
      ],
      [
        [
          -0.03204348802672741,
          -0.10083575743432888,
          0.10981554083276288
        ],
        [
          -0.1120550396542119,
          -0.09385727946885045,
          0.05857506730080743
        ],
        [
          0.03769405054372999,
          0.08596018315400607,
          -0.031807759879674165
        ]
      ],
      [
        [
          -0.038552880763982826,
          0.019346560823107973,
          -0.009335069503586193
        ],
        [
          0.0802271530530442,
          0.03192909139144828,
          -0.03581791418979627
        ],
        [
          -0.04878614056641493,
          -0.16129743374643266,
          -0.1908994456657675
        ]
      ],
      [
        [
          0.030407425026853455,
          -0.10580174193217072,
          -0.06648280449270891
        ],
        [
          -0.34493517039746363,
          -0.12478923234650821,
          -0.03557871477357918
        ],
        [
          -0.08877803932177598,
          -0.1054588131378473,
          -0.021148296273033426
        ]
      ]
    ],
    [
      [
        [
          0.03439179027592184,
          0.06879847712764858,
          0.14347989734437597
        ],
        [
          -0.0768901796400409,
          -0.13017297794570737,
          0.02742232923196995
        ],
        [
          -0.030702027687849763,
          -0.11115661326800191,
          0.10810674214589532
        ]
      ],
      [
        [
          0.16024473015891172,
          -0.013817157099980219,
          -0.021538055805505076
        ],
        [
          0.11048448742913052,
          0.09193587746780972,
          -0.06825406828602329
        ],
        [
          0.08007240383713442,
          0.04485101093010941,
          -0.09244389820028717
        ]
      ],
      [
        [
          0.06795034944649202,
          -0.010134346603108196,
          -0.0943316230220824
        ],
        [
          0.034153339213534,
          0.01637133566014554,
          -0.04284348748158636
        ],
        [
          0.030336306158288754,
          -0.10335619693662808,
          -0.06278482489553718
        ]
      ],
      [
        [
          0.03575892414933736,
          0.022045935378707825,
          -0.09915585251349579
        ],
        [
          0.09481664523703578,
          -0.00887786887128799,
          -0.12525055670140098
        ],
        [
          -0.18087695591952,
          -0.11245954362013029,
          -0.021129779555023907
        ]
      ],
      [
        [
          0.03629906659778274,
          0.08209918778169678,
          0.08435647064802203
        ],
        [
          0.017935583055286995,
          0.19548202554675895,
          0.240903659997776
        ],
        [
          -0.16324000554010265,
          -0.1404457447956595,
          0.1289998095067901
        ]
      ],
      [
        [
          0.04123047939103668,
          0.05406728552334066,
          0.04524046667781743
        ],
        [
          -0.112068750044292,
          -0.009144036255070721,
          0.027140881721026987
        ],
        [
          0.04710004156814844,
          -0.044737801148226154,
          0.06646401374391987
        ]
      ],
      [
        [
          -0.08819484600683931,
          -0.015589242417643501,
          0.12802285136726793
        ],
        [
          -0.165267009911866,
          -0.00510368229251071,
          -0.034646834465332114
        ],
        [
          -0.10662214074843186,
          -0.07787032466713317,
          -0.08565006947824629
        ]
      ],
      [
        [
          0.0725836042167869,
          0.11305061507456067,
          0.10813195731548074
        ],
        [
          -0.14310519110285036,
          -0.044061999127345944,
          0.13880152876184812
        ],
        [
          -0.3246845511278608,
          -0.29065605843502107,
          -0.010606622111574322
        ]
      ],
      [
        [
          0.19331768075962003,
          0.09570624286662349,
          0.07121084174578322
        ],
        [
          0.012164018139172342,
          -0.10869475100749806,
          0.1396869984983851
        ],
        [
          -0.08931675194199026,
          -0.10068257234641535,
          -0.0416479571449848
        ]
      ],
      [
        [
          -0.031332622150430894,
          -0.13357516076639508,
          -0.11107036935959569
        ],
        [
          0.07753286012081102,
          -0.0974386631775904,
          -0.17817770829646948
        ],
        [
          0.06983433873599236,
          -0.14068618759121712,
          -0.06634615088688182
        ]
      ],
      [
        [
          -0.026280570121266958,
          0.10428399014550678,
          0.08888407920668868
        ],
        [
          -0.1491778678939302,
          -0.025257597741275478,
          0.25356571446712933
        ],
        [
          -0.15861797554895313,
          -0.2463082719949192,
          0.14886293896109148
        ]
      ],
      [
        [
          0.13691397802781902,
          -0.04296708738521709,
          -0.184571592130669
        ],
        [
          0.07852116037714514,
          -0.3512112800360429,
          -0.2833623873122721
        ],
        [
          -0.15949515812120696,
          -0.1633082690157752,
          -0.29012665107038277
        ]
      ],
      [
        [
          0.1621447086264734,
          -0.04621785230701622,
          -0.10530195757351604
        ],
        [
          -0.12617798852742804,
          -0.10058568781150061,
          -0.024309552945135697
        ],
        [
          -0.19170443247335123,
          -0.24544905597994474,
          -0.09087957883142349
        ]
      ],
      [
        [
          -0.12791269587734974,
          0.07037038640773956,
          0.13434565626957476
        ],
        [
          0.013080708003389094,
          -0.07224013745564274,
          0.19581397324486433
        ],
        [
          -0.04885527584750837,
          -0.11861924387615107,
          -0.05094761636304907
        ]
      ],
      [
        [
          -0.013069298535378063,
          0.08064130244029681,
          0.2557718514472034
        ],
        [
          -0.17534126042559373,
          -0.061207658662232496,
          0.07302256712740807
        ],
        [
          -0.007511588560146655,
          -0.06441432384071753,
          0.033372494965215244
        ]
      ],
      [
        [
          0.011099148327383608,
          0.02715248277334224,
          0.015046330011411852
        ],
        [
          -0.03933218635311038,
          0.1196862365673018,
          0.1484783359934338
        ],
        [
          0.03778639716381062,
          -0.10828493580474405,
          0.12100434063640311
        ]
      ]
    ],
    [
      [
        [
          -0.08649551663207478,
          -0.12291523801876492,
          -0.047443539393317705
        ],
        [
          -0.003833381560691447,
          0.05323403500560484,
          0.02522402557652224
        ],
        [
          0.040476637466016964,
          -0.01843383397595113,
          -0.05848026793336034
        ]
      ],
      [
        [
          0.10000882119844452,
          0.24073430743751897,
          0.1629388017937409
        ],
        [
          -0.05409351702548093,
          0.1701608699641416,
          -0.012811032997474402
        ],
        [
          -0.23074348853426901,
          -0.08084371710719164,
          -0.15852692340449798
        ]
      ],
      [
        [
          -0.04369726934773907,
          -0.0679412298370462,
          0.11724341278564847
        ],
        [
          0.09858139514305274,
          -0.15279864173999352,
          0.03884620506458483
        ],
        [
          0.041775302120142487,
          -0.0048316140705583635,
          -0.18706340657283643
        ]
      ],
      [
        [
          -0.13629689380117926,
          -0.16238643050050508,
          -0.028873966830422378
        ],
        [
          -0.026662565060235448,
          -0.10614869008822107,
          -0.14610211170873388
        ],
        [
          0.007369472474999292,
          0.014896062762798812,
          -0.025340204092667344
        ]
      ],
      [
        [
          -0.101040043208325,
          0.013122475248390076,
          -0.0651269692990672
        ],
        [
          0.10081035180034477,
          -0.0059993860048171204,
          0.00702237494048604
        ],
        [
          0.01594024171124319,
          0.12987215841342253,
          -0.02980760022862502
        ]
      ],
      [
        [
          0.0015253134768872373,
          0.009722604265027752,
          -0.06427758509012174
        ],
        [
          -0.030903572603162476,
          0.12359317600318268,
          -0.012134420203819387
        ],
        [
          0.059673638337888094,
          0.15486670448773474,
          0.030942352996529275
        ]
      ],
      [
        [
          -0.1446200649825284,
          -0.11156872093030049,
          -0.01556677412608732
        ],
        [
          -0.05509552195122264,
          0.054527056657137786,
          -0.12097059663414558
        ],
        [
          0.03225029784549682,
          0.03181092055904696,
          0.07238024422470345
        ]
      ],
      [
        [
          -0.0663744081317964,
          -0.10131644373560743,
          0.017998611204942245
        ],
        [
          0.03324512581569024,
          -0.10048101774892051,
          -0.17103199341943598
        ],
        [
          0.032318470509711796,
          0.05205208529783873,
          0.025674254648272332
        ]
      ],
      [
        [
          -0.07045111780113944,
          -0.2267080694838882,
          -0.015861593424510188
        ],
        [
          -0.049213423481134805,
          0.09136692346068867,
          -0.04068029396319934
        ],
        [
          -0.08856007895269456,
          0.0712586019526888,
          -0.08035719449530121
        ]
      ],
      [
        [
          0.12215160387702068,
          0.07985916844602407,
          0.0009752546535149718
        ],
        [
          0.020868250822641196,
          0.028318095286514546,
          0.021121432804765545
        ],
        [
          -0.12588539361342915,
          -0.10858163273866338,
          -0.16651515661945898
        ]
      ],
      [
        [
          -0.09971107181333633,
          -0.35175656855121,
          -0.2001543078638739
        ],
        [
          0.12788513433195647,
          -0.04411316558298684,
          -0.05671292406071113
        ],
        [
          -0.005944834552854053,
          0.05102682582439303,
          0.05240443987331239
        ]
      ],
      [
        [
          -0.011057091289509963,
          -0.12007583853420924,
          0.07366730164025652
        ],
        [
          0.001960495286059672,
          0.14845458427853975,
          0.16943913197500163
        ],
        [
          -0.012617745911754217,
          0.11114490091351927,
          -0.0762967903914092
        ]
      ],
      [
        [
          0.018247385716209825,
          -0.09267153476341748,
          -0.010574668336765245
        ],
        [
          -0.043782573061996295,
          -0.015224116282674265,
          0.1839780945713822
        ],
        [
          0.10058077040443858,
          0.008465507395738403,
          0.04507820534071531
        ]
      ],
      [
        [
          0.043300148744169535,
          -0.08845247478120043,
          0.07358818475488778
        ],
        [
          -0.0746485893914776,
          -0.08995866965744308,
          -0.08920294864105686
        ],
        [
          -0.16166150991912243,
          -0.06956152494159176,
          -0.055550770418871076
        ]
      ],
      [
        [
          -0.1255446731982411,
          -0.046892418639766675,
          -0.06556041965618531
        ],
        [
          0.00212767991409381,
          0.048287068916187614,
          0.07264552031666148
        ],
        [
          0.068864547962666,
          -0.06428619407533412,
          -0.024212752265388136
        ]
      ],
      [
        [
          0.05371311037210482,
          -0.04026393710832172,
          0.01785227721258921
        ],
        [
          0.11047376745443899,
          0.03573093515971965,
          -0.1476041673508486
        ],
        [
          0.019643829476834962,
          0.06674717484936717,
          -0.17940830981074002
        ]
      ]
    ],
    [
      [
        [
          0.05427704509942312,
          -0.12781374731486003,
          -0.01027399598478882
        ],
        [
          -0.2692517731267579,
          -0.4538073693671443,
          -0.36505638503682425
        ],
        [
          -0.1647706293286454,
          -0.2197916350726545,
          -0.47204840353926075
        ]
      ],
      [
        [
          -0.05228640735208374,
          -0.10757370124823033,
          -0.09099442880786456
        ],
        [
          -0.018782180329821093,
          -0.012896526617839061,
          -0.09370110588296782
        ],
        [
          -0.11387716921685032,
          -0.014357496720569417,
          0.006414133866056246
        ]
      ],
      [
        [
          0.01040642653981036,
          0.046404328116567584,
          -0.054266691913184784
        ],
        [
          -0.12916797783457257,
          -0.010186332695593707,
          0.047020080007294913
        ],
        [
          0.0017708580494804227,
          0.1413256446846863,
          0.07153811797210416
        ]
      ],
      [
        [
          0.019167410938880237,
          0.046075070951797754,
          -0.05653760942444686
        ],
        [
          -0.06712652654108674,
          -0.04181462681709067,
          -0.14816493802904712
        ],
        [
          0.0406237132125146,
          0.111501264308469,
          -0.12976998541763016
        ]
      ],
      [
        [
          0.04765752911994904,
          0.04203977651894017,
          -0.021502188847585414
        ],
        [
          -0.0018916642333412386,
          -0.11409532323273058,
          -0.1433081821026015
        ],
        [
          0.08542712159417988,
          0.03828884198161374,
          -0.043022103658581314
        ]
      ],
      [
        [
          0.03147254781869862,
          -0.006743661173404501,
          0.07056971317412253
        ],
        [
          0.06477216769033298,
          -0.02922985558285998,
          0.0029228782334399226
        ],
        [
          -0.038131195683080356,
          0.05571299626448147,
          -0.03487809672228141
        ]
      ],
      [
        [
          0.05136954538563364,
          0.1399799498030942,
          0.11680141664353365
        ],
        [
          0.03635649462198466,
          0.06236689513092515,
          -0.012256184769116076
        ],
        [
          -0.08439408469716038,
          0.007210480566349885,
          -0.0031181323399370907
        ]
      ],
      [
        [
          0.11219368622098023,
          -0.017064017666745854,
          -0.0006744690379060017
        ],
        [
          0.11775351369897283,
          0.021954571559403422,
          -0.042773184668763745
        ],
        [
          0.0004514514148686215,
          -0.05739929540869387,
          -0.0029114568994861945
        ]
      ],
      [
        [
          0.10414880095758285,
          0.117578900225097,
          0.11659209152045664
        ],
        [
          0.018658516329247306,
          0.05824275312057279,
          -0.007249437228015255
        ],
        [
          0.1298344959126025,
          0.15179072611279298,
          0.08653845212955492
        ]
      ],
      [
        [
          -0.0927251349689873,
          0.06272927649460266,
          -0.03167433870324606
        ],
        [
          -0.12813740249493008,
          -0.12832668171965342,
          -0.09861615120768569
        ],
        [
          -0.11549338619178391,
          -0.03162626289302276,
          -0.04387062096684238
        ]
      ],
      [
        [
          -0.04529723178315619,
          0.07174152689786001,
          0.07158233220846859
        ],
        [
          -0.10990260111883025,
          -0.06129775352790103,
          0.0006586660181933573
        ],
        [
          0.04213561156907227,
          0.012391268045564353,
          0.05109222630133693
        ]
      ],
      [
        [
          -0.25734699409093176,
          -0.07470795747740014,
          -0.0964021804084752
        ],
        [
          -0.1964581361101638,
          -0.13559121299235993,
          -0.08043253975923516
        ],
        [
          -0.1151771650323544,
          0.0920741841072388,
          0.1394622090007375
        ]
      ],
      [
        [
          -0.1759124965038665,
          -0.0017023308855638843,
          0.04473125213639452
        ],
        [
          -0.23175659422490077,
          -0.212106758168538,
          -0.15122563749537682
        ],
        [
          0.08018511135658833,
          -0.011499338539481275,
          0.009633640980550168
        ]
      ],
      [
        [
          0.14934049151766493,
          0.07650794564828849,
          -0.032976269840416766
        ],
        [
          0.036853850144007515,
          0.10777232044679345,
          -0.0054076952848063665
        ],
        [
          0.14932491017647917,
          0.12353144406274078,
          0.19497128631922392
        ]
      ],
      [
        [
          -0.024458668587978804,
          0.06849864357762166,
          0.06330922045049248
        ],
        [
          -0.14133885525926387,
          -0.050885235846459986,
          -0.03355731861979936
        ],
        [
          -0.042665174489851826,
          -0.06250012301506404,
          -0.18787154448710752
        ]
      ],
      [
        [
          -0.15444164963501164,
          0.024983365746807405,
          0.03148946719355519
        ],
        [
          -0.23477860513022603,
          0.020901573220229647,
          -0.05064429646176902
        ],
        [
          -0.06532359687535952,
          0.05181268267504147,
          -0.05531446262386322
        ]
      ]
    ],
    [
      [
        [
          0.06593787295842411,
          0.12297989372966696,
          0.09655976540418028
        ],
        [
          -0.0030807432059597266,
          -0.03569617744069928,
          0.06384469344201332
        ],
        [
          -0.07189247516613131,
          0.028216814222450842,
          0.06311189711682091
        ]
      ],
      [
        [
          0.010235987745190057,
          0.10517167859055968,
          0.1609053186692964
        ],
        [
          0.06292093369248504,
          0.0627146704518305,
          0.12021682631504503
        ],
        [
          -0.15708713522169188,
          -0.07133498305769358,
          -0.016167791290552732
        ]
      ],
      [
        [
          -0.16189032529412872,
          0.13590925675916024,
          -0.03002998611983797
        ],
        [
          -0.2603801314485693,
          0.18139913282094614,
          0.10972733305640815
        ],
        [
          -0.10360656540182045,
          0.1200816564141502,
          0.09210477488888756
        ]
      ],
      [
