{
  "conv1.weight": [
    [
      [
        [
          -0.210400009437941,
          -0.17285300477605844,
          -0.13880996230807882
        ],
        [
          -0.15848116166068874,
          -0.04273302107987301,
          -0.1898738578187936
        ],
        [
          -0.015595832460484453,
          0.037591453644674984,
          0.015099466270341772
        ]
      ],
      [
        [
          0.012152679426198748,
          0.00652118364143808,
          -0.07777510114485502
        ],
        [
          0.11817978878713552,
          -0.03916777183167935,
          -0.18067538552285867
        ],
        [
          -0.14076861078308697,
          0.009488494937598886,
          -0.1799159162603196
        ]
      ],
      [
        [
          0.0892302603479391,
          0.17464384957966567,
          0.20128374921765982
        ],
        [
          0.32735998369817165,
          0.26996446142410924,
          0.18791279447358758
        ],
        [
          0.20873535745079616,
          -0.10392862063364665,
          -0.16442219032498445
        ]
      ]
    ],
    [
      [
        [
          0.2822364138046424,
          0.24511392577607108,
          0.04992094403660267
        ],
        [
          0.10919892621065837,
          0.1275280219513735,
          0.20596123783498807
        ],
        [
          0.22836202672877953,
          0.26316014588803044,
          -0.05238477217501282
        ]
      ],
      [
        [
          0.08227072686063068,
          -0.19247765253600999,
          -0.12902995070854129
        ],
        [
          -0.1700486098707807,
          -0.24259633034687356,
          -0.20258004868367335
        ],
        [
          -0.11657862380776682,
          -0.09842629525737101,
          -0.06284384707642492
        ]
      ],
      [
        [
          -0.13393407464111387,
          0.03347380696553824,
          -0.10804540045557398
        ],
        [
          -0.13659731346688433,
          -0.18902750784804287,
          0.009436669021123046
        ],
        [
          -0.13418013875143153,
          -0.08437135854830449,
          0.16945232718770473
        ]
      ]
    ],
    [
      [
        [
          0.2219506496767016,
          -0.11206213276187263,
          0.028471966429645338
        ],
        [
          0.17420851147668365,
          0.11032501996505865,
          -0.3413256175903249
        ],
        [
          0.2002099317833559,
          0.18837602240079404,
          -0.32695611396427665
        ]
      ],
      [
        [
          0.070770514866849,
          -0.12272106506048572,
          -0.08620768276843793
        ],
        [
          0.18877529683580388,
          -0.0697634972785569,
          -0.18508534911607558
        ],
        [
          0.1206364057773913,
          -0.13816999843690855,
          -0.15856034381293002
        ]
      ],
      [
        [
          0.07181762829449741,
          3.1129606206838274e-05,
          -0.06366902135704107
        ],
        [
          0.25134922274435184,
          -0.027646593228502322,
          -0.25174544321244924
        ],
        [
          0.26450254050449323,
          0.15076814283825984,
          -0.3080006415435189
        ]
      ]
    ],
    [
      [
        [
          -0.08842866986056964,
          0.19966857113989545,
          -0.0027080940950769457
        ],
        [
          0.1320413920071029,
          0.13657067258995695,
          0.06447968247787284
        ],
        [
          0.1561445697289957,
          0.06918607390343924,
          -0.18559509259476883
        ]
      ],
      [
        [
          0.12743384351239612,
          0.019501573146453836,
          -0.08460475708684934
        ],
        [
          -0.014120096661822745,
          0.14960242715846583,
          -0.07286184667890129
        ],
        [
          -0.20127825489513226,
          0.1278373624285263,
          0.05377921840595532
        ]
      ],
      [
        [
          0.14417401816371456,
          0.22338324185823563,
          -0.05509432789127306
        ],
        [
          -0.008611379211621117,
          0.13150525079058298,
          0.054801053590300436
        ],
        [
          0.060269984674612254,
          -0.009821406579592896,
          -0.06467422754410508
        ]
      ]
    ],
    [
      [
        [
          0.25280537456859,
          0.0656346492577787,
          0.15438781259517947
        ],
        [
          0.197142822939433,
          0.2988583892281293,
          -0.13242883481611692
        ],
        [
          -0.25912929381995065,
          -0.1353218847623748,
          0.14025113956693022
        ]
      ],
      [
        [
          -0.15144426671920225,
          -0.22174298005729698,
          -0.17034215885359133
        ],
        [
          0.061773005295822046,
          0.12252313352331208,
          0.13792921096683147
        ],
        [
          -0.20395372653693705,
          -0.04344203614421053,
          0.008658060499447215
        ]
      ],
      [
        [
          -0.2050882946898945,
          -0.13174351527391615,
          -0.2689523231545707
        ],
        [
          0.13208390880802504,
          0.120343649394833,
          0.05733083240538679
        ],
        [
          0.19028595650170296,
          -0.03239648915959359,
          0.12975519907041363
        ]
      ]
    ],
    [
      [
        [
          -0.11109270295994629,
          0.1285389617814953,
          -0.01415170576848422
        ],
        [
          -0.019676076925449565,
          -0.2444606064865213,
          -0.10822522190488935
        ],
        [
          -0.0260637828991694,
          0.022772811067566085,
          0.05142838896272227
        ]
      ],
      [
        [
          -0.09916842811682101,
          -0.21326399500385765,
          -0.08275842056520136
        ],
        [
          -0.15462873062664154,
          -0.17840009437577567,
          0.08904692548535899
        ],
        [
          -0.02450034167157991,
          0.1461828401367564,
          0.05521394065958687
        ]
      ],
      [
        [
          -0.03373906526322664,
          0.06725724216835925,
          0.008433728234894954
        ],
        [
          -0.11840662996281423,
          -0.018872297261414886,
          0.08667364809889103
        ],
        [
          -0.06119880491844539,
          -0.14306905653978058,
          -0.021289148319471363
        ]
      ]
    ],
    [
      [
        [
          0.10583442074368922,
          0.06623754448549547,
          -0.22600547124080922
        ],
        [
          -0.22606799977409472,
          -0.14405509766822103,
          -0.290536482543872
        ],
        [
          0.07543829515223102,
          -0.2427949379530187,
          0.13621201098121885
        ]
      ],
      [
        [
          0.2588869740113895,
          0.05288633029334737,
          0.07461803941868736
        ],
        [
          0.07780048342944602,
          0.07578904136841728,
          0.11906179382437002
        ],
        [
          0.17261492533038772,
          0.2777906253914094,
          0.3140464964663172
        ]
      ],
      [
        [
          0.07306231172190383,
          -0.06353708565069638,
          -0.007485101026590306
        ],
        [
          -0.15701515615564657,
          -0.249848309898898,
          -0.23327279974318627
        ],
        [
          -0.1781923019376235,
          -0.023671183326824444,
          -0.042455317396110775
        ]
      ]
    ],
    [
      [
        [
          -0.2886300455845445,
          -0.2308908000805579,
          -0.2562504434486945
        ],
        [
          -0.07229033407205539,
          -0.09760729306595622,
          -0.17125418767031844
        ],
        [
          0.28743766576680335,
          0.24442432681513213,
          0.35708594444242875
        ]
      ],
      [
        [
          -0.19108071661512777,
          -0.032884102099531506,
          0.129340168406042
        ],
        [
          -0.23177739620980825,
          -0.18319320522322863,
          0.10801114297344734
        ],
        [
          0.19660597166022784,
          0.0439166864111455,
          0.11512211767325468
        ]
      ],
      [
        [
          0.0033277935962162998,
          0.13750233921339103,
          0.02115501088441034
        ],
        [
          0.052796099158731645,
          0.06880800687892087,
          -0.161078904820429
        ],
        [
          0.07844614948423305,
          0.051867205101932504,
          -0.029234761624547786
        ]
      ]
    ],
    [
      [
        [
          -0.45341211887905203,
          0.014927952061062235,
          0.35336395318724956
        ],
        [
          0.01677896229228672,
          0.17083980464473583,
          -0.1171896265338229
        ],
        [
          0.09019380572773689,
          0.13877914831260746,
          -0.3811092668438269
        ]
      ],
      [
        [
          -0.33836430871846074,
          0.2531694824562686,
          0.37207591050937266
        ],
        [
          -0.2564931336721558,
          -0.04203984886184195,
          0.20571012725977017
        ],
        [
          0.3289065717031431,
          0.015051449006315732,
          -0.3369015575904101
        ]
      ],
      [
        [
          -0.40998955830772166,
          0.21412787056121266,
          0.295154960435919
        ],
        [
          -0.08711412513315815,
          -0.11079852091097132,
          0.032892383557543946
        ],
        [
          0.19459295199587012,
          0.04699299511445288,
          -0.17815181512118422
        ]
      ]
    ],
    [
      [
        [
          0.18977870347146483,
          0.15755562713455298,
          0.01970054093064519
        ],
        [
          0.043302068085522054,
          0.11352965821455639,
          0.11658047585642735
        ],
        [
          -0.05172761984257563,
          0.1555891495529304,
          -0.03191973020337328
        ]
      ],
      [
        [
          -0.19863389253431513,
          -0.1986130502149142,
          -0.17750600156257088
        ],
        [
          -0.09516220147130638,
          -0.32814989978176146,
          -0.2669473736240929
        ],
        [
          0.0704452595323151,
          0.009294532613199643,
          -0.31094273991558313
        ]
      ],
      [
        [
          0.17622290195399362,
          0.018567834806329907,
          0.07028748510730073
        ],
        [
          0.049286543028625805,
          0.17993803126846472,
          0.1033128121850263
        ],
        [
          0.02050729322719163,
          0.058104757480171625,
          -0.03692396921847463
        ]
      ]
    ],
    [
      [
        [
          -0.12446812888984869,
          -0.2843730562950779,
          0.017948834813465542
        ],
        [
          -0.14298480976157782,
          -0.09407235000239261,
          -0.15471925799697855
        ],
        [
          0.24965741426991364,
          0.36249742716802297,
          -0.022622614240069654
        ]
      ],
      [
        [
          -0.08658482694219023,
          -0.2674403380857693,
          -0.3000479064177688
        ],
        [
          -0.15690959220706022,
          -0.10561931245660615,
          0.08669260675123376
        ],
        [
          0.27008733109838245,
          0.3019655777608598,
          0.2073276256354214
        ]
      ],
      [
        [
          -0.11806519438870193,
          -0.14114737506490038,
          0.07381002435792489
        ],
        [
          0.022925347552616784,
          -0.25180786157017643,
          0.06831233712853423
        ],
        [
          0.1846914496643999,
          0.19032903134556914,
          0.21581252666595405
        ]
      ]
    ],
    [
      [
        [
          -0.32451294223522265,
          0.10191607723702127,
          0.18487221093553322
        ],
        [
          0.10337836461961826,
          0.2923266777127305,
          0.1331504403544038
        ],
        [
          -0.05651806876589436,
          0.027011051468128704,
          -0.33179123127762017
        ]
      ],
      [
        [
          -0.06319964334793371,
          0.09884594288373974,
          -0.02777026713564017
        ],
        [
          0.019577672254952008,
          0.16360517519740259,
          0.15289124702265033
        ],
        [
          0.03142616130309249,
          -0.18065213257500298,
          -0.31406011636078984
        ]
      ],
      [
        [
          -0.393281244800793,
          -0.23716829832185982,
          -0.09562229755182124
        ],
        [
          0.2243261950382699,
          0.043420376954894854,
          0.07946869997087315
        ],
        [
          0.3023621132579416,
          0.11130964785815196,
          0.051042352393153745
        ]
      ]
    ],
    [
      [
        [
          -0.06804796651875109,
          -0.1565020271318745,
          0.06224087465049478
        ],
        [
          -0.04269396653190644,
          -0.1406720726742962,
          0.07481214231533719
        ],
        [
          -0.23218319949203456,
          -0.18043605743261049,
          0.04912244873226122
        ]
      ],
      [
        [
          -0.009443136559180387,
          -0.11843030937225725,
          0.05284083859577302
        ],
        [
          -0.07242403467570917,
          0.1358252088461901,
          0.1975166614998237
        ],
        [
          0.06321511375485944,
          0.12325908636655097,
          -0.14802814120109906
        ]
      ],
      [
        [
          0.034403374469976274,
          -0.04626766584391604,
          -0.09239644143157819
        ],
        [
          0.26937553482115817,
          0.2707255808730509,
          0.19886806353709938
        ],
        [
          0.12203573905566478,
          0.21634118873873112,
          0.012299180683970942
        ]
      ]
    ],
    [
      [
        [
          0.1518475176855877,
          0.3497320632301477,
          0.1391040321604114
        ],
        [
          0.14752181806400272,
          -0.2122164539562048,
          -0.10625237096768228
        ],
        [
          0.050500235927307735,
          -0.30098288288603986,
          -0.11197446688627352
        ]
      ],
      [
        [
          0.2756508159323565,
          0.36049254809615827,
          0.3075797475936324
        ],
        [
          -0.21333971828492593,
          -0.2040861358173706,
          0.01753363037183775
        ],
        [
          -0.04955088576645671,
          -0.21543280362884956,
          -0.26264267403936814
        ]
      ],
      [
        [
          0.06136551750386444,
          0.18554295031883705,
          0.21662064301902098
        ],
        [
          -0.03872110747990197,
          -0.25243228794742506,
          -0.15446211477712088
        ],
        [
          0.05309159817194591,
          -0.26194696565571834,
          -0.024388674478530065
        ]
      ]
    ],
    [
      [
        [
          -0.21688102958779398,
          -0.11213117590616273,
          -0.18035970704668353
        ],
        [
          -0.2323182617204214,
          -0.267907200714621,
          0.008506061542543693
        ],
        [
          -0.10907209704620435,
          0.09387387628578976,
          -0.08320968116573974
        ]
      ],
      [
        [
          0.17605258608240631,
          0.08866727836409596,
          0.04055465127761203
        ],
        [
          -0.12128935755146152,
          0.06940369399519536,
          0.23321317623392493
        ],
        [
          0.013623982680241203,
          -0.045685736318150594,
          -0.09325100554233431
        ]
      ],
      [
        [
          -0.07729710015144589,
          0.12327796707240803,
          0.14484456525543687
        ],
        [
          0.1569720463211199,
          0.2267463731633497,
          0.05960833008900892
        ],
        [
          -0.1519068924852261,
          0.13745731308947326,
          -0.055925467503314015
        ]
      ]
    ],
    [
      [
        [
          0.03690515680544829,
          -0.14727216779490723,
          0.0523469681859213
        ],
        [
          0.24450188733997186,
          0.1002824882404554,
          -0.2651957303362223
        ],
        [
          0.21961472464777826,
          0.04996512643260998,
          -0.25362733177121205
        ]
      ],
      [
        [
          -0.044770469674419215,
          -0.19574706392387065,
          -0.22977782509377437
        ],
        [
          0.04080168194179409,
          0.052131801461139375,
          -0.34252948465499206
        ],
        [
          0.19558712346063226,
          0.14104771188990559,
          -0.028491804163652146
        ]
      ],
      [
        [
          0.10580734200294795,
          -0.26272695000891677,
          -0.3091700809476137
        ],
        [
          0.32808969599876076,
          0.2199985771814186,
          -0.08636008837915592
        ],
        [
          0.19061960884204465,
          0.16260791733353946,
          0.10689664363151367
        ]
      ]
    ]
  ],
  "conv1.bias": [
    0.009070551763453642,
    0.14713471426494554,
    0.11426232995459508,
    -0.08660700673336137,
    0.10274045132616998,
    -0.10314594722067306,
    0.13902239617185808,
    -0.04236408715284694,
    0.03340271011607737,
    -0.14351660186969523,
    -0.13409375623817404,
    -0.12181467947917632,
    -0.20128887198999482,
    -0.1572223789558082,
    -0.011044034512387774,
    -0.1460428786030386
  ],
  "res1_conv1.weight": [
    [
      [
        [
          0.0077902089131420375,
          -0.1582058539870363,
          -0.03974050756744598
        ],
        [
          0.03900216080850135,
          -0.1444435053467491,
          0.04745791817206817
        ],
        [
          0.10382849700734349,
          0.1719137219012987,
          0.0750238080698737
        ]
      ],
      [
        [
          0.32403934717728866,
          0.23689494601029795,
          0.025641726273288465
        ],
        [
          0.1659604236573217,
          -0.07726360472396876,
          0.0029406276164620246
        ],
        [
          -0.02235876212669112,
          -0.12532705706503192,
          -0.026626014563277834
        ]
      ],
      [
        [
          0.13510158604058434,
          -0.3523738974967847,
          0.112923860542452
        ],
        [
          -0.015344586119725102,
          -0.6713445085100019,
          0.08148388603772141
        ],
        [
          0.07330444725206252,
          -0.4509914088438852,
          0.027424704057951468
        ]
      ],
      [
        [
          0.046318085132075436,
          -0.04926260568134035,
          0.12191405318340119
        ],
        [
          0.07405468613512464,
          -0.043092585095589685,
          0.11426934829870734
        ],
        [
          -0.03840788324790353,
          0.032708780011263046,
          -0.05518486918778012
        ]
      ],
      [
        [
          -0.05237589288986741,
          0.1751346026954741,
          0.07036939443050766
        ],
        [
          -0.0815898101873404,
          0.03606900798906715,
          0.20895680336288738
        ],
        [
          -0.03505159543616311,
          0.013790577507581517,
          -0.0454213413041998
        ]
      ],
      [
        [
          0.16130482905436042,
          0.09094681889875027,
          0.06554925478005624
        ],
        [
          0.17462471883571098,
          0.0034233871562595218,
          -0.08165135481391048
        ],
        [
          0.07819368935297702,
          -0.13985942203424548,
          -0.2025803868254648
        ]
      ],
      [
        [
          0.13407034353874175,
          0.24332415783862296,
          -0.036517947009619765
        ],
        [
          0.07402366122954417,
          0.03705606548137536,
          -0.1690432097910031
        ],
        [
          0.007073200206972205,
          -0.19670743990637768,
          -0.19880236665377798
        ]
      ],
      [
        [
          -0.02318310075280114,
          0.0019389169672780278,
          0.10603086660698151
        ],
        [
          -0.016526080528150067,
          0.034457941013652175,
          -0.01866601826317892
        ],
        [
          0.14791205766738458,
          0.1549487997767049,
          -0.09734013671930448
        ]
      ],
      [
        [
          0.07235166419774453,
          -0.11891142100590936,
          0.42776501311392273
        ],
        [
          -0.21449365427068837,
          0.27094421318126855,
          -0.06444281768949972
        ],
        [
          0.009510996647418227,
          0.23693246973517376,
          -0.26703432659969456
        ]
      ],
      [
        [
          -0.021117147680633927,
          -0.15904301626473266,
          -0.08721155268645343
        ],
        [
          -0.1868865372462602,
          -0.1600564149753991,
          -0.02363346286486292
        ],
        [
          -0.03244943605093903,
          -0.05643911231073989,
          0.1305156032159191
        ]
      ],
      [
        [
          0.03434926697531923,
          0.08601149570752978,
          0.1913707642743853
        ],
        [
          0.06070943664585096,
          0.08017663787762122,
          -0.05301074285439813
        ],
        [
          0.15655034476790497,
          -0.03518153715702284,
          -0.014786371673902607
        ]
      ],
      [
        [
          0.10277377858863114,
          -0.1474978938987463,
          0.15600247417413116
        ],
        [
          0.07331953819690747,
          0.2224339677531897,
          -0.10137713679397796
        ],
        [
          0.08599493773509603,
          -0.08075308264912943,
          -0.3885828691339697
        ]
      ],
      [
        [
          -0.10365781451662627,
          -0.1258052285270845,
          -0.07337959809106333
        ],
        [
          -0.019437191728435384,
          0.16889521639936553,
          -0.07445235597188041
        ],
        [
          -0.03401762458830549,
          0.05710691168504052,
          -0.10476285628400621
        ]
      ],
      [
        [
          0.3432459148599772,
          -0.16760343252757948,
          0.024827068622289387
        ],
        [
          0.06667265254882696,
          -0.25010263538461275,
          -0.1689862498136861
        ],
        [
          -0.111868106990108,
          -0.17402930549931672,
          -0.11978566384343091
        ]
      ],
      [
        [
          0.014315564746422671,
          -0.03786773279979913,
          -0.1061838765962326
        ],
        [
          -0.04007502632697654,
          0.08230743851112933,
          -0.04877116576393773
        ],
        [
          0.08577538120413357,
          0.19104119416030313,
          0.07032101568144587
        ]
      ],
      [
        [
          -0.2618900702389495,
          -0.2956849685510655,
          -0.0325513499547801
        ],
        [
          -0.14594978524807667,
          -0.5257773698285859,
          0.14691023979382192
        ],
        [
          -0.0519576369878437,
          -0.3561259238694211,
          0.048895650768060676
        ]
      ]
    ],
    [
      [
        [
          0.1622630490129479,
          0.09048138008187447,
          0.06809884816065788
        ],
        [
          0.13514697436592538,
          0.06700057544307149,
          -0.15967648952209768
        ],
        [
          0.05413912964417624,
          -0.13054072891363078,
          -0.06279150100921312
        ]
      ],
      [
        [
          -0.09634005587319157,
          -0.0924837039044814,
          -0.07894458276759703
        ],
        [
          0.001215457826727036,
          0.2347124874911995,
          0.26671222350708335
        ],
        [
          -0.0785557094969302,
          0.07849210934322694,
          0.018090962648087735
        ]
      ],
      [
        [
          -0.12650638856348898,
          -0.06017417813224047,
          0.1289683587783702
        ],
        [
          -0.23420277628659317,
          0.00948475059703174,
          0.2625736455931816
        ],
        [
          0.054603085051494187,
          0.12099082936039653,
          0.049406878576280164
        ]
      ],
      [
        [
          -0.024242983202943272,
          -0.07094277780213187,
          -0.060678176609366474
        ],
        [
          0.03874393350804434,
          0.03935003440950376,
          -0.017682713396398236
        ],
        [
          0.06890890922408494,
          0.03533813177686734,
          0.03300545703015652
        ]
      ],
      [
        [
          -0.12502653763026558,
          -0.10832120085581068,
          -0.24491460772689666
        ],
        [
          0.03699253660997383,
          0.18293142104916857,
          0.04438889854171963
        ],
        [
          0.10486432625324077,
          0.15147014479510024,
          0.03792302807033212
        ]
      ],
      [
        [
          -0.0494288247907397,
          -0.019350822611023555,
          0.11304232399797869
        ],
        [
          -0.11659926329587815,
          0.04893428231444423,
          0.04412485366197978
        ],
        [
          0.022900046796964363,
          0.12557184483654893,
          0.09875047300465296
        ]
      ],
      [
        [
          0.2252613668023056,
          -0.008921411504285248,
          -0.08966361262137067
        ],
        [
          0.10111837180319691,
          0.02999610645990355,
          0.018522124692131922
        ],
        [
          0.1521272944006425,
          0.03765231737355962,
          0.010470409477273126
        ]
      ],
      [
        [
          0.21773204179569058,
          0.16556253311804042,
          0.13970744212592534
        ],
        [
          0.08070732635337857,
          -0.10297082701963596,
          -0.05083236399049379
        ],
        [
          0.051575765302105225,
          -0.16561339643410122,
          -0.0985415917562045
        ]
      ],
      [
        [
          -0.4583991094822465,
          -0.08436124247078126,
          0.03587792422107479
        ],
        [
          -0.10690876636727768,
          -0.401239431272024,
          -0.16041923131246627
        ],
        [
          -0.0809671529889041,
          -0.0644630911333189,
          0.10077089667613709
        ]
      ],
      [
        [
          0.061538450355527755,
          -0.010909028221670605,
          -0.0007616765178260791
        ],
        [
          0.24310961288511604,
          0.3326397697327249,
          0.25103920392706514
        ],
        [
          0.16746232407048936,
          0.07564026760442906,
          -0.10093574989102878
        ]
      ],
      [
        [
          0.14922841370432646,
          0.12184412094390358,
          0.0652739235187159
        ],
        [
          0.01377852379326078,
          -0.1932980907382387,
          0.06972466747255006
        ],
        [
          0.029996799257055527,
          -0.023655282724268163,
          0.02936815652421318
        ]
      ],
      [
        [
          -0.09214248265182255,
          -0.0039926619719659485,
          -0.05190453727713921
        ],
        [
          0.144893965473207,
          -0.1012467131908993,
          -0.019027846611316877
        ],
        [
          0.10423899956893293,
          0.12274129162407434,
          -0.010207061388523432
        ]
      ],
      [
        [
          0.09237925280189505,
          -0.003401934542346743,
          -0.10229933687218166
        ],
        [
          0.13817339503227782,
          -0.061234332483362325,
          -0.15106547261222913
        ],
        [
          -0.05496191329296937,
          -0.07327391999554222,
          0.11033112667097451
        ]
      ],
      [
        [
          -0.11204401259468082,
          -0.18063458725699555,
          0.17483039640547593
        ],
        [
          0.08972470106031205,
          0.10364159596350421,
          0.08897373281154988
        ],
        [
          0.06649837040815083,
          0.12073688628316528,
          0.07457155711586298
        ]
      ],
      [
        [
          0.23656529372097806,
          0.010383269403232724,
          0.07800706432916042
        ],
        [
          0.06415700008651143,
          -0.16959358961779383,
          -0.1645774418317306
        ],
        [
          -0.05133523350216099,
          -0.15365947298738902,
          -0.04334892678677893
        ]
      ],
      [
        [
          0.020417984106680127,
          -0.1261895233431267,
          -0.06544943287650372
        ],
        [
          -0.2173246792316188,
          -0.23640607040069678,
          0.027547870138171174
        ],
        [
          0.049285033370144074,
          -0.12819639335838198,
          0.024747342733917644
        ]
      ]
    ],
    [
      [
        [
          -0.006060975315682811,
          0.054678416691849516,
          -0.054409989025525594
        ],
        [
          0.03793991317245606,
          0.0242035380534429,
          -0.04086956045421084
        ],
        [
          0.039351219584509774,
          0.056585930871680984,
          -0.037644108329935866
        ]
      ],
      [
        [
          0.04708072732256517,
          0.018950711436107173,
          0.0766546257287907
        ],
        [
          0.03181289804818353,
          0.09958468138155568,
          0.1378550029290169
        ],
        [
          -0.12299909282026873,
          -0.061267191532953506,
          0.12895175901755979
        ]
      ],
      [
        [
          -0.097940841185863,
          -0.034399281847096494,
          -0.06639714273751988
        ],
        [
          -0.13332841388297925,
          -0.0914404376927379,
          0.14040849214642995
        ],
        [
          -0.09661559982746781,
          -0.10302782043382519,
          0.17206223269644075
        ]
      ],
      [
        [
          -0.027504384160074297,
          -0.00288283248194105,
          0.0697525302544932
        ],
        [
          -0.063469148181238,
          -0.021739967220718664,
          -0.0015141004417087089
        ],
        [
          -0.0191646186793096,
          0.04738123169411187,
          0.05779101746733577
        ]
      ],
      [
        [
          -0.22676221600763197,
          -0.02072157660654067,
          0.0697469593507273
        ],
        [
          -0.11602170661807946,
          -0.019494254593591324,
          0.09133208737017195
        ],
        [
          -0.0418469272930306,
          -0.01107357300900066,
          0.044633802591937825
        ]
      ],
      [
        [
          0.12794065407184238,
          -0.10414798674925141,
          -0.11506729004675526
        ],
        [
          0.1899905459222983,
          -0.04806304110850289,
          -0.09494862852340487
        ],
        [
          0.2274148484603701,
          -0.1490617007303351,
          -0.12396030303787084
        ]
      ],
      [
        [
          0.2055042310659752,
          -0.11101060044989461,
          -0.08206834744129127
        ],
        [
          0.11486364656246097,
          -0.12629061384055973,
          -0.051205175964404354
        ],
        [
          0.13310352069956788,
          -0.1656313948487473,
          -0.10228570134668893
        ]
      ],
      [
        [
          0.06789474784850281,
          0.019453549127704774,
          -0.009124430275224416
        ],
        [
          0.19876514600067416,
          0.0625267490148235,
          0.04176734363657563
        ],
        [
          0.2435289089018615,
          0.04840905554272582,
          0.09657210792016988
        ]
      ],
      [
        [
          0.04206797785790158,
          0.11295989042435663,
          0.008453209925692916
        ],
        [
          0.02287745259343571,
          0.012966432687774854,
          -0.13303340010193546
        ],
        [
          0.10813253678946365,
          0.2105271399068546,
          -0.08416556197696619
        ]
      ],
      [
        [
          -0.12314021950811645,
          0.1291536371548664,
          -0.07728674193838253
        ],
        [
          -0.17007902495411875,
          0.12155856413993804,
          0.09254180290078022
        ],
        [
          -0.18295773179050173,
          -0.015540014985796461,
          0.03813057307993303
        ]
      ],
      [
        [
          -0.0344197395619322,
          -0.14332432245192012,
          -0.1468314738630645
        ],
        [
          0.0681278226233873,
          -0.04078944248438904,
          -0.018885565971666574
        ],
        [
          0.0058954439053128865,
          -0.13158813007318795,
          -0.10033707987602296
        ]
      ],
      [
        [
          -0.09600963588656752,
          0.035958597612987586,
          -0.01760793161232702
        ],
        [
          -0.07118266538382598,
          -0.03165309211867711,
          -0.08442157344799608
        ],
        [
          -0.18471069683826102,
          -0.07390896330017284,
          -0.1295678860848857
        ]
      ],
      [
        [
          -0.06459384521211557,
          0.07245939958563487,
          -0.10829674488737549
        ],
        [
          0.11322834189105607,
          0.0865967617095831,
          -0.06937702807933536
        ],
        [
          -0.03707477606915949,
          -0.013562684309221482,
          -0.04542624290858323
        ]
      ],
      [
        [
          -0.03342684333405967,
          -0.39975870224832644,
          -0.1294544777060306
        ],
        [
          -0.5709222905416845,
          -0.7323218697165456,
          -0.27902057299500127
        ],
        [
          -0.27089621113575646,
          -0.4781055046594774,
          -0.024856150184831033
        ]
      ],
      [
        [
          0.1112096882013852,
          0.019435190394758547,
          0.010976631685263274
        ],
        [
          0.07868115499901293,
          0.09593817166754051,
          0.05233301362022732
        ],
        [
          0.029088765451711383,
          0.005374191684141319,
          -0.018258064582333654
        ]
      ],
      [
        [
          -0.21304643409375726,
          0.05956547471314338,
          -0.12494024597801749
        ],
        [
          -0.26581529985903896,
          0.002418058370998602,
          0.07491183252195809
        ],
        [
          -0.22035174116938508,
          0.020228354718416157,
          0.15794033590222456
        ]
      ]
    ],
    [
      [
        [
          0.14272882734766343,
          0.027307338770072426,
          0.19930884658256517
        ],
        [
          -0.04432678627759912,
          -0.17878811296702676,
          -0.19944875876439264
        ],
        [
          0.10047810946269431,
          -0.22626386601643456,
          -0.05440361624114823
        ]
      ],
      [
        [
          -0.2644388559810805,
          -0.003944207177921317,
          0.06898568597075598
        ],
        [
          -0.111899435970654,
          0.15352024178261148,
          0.3012304750601654
        ],
        [
          -0.16148751904198663,
          0.08760776340611133,
          -0.1653508336046227
        ]
      ],
      [
        [
          0.17018878434309367,
          0.1293148684891819,
          0.052290744167378916
        ],
        [
          0.1372279065714519,
          0.08238355252709373,
          0.0024795492441881534
        ],
        [
          -0.04347867489565425,
          0.04267728167131508,
          0.04680231641426114
        ]
      ],
      [
        [
          -0.02623633062553872,
          -0.15149849531305148,
          -0.01136130504889875
        ],
        [
          0.04558208796493146,
          -0.006797343945224182,
          -0.018381246662644388
        ],
        [
          0.09516042434723342,
          0.09883210860318326,
          0.06470477679550109
        ]
      ],
      [
        [
          -0.021915558958860982,
          -0.19143794268132902,
          -0.20176014241205392
        ],
        [
          0.051356087992804965,
          0.1594990468339524,
          0.07644249211047707
        ],
        [
          -0.07202817313027815,
          0.10674113777216866,
          0.1355512226876628
        ]
      ],
      [
        [
          -0.027801656338919813,
          0.03325251422415356,
          0.0354513666549511
        ],
        [
          0.014617487805970643,
          0.033422067983233,
          0.05838982323797231
        ],
        [
          -0.03419813775667737,
          0.07806848734437587,
          0.01358235513513918
        ]
      ],
      [
        [
          0.09519160579824065,
          0.06583954565507714,
          -0.10873060422810063
        ],
        [
          -0.10546157962176922,
          0.003159440561950204,
          -0.02686537217519676
        ],
        [
          -0.18022444714277988,
          -0.10369179744908225,
          -0.1037898179974901
        ]
      ],
      [
        [
          -0.025258907386811802,
          0.03973421241452228,
          -0.0102795521238989
        ],
        [
          -2.7854008203905703e-05,
          -0.1640854260281311,
          -0.1158913799093913
        ],
        [
          -0.049989951262119,
          -0.05357681657863195,
          -0.012011478995169439
        ]
      ],
      [
        [
          -0.07037280685878804,
          0.005522723232820326,
          0.25830954359656844
        ],
        [
          -0.030833666948425164,
          -0.022797843605115085,
          0.13677441304504134
        ],
        [
          0.07274465633259304,
          0.0826095565171341,
          0.051540660977805165
        ]
      ],
      [
        [
          -0.22342783549644096,
          -0.042733710571036455,
          -0.1304641185120541
        ],
        [
          -0.0025815035390512994,
          0.042410710938415086,
          0.1007513619223279
        ],
        [
          -0.004426119237521569,
          0.1024388483237271,
          0.11849150243411016
        ]
      ],
      [
        [
          -0.1382333449512352,
          -0.08250013088933007,
          -0.08293063968222994
        ],
        [
          -0.07458070250535363,
          -0.09955187404610581,
          0.027951852794749887
        ],
        [
          -0.0006265581587465474,
          0.05303705756997848,
          0.2058641983550354
        ]
      ],
      [
        [
          -0.13706332547630268,
          -0.06538428981328837,
          0.019416670890872123
        ],
        [
          0.030560089262216796,
          0.007072305377258767,
          0.09428318490283188
        ],
        [
          -0.19551492921791952,
          0.11197492834606171,
          0.19477345431247875
        ]
      ],
      [
        [
          -0.0972311098837286,
          -0.054606242337635856,
          -0.12331421314266361
        ],
        [
          -0.10539103711771428,
          -0.20334441403397166,
          -0.16095368228313434
        ],
        [
          0.12448413603140722,
          0.060742378445968116,
          0.0013224539241631882
        ]
      ],
      [
        [
          -0.09578406356542943,
          -0.06167453346429215,
          -0.07047066104303082
        ],
        [
          -0.09543705093783733,
          -0.046259385271831197,
          -0.005282174946643178
        ],
        [
          0.12349509435118083,
          0.046289701336094745,
          0.0009533864331757606
        ]
      ],
      [
        [
          0.261050485627032,
          0.01897542634647839,
          0.03615976972485211
        ],
        [
          -0.13463902760663649,
          -0.16973982414920374,
          -0.2279568736320564
        ],
        [
          -0.06503004787514928,
          -0.16210996902754707,
          -0.2299751700735511
        ]
      ],
      [
        [
          -0.111957542661782,
          -0.20335610570338514,
          -0.10325148351084566
        ],
        [
          0.07383787574505311,
          -0.00531538862901855,
          0.04294924407797741
        ],
        [
          0.09724615666110922,
          0.05463613500558804,
          -0.004503816745442663
        ]
      ]
    ],
    [
      [
        [
          0.082991317037891,
          -0.157330729378124,
          -0.29650704269991934
        ],
        [
          0.25973555283681243,
          -0.007881006465122166,
          -0.2747843468410468
        ],
        [
          0.20428143949164118,
          0.04950136027153667,
          -0.14771725376674844
        ]
      ],
      [
        [
          0.07820893478144361,
          -0.016481014116766335,
          0.01737881343406759
        ],
        [
          0.012844274383124217,
          -0.13014454271899148,
          0.07115193301209634
        ],
        [
          -0.1229857140490393,
          -0.08653342627837735,
          -0.08432567525698892
        ]
      ],
      [
        [
          -0.0028255148646684704,
          -0.09690732437628516,
          -0.012468719013277948
        ],
        [
          0.0164932432203922,
          -0.02071159453834869,
          -0.11887746913331254
        ],
        [
          0.06785251701084233,
          -0.11939393181398093,
          0.07291256248005211
        ]
      ],
      [
        [
          0.058840017155080936,
          -0.06944050249436388,
          0.1557453438802796
        ],
        [
          0.05308629335237525,
          -0.030315308102662617,
          0.15739669690838146
        ],
        [
          0.021510430411707998,
          -0.14820294103779774,
          0.09063753654280693
        ]
      ],
      [
        [
          0.028492669902622624,
          0.18272404058608804,
          0.15391544863073217
        ],
        [
          -0.07593196991751111,
          -0.016509480069618367,
          0.14066712093164382
        ],
        [
          -0.12093124842785521,
          0.00541840501599281,
          0.05516801209565996
        ]
      ],
      [
        [
          0.08077643981023228,
          0.09919506995394367,
          -0.18262632776181706
        ],
        [
          0.07254888916002494,
          -0.013191092191045898,
          -0.011352925145737738
        ],
        [
          0.1522964854900654,
          0.07937482537966661,
          0.05206019454695278
        ]
      ],
      [
        [
          0.03513607530047863,
          -0.088642905130134,
          0.1210290878273805
        ],
        [
          0.0560889685174223,
          -0.08899549054736938,
          -0.03440552821749496
        ],
        [
          0.0990506288182125,
          -0.007835101276905032,
          0.005535448115917031
        ]
      ],
      [
        [
          -0.21091961311082896,
          -0.25573733347297656,
          -0.09782030979857677
        ],
        [
          -0.01674850272668057,
          -0.052455701246823534,
          -0.10350859337689537
        ],
        [
          0.13910457299684276,
          0.1421352800541328,
          0.09848570668703219
        ]
      ],
      [
        [
          -0.26149407210134656,
          -0.061907677954512616,
          -0.12670694217873513
        ],
        [
          -0.2922449270999558,
          0.08918731867779497,
          0.11693640479595571
        ],
        [
          -0.058134231008258264,
          -0.12493283626137304,
          0.023945482025656682
        ]
      ],
      [
        [
          0.1372302289668148,
          -0.20574983478546116,
          -0.2107531634927714
        ],
        [
          0.13578700043066305,
          -0.13554942540418713,
          -0.18431013427861287
        ],
        [
          0.20308130628006432,
          -0.06049803326850373,
          -0.023333124220933914
        ]
      ],
      [
        [
          -0.19668759460307889,
          -0.45072278590043324,
          -0.23902149835498868
        ],
        [
          0.03825954916935367,
          -0.20097996290843245,
          -0.3704408514527286
        ],
        [
          -0.009647552407442622,
          0.10459720771958711,
          0.04613196980193622
        ]
      ],
      [
        [
          0.22620684894281265,
          0.12490791349603587,
          -0.02247798880012995
        ],
        [
          0.018704284021589686,
          -0.07232927653586468,
          0.15532336459219262
        ],
        [
          0.011251794273579975,
          -0.11777739966948787,
          -0.038529286657973866
        ]
      ],
      [
        [
          0.03735336325646991,
          -0.059433031845787396,
          -0.08336462732424481
        ],
        [
          0.037273435639492904,
          0.050121154951495175,
          -0.04259322711560338
        ],
        [
          -0.030758721234520378,
          0.00769425039371287,
          0.038691483811296626
        ]
      ],
      [
        [
          0.06259688076486203,
          0.005852391509098897,
          -0.20279033310000952
        ],
        [
          -0.1141888018469552,
          -0.0348872309974749,
          -0.031710664444775986
        ],
        [
          0.10698082655819162,
          0.10981402663157804,
          0.09358918506783527
        ]
      ],
      [
        [
          -0.0503243742898593,
          0.008415471999942106,
          -0.15770917295440107
        ],
        [
          0.15895364674666373,
          0.09751934796301268,
          -0.059483849644286144
        ],
        [
          0.18393795678748817,
          -0.03842618656414169,
          -0.18225445709445653
        ]
      ],
      [
        [
          0.03546411975089393,
          -0.06201096859854394,
          0.24836262138169102
        ],
        [
          0.1184476904610828,
          0.04371363177784335,
          -0.1541490452845788
        ],
        [
          0.1106491521635409,
          0.03428480111589196,
          0.18673301108340057
        ]
      ]
    ],
    [
      [
        [
          0.13829961787801365,
          0.022689703212509977,
          -0.012807232391620174
        ],
        [
          0.008385056357775478,
          -0.025324267084931903,
          -0.06936034211619758
        ],
        [
          0.03828665469748621,
          -0.08972807277285884,
          0.050115673564365686
        ]
      ],
      [
        [
          -0.10757764252440877,
          -0.005218039748508286,
          0.02552046682632901
        ],
        [
          0.049701652385634294,
          0.18092545048760691,
          -0.08144993368198798
        ],
        [
          0.01170354028935473,
          0.039079192838844305,
          -0.11738412109738494
        ]
      ],
      [
        [
          -0.0024936807081898118,
          -0.005657215953021432,
          -0.03784105882178625
        ],
        [
          0.11948130293963997,
          0.1710358793206185,
          -0.15008681875374444
        ],
        [
          -0.033856590402009945,
          0.08834389239389139,
          0.002460937353919187
        ]
      ],
      [
        [
          0.03772583530632566,
          -0.0827182533163029,
          0.015542675571060247
        ],
        [
          0.04365048822187942,
          -0.09951956790650031,
          0.037716607164957644
        ],
        [
          0.05187504326908207,
          -0.06788921072403109,
          -0.014284271887924672
        ]
      ],
      [
        [
          -0.1405641415411159,
          -0.2491792972007922,
          0.04180158346031271
        ],
        [
          -0.0362076601139046,
          -0.11352947840324512,
          -0.1749921159119234
        ],
        [
          -0.013187698125637156,
          0.006243411245910314,
          -0.05156964727993432
        ]
      ],
      [
        [
          0.029619721052792154,
          0.06495035629612762,
          0.011329720810007615
        ],
        [
          -0.014073975273889077,
          -0.007203747092407963,
          0.03989257911261821
        ],
        [
          0.00628789501441682,
          0.033440897152968295,
          -0.04263791840996624
        ]
      ],
      [
        [
          0.021172954941660584,
          -0.16974791364206462,
          0.04144775907986698
        ],
        [
          -0.1617893762956403,
          0.020438483459238006,
          -0.003615610409673129
        ],
        [
          0.005227082359993013,
          0.057650610571662944,
          0.13666061046363046
        ]
      ],
      [
        [
          0.14831131258754854,
          -0.16268163784633327,
          -0.05616729399354208
        ],
        [
          -0.1922571219973375,
          -0.41853750640718673,
          -0.03694634093920761
        ],
        [
          -0.3070129137147821,
          -0.2466896353404697,
          0.025177839356292236
        ]
      ],
      [
        [
          0.019533458891150494,
          0.08709943676076563,
          0.003820538396478799
        ],
        [
          0.2185017699325537,
          -0.31086560861237916,
          0.22423797594134434
        ],
        [
          0.12361099592722787,
          -0.03996078675767025,
          0.3404701341818977
        ]
      ],
      [
        [
          0.013689121010706682,
          0.11357980031356486,
          0.014186407666271767
        ],
        [
          0.07434349477207966,
          0.16670790761343293,
          -0.12929137812321126
        ],
        [
          0.005958979277290946,
          0.11594751731953853,
          -0.09591661057047025
        ]
      ],
      [
        [
          0.12077918375115168,
          -0.14085283231167495,
          -0.25297537140328885
        ],
        [
          -0.3248020438853257,
          -0.1853815747459563,
          -0.17512338430170002
        ],
        [
          -0.3319344898481985,
          -0.13663397788608125,
          -0.02676774381151964
        ]
      ],
      [
        [
          0.08578903675728168,
          0.010195015981008646,
          -0.28148980717312194
        ],
        [
          0.23563470085037738,
          -0.18200118075131155,
          0.0005516795538999515
        ],
        [
          -0.005029810977355686,
          -0.1245735953446664,
          0.060960135889352764
        ]
      ],
      [
        [
          0.14681129302394713,
          -0.12286176382033936,
          0.17019627433914628
        ],
        [
          0.04923579182578642,
          -0.21173101296492144,
          0.0719972871832539
        ],
        [
          -0.021583621028119403,
          -0.08219371908508934,
          0.047552359826509585
        ]
      ],
      [
        [
          -0.21015196801807393,
          0.12010518272899867,
          -0.09390471194985514
        ],
        [
          -0.001829165796188337,
          -0.006482051487019855,
          0.019745390366319303
        ],
        [
          0.018344186020290656,
          -0.18223094992533675,
          0.03137477986418478
        ]
      ],
      [
        [
          0.026059290975277878,
          -0.1833682240262853,
          0.0877439357256788
        ],
        [
          -0.07401780991749937,
          -0.3053701598628306,
          0.0059105964195512945
        ],
        [
          0.034759044038041885,
          -0.14119232765019563,
          -0.004010595822994383
        ]
      ],
      [
        [
          0.16457566089563436,
          0.05470415313003582,
          0.07602555743023437
        ],
        [
          0.09153016695394246,
          0.11372607318380232,
          0.0049646004743869425
        ],
        [
          0.09087280252121444,
          0.06316645647416595,
          0.18128044765678628
        ]
      ]
    ],
    [
      [
        [
          0.06811196491536463,
          0.11669123512048969,
          -0.011744034279558257
        ],
        [
          0.12974280484761808,
          -0.015057842509743923,
          -0.049078517586768594
        ],
        [
          -0.010083708769006113,
          0.0744391553606522,
          -0.03542885446367963
        ]
      ],
      [
        [
          0.05507098062567388,
          0.02683460328001847,
          -0.014021237160603666
        ],
        [
          0.0603582610399012,
          0.055382773906410665,
          -0.09485361650345983
        ],
        [
          -0.08923410710261935,
          0.03560914155707647,
          -0.0672342558993422
        ]
      ],
      [
        [
          0.017000708746763262,
          0.18651309726378174,
          0.02594977237158375
        ],
        [
          0.0032893961832377726,
          0.050131951533890565,
          -0.011499302656865634
        ],
        [
          0.0030971047696167734,
          -0.19035716654196508,
          0.04966971089675744
        ]
      ],
      [
        [
          0.18479092331403066,
          0.11226794330074873,
          0.04023526652883747
        ],
        [
          0.1508266240970996,
          -0.04428773750454262,
          -0.02002659539778464
        ],
        [
          -0.0193563313338809,
          -0.06151523241181033,
          -0.061639526397345656
        ]
      ],
      [
        [
          0.09119799311414406,
          0.0667758002036543,
          -0.10268167720930212
        ],
        [
          0.0773176917180046,
          0.045697428359072444,
          0.026487151203658237
        ],
        [
          -0.015994245022815226,
          -0.035897976015223834,
          -0.032248293225760935
        ]
      ],
      [
        [
          0.06446019232621883,
          0.058834468107230156,
          0.08278040481010501
        ],
        [
          -0.08343247992763683,
          0.010099187491409468,
          -0.032094228812802834
        ],
        [
          0.02368470556675381,
          -0.0075070635965414035,
          0.034614470920619624
        ]
      ],
      [
        [
          -0.0635584673688939,
          0.13228370407712006,
          0.000677635346456364
        ],
        [
          -0.16107466619354818,
          0.0993070923765858,
          -0.10412690094198575
        ],
        [
          0.09424876016029292,
          0.10678776670103922,
          0.04059612287016157
        ]
      ],
      [
        [
          0.0556464210237729,
          0.01762014659730671,
          0.18152637435800428
        ],
        [
          -0.06785048057284676,
          0.02701287363249607,
          -0.0036976379615153783
        ],
        [
          0.02557415065057864,
          0.03446340233764479,
          0.004456897389548431
        ]
      ],
      [
        [
          0.026383879493061483,
          -0.19129953184403573,
          -0.04065007382763854
        ],
        [
          -0.13883241051473263,
          -0.9300253793618116,
          -0.07857529823810423
        ],
        [
          -0.4907883360444887,
          -0.856752817182556,
          -0.3297671557923567
        ]
      ],
      [
        [
          0.06754573287929216,
          0.1074374787095121,
          -0.1076410380474245
        ],
        [
          0.15072646956341398,
          0.036799952015662274,
          -0.1011509902274274
        ],
        [
          -0.01530362666871255,
          -0.05212587092934823,
          -0.1905692860506237
        ]
      ],
      [
        [
          0.07257224130707624,
          0.016566539431793592,
          0.05198864608626418
        ],
        [
          -0.024211034924912955,
          0.15709663388927705,
          0.10808129976272195
        ],
        [
          0.06995208947917962,
          0.06081432948022341,
          0.10017417232274177
        ]
      ],
      [
        [
          0.15999167081814286,
          0.17486633375252755,
          -0.007919369995755057
        ],
        [
          0.22731939933427336,
          -0.01728607462917164,
          0.019412895953114958
        ],
        [
          0.04298558207244149,
          -0.009247579271925599,
          -0.011896125905680344
        ]
      ],
      [
        [
          0.1309128163859143,
          -0.056582701138417235,
          -0.10076632611963666
        ],
        [
          0.11826406684410516,
          -0.05622025304402391,
          -0.06518736893069446
        ],
        [
          0.08121800039073246,
          0.08651859996534848,
          -0.04186921771783744
        ]
      ],
      [
        [
          -0.10426512688258026,
          0.10941119934214896,
          0.0420114389768227
        ],
        [
          0.12453293213055991,
          -0.03567876431503754,
          0.0507016178464671
        ],
        [
          -0.041552598975237415,
          -0.06855236085159691,
          -0.07738207575008436
        ]
      ],
      [
        [
          -0.024910393669274743,
          -0.10694197158852452,
          0.12550987430286611
        ],
        [
          -0.05968278650999625,
          -0.016007447088091906,
          -0.04801942555582873
        ],
        [
          0.04954297779092314,
          0.0436323413430619,
          -0.059888816479329525
        ]
      ],
      [
        [
          0.014182808963552403,
          0.04012662875867325,
          -0.2766528626873713
        ],
        [
          -0.07510504039751481,
          -0.12659422074528576,
          -0.1581793108964211
        ],
        [
          0.05673397828303258,
          -0.24484028163949192,
          -0.1728273411425397
        ]
      ]
    ],
    [
      [
        [
          -0.022587221560501983,
          -0.19959455174740423,
          0.1978067554021259
        ],
        [
          -0.11462007858674635,
          -0.25869788746601813,
          0.252823653474022
        ],
        [
          -0.0224294424559045,
          -0.16377975824922755,
          0.14986793157429718
        ]
      ],
      [
        [
          0.0585735675648469,
          0.05421694288148945,
          0.013053680954794564
        ],
        [
          0.17813630801744462,
          -0.010307726486747663,
          -0.12571002001409298
        ],
        [
          -0.04095591048854405,
          -0.08277555644610332,
          -0.14287002280840225
        ]
      ],
      [
        [
          0.006377508045671311,
          -0.09720510904080697,
          0.07986070259518316
        ],
        [
          -0.059341393821698334,
          -0.032467240082447814,
          0.1762326993737213
        ],
        [
          -0.0010426678183719778,
          0.059706001719216896,
          -0.06433590765074516
        ]
      ],
      [
        [
          -0.021022664041547578,
          -0.0647052776165617,
          0.004956951465969515
        ],
        [
          0.0016808480789109426,
          -0.0684425221175656,
          0.03137098101677555
        ],
        [
          0.0638692213074095,
          -0.0291256965647823,
          -0.030137929684472587
        ]
      ],
      [
        [
          -0.2475596735672045,
          -0.1363263122436268,
          -0.20697189038733851
        ],
        [
          0.07303498791120384,
          -0.08789500216634721,
          -3.9748401141059395e-05
        ],
        [
          0.08443931630626576,
          0.013531056772380857,
          -0.14317679286931495
        ]
      ],
      [
        [
          -0.04749432690166643,
          0.03089387981702968,
          0.05379139086493418
        ],
        [
          0.032361314373471554,
          -0.046522437881082505,
          -0.006897953830870601
        ],
        [
          -0.06237038284859898,
          -0.0025115231687081107,
          -0.007282523639555402
        ]
      ],
      [
        [
          0.010730666667134079,
          0.09607718753518361,
          -0.06451485852873705
        ],
        [
          -0.0039055600838636935,
          -0.04108311422158096,
          -0.07703813526884858
        ],
        [
          -0.023699319452807458,
          -0.08553147559452177,
          0.0025887356283581177
        ]
      ],
      [
        [
          0.01912847232349868,
          -0.17007248845785367,
          -0.06794180175299176
        ],
        [
          -0.061277635493305366,
          -0.1135171936347837,
          -0.06059934536845795
        ],
        [
          -0.0385254997034754,
          -0.10342986259013727,
          -0.1108631020927235
        ]
      ],
      [
        [
          0.18820184971899354,
          0.040129408802280726,
          0.14793215885190575
        ],
        [
          -0.1329980413763164,
          0.2423811555329362,
          0.13222572272178
        ],
        [
          0.058952900027996906,
          0.23623852983195942,
          0.10748724966291759
        ]
      ],
      [
        [
          0.01447465681436009,
          -0.13209055228345307,
          0.14423847567221204
        ],
        [
          0.07559293539367527,
          -0.1497383267287448,
          0.11280380775638889
        ],
        [
          0.07383861740388353,
          -0.0944800227572219,
          0.030902875482906874
        ]
      ],
      [
        [
          -0.04307713684955098,
          -0.138623558963832,
          0.12267061581144889
        ],
        [
          -0.05545676036103257,
          0.05334530739218548,
          0.03693029647060307
        ],
        [
          -0.0432838302031633,
          -0.032177566877327854,
          0.007886593930227625
        ]
      ],
      [
        [
          -0.13479324286941496,
          -0.35607545682627506,
          0.007596531802976131
        ],
        [
          -0.14729992368522624,
          0.047551048796616424,
          0.055613255108385946
        ],
        [
          0.033951208329573705,
          0.1088572000736082,
          -0.06880940928628661
        ]
      ],
      [
        [
          -0.15026240504500907,
          -0.1560958906981376,
          -0.07428223852818218
        ],
        [
          -0.10301176034127452,
          -0.26624128226608296,
          -0.07512611157776518
        ],
        [
          0.0011552087911778665,
          -0.09128320381231829,
          -0.05022898374112343
        ]
      ],
      [
        [
          0.14407605253615466,
          0.02559208533899353,
          -0.14246411260752045
        ],
        [
          0.0018739766463518309,
          -0.08550423633131526,
          -0.057249319991572435
        ],
        [
          -0.032640215043358685,
          0.020436681375012387,
          -0.02474924011955245
        ]
      ],
      [
        [
          -0.06479106186211231,
          -0.05575655976535411,
          0.0482802357582809
        ],
        [
          -0.23496360570323715,
          -0.16262794022048518,
          -0.025495717750326916
        ],
        [
          -0.11646427856186464,
          -0.15567999410193903,
          -0.0029121871874398693
        ]
      ],
      [
        [
          0.01154835697924846,
          -0.0026261168442176463,
          0.15316738740802913
        ],
        [
          0.1789669798806534,
          -0.09227794425470141,
          0.19282022734809207
        ],
        [
          0.07236579647449103,
          0.010683351820848935,
          0.011942790573015241
        ]
      ]
    ],
    [
      [
        [
          -0.004955529311896408,
          0.0049422227401259315,
          0.16634512248796138
        ],
        [
          -0.03761993353643754,
          0.000273263421543988,
          0.060446148473772644
        ],
        [
          -0.018804136922536387,
          0.032272887226892845,
          0.12639390231379435
        ]
      ],
      [
        [
          0.019319259584566643,
          0.04961019913195186,
          -0.041012844347073675
        ],
        [
          -0.03191877516222594,
          0.01982418258149609,
          0.11061789062758987
        ],
        [
          0.04091231244822665,
          -0.02486729334694211,
          0.030541070470822253
        ]
      ],
      [
        [
          -0.2357410377384958,
          0.04369255407926284,
          0.10416049113315694
        ],
        [
          -0.021959631815181933,
          0.07602982935641243,
          0.00772894263308348
        ],
        [
          0.03242921290437474,
          0.10892992204493643,
          0.0763770839089651
        ]
      ],
      [
        [
          -0.06586044472374035,
          0.10015430058676987,
          -0.03741077117452014
        ],
        [
          0.06701207805897946,
          -0.033070980616391445,
          -0.028239399575345
        ],
        [
          -0.016297912357200114,
          0.03281875393683915,
          -0.14889386156648332
        ]
      ],
      [
        [
          0.06768568769025,
          0.07568523429504995,
          0.023293956920026816
        ],
        [
          0.040341134456380795,
          -0.04942250195689338,
          -0.007774923399591376
        ],
        [
          -0.034800397838307795,
          -0.08907472894766807,
          -0.06341951097628332
        ]
      ],
      [
        [
          0.011577772544773225,
          -0.11113340117333116,
          -0.008903644649986773
        ],
        [
          -0.10252376344126266,
          -0.04982190020174985,
          -0.0013230070760209683
        ],
        [
          -0.10886135136089009,
          -0.07074875432479068,
          0.11640038697814353
        ]
      ],
      [
        [
          -0.01727955485460714,
          -0.08608043719532027,
          -0.07631740432998144
        ],
        [
          -0.07461261268786433,
          0.05041505066287975,
          0.028758068570378263
        ],
        [
          -0.03755473114178387,
          -0.0663067025011452,
          0.0691565647116747
        ]
      ],
      [
        [
          0.17227996494923153,
          -0.11123688552996368,
          -0.055541737106833765
        ],
        [
          -0.2775873119986186,
          -0.281244073293381,
          -0.2736996092238295
        ],
        [
          -0.300490347072907,
          -0.275974297697722,
          -0.2933945540818297
        ]
      ],
      [
        [
          0.024693560967136693,
          -0.08065549491321021,
          -0.18025617857282927
        ],
        [
          -0.10175640427136858,
          -0.28715251203327175,
          -0.30554410276861516
        ],
        [
          -0.16193117843358226,
          -0.38861437391306763,
          -0.1905800764574452
        ]
      ],
      [
        [
          -0.2190727802957311,
          -0.05719561322955003,
          0.015613358132868384
        ],
        [
          -0.05981841461270517,
          0.02734695129476133,
          -0.03200955739346649
        ],
        [
          -0.07229515804451078,
          -0.07808719791507988,
          -0.07569942777731274
        ]
      ],
      [
        [
          0.2170627120570638,
          -0.16551938034747282,
          0.039247935656311767
        ],
        [
          -0.287675114675481,
          -0.3772455659338187,
          -0.33564580377553555
        ],
        [
          -0.3534235512096383,
          -0.31779978253674773,
          -0.24329759782122637
        ]
      ],
      [
        [
          0.09984873434124279,
          -0.05563485763641485,
          -0.08485210832397984
        ],
        [
          0.026224350844313,
          -0.19332455519435257,
          -0.08592003964490881
        ],
        [
          -0.1448504166477693,
          -0.20868441153606593,
          -0.15953668011007868
        ]
      ],
      [
        [
          0.056797344694296266,
          -0.13254329950210988,
          -0.04967088056447522
        ],
        [
          -0.14327557019775633,
          -0.11941683374429773,
          -0.06759514728797117
        ],
        [
          -0.060387527451264446,
          -0.1367669390359124,
          -0.015510908849530191
        ]
      ],
      [
        [
          -0.179541847503228,
          0.0007309635922118199,
          -0.029411872936820814
        ],
        [
          -0.055422949780646144,
          0.057110040028788146,
          0.014726397333537531
        ],
        [
          -0.06875080508504809,
          0.028517610519791174,
          0.02210406892213404
        ]
      ],
      [
        [
          0.003995072177947544,
          -0.016953075265577742,
          0.10924272450782915
        ],
        [
          -0.08623818371014513,
          -0.06083116439403545,
          0.06096733507190107
        ],
        [
          -0.009625908234413108,
          -0.00847824219398057,
          0.008806947695633149
        ]
      ],
      [
        [
          0.07801684236654181,
          0.05719520072624396,
          0.055101274607273466
        ],
        [
          -0.15211488938307055,
          -0.11800725676137193,
          0.00011286123223226744
        ],
        [
          -0.13887036571818953,
          0.018206107562006617,
          -0.11477935992573783
        ]
      ]
    ],
    [
      [
        [
          0.11759419855125594,
          0.040667175287501446,
          -0.07552758828416989
        ],
        [
          -0.08148815780339996,
          -0.051973487059962444,
          -0.11555622203394023
        ],
        [
          -0.05357260914225606,
          -0.08472409601193064,
          0.05716143395144519
        ]
      ],
      [
        [
          -0.05966429765954487,
          0.028446304116338996,
          -0.09016542898621532
        ],
        [
          0.041731602250004766,
          0.007060597962543115,
          -0.12746037520458708
        ],
        [
          -0.0720902132244188,
          0.0023276929718635936,
          -0.04741180879892226
        ]
      ],
      [
        [
          0.07372469059673577,
          -0.05475716965537077,
          -0.10406924471380641
        ],
        [
          -0.008677060815313624,
          0.03434461525801525,
          -0.04634483732729787
        ],
        [
          0.0672195292583074,
          -0.0378516428815932,
          -0.14266571811386994
        ]
      ],
      [
        [
          0.14621625542984867,
          -0.01061098732870847,
          0.004217474897461913
        ],
        [
          -0.08467912228877882,
          -0.07276491902490281,
          -0.0436673123401279
        ],
        [
          -0.019338967530083257,
          -0.1646708070080991,
          -0.0858518437989919
        ]
      ],
      [
        [
          0.0023785813457557377,
          0.034194317521205816,
          0.19802718763227753
        ],
        [
          -0.11924932907363818,
          -0.13417996896006468,
          -0.2627529827272272
        ],
        [
          -0.15016371807031167,
          0.03075732211852611,
          -0.18290466315856513
        ]
      ],
      [
        [
          -0.052306982099225505,
          0.023803439219819186,
          0.0010499246055670766
        ],
        [
          0.09231100994636625,
          0.022695757380354953,
          0.02383822251010033
        ],
        [
          0.04432527065512401,
          0.04328423970625878,
          0.039072879306999854
        ]
      ],
      [
        [
          -0.03040175677344787,
          -0.019286060068208256,
          -0.03184006054359581
        ],
        [
          0.007869909352650781,
          -0.05285493147287288,
          -0.09579536086180634
        ],
        [
          -0.03141102936201621,
          0.06689027054086381,
          0.022306429932076273
        ]
      ],
      [
        [
          -0.13234711525917725,
          -0.28371687170477017,
          -0.19468873360862896
        ],
        [
          -0.11461767244390753,
          -0.06484207312784888,
          -0.051613973283398756
        ],
        [
          0.0038060762623152284,
          0.010456833203930248,
          0.0749101698452831
        ]
      ],
      [
        [
          0.05683127478107916,
          -0.01041581460636045,
          0.019764626683981625
        ],
        [
          -0.1903195849593916,
          -0.1519563437366338,
          0.1630919880170698
        ],
        [
          0.018871395329635506,
          -0.2834586484558448,
          -0.031217451809618216
        ]
      ],
      [
        [
          0.12408162464140034,
          0.14729006531216107,
          0.1540847137696776
        ],
        [
          0.09000083716193522,
          0.0328465392495158,
          -0.011754114488271
        ],
        [
          0.0017952877715652622,
          -0.07326261601329892,
          -0.13377944110678744
        ]
      ],
      [
        [
          -0.24097889554155774,
          -0.285761068928003,
          -0.07368832673920982
        ],
        [
          -0.2662211636289468,
          -0.32150082746066294,
          -0.3027932359578328
        ],
        [
          -0.07295130335553203,
          -0.10565822692142665,
          0.025327866924668204
        ]
      ],
      [
        [
          0.05830640808279634,
          -0.12651268530510681,
          0.004741276201620747
        ],
        [
          -0.10045341407745242,
          -0.14412275019497164,
          -0.1586530771989039
        ],
        [
          -0.032982859222164054,
          -0.07362267224090786,
          -0.1739947166157207
        ]
      ],
      [
        [
          0.004041230089052243,
          -0.004465871103252034,
          0.13903065016492108
        ],
        [
          -0.05925485439661797,
          0.01278289703951835,
          -0.06680512865656507
        ],
        [
          -0.057363219610184576,
          -0.0431607227765532,
          0.07829743246110356
        ]
      ],
      [
        [
          0.1376320814507893,
          0.036037649622028725,
          -0.009600567649492416
        ],
        [
          0.02109433322973808,
          -0.05008927567956347,
          0.07349930045247118
        ],
        [
          -0.05033759545499811,
          -0.16147939786886203,
          -0.024439108150977665
        ]
      ],
      [
        [
          0.003560351736040897,
          -0.09413412519438098,
          0.03473293054773973
        ],
        [
          0.05175987167466809,
          0.003449489175677061,
          0.06990023494012151
        ],
        [
          0.06278625380736995,
          -0.018951652560604385,
          0.13688604572696159
        ]
      ],
      [
        [
          -0.039288364047445186,
          -0.2963163055702751,
          -0.21857039573574144
        ],
        [
          -0.15628474331251932,
          -0.4254796029143598,
          -0.23161563756287176
        ],
        [
          0.01196338366208629,
          -0.5015713384132222,
          -0.31151356312337714
        ]
      ]
    ],
    [
      [
        [
          0.07042042214051794,
          0.12420881728789782,
          -0.03032963788482911
        ],
        [
          0.10246641596090411,
          0.044305086069377074,
          -0.18504691874492948
        ],
        [
          0.13144912521217197,
          0.05050147878662195,
          -0.25747226068906975
        ]
      ],
      [
        [
          -0.0691508448391241,
          0.1011998224307951,
          0.3200212663140747
        ],
        [
          -0.31295839806815284,
          -0.048556043921979146,
          0.07698482304514215
        ],
        [
          -0.23872287602960798,
          -0.11174432114137932,
          0.13055058073369516
        ]
      ],
      [
        [
          -0.024863606810525078,
          0.1718912162831187,
          0.19888003564825765
        ],
        [
          -0.08253372689404015,
          0.23873124745659147,
          0.2058291960180556
        ],
        [
          -0.07177999565977623,
          -0.07071539265859689,
          0.020084096854607002
        ]
      ],
      [
        [
          -0.003011083074522318,
          0.044923865636713085,
          -0.004227826740058247
        ],
        [
          -0.06321693515981587,
          -0.13866265474543796,
          -0.06469342615029766
        ],
        [
          -0.020447235230230617,
          -0.10520773452823262,
          -0.12929805001895595
        ]
      ],
      [
        [
          0.12199735231761864,
          -0.008498845095223464,
          -0.03405568050161764
        ],
        [
          0.02842484842585368,
          -0.07360150297897829,
          -0.0033861262130283052
        ],
        [
          0.0755660976669173,
          -0.01594141777636209,
          0.1307612242496172
        ]
      ],
      [
        [
          -0.08831252522126076,
          0.04421548153335836,
          0.10882242578061066
        ],
        [
          -0.05683686975205097,
          -0.08178987357534928,
          0.13292740848635076
        ],
        [
          -0.07493603069702832,
          0.021019594265048378,
          -0.00023355975514111356
        ]
      ],
      [
        [
          0.04472115631968243,
          -0.03674563212665336,
          -0.0030386118716061537
        ],
        [
          -0.032042194363401263,
          0.03138254249681808,
          0.06135869623165949
        ],
        [
          -0.031345125171857745,
          0.07125293036049969,
          -0.16535140297509363
        ]
      ],
      [
        [
          0.12410160188604083,
          -0.1905654375867493,
          -0.2800318584880511
        ],
        [
          0.04305607616231975,
          -0.22701427484323944,
          -0.125617088531866
        ],
        [
          0.0660834764114729,
          -0.020326540134621172,
          -0.04662146886419765
        ]
      ],
      [
        [
          -0.010897199890272309,
          0.21417901861596628,
          0.0664942088193723
        ],
        [
          0.15510802662131032,
          -0.03265410839085424,
          0.15123908947826348
        ],
        [
          0.0828067312672784,
          0.11494352076318519,
          0.2464577493408288
        ]
      ],
      [
        [
          -0.3152470629946765,
          0.03172302142269491,
          0.008749535896705261
        ],
        [
          -0.4647629332815235,
          -0.13301175479919286,
          -0.2398528622162648
        ],
        [
          -0.41748894344233345,
          -0.32101932186904114,
          -0.19395088589454995
        ]
      ],
      [
        [
          0.20928745584341962,
          -0.027769123677266094,
          -0.13986479399945467
        ],
        [
          0.025684086327042336,
          -0.05319538578636265,
          0.14728392551910816
        ],
        [
          0.11176886740555035,
          -0.022422543906836737,
          -0.051117191001148796
        ]
      ],
      [
        [
          -0.005402565236906497,
          0.230353741899514,
          -0.09663924118113211
        ],
        [
          0.09845255359715008,
          0.05781462711430672,
          -0.04099080303993093
        ],
        [
          0.15165746273391228,
          0.08090116887411827,
          0.18407992391941552
        ]
      ],
      [
        [
          0.16609479312522885,
          -0.006555413409800122,
          -0.10973623506475941
        ],
        [
          0.27195856873441987,
          0.044131404172251164,
          -0.10214117769506034
        ],
        [
          0.1823001791182234,
          0.10706285663364908,
          0.023938844619932547
        ]
      ],
      [
        [
          -0.12677787862853024,
          -0.07250075100557228,
          0.20606611596594204
        ],
        [
          -0.039716262538199126,
          -0.04371349080910886,
          0.06708821313241245
        ],
        [
          0.006664987098330365,
          0.029758198984775826,
          -0.12699950342800756
        ]
      ],
      [
        [
          0.029425392057209388,
          -0.025986395770295503,
          0.0029924458221703993
        ],
        [
          0.12409550234143495,
          -0.13058490897599598,
          -0.118081537598187
        ],
        [
          0.16549357377559512,
          -0.0053261242812333845,
          -0.13110907249053474
        ]
      ],
      [
        [
          0.13052495605707842,
          -0.1827932599136671,
          -0.029444189161440235
        ],
        [
          -0.164500465587044,
          -0.016869620320668625,
          -0.07808264348720687
        ],
        [
          0.045393633105381755,
          -0.04589391577506611,
          -0.0811997779891663
        ]
      ]
    ],
    [
      [
        [
          0.0669787415688131,
          0.02127742317320591,
          0.02114164782941124
        ],
        [
          -0.010136338964367508,
          -0.07133430219385856,
          0.05817614558702172
        ],
        [
          -0.009622904586900132,
          -0.1274805397938699,
          0.08887368234980425
        ]
      ],
      [
        [
          -0.07501430207641023,
          -0.1437170324161551,
          -0.119048529170743
        ],
        [
          0.0009842244373530196,
          0.05993107759405312,
          -0.03857202477649887
        ],
        [
          0.12067690528772715,
          0.1628611259650909,
          0.048222802132265034
        ]
      ],
      [
        [
          0.1167436688506443,
          -0.019093392716945837,
          -0.010229812667035999
        ],
        [
          0.01717472462115299,
          0.09708190869654487,
          0.0510701287410144
        ],
        [
          0.11897060724052387,
          -0.01041825823946234,
          0.07280798884104499
        ]
      ],
      [
        [
          0.01501540523814676,
          -0.0421647395920474,
          -0.09272413633223359
        ],
        [
          0.08195556740813231,
          -0.0007904341663895353,
          -0.07402986430002716
        ],
        [
          -0.07113678150860576,
          -0.012332415658522373,
          0.03639013129158951
        ]
      ],
      [
        [
          -0.128201317190615,
          -0.15938811676126852,
          -0.0344569705328206
        ],
        [
          0.04462373961146228,
          0.11628960211325048,
          0.1013925994898385
        ],
        [
          -0.05314867892208891,
          -0.013232890103706506,
          0.11545374462201667
        ]
      ],
      [
        [
          0.05751728453427296,
          0.1269462758177445,
          0.03402708795803046
        ],
        [
          -0.14970750528520269,
          -0.019644406167837962,
          -0.0002072416794483376
        ],
        [
          -0.08575402295059771,
          -0.10666033430746129,
          0.013880744819395014
        ]
      ],
      [
        [
          -0.051162937626181446,
          0.12231572410909078,
          0.23940864516604918
        ],
        [
          -0.10064211990313905,
          -0.006183838451454257,
          0.009869381865795303
        ],
        [
          -0.185603066987008,
          -0.052925557680901035,
          -0.045634218941202044
        ]
      ],
      [
        [
          0.021872794815708037,
          0.08327238613299434,
          0.09871496545031007
        ],
        [
          0.030882192258744966,
          0.08912045884059339,
          0.023861024865079974
        ],
        [
          -0.06508773643771071,
          -0.24387454775894377,
          0.005267776696306049
        ]
      ],
      [
        [
          0.2560723268990915,
          0.1573511600437432,
          0.18671928228297308
        ],
        [
          -0.14684837797192885,
          -0.06086471987680312,
          0.11618563498814595
        ],
        [
          0.06109259159839514,
          -0.09491395916692373,
          -0.13069326028835584
        ]
      ],
      [
        [
          0.09031200941196062,
          -0.03720727110222415,
          -0.11840816465998245
        ],
        [
          0.14583882560875974,
          0.023864876332700857,
          -0.06041346468130978
        ],
        [
          0.181652057902843,
          -0.02449302792193321,
          0.09910287111013114
        ]
      ],
      [
        [
          -0.034185253565512747,
          0.10424985841016732,
          0.18576464377816074
        ],
        [
          -0.09993035789481265,
          0.02813524166636666,
          0.12810315463198266
        ],
        [
          -0.11222619937664836,
          -0.2556595232379693,
          0.11834707986068649
        ]
      ],
      [
        [
          0.055622770547644425,
          -0.078642600010159,
          0.07169644364016879
        ],
        [
          0.038526039130902495,
          -0.04851970441992886,
          -0.0008287770675123195
        ],
        [
          0.07894667684815046,
          -0.22742938103083496,
          -0.24978532962522024
        ]
      ],
      [
        [
          0.08370965049627259,
          0.06623343193919415,
          0.025342860662785467
        ],
        [
          0.07521613493544144,
          0.1079994509334583,
          0.023113321021145803
        ],
        [
          -0.052669251752952735,
          -0.03768154315261968,
          0.03816154456894627
        ]
      ],
      [
        [
          -0.12680627491324836,
          0.07287239678404016,
          0.055044065452524084
        ],
        [
          -0.27401204941439633,
          -0.2742329008372232,
          0.1551757216619164
        ],
        [
          -0.1403451998277531,
          -0.18321434068363104,
          -0.12367434936921401
        ]
      ],
      [
        [
          0.036820200087743074,
          0.04734481914342939,
          0.1928642800772401
        ],
        [
          -0.02957061876086539,
          -0.0255672743415469,
          0.028698981576643044
        ],
        [
          -0.02132980298923777,
          -0.09110861425124718,
          0.030281442352977608
        ]
      ],
      [
        [
          -0.06610496897867002,
          -0.11196017192790834,
          0.017005058052075927
        ],
        [
          -0.07261948842831299,
          0.08351483473256942,
          -0.00608073434292792
        ],
        [
          0.001894388805946883,
          -0.17032214680430965,
          0.10371829908756672
        ]
      ]
    ],
    [
      [
        [
          0.11922078587794743,
          -0.0027033271313549084,
          -0.16113636821112284
        ],
        [
          0.1177328517275679,
          0.011289885523401107,
          -0.15625525128642279
        ],
        [
          0.12727575780611108,
          -0.0776738519990708,
          -0.15281708423157792
        ]
      ],
      [
        [
          0.05536240710314892,
          0.172380318275277,
          0.10794809057854945
        ],
        [
          -0.001109058084867677,
          0.2009657733016561,
          0.03775971681866689
        ],
        [
          -0.16638190200907202,
          -0.10233834446826028,
          -0.1421248225854788
        ]
      ],
      [
        [
          -0.08880344097557914,
          0.05552094491309704,
          0.12681008481505862
        ],
        [
          0.09356382717852557,
          -0.08630925543379549,
          0.011481142422511534
        ],
        [
          -0.06095353238990184,
          -0.0031678715004282774,
          -0.09392301110674757
        ]
      ],
      [
        [
          -0.11202561941751746,
          -0.1946104857381382,
          -0.2830475154866994
        ],
        [
          0.1302824513004898,
          -0.05146024971575635,
          -0.21330333081653094
        ],
        [
          0.13296322930436563,
          0.022720340467147566,
          -0.15904242425757276
        ]
      ],
      [
        [
          -0.15257096889234803,
          0.0037194413196151356,
          -0.13065084258741294
        ],
        [
          0.1387159327289299,
          0.007092177677664857,
          -0.03367043678670257
        ],
        [
          -0.011032475936176817,
          0.12092906863722255,
          -0.12284394117952373
        ]
      ],
      [
        [
          -0.05012531512082801,
          -0.05966980140558318,
          -0.1449762089765474
        ],
        [
          -0.03485753055774627,
          0.12460239264288495,
          -0.02725096971704388
        ],
        [
          0.05954071243670554,
          0.08797294787283025,
          -0.08592227820726459
        ]
      ],
      [
        [
          -0.15714508011220948,
          -0.12499092732171917,
          -0.021133867781689193
        ],
        [
          -0.10575974493821759,
          0.11413793324390972,
          0.006528983789518755
        ],
        [
          -0.06013844809615508,
          -0.032488897371226746,
          0.1076482580417041
        ]
      ],
      [
        [
          0.1931156365436482,
          -0.21776931390613438,
          -0.21858394594014133
        ],
        [
          0.12265417909362752,
          -0.012438764706439941,
          -0.14923437660112687
        ],
        [
          0.0654333950935102,
          0.08496501174751953,
          -0.03649671586468687
        ]
      ],
      [
        [
          -0.043543923150060566,
          -0.3704166723687609,
          0.028536790376501246
        ],
        [
          0.03495478648190223,
          0.006527020082078896,
          0.08524568678959958
        ],
        [
          -0.3237438517886889,
          -0.262484362409484,
          0.03552199360583626
        ]
      ],
      [
        [
          0.15810988498275858,
          0.1314913673258072,
          -0.08598300194641452
        ],
        [
          0.11535526344031799,
          0.05986598175448016,
          -0.06674466445122396
        ],
        [
          -0.12044375553414352,
          -0.19489374645987645,
          -0.3245119316474392
        ]
      ],
      [
        [
          0.06581423266696777,
          -0.32918530115321026,
          -0.3564438894322488
        ],
        [
          0.21820303306616987,
          0.10419974860006878,
          0.0022618289352951907
        ],
        [
          0.01732528447759833,
          0.10015542387188114,
          0.019168118906326956
        ]
      ],
      [
        [
          0.14203042933205726,
          -0.07844170492707656,
          -0.00914273385558993
        ],
        [
          0.12490508351929556,
          0.008020736709134006,
          -0.03485438260633768
        ],
        [
          -0.04132788181376955,
          0.1351144677517638,
          -0.04557948562224883
        ]
      ],
      [
        [
          0.16345337887074007,
          -0.0777957893006476,
          -0.0828286411454545
        ],
        [
          0.1300189419015496,
          -0.08841264769760313,
          0.10163622033964519
        ],
        [
          0.19789807997048872,
          9.966419358187091e-06,
          0.018763912225024302
        ]
      ],
      [
        [
          0.009117171156294793,
          -0.13148424132939432,
          -0.05352047099099204
        ],
        [
          0.17723296129153235,
          0.07888036429060369,
          -0.07566185039378608
        ],
        [
          0.08056289360456721,
          0.031327646197484994,
          0.015527178101888162
        ]
      ],
      [
        [
          0.01696436520808099,
          -0.01632641696953978,
          -0.18709684669444177
        ],
        [
          0.06653487784100093,
          0.02130972628458893,
          -0.05292160253917254
        ],
        [
          0.07150646701497981,
          -0.1688850988579692,
          -0.1883914220411711
        ]
      ],
      [
        [
          0.07474080009195061,
          -0.00876277992730563,
          0.028503865023819054
        ],
        [
          0.25307959902949856,
          0.04333820365520644,
          -0.23023963748337872
        ],
        [
          0.04515754634288017,
          0.1554699442457025,
          -0.08908248581233895
        ]
      ]
    ],
    [
      [
        [
          0.027121634612677387,
          -0.17489678189408628,
          0.013444763578205529
        ],
        [
          -0.15290253151488406,
          -0.40114121883317383,
          -0.19083862602478185
        ],
        [
          -0.12135757759285101,
          -0.17082528620461712,
          -0.23791346513070882
        ]
      ],
      [
        [
          0.0044696013130452635,
          -0.048510976279513916,
          -0.03617288408803314
        ],
        [
          0.04471251138685126,
          0.03410111828410797,
          -0.06286314798528984
        ],
        [
          -0.0666832601056735,
          -0.0029203935223856073,
          0.024066615773266867
        ]
      ],
      [
        [
          -0.041292047655736165,
          -0.06716117662254012,
          -0.07995375751673486
        ],
        [
          -0.03174589092686135,
          -0.13990796989719623,
          0.049193914769697755
        ],
        [
          0.06331040829058401,
          0.1154335488591226,
          0.11925381312962176
        ]
      ],
      [
        [
          -0.002308161524857796,
          0.01663304762117435,
          -0.1445343679556553
        ],
        [
          0.021330358405250136,
          0.013868182161904573,
          -0.07880263596273256
        ],
        [
          0.14583128874547252,
          0.14507538680271514,
          -0.04495740581110072
        ]
      ],
      [
        [
          -0.02417168514912174,
          -0.04609445830942866,
          -0.11236659382622713
        ],
        [
          0.09716568096128513,
          -0.059727183940463266,
          -0.1164222999263172
        ],
        [
          0.0952002692421963,
          0.0332933118188858,
          -0.05575309734476745
        ]
      ],
      [
        [
          -0.00370078476577562,
          -0.060833920130746094,
          0.042693245712528895
        ],
        [
          0.05595357084369103,
          -0.04299226410745779,
          0.007013681528969397
        ],
        [
          -0.03293574214102568,
          0.05071177206180186,
          -0.047349145485241224
        ]
      ],
      [
        [
          -0.04444034812765165,
          0.12991006464651328,
          0.05938457514156565
        ],
        [
          -0.08275889127951198,
          0.033480461924640444,
          -0.007791409262578132
        ],
        [
          -0.18896690494010934,
          -0.10788811311848934,
          -0.04763376134259102
        ]
      ],
      [
        [
          0.1658777608520376,
          -0.05130594107746074,
          -0.030454920155523965
        ],
        [
          0.09575578128986195,
          -0.05967249076139013,
          -0.07939929531660254
        ],
        [
          -0.04695458174567601,
          -0.08029891027836135,
          -0.005023690916957146
        ]
      ],
      [
        [
          0.08244098748462708,
          -0.12538437233876834,
          0.018657897194474138
        ],
        [
          0.03178922240153905,
          -0.0991590672823557,
          -0.11862929776849648
        ],
        [
          0.13268982741679775,
          0.2397954085155964,
          0.07264183309768217
        ]
      ],
      [
        [
          -0.08585141525805205,
          -0.041609676254471595,
          -0.04597975889866008
        ],
        [
          -0.11540611388496871,
          -0.24511985940986783,
          -0.14208757591171492
        ],
        [
          0.0007158266995440033,
          -0.07578844182001478,
          -0.07687968917259966
        ]
      ],
      [
        [
          -0.010770469100847984,
          0.04091137224227068,
          0.11840335362830105
        ],
        [
          -0.03542401121944905,
          -0.04185029101488452,
          0.07802168124477556
        ],
        [
          0.005942220452773501,
          0.02290482910432353,
          0.06751828714385252
        ]
      ],
      [
        [
          -0.20983842426140686,
          -0.2281770284696249,
          -0.1723042174484209
        ],
        [
          0.1296647909532991,
          -0.18603370100600547,
          -0.12590062854961734
        ],
        [
          -0.06112301490325693,
          0.1342242157294892,
          0.14405295210569766
        ]
      ],
      [
        [
          -0.13794213982802175,
          -0.03375414994702332,
          0.04857109848019623
        ],
        [
          -0.090450039309166,
          -0.23865354670033376,
          -0.14914248326815643
        ],
        [
          0.08272752820579166,
          -0.10729109874417367,
          -0.07487047457150889
        ]
      ],
      [
        [
          0.07812722776177575,
          -0.07391107677824063,
          -0.09850091002731838
        ],
        [
          0.03142087383981107,
          0.08352989643588116,
          -0.05220109859062601
        ],
        [
          0.09260168379922193,
          0.12852874207989592,
          0.10719418084116202
        ]
      ],
      [
        [
          -0.022098837458935948,
          -0.00465015409087479,
          0.18213250269462308
        ],
        [
          -0.20152798409289846,
          -0.2511138644460507,
          0.013083350312537649
        ],
        [
          -0.04460150535930435,
          -0.1734153300359155,
          -0.13295947878010322
        ]
      ],
      [
        [
          -0.27874442857084475,
          -0.06666366715112097,
          -0.04347097711070214
        ],
        [
          0.011626916357599238,
          -0.01694265836658831,
          -0.10405891842043338
        ],
        [
          0.09932563671044525,
          0.16391907174759687,
          0.02032071970531892
        ]
      ]
    ],
    [
      [
        [
          -0.01478956094863381,
          0.036555447140042885,
          -0.051134372048262024
        ],
        [
          0.06847990971105189,
          0.051855837108051035,
          0.04796677316716407
        ],
        [
          -0.04284155571324782,
          0.08060428098509062,
          0.02835796854032212
        ]
      ],
      [
        [
          -0.028039420341248397,
          0.08973710204409888,
          0.13316793976457503
        ],
        [
          0.03338139024505239,
          0.02048088639244291,
          0.1313805949744598
        ],
        [
          -0.09233980584316027,
          -0.07658318074012653,
          0.045560661581696034
        ]
      ],
      [
        [
          -0.11166452970136262,
          0.09105148779854554,
          -0.07342981232496398
        ],
        [
          -0.19323803549898474,
          0.03430662599351859,
          -0.09611342430213213
        ],
        [
          0.009709068093393006,
          0.11273954655255787,
          -0.22657521733251115
        ]
      ],
      [
        [
          0.08955265792192185,
          0.12154381089297246,
          0.06690494891470304
